{"learner":{"attributes":{"scikit_learn":"{\"_estimator_type\": \"regressor\"}"},"feature_names":[],"feature_types":[],"gradient_booster":{"model":{"gbtree_model_param":{"num_parallel_tree":"1","num_trees":"100"},"iteration_indptr":[0,1,2,3,4,5,6,7,8,9,10,11,12,13,14,15,16,17,18,19,20,21,22,23,24,25,26,27,28,29,30,31,32,33,34,35,36,37,38,39,40,41,42,43,44,45,46,47,48,49,50,51,52,53,54,55,56,57,58,59,60,61,62,63,64,65,66,67,68,69,70,71,72,73,74,75,76,77,78,79,80,81,82,83,84,85,86,87,88,89,90,91,92,93,94,95,96,97,98,99,100],"tree_info":[0,0,0,0,0,0,0,0,0,0,0,0,0,0,0,0,0,0,0,0,0,0,0,0,0,0,0,0,0,0,0,0,0,0,0,0,0,0,0,0,0,0,0,0,0,0,0,0,0,0,0,0,0,0,0,0,0,0,0,0,0,0,0,0,0,0,0,0,0,0,0,0,0,0,0,0,0,0,0,0,0,0,0,0,0,0,0,0,0,0,0,0,0,0,0,0,0,0,0,0],"trees":[{"base_weights":[6.270503E-12,9.973214E-3,-3.88586E-5,2.6752815E-2,5.2940655E-3,-1.3436226E-5,-8.047809E-3,3.6619425E-2,2.690428E-3,-8.965845E-3,1.1221065E-2,3.8506791E-3,-6.408903E-5,-1.759968E-3,-3.493392E-2,4.5602832E-2,2.1452945E-2,-1.4291452E-1,3.6341764E-3,1.4990117E-2,-3.5351325E-2,1.6323224E-3,2.0852055E-2,4.3880534E-3,-2.5420314E-2,1.5544085E-3,-1.1098452E-4,2.234465E-2,-3.7669241E-3,-6.518513E-2,-1.41063845E-2,2.6788919E-3,1.4341645E-3,1.6080095E-3,-2.2964755E-3,-1.9976993E-3,-8.72089E-3,-1.0856749E-4,1.074049E-3,5.237179E-4,4.1768025E-3,-9.399916E-4,-2.744887E-3,2.196502E-4,-3.1231972E-4,1.8399525E-3,4.714933E-4,7.1537594E-4,1.9670108E-4,-3.1700273E-4,-2.3156723E-3,-1.4258565E-4,8.806048E-5,-4.0146783E-6,-9.679516E-5,2.2559525E-3,2.686653E-4,-2.5057464E-4,8.6827914E-4,-3.7401628E-3,-5.9884787E-4,-1.678679E-3,-2.851531E-4],"categories":[],"categories_nodes":[],"categories_segments":[],"categories_sizes":[],"default_left":[0,0,0,0,0,0,0,0,0,0,0,0,0,0,0,0,0,0,0,0,0,0,0,0,0,0,0,0,0,0,0,0,0,0,0,0,0,0,0,0,0,0,0,0,0,0,0,0,0,0,0,0,0,0,0,0,0,0,0,0,0,0,0],"id":0,"left_children":[1,3,5,7,9,11,13,15,17,19,21,23,25,27,29,31,33,35,37,39,41,43,45,47,49,51,53,55,57,59,61,-1,-1,-1,-1,-1,-1,-1,-1,-1,-1,-1,-1,-1,-1,-1,-1,-1,-1,-1,-1,-1,-1,-1,-1,-1,-1,-1,-1,-1,-1,-1,-1],"loss_changes":[7.25928E-1,5.70657E-1,3.799041E-1,3.7620294E-1,4.8067272E-1,3.640492E-1,9.980428E-1,1.5216303E-1,6.400487E-2,1.0561196E0,3.7093228E-1,3.78657E-1,1.3934587E-1,2.3161608E-1,7.041156E-1,9.359133E-2,3.0449885E-1,2.7620941E-3,4.770729E-2,2.7027938E-1,2.5616825E-1,4.3833207E-2,3.6468083E-1,1.0638085E-1,1.7271888E-1,4.7110833E-2,9.993078E-2,1.4199404E-1,1.163105E-1,2.3246801E-1,1.0843168E-1,0E0,0E0,0E0,0E0,0E0,0E0,0E0,0E0,0E0,0E0,0E0,0E0,0E0,0E0,0E0,0E0,0E0,0E0,0E0,0E0,0E0,0E0,0E0,0E0,0E0,0E0,0E0,0E0,0E0,0E0,0E0,0E0],"parents":[2147483647,0,0,1,1,2,2,3,3,4,4,5,5,6,6,7,7,8,8,9,9,10,10,11,11,12,12,13,13,14,14,15,15,16,16,17,17,18,18,19,19,20,20,21,21,22,22,23,23,24,24,25,25,26,26,27,27,28,28,29,29,30,30],"right_children":[2,4,6,8,10,12,14,16,18,20,22,24,26,28,30,32,34,36,38,40,42,44,46,48,50,52,54,56,58,60,62,-1,-1,-1,-1,-1,-1,-1,-1,-1,-1,-1,-1,-1,-1,-1,-1,-1,-1,-1,-1,-1,-1,-1,-1,-1,-1,-1,-1,-1,-1,-1,-1],"split_conditions":[-2.591187E-1,-7.45949E-2,2.1430757E0,-3.577692E-1,-1.544332E-1,-9.948554E-2,4.677688E-2,1.4501417E0,5.628421E-1,1.9607224E0,9.531523E-2,5.2267794E-2,-2.0045342E-1,-7.45949E-2,2.492042E-1,2.6947773E1,2.9656634E-2,4.6718758E1,1.3131301E0,4.3596577E1,1.1546211E-2,1.4470938E0,-2.4085191E-1,6.9623727E-1,1.7626998E0,-5.076376E-2,1.8023446E0,-1.1304835E0,9.531523E-2,9.531523E-2,9.035364E-4,2.6788919E-3,1.4341645E-3,1.6080095E-3,-2.2964755E-3,-1.9976993E-3,-8.72089E-3,-1.0856749E-4,1.074049E-3,5.237179E-4,4.1768025E-3,-9.399916E-4,-2.744887E-3,2.196502E-4,-3.1231972E-4,1.8399525E-3,4.714933E-4,7.1537594E-4,1.9670108E-4,-3.1700273E-4,-2.3156723E-3,-1.4258565E-4,8.806048E-5,-4.0146783E-6,-9.679516E-5,2.2559525E-3,2.686653E-4,-2.5057464E-4,8.6827914E-4,-3.7401628E-3,-5.9884787E-4,-1.678679E-3,-2.851531E-4],"split_indices":[5,7,14,3,8,8,7,10,10,14,12,7,6,7,13,0,13,0,10,0,7,14,3,14,14,7,14,3,12,12,8,0,0,0,0,0,0,0,0,0,0,0,0,0,0,0,0,0,0,0,0,0,0,0,0,0,0,0,0,0,0,0,0],"split_type":[0,0,0,0,0,0,0,0,0,0,0,0,0,0,0,0,0,0,0,0,0,0,0,0,0,0,0,0,0,0,0,0,0,0,0,0,0,0,0,0,0,0,0,0,0,0,0,0,0,0,0,0,0,0,0,0,0,0,0,0,0,0,0],"sum_hessian":[1.873142E6,7.269E3,1.865873E6,1.584E3,5.685E3,1.85997E6,5.903E3,1.123E3,4.61E2,1.669E3,4.016E3,2.4065E4,1.835905E6,4.785E3,1.118E3,7.04E2,4.19E2,2E0,4.59E2,8.75E2,7.94E2,2.013E3,2.003E3,2.3632E4,4.33E2,5.1696E4,1.784209E6,3.67E2,4.418E3,4.55E2,6.63E2,4.77E2,2.27E2,3.62E2,5.7E1,1E0,1E0,3.47E2,1.12E2,8.22E2,5.3E1,4.31E2,3.63E2,1.491E3,5.22E2,8.35E2,1.168E3,1.033E3,2.2599E4,2.27E2,2.06E2,2.317E3,4.9379E4,1.7547E6,2.9509E4,1.56E2,2.11E2,4.173E3,2.45E2,3.85E2,7E1,1.99E2,4.64E2],"tree_param":{"num_deleted":"0","num_feature":"15","num_nodes":"63","size_leaf_vector":"1"}},{"base_weights":[-4.3581427E-9,9.474128E-3,-3.6918394E-5,2.5411181E-2,5.029931E-3,-1.2765446E-5,-7.6459544E-3,3.47915E-2,2.5347946E-3,-8.516944E-3,1.0660564E-2,3.6580733E-3,-6.0884682E-5,-1.6713134E-3,-3.3192858E-2,4.3328524E-2,2.0378659E-2,-1.3934167E-1,3.4545655E-3,1.4245978E-2,-3.3588395E-2,1.5506602E-3,1.9810606E-2,4.168689E-3,-2.4155363E-2,-1.552161E-4,7.173166E-4,2.1234278E-2,-3.5784387E-3,-6.193539E-2,-1.3404023E-2,1.0783402E-3,2.473645E-3,1.5278305E-3,-2.1836315E-3,-1.9477569E-3,-8.502868E-3,-7.968014E-5,1.1181297E-3,4.9756386E-4,3.9718295E-3,-8.931008E-4,-2.6080196E-3,2.0867505E-4,-2.9673363E-4,1.7120822E-3,4.2064427E-4,1.510622E-4,3.9863843E-4,-3.0122217E-4,-2.200448E-3,-1.1113744E-4,-6.706751E-6,5.551647E-5,-1.7492153E-4,2.1809703E-3,2.8157886E-4,-2.3804895E-4,8.2504156E-4,-3.526017E-3,-3.1209824E-4,-1.5951646E-3,-2.7092613E-4],"categories":[],"categories_nodes":[],"categories_segments":[],"categories_sizes":[],"default_left":[0,0,0,0,0,0,0,0,0,0,0,0,0,0,0,0,0,0,0,0,0,0,0,0,0,0,0,0,0,0,0,0,0,0,0,0,0,0,0,0,0,0,0,0,0,0,0,0,0,0,0,0,0,0,0,0,0,0,0,0,0,0,0],"id":1,"left_children":[1,3,5,7,9,11,13,15,17,19,21,23,25,27,29,31,33,35,37,39,41,43,45,47,49,51,53,55,57,59,61,-1,-1,-1,-1,-1,-1,-1,-1,-1,-1,-1,-1,-1,-1,-1,-1,-1,-1,-1,-1,-1,-1,-1,-1,-1,-1,-1,-1,-1,-1,-1,-1],"loss_changes":[6.550918E-1,5.1478744E-1,3.4291145E-1,3.400334E-1,4.3380454E-1,3.285417E-1,9.010933E-1,1.374172E-1,6.076951E-2,9.535465E-1,3.348104E-1,3.4188527E-1,1.3477182E-1,2.091468E-1,6.35636E-1,9.319997E-2,2.75137E-1,2.6257187E-3,4.3943055E-2,2.4446692E-1,2.3126411E-1,3.9565295E-2,3.2933158E-1,1.0313332E-1,1.5595922E-1,7.136814E-2,3.288607E-1,1.2828514E-1,1.0500567E-1,2.1758509E-1,9.7917125E-2,0E0,0E0,0E0,0E0,0E0,0E0,0E0,0E0,0E0,0E0,0E0,0E0,0E0,0E0,0E0,0E0,0E0,0E0,0E0,0E0,0E0,0E0,0E0,0E0,0E0,0E0,0E0,0E0,0E0,0E0,0E0,0E0],"parents":[2147483647,0,0,1,1,2,2,3,3,4,4,5,5,6,6,7,7,8,8,9,9,10,10,11,11,12,12,13,13,14,14,15,15,16,16,17,17,18,18,19,19,20,20,21,21,22,22,23,23,24,24,25,25,26,26,27,27,28,28,29,29,30,30],"right_children":[2,4,6,8,10,12,14,16,18,20,22,24,26,28,30,32,34,36,38,40,42,44,46,48,50,52,54,56,58,60,62,-1,-1,-1,-1,-1,-1,-1,-1,-1,-1,-1,-1,-1,-1,-1,-1,-1,-1,-1,-1,-1,-1,-1,-1,-1,-1,-1,-1,-1,-1,-1,-1],"split_conditions":[-2.591187E-1,-7.45949E-2,2.1430757E0,-3.577692E-1,-1.544332E-1,-9.948554E-2,4.677688E-2,1.4501417E0,5.628421E-1,1.9607224E0,9.531523E-2,5.2267794E-2,3.6213532E-2,-7.45949E-2,2.492042E-1,1.8023446E0,2.9656634E-2,4.6718758E1,-6.8085545E-1,4.3596577E1,1.1546211E-2,1.4470938E0,-1.6078459E-1,5.6643605E-2,1.7626998E0,-3.899844E-2,1.6958045E0,-1.2142909E0,9.531523E-2,1.7905443E0,9.035364E-4,1.0783402E-3,2.473645E-3,1.5278305E-3,-2.1836315E-3,-1.9477569E-3,-8.502868E-3,-7.968014E-5,1.1181297E-3,4.9756386E-4,3.9718295E-3,-8.931008E-4,-2.6080196E-3,2.0867505E-4,-2.9673363E-4,1.7120822E-3,4.2064427E-4,1.510622E-4,3.9863843E-4,-3.0122217E-4,-2.200448E-3,-1.1113744E-4,-6.706751E-6,5.551647E-5,-1.7492153E-4,2.1809703E-3,2.8157886E-4,-2.3804895E-4,8.2504156E-4,-3.526017E-3,-3.1209824E-4,-1.5951646E-3,-2.7092613E-4],"split_indices":[5,7,14,3,8,8,7,10,10,14,12,7,12,7,13,14,13,0,2,0,7,14,3,12,14,7,14,3,12,10,8,0,0,0,0,0,0,0,0,0,0,0,0,0,0,0,0,0,0,0,0,0,0,0,0,0,0,0,0,0,0,0,0],"split_type":[0,0,0,0,0,0,0,0,0,0,0,0,0,0,0,0,0,0,0,0,0,0,0,0,0,0,0,0,0,0,0,0,0,0,0,0,0,0,0,0,0,0,0,0,0,0,0,0,0,0,0,0,0,0,0,0,0,0,0,0,0,0,0],"sum_hessian":[1.873142E6,7.269E3,1.865873E6,1.584E3,5.685E3,1.85997E6,5.903E3,1.123E3,4.61E2,1.669E3,4.016E3,2.4065E4,1.835905E6,4.785E3,1.118E3,7.04E2,4.19E2,2E0,4.59E2,8.75E2,7.94E2,2.013E3,2.003E3,2.3632E4,4.33E2,1.637422E6,1.98483E5,3.67E2,4.418E3,4.55E2,6.63E2,1.56E2,5.48E2,3.62E2,5.7E1,1E0,1E0,3.63E2,9.6E1,8.22E2,5.3E1,4.31E2,3.63E2,1.491E3,5.22E2,8.83E2,1.12E3,1.8157E4,5.475E3,2.27E2,2.06E2,1.6526E4,1.620896E6,1.81558E5,1.6925E4,1.5E2,2.17E2,4.173E3,2.45E2,3.94E2,6.1E1,1.99E2,4.64E2],"tree_param":{"num_deleted":"0","num_feature":"15","num_nodes":"63","size_leaf_vector":"1"}},{"base_weights":[-8.593871E-9,8.999939E-3,-3.5075067E-5,1.9938588E-2,3.0717698E-3,-1.21283465E-5,-7.264106E-3,2.7447918E-2,5.6882524E-3,-1.27120055E-2,1.0531515E-2,5.391646E-3,-4.2351756E-5,-1.5871105E-3,-3.1538315E-2,3.4069255E-2,1.5299718E-2,1.1006923E-2,-8.772041E-3,4.0076035E-3,-3.435224E-2,1.0617053E-3,1.7754462E-2,6.2207514E-3,-1.9710716E-2,-1.1194755E-4,1.1724391E-3,2.0179255E-2,-3.3993837E-3,-5.8847036E-2,-1.27366325E-2,7.231929E-4,2.1811416E-3,1.2197435E-3,-1.1116035E-3,-5.749947E-4,7.8490283E-4,-5.8787287E-4,1.8197496E-3,-1.1347388E-4,8.3180325E-4,-1.449834E-4,-2.6517222E-3,3.4587127E-5,3.6949206E-3,1.3236941E-3,3.464984E-4,6.598245E-4,2.3817823E-4,-2.5213076E-4,-2.3426907E-3,2.2869817E-6,-1.7121287E-5,9.044045E-5,-1.996066E-4,2.0391487E-3,2.4128282E-4,-2.2614934E-4,7.839572E-4,-3.4027738E-3,-3.9777276E-4,-1.5158051E-3,-2.5740897E-4],"categories":[],"categories_nodes":[],"categories_segments":[],"categories_sizes":[],"default_left":[0,0,0,0,0,0,0,0,0,0,0,0,0,0,0,0,0,0,0,0,0,0,0,0,0,0,0,0,0,0,0,0,0,0,0,0,0,0,0,0,0,0,0,0,0,0,0,0,0,0,0,0,0,0,0,0,0,0,0,0,0,0,0],"id":2,"left_children":[1,3,5,7,9,11,13,15,17,19,21,23,25,27,29,31,33,35,37,39,41,43,45,47,49,51,53,55,57,59,61,-1,-1,-1,-1,-1,-1,-1,-1,-1,-1,-1,-1,-1,-1,-1,-1,-1,-1,-1,-1,-1,-1,-1,-1,-1,-1,-1,-1,-1,-1,-1,-1],"loss_changes":[5.9115756E-1,4.7137034E-1,3.0951583E-1,2.732556E-1,5.554096E-1,3.037716E-1,8.135482E-1,1.3405037E-1,6.800767E-2,5.479275E-1,2.1906611E-1,2.15428E-1,1.563756E-1,1.8886003E-1,5.738008E-1,2.0202959E-1,2.0262584E-1,6.8386815E-2,3.2520413E-2,6.781349E-2,3.876645E-1,3.732419E-2,1.7131102E-1,1.0173917E-1,1.315473E-1,6.35794E-2,3.294011E-1,1.1621681E-1,9.479964E-2,2.1315491E-1,8.842219E-2,0E0,0E0,0E0,0E0,0E0,0E0,0E0,0E0,0E0,0E0,0E0,0E0,0E0,0E0,0E0,0E0,0E0,0E0,0E0,0E0,0E0,0E0,0E0,0E0,0E0,0E0,0E0,0E0,0E0,0E0,0E0,0E0],"parents":[2147483647,0,0,1,1,2,2,3,3,4,4,5,5,6,6,7,7,8,8,9,9,10,10,11,11,12,12,13,13,14,14,15,15,16,16,17,17,18,18,19,19,20,20,21,21,22,22,23,23,24,24,25,25,26,26,27,27,28,28,29,29,30,30],"right_children":[2,4,6,8,10,12,14,16,18,20,22,24,26,28,30,32,34,36,38,40,42,44,46,48,50,52,54,56,58,60,62,-1,-1,-1,-1,-1,-1,-1,-1,-1,-1,-1,-1,-1,-1,-1,-1,-1,-1,-1,-1,-1,-1,-1,-1,-1,-1,-1,-1,-1,-1,-1,-1],"split_conditions":[-2.591187E-1,-4.5543067E-2,2.1430757E0,-3.0589992E-1,1.2374603E-1,-1.2529036E-1,4.677688E-2,1.4501417E0,-2.5265047E-2,-5.194378E-4,9.531523E-2,3.9885312E-2,4.3636393E-2,-7.45949E-2,2.492042E-1,1.8475162E0,2.9656634E-2,3.3529082E-1,3.1866145E-1,2.6446404E1,1.8475162E0,1.501621E-1,3.1789985E-1,-7.45949E-2,1.8994757E0,3.7468466E-1,1.6958045E0,-1.1304835E0,9.531523E-2,9.531523E-2,9.035364E-4,7.231929E-4,2.1811416E-3,1.2197435E-3,-1.1116035E-3,-5.749947E-4,7.8490283E-4,-5.8787287E-4,1.8197496E-3,-1.1347388E-4,8.3180325E-4,-1.449834E-4,-2.6517222E-3,3.4587127E-5,3.6949206E-3,1.3236941E-3,3.464984E-4,6.598245E-4,2.3817823E-4,-2.5213076E-4,-2.3426907E-3,2.2869817E-6,-1.7121287E-5,9.044045E-5,-1.996066E-4,2.0391487E-3,2.4128282E-4,-2.2614934E-4,7.839572E-4,-3.4027738E-3,-3.9777276E-4,-1.5158051E-3,-2.5740897E-4],"split_indices":[5,7,14,3,13,8,7,10,8,7,12,7,12,7,13,14,13,4,9,0,14,11,13,7,14,1,14,3,12,12,8,0,0,0,0,0,0,0,0,0,0,0,0,0,0,0,0,0,0,0,0,0,0,0,0,0,0,0,0,0,0,0,0],"split_type":[0,0,0,0,0,0,0,0,0,0,0,0,0,0,0,0,0,0,0,0,0,0,0,0,0,0,0,0,0,0,0,0,0,0,0,0,0,0,0,0,0,0,0,0,0,0,0,0,0,0,0,0,0,0,0,0,0,0,0,0,0,0,0],"sum_hessian":[1.873142E6,7.269E3,1.865873E6,2.554E3,4.715E3,1.85997E6,5.903E3,1.672E3,8.82E2,1.513E3,3.202E3,1.0344E4,1.849626E6,4.785E3,1.118E3,1.081E3,5.91E2,6.45E2,2.37E2,8.54E2,6.59E2,1.386E3,1.816E3,1.0014E4,3.3E2,1.749403E6,1.00223E5,3.67E2,4.418E3,4.55E2,6.63E2,3.55E2,7.26E2,4.76E2,1.15E2,1.11E2,5.34E2,2.23E2,1.4E1,5.71E2,2.83E2,2.46E2,4.13E2,1.38E3,6E0,1.005E3,8.11E2,1.729E3,8.285E3,2.15E2,1.15E2,1.038731E6,7.10672E5,8.9229E4,1.0994E4,1.56E2,2.11E2,4.173E3,2.45E2,3.85E2,7E1,1.99E2,4.64E2],"tree_param":{"num_deleted":"0","num_feature":"15","num_nodes":"63","size_leaf_vector":"1"}},{"base_weights":[-6.446384E-9,8.551012E-3,-3.332376E-5,1.6214198E-2,8.791468E-4,-1.152291E-5,-6.901364E-3,1.9483358E-2,-9.145047E-3,-2.4999842E-2,9.29445E-3,3.3481866E-3,-5.5563705E-5,-1.5071618E-3,-2.9966379E-2,1.1818633E-2,2.6751436E-2,8.133946E-3,-1.6595246E-2,-4.1109137E-4,-4.00009E-2,-7.6974183E-4,1.6847903E-2,3.8217746E-3,-2.244824E-2,1.4203348E-3,-9.832744E-5,1.917649E-2,-3.2292882E-3,-5.3472526E-2,-1.0193624E-2,1.2835338E-3,2.1516402E-4,1.5980008E-3,5.3636165E-4,-9.175407E-4,9.060629E-4,-1.2340356E-3,3.0982873E-4,7.6955184E-4,-2.4028134E-4,-2.657853E-3,-5.442389E-5,-5.7052846E-5,3.594438E-3,-1.958084E-4,1.0813194E-3,7.1854325E-4,1.7183457E-4,-2.8285405E-4,-2.0417203E-3,7.7613404E-5,-2.4663104E-4,-3.6960955E-6,-9.791972E-5,1.971362E-3,2.530816E-4,-2.1484458E-4,7.4491865E-4,-3.1063014E-3,-3.383596E-4,1.5854217E-3,-6.796547E-4],"categories":[],"categories_nodes":[],"categories_segments":[],"categories_sizes":[],"default_left":[0,0,0,0,0,0,0,0,0,0,0,0,0,0,0,0,0,0,0,0,0,0,0,0,0,0,0,0,0,0,0,0,0,0,0,0,0,0,0,0,0,0,0,0,0,0,0,0,0,0,0,0,0,0,0,0,0,0,0,0,0,0,0],"id":3,"left_children":[1,3,5,7,9,11,13,15,17,19,21,23,25,27,29,31,33,35,37,39,41,43,45,47,49,51,53,55,57,59,61,-1,-1,-1,-1,-1,-1,-1,-1,-1,-1,-1,-1,-1,-1,-1,-1,-1,-1,-1,-1,-1,-1,-1,-1,-1,-1,-1,-1,-1,-1,-1,-1],"loss_changes":[5.33653E-1,4.2739576E-1,2.7937555E-1,3.016979E-1,7.9164326E-1,2.7520946E-1,7.345148E-1,1.7917442E-1,5.3687472E-2,3.2900423E-1,2.0853418E-1,2.9409707E-1,1.158732E-1,1.7053857E-1,5.195453E-1,1.6333118E-1,1.37622E-1,3.3660997E-2,5.377914E-2,2.3615146E-2,2.835558E-1,3.1836543E-2,1.5556368E-1,9.595436E-2,1.3375568E-1,4.3338314E-2,8.09957E-2,1.0498822E-1,8.558558E-2,2.0610774E-1,8.717989E-2,0E0,0E0,0E0,0E0,0E0,0E0,0E0,0E0,0E0,0E0,0E0,0E0,0E0,0E0,0E0,0E0,0E0,0E0,0E0,0E0,0E0,0E0,0E0,0E0,0E0,0E0,0E0,0E0,0E0,0E0,0E0,0E0],"parents":[2147483647,0,0,1,1,2,2,3,3,4,4,5,5,6,6,7,7,8,8,9,9,10,10,11,11,12,12,13,13,14,14,15,15,16,16,17,17,18,18,19,19,20,20,21,21,22,22,23,23,24,24,25,25,26,26,27,27,28,28,29,29,30,30],"right_children":[2,4,6,8,10,12,14,16,18,20,22,24,26,28,30,32,34,36,38,40,42,44,46,48,50,52,54,56,58,60,62,-1,-1,-1,-1,-1,-1,-1,-1,-1,-1,-1,-1,-1,-1,-1,-1,-1,-1,-1,-1,-1,-1,-1,-1,-1,-1,-1,-1,-1,-1,-1,-1],"split_conditions":[-2.591187E-1,-2.214066E-2,2.1430757E0,-1.5713688E-2,1.0616605E-1,-9.948554E-2,4.677688E-2,9.531523E-2,2.9057607E-1,1.7276747E0,9.531523E-2,5.2267794E-2,-2.0045342E-1,-7.45949E-2,2.7704948E-1,-5.7077955E-2,2.1430757E0,-5.594729E-4,4.7288414E1,-2.4324116E-1,2.0714004E0,1.501621E-1,1.720694E-1,6.688118E-1,1.7626998E0,1.674327E-1,1.8475162E0,-1.2142909E0,9.531523E-2,9.531523E-2,-6.894488E-2,1.2835338E-3,2.1516402E-4,1.5980008E-3,5.3636165E-4,-9.175407E-4,9.060629E-4,-1.2340356E-3,3.0982873E-4,7.6955184E-4,-2.4028134E-4,-2.657853E-3,-5.442389E-5,-5.7052846E-5,3.594438E-3,-1.958084E-4,1.0813194E-3,7.1854325E-4,1.7183457E-4,-2.8285405E-4,-2.0417203E-3,7.7613404E-5,-2.4663104E-4,-3.6960955E-6,-9.791972E-5,1.971362E-3,2.530816E-4,-2.1484458E-4,7.4491865E-4,-3.1063014E-3,-3.383596E-4,1.5854217E-3,-6.796547E-4],"split_indices":[5,7,14,8,13,8,7,12,13,14,12,7,6,7,13,13,14,8,0,9,10,11,13,14,14,8,14,3,12,12,11,0,0,0,0,0,0,0,0,0,0,0,0,0,0,0,0,0,0,0,0,0,0,0,0,0,0,0,0,0,0,0,0],"split_type":[0,0,0,0,0,0,0,0,0,0,0,0,0,0,0,0,0,0,0,0,0,0,0,0,0,0,0,0,0,0,0,0,0,0,0,0,0,0,0,0,0,0,0,0,0,0,0,0,0,0,0,0,0,0,0,0,0,0,0,0,0,0,0],"sum_hessian":[1.873142E6,7.269E3,1.865873E6,3.636E3,3.633E3,1.85997E6,5.903E3,3.221E3,4.15E2,8.91E2,2.742E3,2.4065E4,1.835905E6,4.785E3,1.118E3,1.569E3,1.652E3,1.25E2,2.9E2,3.38E2,5.53E2,1.176E3,1.566E3,2.3632E4,4.33E2,5.1696E4,1.784209E6,3.67E2,4.418E3,5.1E2,6.08E2,5.51E2,1.018E3,1.246E3,4.06E2,3.4E1,9.1E1,2.14E2,7.6E1,7.3E1,2.65E2,4.13E2,1.4E2,1.171E3,5E0,2.93E2,1.273E3,8.31E2,2.2801E4,2.27E2,2.06E2,5.0645E4,1.051E3,1.761103E6,2.3106E4,1.5E2,2.17E2,4.173E3,2.45E2,4.3E2,8E1,4.5E1,5.63E2],"tree_param":{"num_deleted":"0","num_feature":"15","num_nodes":"63","size_leaf_vector":"1"}},{"base_weights":[-4.2414805E-9,8.12414E-3,-3.1658325E-5,1.8024158E-2,2.7588592E-3,-1.094764E-5,-6.5562595E-3,2.5036544E-2,4.7175344E-3,-1.1564819E-2,9.528541E-3,4.9628653E-3,-3.8766266E-5,-1.431228E-3,-2.8470328E-2,3.135205E-2,1.3451384E-2,9.373741E-3,-7.940563E-3,-5.064769E-3,-5.9108786E-2,1.0211549E-3,1.6017377E-2,5.7674902E-3,-1.705337E-2,-1.5079294E-4,6.3179043E-4,1.822371E-2,-3.0677037E-3,-4.7203183E-2,-5.764788E-3,6.4019626E-4,2.019582E-3,1.1791842E-3,-8.2811725E-4,-5.870444E-4,6.88824E-4,-5.3673243E-4,1.7156911E-3,3.6930066E-4,-8.679779E-4,4.8958283E-4,-3.638599E-3,3.4015375E-5,3.4059808E-3,1.1549469E-3,1.8429232E-4,5.4177153E-4,1.9768863E-4,-2.6124348E-3,-3.8085302E-4,-1.1067639E-4,-6.5315467E-6,4.5931487E-5,-1.5235711E-4,-4.9537147E-4,1.3750558E-3,-2.0410492E-4,7.078242E-4,-2.8086693E-3,1.7784114E-4,1.0824428E-3,-4.472678E-4],"categories":[],"categories_nodes":[],"categories_segments":[],"categories_sizes":[],"default_left":[0,0,0,0,0,0,0,0,0,0,0,0,0,0,0,0,0,0,0,0,0,0,0,0,0,0,0,0,0,0,0,0,0,0,0,0,0,0,0,0,0,0,0,0,0,0,0,0,0,0,0,0,0,0,0,0,0,0,0,0,0,0,0],"id":4,"left_children":[1,3,5,7,9,11,13,15,17,19,21,23,25,27,29,31,33,35,37,39,41,43,45,47,49,51,53,55,57,59,61,-1,-1,-1,-1,-1,-1,-1,-1,-1,-1,-1,-1,-1,-1,-1,-1,-1,-1,-1,-1,-1,-1,-1,-1,-1,-1,-1,-1,-1,-1,-1,-1],"loss_changes":[4.8170215E-1,3.8610628E-1,2.5213355E-1,2.3829198E-1,4.5740536E-1,2.573544E-1,6.630392E-1,1.2198532E-1,5.2117325E-2,4.6758446E-1,1.76799E-1,1.8335813E-1,1.3894452E-1,1.5399677E-1,4.756828E-1,1.8089902E-1,1.8042257E-1,6.021531E-2,2.8467193E-2,2.0418353E-1,1.7204738E-1,3.1674825E-2,1.5858701E-1,9.170064E-2,1.208236E-1,6.591202E-2,2.794088E-1,9.631457E-2,7.726708E-2,2.7931583E-1,4.4399474E-2,0E0,0E0,0E0,0E0,0E0,0E0,0E0,0E0,0E0,0E0,0E0,0E0,0E0,0E0,0E0,0E0,0E0,0E0,0E0,0E0,0E0,0E0,0E0,0E0,0E0,0E0,0E0,0E0,0E0,0E0,0E0,0E0],"parents":[2147483647,0,0,1,1,2,2,3,3,4,4,5,5,6,6,7,7,8,8,9,9,10,10,11,11,12,12,13,13,14,14,15,15,16,16,17,17,18,18,19,19,20,20,21,21,22,22,23,23,24,24,25,25,26,26,27,27,28,28,29,29,30,30],"right_children":[2,4,6,8,10,12,14,16,18,20,22,24,26,28,30,32,34,36,38,40,42,44,46,48,50,52,54,56,58,60,62,-1,-1,-1,-1,-1,-1,-1,-1,-1,-1,-1,-1,-1,-1,-1,-1,-1,-1,-1,-1,-1,-1,-1,-1,-1,-1,-1,-1,-1,-1,-1,-1],"split_conditions":[-2.591187E-1,-4.5543067E-2,2.1430757E0,-3.0589992E-1,1.2374603E-1,-1.2529036E-1,4.677688E-2,1.4501417E0,-2.5265047E-2,6.0662746E-2,9.531523E-2,3.7416097E-2,3.378502E-2,-7.45949E-2,-5.4137944E-3,1.8475162E0,1.19815525E-2,3.3529082E-1,3.1866145E-1,-1.1728415E-2,1.8994757E0,1.501621E-1,3.5008618E-1,-5.877787E-2,-1.480842E-1,-3.899844E-2,1.7276747E0,4.1629713E-2,9.531523E-2,9.531523E-2,3.5748768E1,6.4019626E-4,2.019582E-3,1.1791842E-3,-8.2811725E-4,-5.870444E-4,6.88824E-4,-5.3673243E-4,1.7156911E-3,3.6930066E-4,-8.679779E-4,4.8958283E-4,-3.638599E-3,3.4015375E-5,3.4059808E-3,1.1549469E-3,1.8429232E-4,5.4177153E-4,1.9768863E-4,-2.6124348E-3,-3.8085302E-4,-1.1067639E-4,-6.5315467E-6,4.5931487E-5,-1.5235711E-4,-4.9537147E-4,1.3750558E-3,-2.0410492E-4,7.078242E-4,-2.8086693E-3,1.7784114E-4,1.0824428E-3,-4.472678E-4],"split_indices":[5,7,14,3,13,8,7,10,8,7,12,7,12,7,8,14,13,4,9,7,14,11,13,7,11,7,14,12,12,12,0,0,0,0,0,0,0,0,0,0,0,0,0,0,0,0,0,0,0,0,0,0,0,0,0,0,0,0,0,0,0,0,0],"split_type":[0,0,0,0,0,0,0,0,0,0,0,0,0,0,0,0,0,0,0,0,0,0,0,0,0,0,0,0,0,0,0,0,0,0,0,0,0,0,0,0,0,0,0,0,0,0,0,0,0,0,0,0,0,0,0,0,0,0,0,0,0,0,0],"sum_hessian":[1.873142E6,7.269E3,1.865873E6,2.554E3,4.715E3,1.85997E6,5.903E3,1.672E3,8.82E2,1.513E3,3.202E3,1.0344E4,1.849626E6,4.785E3,1.118E3,1.081E3,5.91E2,6.45E2,2.37E2,1.332E3,1.81E2,1.386E3,1.816E3,9.98E3,3.64E2,1.584853E6,2.64773E5,3.67E2,4.418E3,6.12E2,5.06E2,3.55E2,7.26E2,4.42E2,1.49E2,1.11E2,5.34E2,2.23E2,1.4E1,6.62E2,6.7E2,3E1,1.51E2,1.38E3,6E0,1.153E3,6.63E2,2.629E3,7.351E3,7.6E1,2.88E2,1.534E4,1.569513E6,2.45623E5,1.915E4,9.1E1,2.76E2,4.173E3,2.45E2,5.2E2,9.2E1,5.2E1,4.54E2],"tree_param":{"num_deleted":"0","num_feature":"15","num_nodes":"63","size_leaf_vector":"1"}},{"base_weights":[-2.876895E-9,-3.0354306E-5,7.709958E-3,-7.628911E-6,-7.4281767E-3,1.2617648E-2,-2.6037942E-3,4.7706896E-3,-3.693076E-5,-2.5823624E-3,-4.0250935E-2,1.05956225E-2,3.0424071E-2,-1.7183674E-2,1.0843025E-2,5.621119E-3,-2.2260202E-2,-1.0033432E-4,1.0817578E-3,2.2317637E-2,-4.8092906E-3,-6.386499E-2,-9.256225E-3,2.0348264E-2,5.094975E-3,4.997975E-2,1.7626802E-2,-4.0109092E-3,-2.1564746E-2,2.338565E-2,4.0576357E-4,6.472181E-4,1.9455855E-4,-2.4149442E-4,-2.5592092E-3,2.3870818E-6,-1.5840165E-5,7.94432E-5,-2.2876186E-4,-4.439669E-5,1.8241005E-3,-1.2666902E-3,-1.5928804E-4,-3.984288E-3,-1.9609716E-3,-1.262125E-3,-9.7383185E-5,1.3109321E-3,1.4517436E-4,-8.7865273E-4,6.907601E-4,5.2917865E-4,3.5097287E-3,-3.7479268E-3,9.701E-4,5.5375526E-4,-5.629777E-4,5.501479E-4,-1.2177436E-3,1.8793682E-3,3.544546E-4,1.4685917E-3,-7.5839846E-5],"categories":[],"categories_nodes":[],"categories_segments":[],"categories_sizes":[],"default_left":[0,0,0,0,0,0,0,0,0,0,0,0,0,0,0,0,0,0,0,0,0,0,0,0,0,0,0,0,0,0,0,0,0,0,0,0,0,0,0,0,0,0,0,0,0,0,0,0,0,0,0,0,0,0,0,0,0,0,0,0,0,0,0],"id":5,"left_children":[1,3,5,7,9,11,13,15,17,19,21,23,25,27,29,31,33,35,37,39,41,43,45,47,49,51,53,55,57,59,61,-1,-1,-1,-1,-1,-1,-1,-1,-1,-1,-1,-1,-1,-1,-1,-1,-1,-1,-1,-1,-1,-1,-1,-1,-1,-1,-1,-1,-1,-1,-1,-1],"loss_changes":[4.383313E-1,3.1367517E-1,3.718124E-1,2.6043746E-1,9.087248E-1,1.7887473E-1,4.6463588E-1,2.6073846E-1,1.311298E-1,2.762509E-1,5.373633E-1,2.3974693E-1,1.2600055E-1,6.553072E-2,1.6140337E-1,1.392054E-1,1.741901E-1,5.608111E-2,2.8447008E-1,1.3446759E-1,1.5226825E-1,1.5946794E-1,3.722173E-2,1.6500455E-1,5.6558E-1,1.5853438E-1,5.2076414E-2,3.1290352E-2,7.777837E-2,1.2933943E-1,3.7578955E-2,0E0,0E0,0E0,0E0,0E0,0E0,0E0,0E0,0E0,0E0,0E0,0E0,0E0,0E0,0E0,0E0,0E0,0E0,0E0,0E0,0E0,0E0,0E0,0E0,0E0,0E0,0E0,0E0,0E0,0E0,0E0,0E0],"parents":[2147483647,0,0,1,1,2,2,3,3,4,4,5,5,6,6,7,7,8,8,9,9,10,10,11,11,12,12,13,13,14,14,15,15,16,16,17,17,18,18,19,19,20,20,21,21,22,22,23,23,24,24,25,25,26,26,27,27,28,28,29,29,30,30],"right_children":[2,4,6,8,10,12,14,16,18,20,22,24,26,28,30,32,34,36,38,40,42,44,46,48,50,52,54,56,58,60,62,-1,-1,-1,-1,-1,-1,-1,-1,-1,-1,-1,-1,-1,-1,-1,-1,-1,-1,-1,-1,-1,-1,-1,-1,-1,-1,-1,-1,-1,-1,-1,-1],"split_conditions":[9.531523E-2,2.1430757E0,3.9682397E-1,-1.2529036E-1,6.0662746E-2,4.420118E1,4.895845E1,3.9885312E-2,4.3636393E-2,-7.45949E-2,-1.0935543E0,-4.5543067E-2,-2.591187E-1,1.6559316E-1,-1.802354E-1,-7.45949E-2,1.8994757E0,3.7468466E-1,1.7626998E0,5.6643605E-2,-1.19724095E-1,-6.388938E-2,1.5207756E0,-2.2716174E-1,-1.544332E-1,-5.877787E-2,2.9656634E-2,3.0826658E-2,1.0180256E0,5.896898E-2,6.8622684E-1,6.472181E-4,1.9455855E-4,-2.4149442E-4,-2.5592092E-3,2.3870818E-6,-1.5840165E-5,7.94432E-5,-2.2876186E-4,-4.439669E-5,1.8241005E-3,-1.2666902E-3,-1.5928804E-4,-3.984288E-3,-1.9609716E-3,-1.262125E-3,-9.7383185E-5,1.3109321E-3,1.4517436E-4,-8.7865273E-4,6.907601E-4,5.2917865E-4,3.5097287E-3,-3.7479268E-3,9.701E-4,5.5375526E-4,-5.629777E-4,5.501479E-4,-1.2177436E-3,1.8793682E-3,3.544546E-4,1.4685917E-3,-7.5839846E-5],"split_indices":[12,14,13,8,7,0,0,7,12,7,1,7,5,3,5,7,14,1,14,12,11,11,10,3,8,7,13,7,14,11,14,0,0,0,0,0,0,0,0,0,0,0,0,0,0,0,0,0,0,0,0,0,0,0,0,0,0,0,0,0,0,0,0],"split_type":[0,0,0,0,0,0,0,0,0,0,0,0,0,0,0,0,0,0,0,0,0,0,0,0,0,0,0,0,0,0,0,0,0,0,0,0,0,0,0,0,0,0,0,0,0,0,0,0,0,0,0,0,0,0,0,0,0,0,0,0,0,0,0],"sum_hessian":[1.873142E6,1.865798E6,7.344E3,1.860085E6,5.713E3,4.976E3,2.368E3,1.1336E4,1.848749E6,4.979E3,7.34E2,4.47E3,5.06E2,1.136E3,1.232E3,1.0991E4,3.45E2,1.749589E6,9.916E4,4.08E2,4.571E3,4.16E2,3.18E2,1.611E3,2.859E3,1.99E2,3.07E2,2.84E2,8.52E2,5.59E2,6.73E2,2.099E3,8.892E3,2.16E2,1.29E2,1.038917E6,7.10672E5,9.1003E4,8.157E3,1.55E2,2.53E2,3.34E2,4.237E3,2.52E2,1.64E2,9.9E1,2.19E2,1.205E3,4.06E2,7.94E2,2.065E3,6.8E1,1.31E2,5E0,3.02E2,9.2E1,1.92E2,6.7E1,7.85E2,2.98E2,2.61E2,4.1E1,6.32E2],"tree_param":{"num_deleted":"0","num_feature":"15","num_nodes":"63","size_leaf_vector":"1"}},{"base_weights":[-4.6866817E-9,7.4007516E-3,-2.8963672E-5,1.548743E-2,-7.0876176E-3,1.9714858E-3,-7.9599806E-5,2.3418572E-2,7.961901E-3,-1.7217001E-2,2.189168E-2,4.803025E-3,1.3026628E-3,-6.1220926E-5,-6.6410913E-3,1.1462596E-2,3.2927256E-2,4.622579E-3,1.620957E-2,-1.1136038E-3,-3.4329962E-2,1.925313E-2,1.801335E-1,1.6526297E-2,3.4935817E-3,1.1367776E-3,1.1420049E-2,1.7795281E-3,-8.546883E-5,-2.306567E-3,-2.4161806E-2,1.3095868E-3,2.1485945E-4,1.9717743E-3,6.6185556E-4,4.4349648E-4,-6.8480516E-4,1.1183732E-3,-9.6404826E-4,-2.0358273E-4,6.2847417E-4,-2.2779468E-3,2.9506188E-4,-9.665598E-5,1.5117925E-3,9.853676E-4,1.1891495E-2,4.8014644E-4,1.4144974E-3,1.7993385E-5,3.810661E-4,3.6771585E-6,1.2644513E-4,1.0747367E-4,1.0388226E-3,1.047986E-4,-1.0694579E-3,-3.418403E-6,-9.4452196E-5,-2.49495E-4,1.229439E-4,-2.3949908E-3,-5.6197756E-4],"categories":[],"categories_nodes":[],"categories_segments":[],"categories_sizes":[],"default_left":[0,0,0,0,0,0,0,0,0,0,0,0,0,0,0,0,0,0,0,0,0,0,0,0,0,0,0,0,0,0,0,0,0,0,0,0,0,0,0,0,0,0,0,0,0,0,0,0,0,0,0,0,0,0,0,0,0,0,0,0,0,0,0],"id":6,"left_children":[1,3,5,7,9,11,13,15,17,19,21,23,25,27,29,31,33,35,37,39,41,43,45,47,49,51,53,55,57,59,61,-1,-1,-1,-1,-1,-1,-1,-1,-1,-1,-1,-1,-1,-1,-1,-1,-1,-1,-1,-1,-1,-1,-1,-1,-1,-1,-1,-1,-1,-1,-1,-1],"loss_changes":[4.0144923E-1,8.5551524E-1,1.8900077E-1,2.7950215E-1,7.682839E-1,8.722778E-2,2.1945225E-1,2.589395E-1,6.619023E-2,5.3430516E-1,2.796166E-1,1.3504611E-1,6.252645E-2,8.0997996E-2,3.8596743E-1,1.0669424E-1,1.6222584E-1,1.3348071E-1,1.518843E-1,4.052645E-2,4.2491865E-1,1.5549049E-1,9.712911E-2,7.172492E-2,1.0241781E-1,5.4266747E-2,5.2085623E-2,1.730263E-1,5.524211E-2,5.2133203E-2,3.0866426E-1,0E0,0E0,0E0,0E0,0E0,0E0,0E0,0E0,0E0,0E0,0E0,0E0,0E0,0E0,0E0,0E0,0E0,0E0,0E0,0E0,0E0,0E0,0E0,0E0,0E0,0E0,0E0,0E0,0E0,0E0,0E0,0E0],"parents":[2147483647,0,0,1,1,2,2,3,3,4,4,5,5,6,6,7,7,8,8,9,9,10,10,11,11,12,12,13,13,14,14,15,15,16,16,17,17,18,18,19,19,20,20,21,21,22,22,23,23,24,24,25,25,26,26,27,27,28,28,29,29,30,30],"right_children":[2,4,6,8,10,12,14,16,18,20,22,24,26,28,30,32,34,36,38,40,42,44,46,48,50,52,54,56,58,60,62,-1,-1,-1,-1,-1,-1,-1,-1,-1,-1,-1,-1,-1,-1,-1,-1,-1,-1,-1,-1,-1,-1,-1,-1,-1,-1,-1,-1,-1,-1,-1,-1],"split_conditions":[-1.480842E-1,-2.2805633E-2,-2.2158785E-1,-7.45949E-2,1.720694E-1,-7.632429E-2,2.1430757E0,1.8475162E0,9.531523E-2,1.8475162E0,1.7235264E0,6.7591465E-1,2.1430757E0,-9.172165E-2,4.28728E-2,1.6339376E1,2.4239754E-3,1.8023446E0,1.5005847E0,2.6947773E1,-1.2529036E-1,9.531523E-2,2.6707511E-2,5.6643605E-2,-1.9112146E-1,4.5378063E1,9.531523E-2,5.2267794E-2,1.8994757E0,1.5207756E0,2.492042E-1,1.3095868E-3,2.1485945E-4,1.9717743E-3,6.6185556E-4,4.4349648E-4,-6.8480516E-4,1.1183732E-3,-9.6404826E-4,-2.0358273E-4,6.2847417E-4,-2.2779468E-3,2.9506188E-4,-9.665598E-5,1.5117925E-3,9.853676E-4,1.1891495E-2,4.8014644E-4,1.4144974E-3,1.7993385E-5,3.810661E-4,3.6771585E-6,1.2644513E-4,1.0747367E-4,1.0388226E-3,1.047986E-4,-1.0694579E-3,-3.418403E-6,-9.4452196E-5,-2.49495E-4,1.229439E-4,-2.3949908E-3,-5.6197756E-4],"split_indices":[11,7,6,7,13,8,14,14,12,14,10,14,14,8,7,0,13,14,10,0,8,12,7,12,3,0,12,7,14,10,13,0,0,0,0,0,0,0,0,0,0,0,0,0,0,0,0,0,0,0,0,0,0,0,0,0,0,0,0,0,0,0,0],"split_type":[0,0,0,0,0,0,0,0,0,0,0,0,0,0,0,0,0,0,0,0,0,0,0,0,0,0,0,0,0,0,0,0,0,0,0,0,0,0,0,0,0,0,0,0,0,0,0,0,0,0,0,0,0,0,0,0,0,0,0,0,0,0,0],"sum_hessian":[1.873142E6,7.3E3,1.865842E6,4.685E3,2.615E3,4.6062E4,1.81978E6,2.28E3,2.405E3,1.938E3,6.77E2,8.8E3,3.7262E4,1.814698E6,5.082E3,1.011E3,1.269E3,1.713E3,6.92E2,9.99E2,9.39E2,6.67E2,1E1,8.83E2,7.917E3,3.6662E4,6E2,2.3593E4,1.791105E6,4.075E3,1.007E3,3.3E2,6.81E2,9.53E2,3.16E2,1.391E3,3.22E2,5.9E2,1.02E2,8.22E2,1.77E2,7.34E2,2.05E2,2.28E2,4.39E2,3E0,7E0,5.57E2,3.26E2,4.501E3,3.416E3,2.0787E4,1.5875E4,3.02E2,2.98E2,2.3276E4,3.17E2,1.774283E6,1.6822E4,2.607E3,1.468E3,3.54E2,6.53E2],"tree_param":{"num_deleted":"0","num_feature":"15","num_nodes":"63","size_leaf_vector":"1"}},{"base_weights":[4.308485E-9,-2.7821772E-5,7.068469E-3,-7.0081683E-6,-6.803297E-3,1.1957058E-2,-2.0408533E-3,4.357393E-3,-3.377177E-5,-8.1401947E-4,-2.9356068E-2,1.7098332E-2,4.296463E-3,-1.3904362E-2,1.0247635E-2,5.1443498E-3,-2.0655876E-2,-1.5901607E-4,4.6238588E-4,2.0342639E-2,-2.9202169E-3,-5.8285412E-3,-4.928567E-2,1.4323293E-2,3.4741558E-2,2.2110088E-2,-4.4753808E-3,4.892924E-3,-1.7926916E-2,2.2049014E-2,2.6014226E-4,5.837171E-4,1.8008873E-4,-2.218857E-4,-2.378442E-3,-1.1854619E-4,-7.077479E-6,3.2577966E-5,-1.1902663E-4,-1.244041E-4,1.6379077E-3,-3.1169498E-4,1.4716088E-4,-4.7435175E-4,1.5855972E-4,-2.8106887E-3,4.8826315E-4,1.0033207E-3,-3.9932257E-4,1.2893705E-3,3.013582E-3,1.6030077E-3,-1.4848461E-4,-8.877092E-4,1.0273749E-3,9.6390455E-4,-1.0050684E-4,1.09747576E-4,-1.0469471E-3,1.7377563E-3,3.2957154E-4,1.3501995E-3,-7.6575874E-5],"categories":[],"categories_nodes":[],"categories_segments":[],"categories_sizes":[],"default_left":[0,0,0,0,0,0,0,0,0,0,0,0,0,0,0,0,0,0,0,0,0,0,0,0,0,0,0,0,0,0,0,0,0,0,0,0,0,0,0,0,0,0,0,0,0,0,0,0,0,0,0,0,0,0,0,0,0,0,0,0,0,0,0],"id":7,"left_children":[1,3,5,7,9,11,13,15,17,19,21,23,25,27,29,31,33,35,37,39,41,43,45,47,49,51,53,55,57,59,61,-1,-1,-1,-1,-1,-1,-1,-1,-1,-1,-1,-1,-1,-1,-1,-1,-1,-1,-1,-1,-1,-1,-1,-1,-1,-1,-1,-1,-1,-1,-1,-1],"loss_changes":[3.684243E-1,2.6311874E-1,3.2710993E-1,2.1727136E-1,7.717935E-1,1.881879E-1,3.7422574E-1,2.23268E-1,1.14883095E-1,2.0129283E-1,5.6191695E-1,1.3952982E-1,3.002712E-1,9.883845E-2,1.4862351E-1,1.106804E-1,1.5081057E-1,5.702896E-2,2.0039722E-1,1.1601466E-1,7.983498E-2,1.8172018E-2,2.660619E-1,3.170197E-1,8.714259E-2,1.5830708E-1,4.2833355E-1,2.297744E-2,6.5259725E-2,1.1329347E-1,3.2815814E-2,0E0,0E0,0E0,0E0,0E0,0E0,0E0,0E0,0E0,0E0,0E0,0E0,0E0,0E0,0E0,0E0,0E0,0E0,0E0,0E0,0E0,0E0,0E0,0E0,0E0,0E0,0E0,0E0,0E0,0E0,0E0,0E0],"parents":[2147483647,0,0,1,1,2,2,3,3,4,4,5,5,6,6,7,7,8,8,9,9,10,10,11,11,12,12,13,13,14,14,15,15,16,16,17,17,18,18,19,19,20,20,21,21,22,22,23,23,24,24,25,25,26,26,27,27,28,28,29,29,30,30],"right_children":[2,4,6,8,10,12,14,16,18,20,22,24,26,28,30,32,34,36,38,40,42,44,46,48,50,52,54,56,58,60,62,-1,-1,-1,-1,-1,-1,-1,-1,-1,-1,-1,-1,-1,-1,-1,-1,-1,-1,-1,-1,-1,-1,-1,-1,-1,-1,-1,-1,-1,-1,-1,-1],"split_conditions":[9.531523E-2,2.1430757E0,3.826842E-1,-1.2529036E-1,3.366496E-2,1.189747E0,4.895845E1,3.9885312E-2,3.0463457E-2,-7.45949E-2,5.257268E-2,4.420118E1,-7.45949E-2,3.317021E-2,-1.802354E-1,-7.45949E-2,1.8994757E0,-3.899844E-2,1.7276747E0,5.4372303E-2,1.5207756E0,1.4044696E-1,1.890254E0,9.902418E-2,5.977287E-1,3.7812848E-2,1.720694E-1,3.215822E-2,-2.8877815E-2,5.896898E-2,6.8622684E-1,5.837171E-4,1.8008873E-4,-2.218857E-4,-2.378442E-3,-1.1854619E-4,-7.077479E-6,3.2577966E-5,-1.1902663E-4,-1.244041E-4,1.6379077E-3,-3.1169498E-4,1.4716088E-4,-4.7435175E-4,1.5855972E-4,-2.8106887E-3,4.8826315E-4,1.0033207E-3,-3.9932257E-4,1.2893705E-3,3.013582E-3,1.6030077E-3,-1.4848461E-4,-8.877092E-4,1.0273749E-3,9.6390455E-4,-1.0050684E-4,1.09747576E-4,-1.0469471E-3,1.7377563E-3,3.2957154E-4,1.3501995E-3,-7.6575874E-5],"split_indices":[12,14,13,8,7,10,0,7,12,7,12,0,7,3,5,7,14,7,14,12,10,3,10,3,4,13,13,7,8,11,14,0,0,0,0,0,0,0,0,0,0,0,0,0,0,0,0,0,0,0,0,0,0,0,0,0,0,0,0,0,0,0,0],"split_type":[0,0,0,0,0,0,0,0,0,0,0,0,0,0,0,0,0,0,0,0,0,0,0,0,0,0,0,0,0,0,0,0,0,0,0,0,0,0,0,0,0,0,0,0,0,0,0,0,0,0,0,0,0,0,0,0,0,0,0,0,0,0,0],"sum_hessian":[1.873142E6,1.865798E6,7.344E3,1.860085E6,5.713E3,4.779E3,2.565E3,1.1336E4,1.848749E6,4.515E3,1.198E3,2.859E3,1.92E3,1.305E3,1.26E3,1.0991E4,3.45E2,1.476132E6,3.72617E5,4.08E2,4.107E3,5.5E2,6.48E2,2.472E3,3.87E2,6.33E2,1.287E3,2.3E2,1.075E3,5.77E2,6.83E2,2.099E3,8.892E3,2.16E2,1.29E2,1.1564E4,1.464568E6,3.4937E5,2.3247E4,1.44E2,2.64E2,2.624E3,1.483E3,3.91E2,1.59E2,5.8E2,6.8E1,1.966E3,5.06E2,2.88E2,9.9E1,4.53E2,1.8E2,8.41E2,4.46E2,7.4E1,1.56E2,1.4E2,9.35E2,3.16E2,2.61E2,4.2E1,6.41E2],"tree_param":{"num_deleted":"0","num_feature":"15","num_nodes":"63","size_leaf_vector":"1"}},{"base_weights":[7.547528E-9,6.8004495E-3,-2.6488997E-5,1.2954015E-2,6.399321E-4,1.0012023E-5,-2.5678198E-3,1.5811754E-2,-9.210863E-3,-2.1014102E-2,7.6814047E-3,-7.749779E-5,1.5190669E-3,-1.5811341E-4,-1.4884989E-2,9.410684E-3,2.188185E-2,1.6700206E-2,-1.3287863E-2,5.4242373E-5,-3.386817E-2,-6.390753E-4,1.3926155E-2,5.681613E-4,-1.3065254E-4,3.9536534E-3,8.9922274E-4,1.3501492E-2,-9.7151287E-4,-3.5840984E-2,-7.404019E-3,1.0682085E-3,1.4630778E-4,1.3504351E-3,3.0600117E-4,-2.906411E-4,2.0964989E-3,-7.312617E-4,2.8121565E-3,7.544071E-4,-2.0641623E-4,-2.2995286E-3,9.8272845E-5,-4.8947517E-5,3.292818E-3,-1.5751476E-4,8.9279714E-4,2.7724545E-4,2.5306454E-5,2.1753446E-7,-1.526193E-5,7.1344146E-4,1.6322569E-4,6.487169E-5,-7.606158E-5,-2.8104888E-4,1.1908055E-3,-6.742897E-5,6.962434E-4,-2.2651374E-3,-4.340643E-4,-5.9156114E-4,2.1876256E-5],"categories":[],"categories_nodes":[],"categories_segments":[],"categories_sizes":[],"default_left":[0,0,0,0,0,0,0,0,0,0,0,0,0,0,0,0,0,0,0,0,0,0,0,0,0,0,0,0,0,0,0,0,0,0,0,0,0,0,0,0,0,0,0,0,0,0,0,0,0,0,0,0,0,0,0,0,0,0,0,0,0,0,0],"id":8,"left_children":[1,3,5,7,9,11,13,15,17,19,21,23,25,27,29,31,33,35,37,39,41,43,45,47,49,51,53,55,57,59,61,-1,-1,-1,-1,-1,-1,-1,-1,-1,-1,-1,-1,-1,-1,-1,-1,-1,-1,-1,-1,-1,-1,-1,-1,-1,-1,-1,-1,-1,-1,-1,-1],"loss_changes":[3.3751845E-1,2.755912E-1,1.7308067E-1,2.3051846E-1,5.542603E-1,2.4291322E-1,7.8416336E-1,1.2498528E-1,4.416792E-2,2.4156791E-1,1.425333E-1,5.96697E-2,1.521448E-1,2.455377E-1,6.774564E-1,1.2163244E-1,1.3341117E-1,3.261964E-2,3.4298487E-2,2.1378707E-2,2.407422E-1,2.666483E-2,1.0521263E-1,4.082464E-2,3.786201E-2,1.4539522E-1,7.746094E-2,2.4510713E-1,1.17171034E-1,2.9179156E-1,1.1064541E-1,0E0,0E0,0E0,0E0,0E0,0E0,0E0,0E0,0E0,0E0,0E0,0E0,0E0,0E0,0E0,0E0,0E0,0E0,0E0,0E0,0E0,0E0,0E0,0E0,0E0,0E0,0E0,0E0,0E0,0E0,0E0,0E0],"parents":[2147483647,0,0,1,1,2,2,3,3,4,4,5,5,6,6,7,7,8,8,9,9,10,10,11,11,12,12,13,13,14,14,15,15,16,16,17,17,18,18,19,19,20,20,21,21,22,22,23,23,24,24,25,25,26,26,27,27,28,28,29,29,30,30],"right_children":[2,4,6,8,10,12,14,16,18,20,22,24,26,28,30,32,34,36,38,40,42,44,46,48,50,52,54,56,58,60,62,-1,-1,-1,-1,-1,-1,-1,-1,-1,-1,-1,-1,-1,-1,-1,-1,-1,-1,-1,-1,-1,-1,-1,-1,-1,-1,-1,-1,-1,-1,-1,-1],"split_conditions":[-2.591187E-1,-2.214066E-2,1.8994757E0,-1.5713688E-2,1.0616605E-1,4.3636393E-2,3.366496E-2,9.531523E-2,2.2561903E-1,1.7276747E0,9.531523E-2,-4.3541156E-2,-6.941896E-2,-7.45949E-2,-5.3837173E-2,-5.7077955E-2,2.1430757E0,1.8202063E-1,1.2964282E0,-2.4324116E-1,2.0714004E0,1.501621E-1,1.720694E-1,-1.19724095E-1,3.7468466E-1,6.359893E-1,9.781303E-2,4.2918254E-2,9.531523E-2,1.7235264E0,7.830825E-1,1.0682085E-3,1.4630778E-4,1.3504351E-3,3.0600117E-4,-2.906411E-4,2.0964989E-3,-7.312617E-4,2.8121565E-3,7.544071E-4,-2.0641623E-4,-2.2995286E-3,9.8272845E-5,-4.8947517E-5,3.292818E-3,-1.5751476E-4,8.9279714E-4,2.7724545E-4,2.5306454E-5,2.1753446E-7,-1.526193E-5,7.1344146E-4,1.6322569E-4,6.487169E-5,-7.606158E-5,-2.8104888E-4,1.1908055E-3,-6.742897E-5,6.962434E-4,-2.2651374E-3,-4.340643E-4,-5.9156114E-4,2.1876256E-5],"split_indices":[5,7,14,8,13,12,7,12,13,14,12,11,8,7,8,13,14,13,9,9,10,11,13,11,1,14,8,12,12,10,13,0,0,0,0,0,0,0,0,0,0,0,0,0,0,0,0,0,0,0,0,0,0,0,0,0,0,0,0,0,0,0,0],"split_type":[0,0,0,0,0,0,0,0,0,0,0,0,0,0,0,0,0,0,0,0,0,0,0,0,0,0,0,0,0,0,0,0,0,0,0,0,0,0,0,0,0,0,0,0,0,0,0,0,0,0,0,0,0,0,0,0,0,0,0,0,0,0,0],"sum_hessian":[1.873142E6,7.269E3,1.865873E6,3.636E3,3.633E3,1.839454E6,2.6419E4,3.221E3,4.15E2,8.91E2,2.742E3,1.738632E6,1.00822E5,2.2097E4,4.322E3,1.569E3,1.652E3,5.6E1,3.59E2,3.38E2,5.53E2,1.176E3,1.566E3,1.32247E5,1.606385E6,2.0459E4,8.0363E4,1.241E3,2.0856E4,1.136E3,3.186E3,5.51E2,1.018E3,1.246E3,4.06E2,3E1,2.6E1,3.53E2,6E0,7.3E1,2.65E2,4.13E2,1.4E2,1.171E3,5E0,2.93E2,1.273E3,1.627E3,1.3062E5,9.05886E5,7.00499E5,1.28E3,1.9179E4,6.901E4,1.1353E4,4.35E2,8.06E2,2.0342E4,5.14E2,8.42E2,2.94E2,2.036E3,1.15E3],"tree_param":{"num_deleted":"0","num_feature":"15","num_nodes":"63","size_leaf_vector":"1"}},{"base_weights":[1.1675016E-8,4.5426786E-3,-3.5880686E-5,8.723957E-3,-4.891701E-3,-4.8358916E-6,-2.3028208E-3,1.6119331E-2,5.420816E-3,-1.3152079E-2,1.0984873E-2,-5.5572265E-5,2.1127758E-3,-7.260134E-4,-1.2338855E-2,6.212824E-3,2.6193637E-2,5.0276127E-3,4.5044437E-2,-1.8444662E-3,-3.6287837E-2,-1.3816655E-4,2.2883432E-2,-1.639277E-4,2.9539812E-4,3.3852016E-3,-1.1681206E-5,-1.036359E-3,1.0133169E-2,-2.820374E-2,-3.97105E-3,1.1404919E-3,2.2958917E-5,1.521388E-3,1.6171358E-5,2.8726875E-4,-3.031078E-4,9.010069E-6,4.561146E-3,3.0456436E-5,-6.933716E-4,-8.7712007E-4,-2.6975302E-3,8.297463E-5,-1.9712956E-3,1.4312447E-3,-2.0199582E-4,-1.18673095E-4,-7.487454E-6,2.8163096E-5,-1.7072749E-5,4.47309E-5,2.6059628E-4,2.7216147E-5,-4.642872E-4,2.0781521E-5,-1.3879879E-4,1.1533359E-3,-2.5857688E-4,-5.34268E-4,-1.8672853E-3,1.0166225E-3,-2.9981902E-4],"categories":[],"categories_nodes":[],"categories_segments":[],"categories_sizes":[],"default_left":[0,0,0,0,0,0,0,0,0,0,0,0,0,0,0,0,0,0,0,0,0,0,0,0,0,0,0,0,0,0,0,0,0,0,0,0,0,0,0,0,0,0,0,0,0,0,0,0,0,0,0,0,0,0,0,0,0,0,0,0,0,0,0],"id":9,"left_children":[1,3,5,7,9,11,13,15,17,19,21,23,25,27,29,31,33,35,37,39,41,43,45,47,49,51,53,55,57,59,61,-1,-1,-1,-1,-1,-1,-1,-1,-1,-1,-1,-1,-1,-1,-1,-1,-1,-1,-1,-1,-1,-1,-1,-1,-1,-1,-1,-1,-1,-1,-1,-1],"loss_changes":[3.0541056E-1,5.792937E-1,1.3079226E-1,2.484672E-1,5.916152E-1,1.9697556E-1,3.9730662E-1,3.1331283E-1,1.0937995E-1,7.7613056E-1,2.043487E-1,6.809031E-2,1.1596252E-1,7.313828E-2,4.524473E-1,1.5134647E-1,1.7054021E-1,5.549085E-2,1.4293513E-1,5.883042E-2,3.215413E-1,5.6495573E-2,1.15431815E-1,4.2859294E-2,7.205242E-2,1.2205681E-1,8.286869E-2,5.3290173E-2,1.1947961E-1,1.8810034E-1,1.10036016E-1,0E0,0E0,0E0,0E0,0E0,0E0,0E0,0E0,0E0,0E0,0E0,0E0,0E0,0E0,0E0,0E0,0E0,0E0,0E0,0E0,0E0,0E0,0E0,0E0,0E0,0E0,0E0,0E0,0E0,0E0,0E0,0E0],"parents":[2147483647,0,0,1,1,2,2,3,3,4,4,5,5,6,6,7,7,8,8,9,9,10,10,11,11,12,12,13,13,14,14,15,15,16,16,17,17,18,18,19,19,20,20,21,21,22,22,23,23,24,24,25,25,26,26,27,27,28,28,29,29,30,30],"right_children":[2,4,6,8,10,12,14,16,18,20,22,24,26,28,30,32,34,36,38,40,42,44,46,48,50,52,54,56,58,60,62,-1,-1,-1,-1,-1,-1,-1,-1,-1,-1,-1,-1,-1,-1,-1,-1,-1,-1,-1,-1,-1,-1,-1,-1,-1,-1,-1,-1,-1,-1,-1,-1],"split_conditions":[-1.19724095E-1,-1.1728415E-2,1.8994757E0,-7.45949E-2,1.5124342E-1,5.257268E-2,4.28728E-2,1.8475162E0,4.3999966E1,1.8994757E0,9.531523E-2,2.813146E-2,2.8845979E-2,9.531523E-2,-2.1099748E-2,1.6339376E1,1.7905443E0,2.1430757E0,-1.6078459E-1,1.6676224E0,3.215822E-2,7.788545E-2,-1.5926404E0,-3.899844E-2,2.8374681E-2,-1.13008305E-1,5.977287E-1,3.5233572E-2,1.366549E-1,6.0662746E-2,-6.894488E-2,1.1404919E-3,2.2958917E-5,1.521388E-3,1.6171358E-5,2.8726875E-4,-3.031078E-4,9.010069E-6,4.561146E-3,3.0456436E-5,-6.933716E-4,-8.7712007E-4,-2.6975302E-3,8.297463E-5,-1.9712956E-3,1.4312447E-3,-2.0199582E-4,-1.18673095E-4,-7.487454E-6,2.8163096E-5,-1.7072749E-5,4.47309E-5,2.6059628E-4,2.7216147E-5,-4.642872E-4,2.0781521E-5,-1.3879879E-4,1.1533359E-3,-2.5857688E-4,-5.34268E-4,-1.8672853E-3,1.0166225E-3,-2.9981902E-4],"split_indices":[11,7,14,7,13,12,7,14,0,14,12,12,8,12,8,0,10,14,3,14,7,7,2,7,8,3,4,12,3,7,11,0,0,0,0,0,0,0,0,0,0,0,0,0,0,0,0,0,0,0,0,0,0,0,0,0,0,0,0,0,0,0,0],"split_type":[0,0,0,0,0,0,0,0,0,0,0,0,0,0,0,0,0,0,0,0,0,0,0,0,0,0,0,0,0,0,0,0,0,0,0,0,0,0,0,0,0,0,0,0,0,0,0,0,0,0,0,0,0,0,0,0,0,0,0,0,0,0,0],"sum_hessian":[1.873142E6,1.4683E4,1.858459E6,1.0174E4,4.509E3,1.833353E6,2.5106E4,3.14E3,7.034E3,2.966E3,1.543E3,1.790456E6,4.2897E4,2.1698E4,3.408E3,1.584E3,1.556E3,6.966E3,6.8E1,1.993E3,9.73E2,7.98E2,7.45E2,1.368086E6,4.2237E5,2.6828E4,1.6069E4,2.1096E4,6.02E2,1.176E3,2.232E3,4.07E2,1.177E3,1.337E3,2.19E2,6.543E3,4.23E2,3.5E1,3.3E1,1.656E3,3.37E2,4.73E2,5E2,7.64E2,3.4E1,6.14E2,1.31E2,8.722E3,1.359364E6,2.97317E5,1.25053E5,1.1352E4,1.5476E4,1.5161E4,9.08E2,1.1499E4,9.597E3,3.26E2,2.76E2,4.04E2,7.72E2,1.71E2,2.061E3],"tree_param":{"num_deleted":"0","num_feature":"15","num_nodes":"63","size_leaf_vector":"1"}},{"base_weights":[1.1716157E-8,-2.4411756E-5,6.2041357E-3,-5.907609E-6,-6.048087E-3,1.0667468E-2,-2.1126743E-3,3.8466598E-3,-2.9532519E-5,-2.0559428E-3,-3.3088673E-2,1.5448642E-2,3.5436666E-3,-1.5860388E-2,7.419621E-3,4.8919944E-3,-1.1238412E-2,1.2752152E-3,-6.944423E-5,1.7817156E-2,-3.8332923E-3,-5.3559884E-2,-6.224774E-3,1.2837608E-2,3.2050803E-2,1.8997451E-2,-4.0659937E-3,4.2588096E-3,-2.0681681E-2,1.8162658E-2,-1.34046E-3,5.0791353E-4,1.7954755E-4,6.8892194E-5,-1.2909797E-3,-1.5359238E-4,7.557833E-5,2.6019434E-6,-1.6616008E-5,-8.3492894E-5,1.4857707E-3,-1.0828954E-3,-1.2117052E-4,-3.3597138E-3,-1.6164609E-3,-9.828157E-4,-4.561639E-6,9.1556966E-4,-4.212135E-4,2.0335922E-3,4.058827E-4,1.4177981E-3,-2.290672E-4,-7.969571E-4,9.154092E-4,7.463134E-4,-5.579055E-4,2.6850446E-4,-1.1318296E-3,1.984889E-3,6.4562535E-4,1.6915126E-3,-1.6217415E-4],"categories":[],"categories_nodes":[],"categories_segments":[],"categories_sizes":[],"default_left":[0,0,0,0,0,0,0,0,0,0,0,0,0,0,0,0,0,0,0,0,0,0,0,0,0,0,0,0,0,0,0,0,0,0,0,0,0,0,0,0,0,0,0,0,0,0,0,0,0,0,0,0,0,0,0,0,0,0,0,0,0,0,0],"id":10,"left_children":[1,3,5,7,9,11,13,15,17,19,21,23,25,27,29,31,33,35,37,39,41,43,45,47,49,51,53,55,57,59,61,-1,-1,-1,-1,-1,-1,-1,-1,-1,-1,-1,-1,-1,-1,-1,-1,-1,-1,-1,-1,-1,-1,-1,-1,-1,-1,-1,-1,-1,-1,-1,-1],"loss_changes":[2.838305E-1,2.0796748E-1,2.7267402E-1,1.6929874E-1,6.1675787E-1,1.6275269E-1,3.3638498E-1,1.788275E-1,9.627321E-2,1.7596908E-1,4.0386993E-1,1.2356609E-1,2.2598308E-1,1.0203561E-1,1.426949E-1,7.26116E-2,1.3524611E-1,5.63841E-2,5.728744E-2,9.488097E-2,1.1484465E-1,1.1853552E-1,2.6278358E-2,2.8796926E-1,7.9725355E-2,1.4002986E-1,3.4245154E-1,3.371626E-2,4.330924E-2,7.648307E-2,5.6063768E-2,0E0,0E0,0E0,0E0,0E0,0E0,0E0,0E0,0E0,0E0,0E0,0E0,0E0,0E0,0E0,0E0,0E0,0E0,0E0,0E0,0E0,0E0,0E0,0E0,0E0,0E0,0E0,0E0,0E0,0E0,0E0,0E0],"parents":[2147483647,0,0,1,1,2,2,3,3,4,4,5,5,6,6,7,7,8,8,9,9,10,10,11,11,12,12,13,13,14,14,15,15,16,16,17,17,18,18,19,19,20,20,21,21,22,22,23,23,24,24,25,25,26,26,27,27,28,28,29,29,30,30],"right_children":[2,4,6,8,10,12,14,16,18,20,22,24,26,28,30,32,34,36,38,40,42,44,46,48,50,52,54,56,58,60,62,-1,-1,-1,-1,-1,-1,-1,-1,-1,-1,-1,-1,-1,-1,-1,-1,-1,-1,-1,-1,-1,-1,-1,-1,-1,-1,-1,-1,-1,-1,-1,-1],"split_conditions":[9.531523E-2,2.1430757E0,3.826842E-1,-1.2529036E-1,6.0662746E-2,1.189747E0,4.6531017E1,2.246899E-2,-2.0045342E-1,-7.45949E-2,-1.0935543E0,4.420118E1,-7.45949E-2,3.5144877E-2,-1.802354E-1,-7.45949E-2,1.7276747E0,-5.076376E-2,6.845754E-3,5.6643605E-2,-1.19724095E-1,-6.388938E-2,1.5207756E0,9.902418E-2,-1.3137672E0,3.7812848E-2,1.720694E-1,1.9930615E-3,1.0180256E0,-1.7177058E-2,6.653433E-1,5.0791353E-4,1.7954755E-4,6.8892194E-5,-1.2909797E-3,-1.5359238E-4,7.557833E-5,2.6019434E-6,-1.6616008E-5,-8.3492894E-5,1.4857707E-3,-1.0828954E-3,-1.2117052E-4,-3.3597138E-3,-1.6164609E-3,-9.828157E-4,-4.561639E-6,9.1556966E-4,-4.212135E-4,2.0335922E-3,4.058827E-4,1.4177981E-3,-2.290672E-4,-7.969571E-4,9.154092E-4,7.463134E-4,-5.579055E-4,2.6850446E-4,-1.1318296E-3,1.984889E-3,6.4562535E-4,1.6915126E-3,-1.6217415E-4],"split_indices":[12,14,13,8,7,10,0,7,6,7,1,0,7,3,5,7,14,7,7,12,11,11,10,3,2,13,13,9,14,11,14,0,0,0,0,0,0,0,0,0,0,0,0,0,0,0,0,0,0,0,0,0,0,0,0,0,0,0,0,0,0,0,0],"split_type":[0,0,0,0,0,0,0,0,0,0,0,0,0,0,0,0,0,0,0,0,0,0,0,0,0,0,0,0,0,0,0,0,0,0,0,0,0,0,0,0,0,0,0,0,0,0,0,0,0,0,0,0,0,0,0,0,0,0,0,0,0,0,0],"sum_hessian":[1.873142E6,1.865798E6,7.344E3,1.860085E6,5.713E3,4.779E3,2.565E3,1.1336E4,1.848749E6,4.979E3,7.34E2,2.859E3,1.92E3,1.05E3,1.515E3,1.0602E4,7.34E2,5.4873E4,1.793876E6,4.08E2,4.571E3,4.16E2,3.18E2,2.472E3,3.87E2,6.33E2,1.287E3,2.03E2,8.47E2,6.8E2,8.35E2,2.099E3,8.503E3,3.94E2,3.4E2,2.829E3,5.2044E4,1.226892E6,5.66984E5,1.55E2,2.53E2,3.34E2,4.237E3,2.52E2,1.64E2,9.9E1,2.19E2,1.966E3,5.06E2,2.84E2,1.03E2,4.53E2,1.8E2,8.41E2,4.46E2,1.2E2,8.3E1,5.9E1,7.88E2,1.32E2,5.48E2,4.2E1,7.93E2],"tree_param":{"num_deleted":"0","num_feature":"15","num_nodes":"63","size_leaf_vector":"1"}},{"base_weights":[1.1843022E-8,5.989649E-3,-2.3325565E-5,1.1409144E-2,5.6403136E-4,9.222783E-6,-2.2894572E-3,1.4027884E-2,-8.9009255E-3,-1.881687E-2,6.866328E-3,-6.880032E-5,1.3546849E-3,-1.4814192E-4,-1.32347485E-2,7.914349E-3,1.9381965E-2,5.9189945E-3,-1.5287211E-2,-5.5363074E-5,-3.0263321E-2,-6.0127315E-4,1.2470987E-2,9.326922E-4,-9.771586E-5,3.568289E-3,7.911031E-4,1.1796045E-2,-8.593915E-4,-3.063311E-2,-6.07575E-3,7.7134295E-4,1.14192946E-4,2.5559E-4,1.2117478E-3,-9.340732E-4,7.606764E-4,-1.0894167E-3,3.176529E-4,7.129685E-4,-2.0187246E-4,-2.082779E-3,1.7004625E-4,-4.632503E-5,3.1513341E-3,4.213054E-4,1.380381E-3,2.5163495E-4,3.5748868E-5,-8.650207E-5,-3.8084727E-6,6.6834985E-4,1.456832E-4,5.5416614E-5,-9.936067E-5,-2.9783964E-4,1.0453383E-3,-6.00113E-5,6.3027855E-4,-1.8720444E-3,-1.8278118E-4,-5.0389825E-4,4.350871E-5],"categories":[],"categories_nodes":[],"categories_segments":[],"categories_sizes":[],"default_left":[0,0,0,0,0,0,0,0,0,0,0,0,0,0,0,0,0,0,0,0,0,0,0,0,0,0,0,0,0,0,0,0,0,0,0,0,0,0,0,0,0,0,0,0,0,0,0,0,0,0,0,0,0,0,0,0,0,0,0,0,0,0,0],"id":11,"left_children":[1,3,5,7,9,11,13,15,17,19,21,23,25,27,29,31,33,35,37,39,41,43,45,47,49,51,53,55,57,59,61,-1,-1,-1,-1,-1,-1,-1,-1,-1,-1,-1,-1,-1,-1,-1,-1,-1,-1,-1,-1,-1,-1,-1,-1,-1,-1,-1,-1,-1,-1,-1,-1],"loss_changes":[2.6183292E-1,2.1376145E-1,1.3762473E-1,1.9356522E-1,4.4400117E-1,1.9310082E-1,6.19212E-1,1.0531026E-1,3.9462496E-2,1.915577E-1,1.1481126E-1,5.034864E-2,1.257786E-1,1.8773924E-1,5.382644E-1,6.366722E-2,1.18783474E-1,2.9094081E-2,4.1078046E-2,1.9381419E-2,2.126072E-1,2.4414703E-2,9.5708296E-2,4.354794E-2,5.9432954E-2,1.3120136E-1,7.083207E-2,2.0100707E-1,9.573464E-2,2.3127067E-1,8.518517E-2,0E0,0E0,0E0,0E0,0E0,0E0,0E0,0E0,0E0,0E0,0E0,0E0,0E0,0E0,0E0,0E0,0E0,0E0,0E0,0E0,0E0,0E0,0E0,0E0,0E0,0E0,0E0,0E0,0E0,0E0,0E0,0E0],"parents":[2147483647,0,0,1,1,2,2,3,3,4,4,5,5,6,6,7,7,8,8,9,9,10,10,11,11,12,12,13,13,14,14,15,15,16,16,17,17,18,18,19,19,20,20,21,21,22,22,23,23,24,24,25,25,26,26,27,27,28,28,29,29,30,30],"right_children":[2,4,6,8,10,12,14,16,18,20,22,24,26,28,30,32,34,36,38,40,42,44,46,48,50,52,54,56,58,60,62,-1,-1,-1,-1,-1,-1,-1,-1,-1,-1,-1,-1,-1,-1,-1,-1,-1,-1,-1,-1,-1,-1,-1,-1,-1,-1,-1,-1,-1,-1,-1,-1],"split_conditions":[-2.591187E-1,-2.214066E-2,1.8994757E0,-1.5713688E-2,1.0616605E-1,4.3636393E-2,3.366496E-2,-5.507343E-2,2.9057607E-1,1.7276747E0,9.531523E-2,2.1961748E1,-6.941896E-2,-7.45949E-2,-4.649635E-2,-7.7709686E-3,7.762841E-2,-5.594729E-4,4.803279E1,-2.4324116E-1,2.0714004E0,1.501621E-1,4.420118E1,-1.0986706E-1,-3.899844E-2,6.359893E-1,1.5745772E0,4.2246867E-2,9.531523E-2,-2.2307454E-1,5.5743015E1,7.7134295E-4,1.14192946E-4,2.5559E-4,1.2117478E-3,-9.340732E-4,7.606764E-4,-1.0894167E-3,3.176529E-4,7.129685E-4,-2.0187246E-4,-2.082779E-3,1.7004625E-4,-4.632503E-5,3.1513341E-3,4.213054E-4,1.380381E-3,2.5163495E-4,3.5748868E-5,-8.650207E-5,-3.8084727E-6,6.6834985E-4,1.456832E-4,5.5416614E-5,-9.936067E-5,-2.9783964E-4,1.0453383E-3,-6.00113E-5,6.3027855E-4,-1.8720444E-3,-1.8278118E-4,-5.0389825E-4,4.350871E-5],"split_indices":[5,7,14,8,13,12,7,9,13,14,12,0,8,7,8,13,12,8,0,9,10,11,0,8,7,14,14,12,12,2,0,0,0,0,0,0,0,0,0,0,0,0,0,0,0,0,0,0,0,0,0,0,0,0,0,0,0,0,0,0,0,0,0],"split_type":[0,0,0,0,0,0,0,0,0,0,0,0,0,0,0,0,0,0,0,0,0,0,0,0,0,0,0,0,0,0,0,0,0,0,0,0,0,0,0,0,0,0,0,0,0,0,0,0,0,0,0,0,0,0,0,0,0,0,0,0,0,0,0],"sum_hessian":[1.873142E6,7.269E3,1.865873E6,3.636E3,3.633E3,1.839454E6,2.6419E4,3.221E3,4.15E2,8.91E2,2.742E3,1.738632E6,1.00822E5,2.2097E4,4.322E3,1.505E3,1.716E3,1.25E2,2.9E2,3.38E2,5.53E2,1.176E3,1.566E3,4.8789E4,1.689843E6,2.0459E4,8.0363E4,1.241E3,2.0856E4,1.259E3,3.063E3,6.44E2,8.61E2,4.36E2,1.28E3,3.4E1,9.1E1,2.23E2,6.7E1,7.3E1,2.65E2,4.13E2,1.4E2,1.171E3,5E0,1.237E3,3.29E2,2.459E3,4.633E4,2.2014E4,1.667829E6,1.28E3,1.9179E4,7.2128E4,8.235E3,4.21E2,8.2E2,2.0342E4,5.14E2,1.005E3,2.54E2,1.943E3,1.12E3],"tree_param":{"num_deleted":"0","num_feature":"15","num_nodes":"63","size_leaf_vector":"1"}},{"base_weights":[1.3721219E-8,5.6954534E-3,-2.2272401E-5,1.1612393E-2,-7.0775673E-3,1.368946E-3,-6.87574E-5,1.9825662E-2,6.512664E-3,-1.8864974E-2,1.5481812E-2,1.0288011E-3,4.4890437E-3,-3.9322196E-5,-2.2976694E-3,7.24554E-3,2.5074447E-2,2.6122844E-4,1.5026688E-2,5.0431936E-5,-3.423662E-2,1.3502558E-2,1.1737092E-1,-2.4503975E-3,1.2281256E-3,-1.3682522E-5,1.06454715E-2,-1.335199E-4,3.7624492E-4,-7.070031E-4,-1.316787E-2,6.727343E-4,-4.2583232E-4,1.445053E-3,1.981356E-4,3.6927772E-4,-1.239977E-4,1.0533389E-3,1.6942167E-5,-1.9628907E-4,6.5770565E-4,-5.467581E-4,-2.2147659E-3,1.3315708E-4,1.2223428E-3,3.7132811E-3,1.8021127E-2,-1.00566205E-4,-3.6905024E-3,1.6352179E-4,4.2768654E-5,2.4779586E-4,-5.5858697E-4,1.3067148E-3,3.4282103E-4,-1.0375405E-4,-5.9382814E-6,3.48556E-5,-1.5991893E-5,-4.9089584E-5,8.297874E-4,-1.2037971E-3,-1.0707732E-4],"categories":[],"categories_nodes":[],"categories_segments":[],"categories_sizes":[],"default_left":[0,0,0,0,0,0,0,0,0,0,0,0,0,0,0,0,0,0,0,0,0,0,0,0,0,0,0,0,0,0,0,0,0,0,0,0,0,0,0,0,0,0,0,0,0,0,0,0,0,0,0,0,0,0,0,0,0,0,0,0,0,0,0],"id":12,"left_children":[1,3,5,7,9,11,13,15,17,19,21,23,25,27,29,31,33,35,37,39,41,43,45,47,49,51,53,55,57,59,61,-1,-1,-1,-1,-1,-1,-1,-1,-1,-1,-1,-1,-1,-1,-1,-1,-1,-1,-1,-1,-1,-1,-1,-1,-1,-1,-1,-1,-1,-1,-1,-1],"loss_changes":[2.377568E-1,5.518713E-1,1.2066563E-1,2.0887923E-1,6.1509115E-1,6.402062E-2,1.1845707E-1,1.2600237E-1,1.6392867E-1,4.4166762E-1,1.5853679E-1,3.772816E-2,1.6438398E-1,6.975665E-2,4.068966E-1,5.531311E-2,1.0878551E-1,3.4721486E-2,1.156784E-1,3.5585903E-2,1.9592786E-1,9.2466116E-2,1.3038519E-1,9.221863E-2,3.9166406E-2,1.9003074E-1,1.468341E-1,4.161422E-2,7.354648E-2,9.7628176E-2,3.612573E-1,0E0,0E0,0E0,0E0,0E0,0E0,0E0,0E0,0E0,0E0,0E0,0E0,0E0,0E0,0E0,0E0,0E0,0E0,0E0,0E0,0E0,0E0,0E0,0E0,0E0,0E0,0E0,0E0,0E0,0E0,0E0,0E0],"parents":[2147483647,0,0,1,1,2,2,3,3,4,4,5,5,6,6,7,7,8,8,9,9,10,10,11,11,12,12,13,13,14,14,15,15,16,16,17,17,18,18,19,19,20,20,21,21,22,22,23,23,24,24,25,25,26,26,27,27,28,28,29,29,30,30],"right_children":[2,4,6,8,10,12,14,16,18,20,22,24,26,28,30,32,34,36,38,40,42,44,46,48,50,52,54,56,58,60,62,-1,-1,-1,-1,-1,-1,-1,-1,-1,-1,-1,-1,-1,-1,-1,-1,-1,-1,-1,-1,-1,-1,-1,-1,-1,-1,-1,-1,-1,-1,-1,-1],"split_conditions":[-1.480842E-1,-1.6294641E-2,-2.0045342E-1,-5.7077955E-2,1.5124342E-1,7.762841E-2,1.8994757E0,1.3790878E0,9.531523E-2,1.7626998E0,1.7905443E0,-5.076376E-2,4.691133E1,3.027713E-2,4.28728E-2,2.591883E1,1.890254E0,-7.7709686E-3,2.1430757E0,2.5360401E1,9.790167E-3,2.0651087E-1,4.487376E-2,2.2123241E-1,-7.632429E-2,2.9753256E-1,-2.7100844E-2,-3.899844E-2,2.8374681E-2,9.531523E-2,-7.1265113E-1,6.727343E-4,-4.2583232E-4,1.445053E-3,1.981356E-4,3.6927772E-4,-1.239977E-4,1.0533389E-3,1.6942167E-5,-1.9628907E-4,6.5770565E-4,-5.467581E-4,-2.2147659E-3,1.3315708E-4,1.2223428E-3,3.7132811E-3,1.8021127E-2,-1.00566205E-4,-3.6905024E-3,1.6352179E-4,4.2768654E-5,2.4779586E-4,-5.5858697E-4,1.3067148E-3,3.4282103E-4,-1.0375405E-4,-5.9382814E-6,3.48556E-5,-1.5991893E-5,-4.9089584E-5,8.297874E-4,-1.2037971E-3,-1.0707732E-4],"split_indices":[11,7,6,13,13,12,14,14,12,14,10,7,0,12,7,0,10,13,14,0,7,13,8,5,8,3,11,7,8,12,1,0,0,0,0,0,0,0,0,0,0,0,0,0,0,0,0,0,0,0,0,0,0,0,0,0,0,0,0,0,0,0,0],"split_type":[0,0,0,0,0,0,0,0,0,0,0,0,0,0,0,0,0,0,0,0,0,0,0,0,0,0,0,0,0,0,0,0,0,0,0,0,0,0,0,0,0,0,0,0,0,0,0,0,0,0,0,0,0,0,0,0,0,0,0,0,0,0,0],"sum_hessian":[1.873142E6,7.3E3,1.865842E6,4.989E3,2.311E3,6.0327E4,1.805515E6,1.91E3,3.079E3,1.518E3,7.93E2,5.4398E4,5.929E3,1.781983E6,2.3532E4,5.63E2,1.347E3,1.776E3,1.303E3,6.81E2,8.37E2,7.79E2,1.4E1,2.947E3,5.1451E4,3.425E3,2.504E3,1.452697E6,3.29286E5,2.0529E4,3.003E3,4.04E2,1.59E2,1.14E3,2.07E2,4.93E2,1.283E3,9.23E2,3.8E2,5.23E2,1.58E2,2.53E2,5.84E2,3.92E2,3.87E2,1.3E1,1E0,2.93E3,1.7E1,7.94E3,4.3511E4,2.37E3,1.055E3,4.91E2,2.013E3,1.0955E4,1.441742E6,2.2539E5,1.03896E5,2.0209E4,3.2E2,1.509E3,1.494E3],"tree_param":{"num_deleted":"0","num_feature":"15","num_nodes":"63","size_leaf_vector":"1"}},{"base_weights":[2.4296652E-8,5.4933797E-3,-2.137945E-5,1.0370382E-2,6.108398E-4,-7.245614E-6,-4.474039E-3,1.2807063E-2,-8.52711E-3,-1.710699E-2,6.372303E-3,1.8053818E-3,-4.5287383E-5,-1.0350924E-3,-1.917853E-2,7.001916E-3,1.7891362E-2,1.5134667E-2,-1.2249871E-2,-2.0639007E-3,-2.878974E-2,-6.611785E-4,1.1651202E-2,2.1084223E-3,-1.652221E-2,-1.4284875E-3,-2.2765593E-5,1.1055553E-2,-2.463925E-3,-3.7645932E-2,-6.4672134E-3,6.145851E-4,7.3773454E-6,2.29019E-4,1.120915E-3,-3.0624628E-4,1.9491643E-3,-6.7533576E-4,2.6530235E-3,6.096339E-4,-4.249059E-4,-2.016657E-3,1.9361575E-4,-4.8587728E-5,3.0057442E-3,3.9388213E-4,1.2886231E-3,4.0873038E-4,8.711116E-5,-1.1292998E-5,-1.4429461E-3,-5.4837274E-5,-7.011295E-4,-2.5455383E-6,6.96336E-5,-4.8033307E-5,1.4646951E-3,-6.390809E-4,-4.2177013E-5,-2.2528262E-3,5.0869567E-4,4.908372E-4,-5.9793185E-4],"categories":[],"categories_nodes":[],"categories_segments":[],"categories_sizes":[],"default_left":[0,0,0,0,0,0,0,0,0,0,0,0,0,0,0,0,0,0,0,0,0,0,0,0,0,0,0,0,0,0,0,0,0,0,0,0,0,0,0,0,0,0,0,0,0,0,0,0,0,0,0,0,0,0,0,0,0,0,0,0,0,0,0],"id":13,"left_children":[1,3,5,7,9,11,13,15,17,19,21,23,25,27,29,31,33,35,37,39,41,43,45,47,49,51,53,55,57,59,61,-1,-1,-1,-1,-1,-1,-1,-1,-1,-1,-1,-1,-1,-1,-1,-1,-1,-1,-1,-1,-1,-1,-1,-1,-1,-1,-1,-1,-1,-1,-1,-1],"loss_changes":[2.2024125E-1,1.7310804E-1,1.17425315E-1,1.6758272E-1,3.7106997E-1,1.2825541E-1,2.985334E-1,9.497243E-2,3.6829654E-2,1.5670481E-1,1.0185267E-1,2.1238098E-1,5.6751046E-2,8.270782E-2,2.6243618E-1,5.4602966E-2,1.03360355E-1,2.9138451E-2,3.026722E-2,3.5970014E-2,1.8942583E-1,2.2274988E-2,8.3298355E-2,8.3538204E-2,1.2504244E-1,1.2192771E-1,7.141133E-2,1.1092107E-1,7.1561664E-2,1.6205275E-1,5.949368E-2,0E0,0E0,0E0,0E0,0E0,0E0,0E0,0E0,0E0,0E0,0E0,0E0,0E0,0E0,0E0,0E0,0E0,0E0,0E0,0E0,0E0,0E0,0E0,0E0,0E0,0E0,0E0,0E0,0E0,0E0,0E0,0E0],"parents":[2147483647,0,0,1,1,2,2,3,3,4,4,5,5,6,6,7,7,8,8,9,9,10,10,11,11,12,12,13,13,14,14,15,15,16,16,17,17,18,18,19,19,20,20,21,21,22,22,23,23,24,24,25,25,26,26,27,27,28,28,29,29,30,30],"right_children":[2,4,6,8,10,12,14,16,18,20,22,24,26,28,30,32,34,36,38,40,42,44,46,48,50,52,54,56,58,60,62,-1,-1,-1,-1,-1,-1,-1,-1,-1,-1,-1,-1,-1,-1,-1,-1,-1,-1,-1,-1,-1,-1,-1,-1,-1,-1,-1,-1,-1,-1,-1,-1],"split_conditions":[-2.591187E-1,-2.214066E-2,2.1430757E0,-1.5713688E-2,1.0616605E-1,-8.565411E-2,4.677688E-2,-5.507343E-2,2.2561903E-1,1.8475162E0,9.531523E-2,5.2267794E-2,-3.899844E-2,-3.0047286E-2,2.492042E-1,3.7812848E-2,7.762841E-2,1.8202063E-1,1.2964282E0,-6.6542773E0,2.0714004E0,1.501621E-1,4.420118E1,6.9623727E-1,1.6170399E0,9.264713E-2,5.257268E-2,5.4372303E-2,1.1220147E-1,1.7905443E0,3.9492935E1,6.145851E-4,7.3773454E-6,2.29019E-4,1.120915E-3,-3.0624628E-4,1.9491643E-3,-6.7533576E-4,2.6530235E-3,6.096339E-4,-4.249059E-4,-2.016657E-3,1.9361575E-4,-4.8587728E-5,3.0057442E-3,3.9388213E-4,1.2886231E-3,4.0873038E-4,8.711116E-5,-1.1292998E-5,-1.4429461E-3,-5.4837274E-5,-7.011295E-4,-2.5455383E-6,6.96336E-5,-4.8033307E-5,1.4646951E-3,-6.390809E-4,-4.2177013E-5,-2.2528262E-3,5.0869567E-4,4.908372E-4,-5.9793185E-4],"split_indices":[5,7,14,8,13,8,7,9,13,14,12,7,7,13,13,13,12,13,9,2,10,11,0,14,14,11,12,12,13,10,0,0,0,0,0,0,0,0,0,0,0,0,0,0,0,0,0,0,0,0,0,0,0,0,0,0,0,0,0,0,0,0,0],"split_type":[0,0,0,0,0,0,0,0,0,0,0,0,0,0,0,0,0,0,0,0,0,0,0,0,0,0,0,0,0,0,0,0,0,0,0,0,0,0,0,0,0,0,0,0,0,0,0,0,0,0,0,0,0,0,0,0,0,0,0,0,0,0,0],"sum_hessian":[1.873142E6,7.269E3,1.865873E6,3.636E3,3.633E3,1.85997E6,5.903E3,3.221E3,4.15E2,8.91E2,2.742E3,3.8232E4,1.821738E6,4.785E3,1.118E3,1.505E3,1.716E3,5.6E1,3.59E2,3.9E2,5.01E2,1.176E3,1.566E3,3.7611E4,6.21E2,2.9186E4,1.792552E6,5.05E2,4.28E3,4.55E2,6.63E2,8.49E2,6.56E2,4.36E2,1.28E3,3E1,2.6E1,3.53E2,6E0,1.21E2,2.69E2,3.7E2,1.31E2,1.171E3,5E0,1.237E3,3.29E2,2.14E3,3.5471E4,2.68E2,3.53E2,2.8438E4,7.48E2,1.757604E6,3.4948E4,3.05E2,2E2,5.8E2,3.7E3,3.94E2,6.1E1,1.67E2,4.96E2],"tree_param":{"num_deleted":"0","num_feature":"15","num_nodes":"63","size_leaf_vector":"1"}},{"base_weights":[2.6218018E-8,-2.0633886E-5,5.2481685E-3,-4.624842E-6,-5.232076E-3,9.687171E-3,-1.9482786E-3,-4.7912283E-5,1.5873777E-3,-1.7684171E-3,-2.8693015E-2,1.4695749E-2,2.6360766E-3,-1.1102085E-2,8.750367E-3,1.2712688E-3,-7.250438E-5,1.10640805E-2,1.1356787E-3,1.5266628E-2,-3.291944E-3,-4.697355E-2,-4.7065704E-3,1.8487928E-2,3.948277E-3,1.6077664E-2,-4.0601585E-3,3.108485E-3,-1.7170344E-2,1.9032001E-2,-5.4621085E-4,2.860704E-4,4.366658E-5,5.151407E-6,-1.051799E-5,3.3817798E-4,1.4395971E-3,1.1097046E-4,-2.3767068E-4,1.096781E-3,-8.395244E-4,-3.5700915E-4,1.4646021E-4,-2.955653E-3,-1.403747E-3,-7.315409E-4,1.1432768E-4,7.886444E-4,2.078414E-3,4.1094777E-4,-7.874675E-4,1.2126504E-3,-2.6116965E-4,-8.405756E-4,6.665656E-4,9.2406245E-4,-1.6353E-4,7.8028353E-4,-9.896149E-4,1.6934241E-3,3.8347178E-4,1.9041965E-4,-1.1099922E-3],"categories":[],"categories_nodes":[],"categories_segments":[],"categories_sizes":[],"default_left":[0,0,0,0,0,0,0,0,0,0,0,0,0,0,0,0,0,0,0,0,0,0,0,0,0,0,0,0,0,0,0,0,0,0,0,0,0,0,0,0,0,0,0,0,0,0,0,0,0,0,0,0,0,0,0,0,0,0,0,0,0,0,0],"id":14,"left_children":[1,3,5,7,9,11,13,15,17,19,21,23,25,27,29,31,33,35,37,39,41,43,45,47,49,51,53,55,57,59,61,-1,-1,-1,-1,-1,-1,-1,-1,-1,-1,-1,-1,-1,-1,-1,-1,-1,-1,-1,-1,-1,-1,-1,-1,-1,-1,-1,-1,-1,-1,-1,-1],"loss_changes":[2.0309971E-1,1.5566398E-1,2.3465528E-1,1.2818551E-1,4.6427286E-1,1.6040161E-1,2.7460426E-1,5.8746614E-2,2.1075642E-1,1.2929794E-1,3.220654E-1,1.08175874E-1,1.7000043E-1,1.3035206E-1,1.2360053E-1,5.8681834E-2,4.301724E-2,1.7058074E-1,2.9996708E-1,8.780788E-2,1.09476715E-1,9.4008505E-2,2.2172531E-2,1.2235391E-1,5.8510274E-2,1.09488785E-1,2.798695E-1,4.4483513E-2,9.131631E-2,1.0324864E-1,6.420378E-2,0E0,0E0,0E0,0E0,0E0,0E0,0E0,0E0,0E0,0E0,0E0,0E0,0E0,0E0,0E0,0E0,0E0,0E0,0E0,0E0,0E0,0E0,0E0,0E0,0E0,0E0,0E0,0E0,0E0,0E0,0E0,0E0],"parents":[2147483647,0,0,1,1,2,2,3,3,4,4,5,5,6,6,7,7,8,8,9,9,10,10,11,11,12,12,13,13,14,14,15,15,16,16,17,17,18,18,19,19,20,20,21,21,22,22,23,23,24,24,25,25,26,26,27,27,28,28,29,29,30,30],"right_children":[2,4,6,8,10,12,14,16,18,20,22,24,26,28,30,32,34,36,38,40,42,44,46,48,50,52,54,56,58,60,62,-1,-1,-1,-1,-1,-1,-1,-1,-1,-1,-1,-1,-1,-1,-1,-1,-1,-1,-1,-1,-1,-1,-1,-1,-1,-1,-1,-1,-1,-1,-1,-1],"split_conditions":[9.531523E-2,2.1430757E0,3.6392787E-1,5.257268E-2,6.0662746E-2,1.189747E0,4.895845E1,1.9086426E1,-5.7077955E-2,-7.45949E-2,-1.0935543E0,-1.6745878E0,-7.45949E-2,1.7021379E-1,5.1712308E-2,-1.0986706E-1,3.2043224E-4,1.8994757E0,1.6413069E0,2.4239754E-3,1.5005847E0,-6.388938E-2,1.5981395E0,4.420118E1,3.5383865E-2,3.7812848E-2,-1.2529036E-1,1.5515884E-2,1.0180256E0,-2.0545854E-1,1.4587309E0,2.860704E-4,4.366658E-5,5.151407E-6,-1.051799E-5,3.3817798E-4,1.4395971E-3,1.1097046E-4,-2.3767068E-4,1.096781E-3,-8.395244E-4,-3.5700915E-4,1.4646021E-4,-2.955653E-3,-1.403747E-3,-7.315409E-4,1.1432768E-4,7.886444E-4,2.078414E-3,4.1094777E-4,-7.874675E-4,1.2126504E-3,-2.6116965E-4,-8.405756E-4,6.665656E-4,9.2406245E-4,-1.6353E-4,7.8028353E-4,-9.896149E-4,1.6934241E-3,3.8347178E-4,1.9041965E-4,-1.1099922E-3],"split_indices":[12,14,13,12,7,10,0,0,13,7,1,2,7,3,11,8,8,14,14,13,10,11,10,0,7,13,8,7,14,5,1,0,0,0,0,0,0,0,0,0,0,0,0,0,0,0,0,0,0,0,0,0,0,0,0,0,0,0,0,0,0,0,0],"split_type":[0,0,0,0,0,0,0,0,0,0,0,0,0,0,0,0,0,0,0,0,0,0,0,0,0,0,0,0,0,0,0,0,0,0,0,0,0,0,0,0,0,0,0,0,0,0,0,0,0,0,0,0,0,0,0,0,0,0,0,0,0,0,0],"sum_hessian":[1.873142E6,1.865798E6,7.344E3,1.860085E6,5.713E3,4.542E3,2.802E3,1.810848E6,4.9237E4,4.979E3,7.34E2,2.655E3,1.887E3,1.51E3,1.292E3,3.3139E4,1.777709E6,2.239E3,4.6998E4,4.08E2,4.571E3,4.16E2,3.18E2,1.962E3,6.93E2,6.27E2,1.26E3,4.52E2,1.058E3,6.13E2,6.79E2,2.719E3,3.042E4,7.81992E5,9.95717E5,1.803E3,4.36E2,3.9694E4,7.304E3,3.38E2,7E1,2.824E3,1.747E3,2.52E2,1.64E2,1.31E2,1.87E2,1.757E3,2.05E2,5.7E2,1.23E2,4.53E2,1.74E2,7.27E2,5.33E2,1.32E2,3.2E2,7.8E1,9.8E2,2.65E2,3.48E2,5.66E2,1.13E2],"tree_param":{"num_deleted":"0","num_feature":"15","num_nodes":"63","size_leaf_vector":"1"}},{"base_weights":[2.603014E-8,2.8727767E-3,-3.4096454E-5,1.8612859E-3,7.179028E-3,-1.9747456E-5,-4.2541185E-3,4.7861906E-3,1.1776999E-3,1.3977111E-2,4.5711715E-3,1.1547719E-3,-6.20288E-5,-2.8002439E-2,3.679372E-4,2.8667306E-3,1.5481684E-2,1.4038411E-3,-6.503549E-3,2.1655748E-2,-1.516187E-3,1.6278373E-2,1.333708E-3,1.7601873E-3,-3.2433597E-3,1.21615085E-4,-2.0558042E-4,-1.3563144E-3,-3.6538463E-2,-9.042769E-3,1.1351333E-3,9.151969E-5,6.635524E-4,1.4074546E-3,4.933749E-4,1.0448457E-4,-6.903219E-5,-9.192485E-5,-2.184129E-3,1.8810754E-4,1.4438842E-3,-1.0635913E-3,9.021801E-4,1.2659283E-3,2.1860478E-5,-1.091998E-3,3.060537E-4,5.5514607E-5,3.290876E-4,-7.4830884E-4,-2.3270117E-5,7.1418384E-7,3.3212258E-5,-3.8241697E-4,-1.00044035E-5,-6.972774E-4,8.929573E-4,-2.121978E-3,-3.351999E-4,1.7533124E-5,-1.0576545E-3,1.0758421E-3,3.968183E-5],"categories":[],"categories_nodes":[],"categories_segments":[],"categories_sizes":[],"default_left":[0,0,0,0,0,0,0,0,0,0,0,0,0,0,0,0,0,0,0,0,0,0,0,0,0,0,0,0,0,0,0,0,0,0,0,0,0,0,0,0,0,0,0,0,0,0,0,0,0,0,0,0,0,0,0,0,0,0,0,0,0,0,0],"id":15,"left_children":[1,3,5,7,9,11,13,15,17,19,21,23,25,27,29,31,33,35,37,39,41,43,45,47,49,51,53,55,57,59,61,-1,-1,-1,-1,-1,-1,-1,-1,-1,-1,-1,-1,-1,-1,-1,-1,-1,-1,-1,-1,-1,-1,-1,-1,-1,-1,-1,-1,-1,-1,-1,-1],"loss_changes":[1.8361567E-1,9.5760494E-2,1.1209312E-1,3.55981E-2,7.4076384E-2,9.161747E-2,6.885729E-1,6.920187E-2,2.50834E-2,1.3791604E-1,1.1459285E-1,1.7070054E-1,4.6945594E-2,2.3240632E-1,3.7928954E-2,3.0824093E-2,3.6205366E-2,2.6783166E-2,7.1551286E-2,1.0004187E-1,1.4915404E-1,9.378962E-2,2.6306343E-1,1.7656603E-1,2.5260353E-1,4.5503177E-2,4.0855955E-2,6.048412E-2,1.3598287E-1,4.5055382E-2,3.3789042E-2,0E0,0E0,0E0,0E0,0E0,0E0,0E0,0E0,0E0,0E0,0E0,0E0,0E0,0E0,0E0,0E0,0E0,0E0,0E0,0E0,0E0,0E0,0E0,0E0,0E0,0E0,0E0,0E0,0E0,0E0,0E0,0E0],"parents":[2147483647,0,0,1,1,2,2,3,3,4,4,5,5,6,6,7,7,8,8,9,9,10,10,11,11,12,12,13,13,14,14,15,15,16,16,17,17,18,18,19,19,20,20,21,21,22,22,23,23,24,24,25,25,26,26,27,27,28,28,29,29,30,30],"right_children":[2,4,6,8,10,12,14,16,18,20,22,24,26,28,30,32,34,36,38,40,42,44,46,48,50,52,54,56,58,60,62,-1,-1,-1,-1,-1,-1,-1,-1,-1,-1,-1,-1,-1,-1,-1,-1,-1,-1,-1,-1,-1,-1,-1,-1,-1,-1,-1,-1,-1,-1,-1,-1],"split_conditions":[-2.950051E-1,9.531523E-2,7.788545E-2,6.4720905E-1,-6.6542773E0,-1.0976635E-1,-1.8738938E-2,6.88547E-2,7.788545E-2,6.353709E-1,-7.45949E-2,2.0851327E-2,3.2043224E-4,1.1394948E0,1.3870333E-2,5.969802E-2,-6.1565474E-2,3.2447644E-2,1.7626998E0,2.1119781E1,4.420118E1,-3.577692E-1,1.0616605E-1,6.3323304E-2,1.2374603E-1,3.1661175E-2,-5.877787E-2,9.531523E-2,-4.916166E-1,1.2272443E0,3.5748768E1,9.151969E-5,6.635524E-4,1.4074546E-3,4.933749E-4,1.0448457E-4,-6.903219E-5,-9.192485E-5,-2.184129E-3,1.8810754E-4,1.4438842E-3,-1.0635913E-3,9.021801E-4,1.2659283E-3,2.1860478E-5,-1.091998E-3,3.060537E-4,5.5514607E-5,3.290876E-4,-7.4830884E-4,-2.3270117E-5,7.1418384E-7,3.3212258E-5,-3.8241697E-4,-1.00044035E-5,-6.972774E-4,8.929573E-4,-2.121978E-3,-3.351999E-4,1.7533124E-5,-1.0576545E-3,1.0758421E-3,3.968183E-5],"split_indices":[6,12,7,14,2,5,8,12,7,3,7,7,8,10,8,5,8,8,14,0,0,3,13,12,13,12,7,12,1,10,0,0,0,0,0,0,0,0,0,0,0,0,0,0,0,0,0,0,0,0,0,0,0,0,0,0,0,0,0,0,0,0,0],"split_type":[0,0,0,0,0,0,0,0,0,0,0,0,0,0,0,0,0,0,0,0,0,0,0,0,0,0,0,0,0,0,0,0,0,0,0,0,0,0,0,0,0,0,0,0,0,0,0,0,0,0,0,0,0,0,0,0,0,0,0,0,0,0,0],"sum_hessian":[1.873142E6,2.1987E4,1.851155E6,1.7806E4,4.181E3,1.844883E6,6.272E3,3.372E3,1.4434E4,1.158E3,3.023E3,6.4105E4,1.780778E6,1.021E3,5.251E3,2.86E3,5.12E2,1.4022E4,4.12E2,7.74E2,3.84E2,6.54E2,2.369E3,5.6349E4,7.756E3,7.81287E5,9.99491E5,2.48E2,7.73E2,3.95E2,4.856E3,2.602E3,2.58E2,1.56E2,3.56E2,1.1251E4,2.771E3,3.67E2,4.5E1,2.23E2,5.51E2,1.91E2,1.93E2,4.16E2,2.38E2,4.05E2,1.964E3,4.9657E4,6.692E3,1.485E3,6.271E3,6.5227E5,1.29017E5,7.36E2,9.98755E5,1.5E2,9.8E1,6.45E2,1.28E2,2.23E2,1.72E2,7.9E1,4.777E3],"tree_param":{"num_deleted":"0","num_feature":"15","num_nodes":"63","size_leaf_vector":"1"}},{"base_weights":[2.4405288E-8,4.8068105E-3,-1.8784436E-5,1.0017773E-2,-6.442113E-3,1.180602E-3,-5.885972E-5,1.6968533E-2,4.973628E-3,-1.7073048E-2,1.3904025E-2,3.1404821E-3,7.533147E-4,-3.2617103E-5,-2.046021E-3,5.5702403E-3,2.1779086E-2,-8.105096E-4,1.2630712E-2,7.7574013E-4,-3.0352946E-2,1.1998615E-2,1.1205842E-1,1.2642696E-2,2.1533216E-3,-2.8568287E-3,1.0672616E-3,3.2828301E-3,-4.2075044E-5,-6.469179E-4,-1.1607119E-2,8.970457E-4,-7.741791E-5,1.2593813E-3,1.1102164E-4,2.045745E-4,-2.814525E-4,8.3680946E-4,-4.516468E-4,5.820136E-4,-1.9410964E-4,-4.8276546E-4,-1.9817662E-3,9.734509E-5,1.1074468E-3,3.4979247E-3,1.7536437E-2,3.7256978E-4,1.1403409E-3,1.2639366E-4,-9.983805E-4,-1.11367786E-4,-2.8204701E-3,3.3894044E-5,1.497403E-4,2.579231E-4,-6.129621E-5,-6.602062E-6,1.26558825E-5,-4.5028082E-5,7.662189E-4,-1.210708E-3,-1.9473568E-4],"categories":[],"categories_nodes":[],"categories_segments":[],"categories_sizes":[],"default_left":[0,0,0,0,0,0,0,0,0,0,0,0,0,0,0,0,0,0,0,0,0,0,0,0,0,0,0,0,0,0,0,0,0,0,0,0,0,0,0,0,0,0,0,0,0,0,0,0,0,0,0,0,0,0,0,0,0,0,0,0,0,0,0],"id":16,"left_children":[1,3,5,7,9,11,13,15,17,19,21,23,25,27,29,31,33,35,37,39,41,43,45,47,49,51,53,55,57,59,61,-1,-1,-1,-1,-1,-1,-1,-1,-1,-1,-1,-1,-1,-1,-1,-1,-1,-1,-1,-1,-1,-1,-1,-1,-1,-1,-1,-1,-1,-1,-1,-1],"loss_changes":[1.693511E-1,4.2803258E-1,8.968322E-2,1.7486817E-1,5.003195E-1,5.0518207E-2,9.415454E-2,1.14916384E-1,1.2814012E-1,3.6007226E-1,1.4715281E-1,1.01260275E-1,5.614115E-2,5.587836E-2,3.147925E-1,5.497838E-2,9.827709E-2,3.8973205E-2,1.10881016E-1,3.2888655E-2,1.6695666E-1,7.953881E-2,1.2618361E-1,5.3439304E-2,8.110678E-2,1.3346668E-1,3.419972E-2,4.287365E-2,4.7190238E-2,8.31812E-2,2.9198647E-1,0E0,0E0,0E0,0E0,0E0,0E0,0E0,0E0,0E0,0E0,0E0,0E0,0E0,0E0,0E0,0E0,0E0,0E0,0E0,0E0,0E0,0E0,0E0,0E0,0E0,0E0,0E0,0E0,0E0,0E0,0E0,0E0],"parents":[2147483647,0,0,1,1,2,2,3,3,4,4,5,5,6,6,7,7,8,8,9,9,10,10,11,11,12,12,13,13,14,14,15,15,16,16,17,17,18,18,19,19,20,20,21,21,22,22,23,23,24,24,25,25,26,26,27,27,28,28,29,29,30,30],"right_children":[2,4,6,8,10,12,14,16,18,20,22,24,26,28,30,32,34,36,38,40,42,44,46,48,50,52,54,56,58,60,62,-1,-1,-1,-1,-1,-1,-1,-1,-1,-1,-1,-1,-1,-1,-1,-1,-1,-1,-1,-1,-1,-1,-1,-1,-1,-1,-1,-1,-1,-1,-1,-1],"split_conditions":[-1.480842E-1,-1.6294641E-2,-2.0045342E-1,-4.2862836E-2,1.5124342E-1,-7.632429E-2,1.8994757E0,1.3790878E0,9.531523E-2,1.7276747E0,1.7905443E0,6.7591465E-1,-3.899844E-2,-1.2529036E-1,4.28728E-2,1.7815401E1,1.890254E0,1.291932E0,1.5005847E0,1.1129035E0,9.790167E-3,2.0651087E-1,4.487376E-2,5.6643605E-2,7.788545E-2,2.694453E-1,5.8071026E1,3.491987E1,2.813146E-2,9.531523E-2,-1.6558908E-2,8.970457E-4,-7.741791E-5,1.2593813E-3,1.1102164E-4,2.045745E-4,-2.814525E-4,8.3680946E-4,-4.516468E-4,5.820136E-4,-1.9410964E-4,-4.8276546E-4,-1.9817662E-3,9.734509E-5,1.1074468E-3,3.4979247E-3,1.7536437E-2,3.7256978E-4,1.1403409E-3,1.2639366E-4,-9.983805E-4,-1.11367786E-4,-2.8204701E-3,3.3894044E-5,1.497403E-4,2.579231E-4,-6.129621E-5,-6.602062E-6,1.26558825E-5,-4.5028082E-5,7.662189E-4,-1.210708E-3,-1.9473568E-4],"split_indices":[11,7,6,13,13,8,14,14,12,14,10,14,7,8,7,0,10,14,10,10,7,13,8,12,7,5,0,0,12,12,8,0,0,0,0,0,0,0,0,0,0,0,0,0,0,0,0,0,0,0,0,0,0,0,0,0,0,0,0,0,0,0,0],"split_type":[0,0,0,0,0,0,0,0,0,0,0,0,0,0,0,0,0,0,0,0,0,0,0,0,0,0,0,0,0,0,0,0,0,0,0,0,0,0,0,0,0,0,0,0,0,0,0,0,0,0,0,0,0,0,0,0,0,0,0,0,0,0,0],"sum_hessian":[1.873142E6,7.3E3,1.865842E6,4.989E3,2.311E3,6.0327E4,1.805515E6,2.097E3,2.892E3,1.518E3,7.93E2,1.0797E4,4.953E4,1.781983E6,2.3532E4,6.23E2,1.474E3,1.648E3,1.244E3,6.48E2,8.7E2,7.79E2,1.4E1,1.015E3,9.782E3,3.962E3,4.5568E4,5.068E3,1.776915E6,2.0529E4,3.003E3,2.27E2,3.96E2,1.255E3,2.19E2,8.17E2,8.31E2,1.046E3,1.98E2,1.94E2,4.54E2,2.7E2,6E2,3.92E2,3.87E2,1.3E1,1E0,6.73E2,3.42E2,9.62E3,1.62E2,3.917E3,4.5E1,3.7911E4,7.657E3,3.579E3,1.489E3,1.36186E6,4.15055E5,2.0209E4,3.2E2,1.139E3,1.864E3],"tree_param":{"num_deleted":"0","num_feature":"15","num_nodes":"63","size_leaf_vector":"1"}},{"base_weights":[3.3888018E-8,2.6469338E-3,-3.129888E-5,1.0590324E-2,1.463657E-3,-7.164671E-6,-1.8928678E-3,1.3224087E-3,1.9593626E-2,4.02323E-3,-2.845836E-3,-5.852236E-5,9.665556E-4,-4.5204806E-4,-1.0590715E-2,1.8370746E-2,-4.0734713E-3,2.603538E-2,5.5769132E-3,1.5975435E-3,7.862727E-3,2.1249645E-3,-1.0152511E-2,7.0635295E-5,-2.472006E-4,4.153578E-3,6.3541176E-4,-6.0208637E-4,1.1798039E-2,-1.8830447E-2,-1.0114447E-3,2.5425802E-4,1.450022E-3,-4.8103635E-3,-1.8177241E-4,-3.159983E-4,1.5112928E-3,-2.1527421E-3,5.7090697E-4,-2.659863E-4,1.1050497E-4,6.177979E-4,-9.974588E-6,5.193378E-4,-2.9062852E-5,-8.130762E-4,2.3069592E-4,-9.204537E-5,5.1452275E-6,-2.8914333E-6,-2.2156772E-5,6.1899796E-4,1.4947516E-4,6.0427563E-5,-5.1743322E-5,3.387326E-5,-1.1283051E-4,7.5413706E-4,-1.9895944E-3,-1.4485995E-3,-5.3117605E-4,-3.0179246E-5,-2.1463195E-3],"categories":[],"categories_nodes":[],"categories_segments":[],"categories_sizes":[],"default_left":[0,0,0,0,0,0,0,0,0,0,0,0,0,0,0,0,0,0,0,0,0,0,0,0,0,0,0,0,0,0,0,0,0,0,0,0,0,0,0,0,0,0,0,0,0,0,0,0,0,0,0,0,0,0,0,0,0,0,0,0,0,0,0],"id":17,"left_children":[1,3,5,7,9,11,13,15,17,19,21,23,25,27,29,31,33,35,37,39,41,43,45,47,49,51,53,55,57,59,61,-1,-1,-1,-1,-1,-1,-1,-1,-1,-1,-1,-1,-1,-1,-1,-1,-1,-1,-1,-1,-1,-1,-1,-1,-1,-1,-1,-1,-1,-1,-1,-1],"loss_changes":[1.5534863E-1,2.059592E-1,8.3171114E-2,2.3703241E-1,2.1040653E-1,9.139162E-2,2.9691657E-1,1.2895392E-1,1.299659E-1,1.1144109E-1,2.581843E-1,4.2304456E-2,9.6628495E-2,3.736778E-2,2.6574036E-1,4.7444247E-2,4.263016E-2,1.3401264E-1,1.2974304E-1,3.1091712E-2,1.6783473E-1,9.460373E-2,2.5969446E-1,6.356783E-2,2.617509E-2,8.249003E-2,7.94047E-2,4.2516097E-2,4.2286716E-2,1.5034014E-1,2.6608761E-2,0E0,0E0,0E0,0E0,0E0,0E0,0E0,0E0,0E0,0E0,0E0,0E0,0E0,0E0,0E0,0E0,0E0,0E0,0E0,0E0,0E0,0E0,0E0,0E0,0E0,0E0,0E0,0E0,0E0,0E0,0E0,0E0],"parents":[2147483647,0,0,1,1,2,2,3,3,4,4,5,5,6,6,7,7,8,8,9,9,10,10,11,11,12,12,13,13,14,14,15,15,16,16,17,17,18,18,19,19,20,20,21,21,22,22,23,23,24,24,25,25,26,26,27,27,28,28,29,29,30,30],"right_children":[2,4,6,8,10,12,14,16,18,20,22,24,26,28,30,32,34,36,38,40,42,44,46,48,50,52,54,56,58,60,62,-1,-1,-1,-1,-1,-1,-1,-1,-1,-1,-1,-1,-1,-1,-1,-1,-1,-1,-1,-1,-1,-1,-1,-1,-1,-1,-1,-1,-1,-1,-1,-1],"split_conditions":[-1.802354E-1,-7.45949E-2,1.8994757E0,1.8475162E0,1.189747E0,4.3636393E-2,3.7416097E-2,1.6339376E1,-7.7709686E-3,7.762841E-2,1.7626998E0,3.7468466E-1,6.3217914E-1,9.531523E-2,-4.916166E-1,1.3971351E0,5.628421E-1,5.257268E-2,1.6339376E1,-5.076376E-2,1.1399474E-2,-1.544332E-1,-7.632429E-2,-3.899844E-2,1.497472E-3,-6.941896E-2,2.3088526E-2,3.5233572E-2,1.07616015E-1,-3.4572966E-2,9.531523E-2,2.5425802E-4,1.450022E-3,-4.8103635E-3,-1.8177241E-4,-3.159983E-4,1.5112928E-3,-2.1527421E-3,5.7090697E-4,-2.659863E-4,1.1050497E-4,6.177979E-4,-9.974588E-6,5.193378E-4,-2.9062852E-5,-8.130762E-4,2.3069592E-4,-9.204537E-5,5.1452275E-6,-2.8914333E-6,-2.2156772E-5,6.1899796E-4,1.4947516E-4,6.0427563E-5,-5.1743322E-5,3.387326E-5,-1.1283051E-4,7.5413706E-4,-1.9895944E-3,-1.4485995E-3,-5.3117605E-4,-3.0179246E-5,-2.1463195E-3],"split_indices":[5,7,14,14,10,12,7,0,13,12,14,1,14,12,1,10,10,12,0,7,8,8,8,7,7,8,7,12,5,8,12,0,0,0,0,0,0,0,0,0,0,0,0,0,0,0,0,0,0,0,0,0,0,0,0,0,0,0,0,0,0,0,0],"split_type":[0,0,0,0,0,0,0,0,0,0,0,0,0,0,0,0,0,0,0,0,0,0,0,0,0,0,0,0,0,0,0,0,0,0,0,0,0,0,0,0,0,0,0,0,0,0,0,0,0,0,0,0,0,0,0,0,0,0,0,0,0,0,0],"sum_hessian":[1.873142E6,2.1913E4,1.851229E6,2.84E3,1.9073E4,1.827537E6,2.3692E4,1.4E3,1.44E3,1.1966E4,7.107E3,1.735976E6,9.1561E4,2.0326E4,3.366E3,3.36E2,1.064E3,9.86E2,4.54E2,7.334E3,4.632E3,4.23E3,2.877E3,1.030535E6,7.05441E5,8.617E3,8.2944E4,2.0081E4,2.45E2,1.809E3,1.557E3,1.5E2,1.86E2,4E0,1.06E3,1.13E2,8.73E2,4.8E1,4.06E2,5.96E2,6.738E3,2.974E3,1.658E3,1.043E3,3.187E3,2.035E3,8.42E2,1.7107E4,1.013428E6,3.58729E5,3.46712E5,1.067E3,7.55E3,6.1754E4,2.119E4,1.1324E4,8.757E3,2.31E2,1.4E1,8.08E2,1.001E3,1.543E3,1.4E1],"tree_param":{"num_deleted":"0","num_feature":"15","num_nodes":"63","size_leaf_vector":"1"}},{"base_weights":[2.7863837E-8,2.535301E-3,-3.0086068E-5,1.6184646E-3,6.4385943E-3,-1.7259727E-5,-3.9032737E-3,1.2975557E-3,7.0859296E-3,8.698242E-3,-9.043411E-4,2.83756E-3,-3.2138207E-5,-1.8557104E-4,-1.5198775E-2,2.9708806E-3,5.0201826E-4,1.5659656E-2,1.4110378E-3,1.7383132E-2,5.1723844E-3,-8.056811E-3,7.3769744E-3,5.694477E-3,-1.7335021E-3,1.5815362E-4,-1.6762137E-4,1.2114676E-2,-1.8701572E-3,-3.5306625E-2,-5.991433E-3,1.6598371E-4,-1.2472852E-3,-2.112839E-4,3.9271123E-5,4.2293777E-4,1.7794259E-3,9.4989606E-4,-1.0687747E-4,1.1981091E-3,-6.6709625E-5,4.5884532E-4,-3.751098E-4,-4.6466885E-5,-1.4024037E-3,1.9214388E-3,-9.401479E-5,6.3343975E-4,1.8002311E-4,3.7835427E-5,-8.2839635E-4,9.181384E-6,-5.395079E-4,-8.06999E-6,-2.6801758E-4,-7.282975E-5,1.3677719E-3,-6.833022E-4,-2.004445E-5,-2.383476E-3,-1.5789612E-4,3.995727E-4,-6.084863E-4],"categories":[],"categories_nodes":[],"categories_segments":[],"categories_sizes":[],"default_left":[0,0,0,0,0,0,0,0,0,0,0,0,0,0,0,0,0,0,0,0,0,0,0,0,0,0,0,0,0,0,0,0,0,0,0,0,0,0,0,0,0,0,0,0,0,0,0,0,0,0,0,0,0,0,0,0,0,0,0,0,0,0,0],"id":18,"left_children":[1,3,5,7,9,11,13,15,17,19,21,23,25,27,29,31,33,35,37,39,41,43,45,47,49,51,53,55,57,59,61,-1,-1,-1,-1,-1,-1,-1,-1,-1,-1,-1,-1,-1,-1,-1,-1,-1,-1,-1,-1,-1,-1,-1,-1,-1,-1,-1,-1,-1,-1,-1,-1],"loss_changes":[1.4300902E-1,7.8677624E-2,9.196321E-2,3.1234212E-2,6.939748E-2,7.836916E-2,2.565763E-1,2.2390502E-2,4.800036E-2,9.783822E-2,5.840282E-2,1.2493366E-1,4.732121E-2,9.5297016E-2,2.7990508E-1,5.2858017E-2,1.5280275E-2,5.6096725E-2,3.7173722E-2,1.1369228E-1,1.15588665E-1,7.534966E-2,1.3143916E-1,8.593005E-2,1.3595484E-1,2.1289586E-1,3.4636807E-2,1.1462728E-1,7.009971E-2,1.8863863E-1,8.985685E-2,0E0,0E0,0E0,0E0,0E0,0E0,0E0,0E0,0E0,0E0,0E0,0E0,0E0,0E0,0E0,0E0,0E0,0E0,0E0,0E0,0E0,0E0,0E0,0E0,0E0,0E0,0E0,0E0,0E0,0E0,0E0,0E0],"parents":[2147483647,0,0,1,1,2,2,3,3,4,4,5,5,6,6,7,7,8,8,9,9,10,10,11,11,12,12,13,13,14,14,15,15,16,16,17,17,18,18,19,19,20,20,21,21,22,22,23,23,24,24,25,25,26,26,27,27,28,28,29,29,30,30],"right_children":[2,4,6,8,10,12,14,16,18,20,22,24,26,28,30,32,34,36,38,40,42,44,46,48,50,52,54,56,58,60,62,-1,-1,-1,-1,-1,-1,-1,-1,-1,-1,-1,-1,-1,-1,-1,-1,-1,-1,-1,-1,-1,-1,-1,-1,-1,-1,-1,-1,-1,-1,-1,-1],"split_conditions":[-2.950051E-1,9.531523E-2,2.1430757E0,5.7414137E-2,2.2061251E-2,-1.2529036E-1,3.215822E-2,-6.941896E-2,6.4720905E-1,-6.6542773E0,4.3999966E1,-7.7709686E-3,-2.0463304E-3,-3.0047286E-2,1.9676985E-1,7.788545E-2,-5.076376E-2,1.0237496E0,-3.4572966E-2,5.8384055E-1,2.1430757E0,3.5008618E-1,-1.4367583E-2,-1.480842E-1,1.9607224E0,6.0662746E-2,9.531523E-2,5.4372303E-2,-1.0986706E-1,1.5436279E0,1.189747E0,1.6598371E-4,-1.2472852E-3,-2.112839E-4,3.9271123E-5,4.2293777E-4,1.7794259E-3,9.4989606E-4,-1.0687747E-4,1.1981091E-3,-6.6709625E-5,4.5884532E-4,-3.751098E-4,-4.6466885E-5,-1.4024037E-3,1.9214388E-3,-9.401479E-5,6.3343975E-4,1.8002311E-4,3.7835427E-5,-8.2839635E-4,9.181384E-6,-5.395079E-4,-8.06999E-6,-2.6801758E-4,-7.282975E-5,1.3677719E-3,-6.833022E-4,-2.004445E-5,-2.383476E-3,-1.5789612E-4,3.995727E-4,-6.084863E-4],"split_indices":[6,12,14,5,9,8,7,8,14,2,0,13,8,13,13,7,7,10,8,3,14,13,11,11,14,7,12,12,8,10,10,0,0,0,0,0,0,0,0,0,0,0,0,0,0,0,0,0,0,0,0,0,0,0,0,0,0,0,0,0,0,0,0],"split_type":[0,0,0,0,0,0,0,0,0,0,0,0,0,0,0,0,0,0,0,0,0,0,0,0,0,0,0,0,0,0,0,0,0,0,0,0,0,0,0,0,0,0,0,0,0,0,0,0,0,0,0,0,0,0,0,0,0,0,0,0,0,0,0],"sum_hessian":[1.873142E6,2.1987E4,1.851155E6,1.7806E4,4.181E3,1.845046E6,6.109E3,1.682E4,9.86E2,3.197E3,9.84E2,9.565E3,1.835481E6,4.597E3,1.512E3,5.419E3,1.1401E4,3.92E2,5.94E2,9.22E2,2.275E3,5.28E2,4.56E2,5.886E3,3.679E3,7.63339E5,1.072142E6,5.53E2,4.044E3,4.74E2,1.038E3,5.353E3,6.6E1,6.44E2,1.0757E4,2.89E2,1.03E2,9.9E1,4.95E2,6.82E2,2.4E2,1.729E3,5.46E2,3.9E2,1.38E2,1.04E2,3.52E2,1.358E3,4.528E3,3.151E3,5.28E2,7.61568E5,1.771E3,1.07086E6,1.282E3,2.93E2,2.6E2,4.47E2,3.597E3,3.42E2,1.32E2,3.18E2,7.2E2],"tree_param":{"num_deleted":"0","num_feature":"15","num_nodes":"63","size_leaf_vector":"1"}},{"base_weights":[2.6693323E-8,-1.6826862E-5,4.2812177E-3,-3.3056517E-6,-4.4184015E-3,7.809845E-3,-3.1338346E-3,-4.03783E-5,1.3601327E-3,-1.5190328E-3,-2.4057092E-2,1.0006534E-2,-2.1387793E-3,-1.4520473E-2,7.3687946E-3,1.1433754E-3,-6.244577E-5,9.473453E-3,9.734181E-4,1.0537048E-2,-3.160447E-3,-4.1268628E-2,-4.2664506E-3,1.306883E-2,9.216659E-6,1.4718459E-2,-1.2094751E-2,-3.2683453E-3,-1.8262953E-2,1.6123306E-2,-2.0454933E-3,2.5377618E-4,3.958784E-5,-1.9978665E-4,-2.8050483E-6,1.2630077E-4,9.383955E-4,9.732204E-5,-2.1570355E-4,1.4920752E-4,1.5842699E-3,-1.1456826E-3,-9.087301E-5,-2.2574465E-3,3.5940105E-4,-7.60558E-4,1.9610352E-4,5.5339385E-4,1.4701447E-3,-4.3515643E-4,3.6125747E-4,-2.1168482E-3,1.0337939E-3,-9.0335915E-4,1.6757593E-3,-2.3823534E-4,2.841963E-3,4.4967173E-4,-1.0298889E-3,2.6686912E-4,1.3921743E-3,4.840756E-4,-5.285693E-4],"categories":[],"categories_nodes":[],"categories_segments":[],"categories_sizes":[],"default_left":[0,0,0,0,0,0,0,0,0,0,0,0,0,0,0,0,0,0,0,0,0,0,0,0,0,0,0,0,0,0,0,0,0,0,0,0,0,0,0,0,0,0,0,0,0,0,0,0,0,0,0,0,0,0,0,0,0,0,0,0,0,0,0],"id":19,"left_children":[1,3,5,7,9,11,13,15,17,19,21,23,25,27,29,31,33,35,37,39,41,43,45,47,49,51,53,55,57,59,61,-1,-1,-1,-1,-1,-1,-1,-1,-1,-1,-1,-1,-1,-1,-1,-1,-1,-1,-1,-1,-1,-1,-1,-1,-1,-1,-1,-1,-1,-1,-1,-1],"loss_changes":[1.351535E-1,1.110423E-1,1.9220607E-1,9.402046E-2,3.2531747E-1,1.0878891E-1,2.8341487E-1,4.7303874E-2,1.5447694E-1,9.858265E-2,2.50185E-1,1.2481618E-1,1.5139303E-1,4.7820374E-2,1.0165374E-1,4.581588E-2,4.4364195E-2,1.4459535E-1,2.4181105E-1,9.526503E-2,1.16258435E-1,7.421893E-2,3.0799652E-2,1.0168034E-1,6.0227267E-2,1.14742845E-1,1.5505761E-1,2.5904495E-2,5.446917E-2,8.0629274E-2,5.959234E-2,0E0,0E0,0E0,0E0,0E0,0E0,0E0,0E0,0E0,0E0,0E0,0E0,0E0,0E0,0E0,0E0,0E0,0E0,0E0,0E0,0E0,0E0,0E0,0E0,0E0,0E0,0E0,0E0,0E0,0E0,0E0,0E0],"parents":[2147483647,0,0,1,1,2,2,3,3,4,4,5,5,6,6,7,7,8,8,9,9,10,10,11,11,12,12,13,13,14,14,15,15,16,16,17,17,18,18,19,19,20,20,21,21,22,22,23,23,24,24,25,25,26,26,27,27,28,28,29,29,30,30],"right_children":[2,4,6,8,10,12,14,16,18,20,22,24,26,28,30,32,34,36,38,40,42,44,46,48,50,52,54,56,58,60,62,-1,-1,-1,-1,-1,-1,-1,-1,-1,-1,-1,-1,-1,-1,-1,-1,-1,-1,-1,-1,-1,-1,-1,-1,-1,-1,-1,-1,-1,-1,-1,-1],"split_conditions":[9.531523E-2,2.1430757E0,3.9682397E-1,5.257268E-2,6.0662746E-2,1.421489E0,4.895845E1,1.9086426E1,-5.7077955E-2,-3.0047286E-2,-1.2966825E0,-1.6745878E0,1.9607224E0,1.6559316E-1,6.284474E-2,-1.0986706E-1,-7.45949E-2,1.5204694E0,1.6413069E0,6.88547E-2,-1.19724095E-1,2.7442463E-2,1.5981395E0,4.420118E1,-3.3534083E-1,1.0000606E0,2.0651087E-1,4.287901E-1,1.0180256E0,5.4165783E1,8.606354E-1,2.5377618E-4,3.958784E-5,-1.9978665E-4,-2.8050483E-6,1.2630077E-4,9.383955E-4,9.732204E-5,-2.1570355E-4,1.4920752E-4,1.5842699E-3,-1.1456826E-3,-9.087301E-5,-2.2574465E-3,3.5940105E-4,-7.60558E-4,1.9610352E-4,5.5339385E-4,1.4701447E-3,-4.3515643E-4,3.6125747E-4,-2.1168482E-3,1.0337939E-3,-9.0335915E-4,1.6757593E-3,-2.3823534E-4,2.841963E-3,4.4967173E-4,-1.0298889E-3,2.6686912E-4,1.3921743E-3,4.840756E-4,-5.285693E-4],"split_indices":[12,14,13,12,7,10,0,0,13,13,1,2,14,3,11,8,7,14,14,12,11,8,10,0,3,14,13,9,14,0,10,0,0,0,0,0,0,0,0,0,0,0,0,0,0,0,0,0,0,0,0,0,0,0,0,0,0,0,0,0,0,0,0],"split_type":[0,0,0,0,0,0,0,0,0,0,0,0,0,0,0,0,0,0,0,0,0,0,0,0,0,0,0,0,0,0,0,0,0,0,0,0,0,0,0,0,0,0,0,0,0,0,0,0,0,0,0,0,0,0,0,0,0,0,0,0,0,0,0],"sum_hessian":[1.873142E6,1.865798E6,7.344E3,1.860085E6,5.713E3,4.976E3,2.368E3,1.810848E6,4.9237E4,4.979E3,7.34E2,4.076E3,9E2,1.136E3,1.232E3,3.3139E4,1.777709E6,2.239E3,4.6998E4,5.96E2,4.383E3,3.92E2,3.42E2,3.12E3,9.56E2,3.34E2,5.66E2,2.84E2,8.52E2,6.38E2,5.94E2,2.719E3,3.042E4,2.862E3,1.774847E6,1.282E3,9.57E2,3.9694E4,7.304E3,4.4E2,1.56E2,2.78E2,4.105E3,3.63E2,2.9E1,1.46E2,1.96E2,2.781E3,3.39E2,4.33E2,5.23E2,3.1E1,3.03E2,5.01E2,6.5E1,2.78E2,6E0,6.7E1,7.85E2,3.33E2,3.05E2,2.5E2,3.44E2],"tree_param":{"num_deleted":"0","num_feature":"15","num_nodes":"63","size_leaf_vector":"1"}},{"base_weights":[2.7677157E-8,-1.598602E-5,4.067875E-3,-3.139815E-6,-4.197825E-3,7.895403E-3,-2.1370922E-3,-3.569972E-5,1.4025738E-3,-4.7673166E-4,-1.820972E-2,1.2316306E-2,1.6719829E-3,-1.0346617E-2,7.458212E-3,1.0982661E-3,-5.695202E-5,2.4120738E-3,-1.7957304E-3,1.0490686E-2,-2.0636343E-3,-1.5147058E-3,-3.2355703E-2,6.439534E-3,1.9408999E-2,1.256621E-2,-3.754858E-3,2.7362064E-3,-1.5933182E-2,1.66222E-2,-8.272996E-4,3.1012812E-4,4.0079412E-5,-5.049365E-5,-1.6797261E-6,4.7404514E-4,9.778297E-5,3.9540832E-6,-8.1743824E-4,1.3358692E-4,1.6410016E-3,-4.1606425E-5,-9.000323E-4,-6.2148616E-4,2.238182E-5,-1.9015269E-3,7.948495E-4,-1.8314731E-5,1.2249065E-3,2.2886011E-4,1.2165719E-3,1.0428873E-3,-2.773001E-4,-7.564078E-4,5.8786717E-4,8.3526E-4,-1.530047E-4,6.956174E-4,-9.1602013E-4,-2.5102432E-4,1.1542221E-3,1.5881279E-4,-1.0366231E-3],"categories":[],"categories_nodes":[],"categories_segments":[],"categories_sizes":[],"default_left":[0,0,0,0,0,0,0,0,0,0,0,0,0,0,0,0,0,0,0,0,0,0,0,0,0,0,0,0,0,0,0,0,0,0,0,0,0,0,0,0,0,0,0,0,0,0,0,0,0,0,0,0,0,0,0,0,0,0,0,0,0,0,0],"id":20,"left_children":[1,3,5,7,9,11,13,15,17,19,21,23,25,27,29,31,33,35,37,39,41,43,45,47,49,51,53,55,57,59,61,-1,-1,-1,-1,-1,-1,-1,-1,-1,-1,-1,-1,-1,-1,-1,-1,-1,-1,-1,-1,-1,-1,-1,-1,-1,-1,-1,-1,-1,-1,-1,-1],"loss_changes":[1.22018985E-1,1.0023214E-1,1.7445827E-1,8.5136E-2,2.979168E-1,1.249716E-1,2.2087756E-1,4.3812208E-2,1.3596115E-1,7.861914E-2,2.8311568E-1,1.1058286E-1,1.1166809E-1,1.1047964E-1,9.818911E-2,5.064185E-2,3.9719857E-2,1.0324615E-1,2.7565357E-1,9.9604316E-2,7.743129E-2,1.1807432E-2,1.7831767E-1,1.7871095E-1,8.771795E-2,9.4427474E-2,2.2264963E-1,3.6729842E-2,7.570633E-2,8.599006E-2,5.425602E-2,0E0,0E0,0E0,0E0,0E0,0E0,0E0,0E0,0E0,0E0,0E0,0E0,0E0,0E0,0E0,0E0,0E0,0E0,0E0,0E0,0E0,0E0,0E0,0E0,0E0,0E0,0E0,0E0,0E0,0E0,0E0,0E0],"parents":[2147483647,0,0,1,1,2,2,3,3,4,4,5,5,6,6,7,7,8,8,9,9,10,10,11,11,12,12,13,13,14,14,15,15,16,16,17,17,18,18,19,19,20,20,21,21,22,22,23,23,24,24,25,25,26,26,27,27,28,28,29,29,30,30],"right_children":[2,4,6,8,10,12,14,16,18,20,22,24,26,28,30,32,34,36,38,40,42,44,46,48,50,52,54,56,58,60,62,-1,-1,-1,-1,-1,-1,-1,-1,-1,-1,-1,-1,-1,-1,-1,-1,-1,-1,-1,-1,-1,-1,-1,-1,-1,-1,-1,-1,-1,-1,-1,-1],"split_conditions":[9.531523E-2,2.1430757E0,3.6392787E-1,5.4372303E-2,3.366496E-2,1.189747E0,4.895845E1,1.9086426E1,2.6707511E-2,-3.0047286E-2,5.257268E-2,1.8994757E0,-7.45949E-2,1.7021379E-1,5.1712308E-2,-1.2529036E-1,-3.4626637E-2,-5.7077955E-2,1.8023446E0,6.88547E-2,7.762841E-2,1.2914795E0,1.890254E0,4.2572327E1,-1.544332E-1,2.1430757E0,-1.2529036E-1,1.5515884E-2,1.0180256E0,7.90082E-2,1.4587309E0,3.1012812E-4,4.0079412E-5,-5.049365E-5,-1.6797261E-6,4.7404514E-4,9.778297E-5,3.9540832E-6,-8.1743824E-4,1.3358692E-4,1.6410016E-3,-4.1606425E-5,-9.000323E-4,-6.2148616E-4,2.238182E-5,-1.9015269E-3,7.948495E-4,-1.8314731E-5,1.2249065E-3,2.2886011E-4,1.2165719E-3,1.0428873E-3,-2.773001E-4,-7.564078E-4,5.8786717E-4,8.3526E-4,-1.530047E-4,6.956174E-4,-9.1602013E-4,-2.5102432E-4,1.1542221E-3,1.5881279E-4,-1.0366231E-3],"split_indices":[12,14,13,12,7,10,0,0,7,13,12,14,7,3,11,8,7,13,14,12,12,10,10,0,8,14,8,7,14,3,1,0,0,0,0,0,0,0,0,0,0,0,0,0,0,0,0,0,0,0,0,0,0,0,0,0,0,0,0,0,0,0,0],"split_type":[0,0,0,0,0,0,0,0,0,0,0,0,0,0,0,0,0,0,0,0,0,0,0,0,0,0,0,0,0,0,0,0,0,0,0,0,0,0,0,0,0,0,0,0,0,0,0,0,0,0,0,0,0,0,0,0,0,0,0,0,0,0,0],"sum_hessian":[1.873142E6,1.865798E6,7.344E3,1.860085E6,5.713E3,4.542E3,2.802E3,1.817977E6,4.2108E4,4.515E3,1.198E3,2.655E3,1.887E3,1.51E3,1.292E3,3.3444E4,1.784533E6,3.2006E4,1.0102E4,5.7E2,3.945E3,5.5E2,6.48E2,1.453E3,1.202E3,6.27E2,1.26E3,4.52E2,1.058E3,6.13E2,6.79E2,1.836E3,3.1608E4,4.2694E4,1.741839E6,1.94E3,3.0066E4,8.95E3,1.152E3,4.23E2,1.47E2,3.663E3,2.82E2,8.3E1,4.67E2,5.8E2,6.8E1,1.056E3,3.97E2,3E2,9.02E2,4.3E2,1.97E2,7.27E2,5.33E2,1.32E2,3.2E2,7.8E1,9.8E2,1.41E2,4.72E2,5.66E2,1.13E2],"tree_param":{"num_deleted":"0","num_feature":"15","num_nodes":"63","size_leaf_vector":"1"}},{"base_weights":[2.783551E-8,2.2382722E-3,-2.6557995E-5,1.1261307E-3,4.755735E-3,-1.5119147E-5,-3.3907092E-3,8.5725705E-4,6.133967E-3,1.882069E-2,3.9424445E-3,9.7465457E-4,-5.0749855E-5,-2.349345E-2,5.217796E-4,1.7555401E-3,-5.894475E-4,2.938805E-3,1.7967304E-2,-1.3042691E-2,2.3076592E-2,1.0570472E-2,1.8827318E-3,1.4932954E-3,-2.7930893E-3,9.2439775E-5,-1.9562664E-4,-4.8945745E-5,-3.1005321E-2,-4.0668533E-3,1.9186364E-3,3.4229513E-4,5.7972513E-5,-3.126242E-4,-9.2298305E-6,-1.5696154E-4,3.4695404E-4,2.1065222E-3,4.949027E-4,6.4943027E-4,-8.7473507E-4,-2.4451456E-5,1.3992132E-3,8.42225E-4,-7.5630516E-5,1.76331E-4,-4.0805983E-4,4.7052406E-5,2.795206E-4,-6.6670735E-4,-1.4759668E-5,-2.6976687E-7,3.146777E-5,-8.670743E-6,-9.0790556E-5,-2.476706E-3,2.1271627E-4,-1.8083744E-3,-2.4570557E-4,6.8483566E-4,-3.1204586E-4,3.5844443E-4,5.2101237E-5],"categories":[],"categories_nodes":[],"categories_segments":[],"categories_sizes":[],"default_left":[0,0,0,0,0,0,0,0,0,0,0,0,0,0,0,0,0,0,0,0,0,0,0,0,0,0,0,0,0,0,0,0,0,0,0,0,0,0,0,0,0,0,0,0,0,0,0,0,0,0,0,0,0,0,0,0,0,0,0,0,0,0,0],"id":21,"left_children":[1,3,5,7,9,11,13,15,17,19,21,23,25,27,29,31,33,35,37,39,41,43,45,47,49,51,53,55,57,59,61,-1,-1,-1,-1,-1,-1,-1,-1,-1,-1,-1,-1,-1,-1,-1,-1,-1,-1,-1,-1,-1,-1,-1,-1,-1,-1,-1,-1,-1,-1,-1,-1],"loss_changes":[1.1146253E-1,6.15561E-2,7.1236156E-2,2.0531183E-2,7.6989606E-2,6.506236E-2,4.9339464E-1,1.8813323E-2,2.9325124E-2,5.0204515E-2,8.694229E-2,1.252741E-1,3.6942016E-2,1.7998505E-1,3.3671357E-2,2.7091516E-2,1.2714079E-2,1.4926152E-2,3.1754427E-2,5.3264624E-3,3.7600696E-2,1.1449793E-1,8.02892E-2,1.2749347E-1,2.0424147E-1,4.7045417E-2,3.1854622E-2,5.3234816E-2,1.0407019E-1,4.743252E-2,1.8526524E-2,0E0,0E0,0E0,0E0,0E0,0E0,0E0,0E0,0E0,0E0,0E0,0E0,0E0,0E0,0E0,0E0,0E0,0E0,0E0,0E0,0E0,0E0,0E0,0E0,0E0,0E0,0E0,0E0,0E0,0E0,0E0,0E0],"parents":[2147483647,0,0,1,1,2,2,3,3,4,4,5,5,6,6,7,7,8,8,9,9,10,10,11,11,12,12,13,13,14,14,15,15,16,16,17,17,18,18,19,19,20,20,21,21,22,22,23,23,24,24,25,25,26,26,27,27,28,28,29,29,30,30],"right_children":[2,4,6,8,10,12,14,16,18,20,22,24,26,28,30,32,34,36,38,40,42,44,46,48,50,52,54,56,58,60,62,-1,-1,-1,-1,-1,-1,-1,-1,-1,-1,-1,-1,-1,-1,-1,-1,-1,-1,-1,-1,-1,-1,-1,-1,-1,-1,-1,-1,-1,-1,-1,-1],"split_conditions":[-2.950051E-1,7.762841E-2,7.788545E-2,5.7414137E-2,6.282445E-1,-1.0976635E-1,-1.8738938E-2,9.30192E-2,1.1652048E0,-4.351526E0,-6.6542773E0,2.0851327E-2,4.9195457E-3,1.1394948E0,2.2538416E-2,5.9577495E-1,-5.076376E-2,6.4545794E-4,6.0834676E-1,1.350885E-1,6.4207816E-1,-9.621586E-2,2.1430757E0,6.3323304E-2,1.2374603E-1,3.1661175E-2,1.2611067E-1,1.4054061E-1,-4.916166E-1,3.6012993E1,9.9584293E-1,3.4229513E-4,5.7972513E-5,-3.126242E-4,-9.2298305E-6,-1.5696154E-4,3.4695404E-4,2.1065222E-3,4.949027E-4,6.4943027E-4,-8.7473507E-4,-2.4451456E-5,1.3992132E-3,8.42225E-4,-7.5630516E-5,1.76331E-4,-4.0805983E-4,4.7052406E-5,2.795206E-4,-6.6670735E-4,-1.4759668E-5,-2.6976687E-7,3.146777E-5,-8.670743E-6,-9.0790556E-5,-2.476706E-3,2.1271627E-4,-1.8083744E-3,-2.4570557E-4,6.8483566E-4,-3.1204586E-4,3.5844443E-4,5.2101237E-5],"split_indices":[6,12,7,5,14,5,8,3,10,1,2,7,8,10,5,14,7,7,14,13,10,11,14,12,13,12,11,13,1,0,10,0,0,0,0,0,0,0,0,0,0,0,0,0,0,0,0,0,0,0,0,0,0,0,0,0,0,0,0,0,0,0,0],"split_type":[0,0,0,0,0,0,0,0,0,0,0,0,0,0,0,0,0,0,0,0,0,0,0,0,0,0,0,0,0,0,0,0,0,0,0,0,0,0,0,0,0,0,0,0,0,0,0,0,0,0,0,0,0,0,0,0,0,0,0,0,0,0,0],"sum_hessian":[1.873142E6,2.1987E4,1.851155E6,1.5251E4,6.736E3,1.844883E6,6.272E3,1.4475E4,7.76E2,3.67E2,6.369E3,6.4105E4,1.780778E6,1.021E3,5.251E3,8.93E3,5.545E3,6.12E2,1.64E2,4.3E1,3.24E2,1.509E3,4.86E3,5.6349E4,7.756E3,8.95604E5,8.85174E5,2.48E2,7.73E2,1.225E3,4.026E3,9.35E2,7.995E3,3.69E2,5.176E3,2.43E2,3.69E2,4E1,1.24E2,6E0,3.7E1,5.6E1,2.68E2,9.93E2,5.16E2,4.177E3,6.83E2,4.9657E4,6.692E3,1.485E3,6.271E3,7.57564E5,1.3804E5,8.73204E5,1.197E4,1.9E1,2.29E2,6.45E2,1.28E2,1.33E2,1.092E3,5.75E2,3.451E3],"tree_param":{"num_deleted":"0","num_feature":"15","num_nodes":"63","size_leaf_vector":"1"}},{"base_weights":[2.67679E-8,-1.45823005E-5,3.7110662E-3,-2.603185E-6,-3.9141574E-3,6.8990025E-3,-2.9879925E-3,1.6965033E-3,-2.5937461E-5,-4.784307E-4,-1.685146E-2,9.225418E-3,-1.0021154E-3,-1.5726237E-2,4.7850586E-3,1.9984096E-3,-1.5991516E-2,-3.513764E-5,3.3635614E-3,9.9189095E-3,-1.982841E-3,-2.839832E-3,-3.1455E-2,1.19316755E-2,5.089877E-4,1.2239589E-2,-8.499487E-3,-1.9923277E-2,-3.731544E-3,1.319471E-2,-1.8993241E-3,3.2794857E-4,8.1688995E-5,1.3670378E-4,-1.3527059E-3,-7.130338E-5,-5.5267674E-7,2.2805016E-4,-3.6717523E-4,-8.433539E-5,1.1806445E-3,-2.3983551E-4,2.2224126E-4,-6.4955646E-4,-5.9466404E-10,-1.848515E-3,8.354615E-4,7.838768E-4,1.3874013E-4,-1.0219277E-3,1.571473E-4,-2.370303E-3,7.9534587E-4,-8.5396966E-4,9.889093E-4,-1.4908708E-5,-1.1079066E-3,9.890365E-4,-8.037079E-4,1.8259271E-3,4.376159E-4,1.5334648E-3,-1.7814046E-4],"categories":[],"categories_nodes":[],"categories_segments":[],"categories_sizes":[],"default_left":[0,0,0,0,0,0,0,0,0,0,0,0,0,0,0,0,0,0,0,0,0,0,0,0,0,0,0,0,0,0,0,0,0,0,0,0,0,0,0,0,0,0,0,0,0,0,0,0,0,0,0,0,0,0,0,0,0,0,0,0,0,0,0],"id":22,"left_children":[1,3,5,7,9,11,13,15,17,19,21,23,25,27,29,31,33,35,37,39,41,43,45,47,49,51,53,55,57,59,61,-1,-1,-1,-1,-1,-1,-1,-1,-1,-1,-1,-1,-1,-1,-1,-1,-1,-1,-1,-1,-1,-1,-1,-1,-1,-1,-1,-1,-1,-1,-1,-1],"loss_changes":[1.0155219E-1,8.715791E-2,1.5688172E-1,7.374766E-2,2.5397372E-1,9.1492906E-2,2.3464184E-1,1.3459781E-1,5.7219278E-2,7.0658326E-2,2.4524924E-1,9.0693235E-2,1.12585984E-1,4.5132965E-2,8.277108E-2,4.119139E-2,8.770001E-2,6.1301105E-2,6.371584E-2,9.078718E-2,7.1391106E-2,1.7671479E-2,1.565485E-1,1.00593746E-1,5.0383795E-2,9.043755E-2,1.7599449E-1,2.9159814E-2,6.822544E-2,6.723645E-2,4.4588923E-2,0E0,0E0,0E0,0E0,0E0,0E0,0E0,0E0,0E0,0E0,0E0,0E0,0E0,0E0,0E0,0E0,0E0,0E0,0E0,0E0,0E0,0E0,0E0,0E0,0E0,0E0,0E0,0E0,0E0,0E0,0E0,0E0],"parents":[2147483647,0,0,1,1,2,2,3,3,4,4,5,5,6,6,7,7,8,8,9,9,10,10,11,11,12,12,13,13,14,14,15,15,16,16,17,17,18,18,19,19,20,20,21,21,22,22,23,23,24,24,25,25,26,26,27,27,28,28,29,29,30,30],"right_children":[2,4,6,8,10,12,14,16,18,20,22,24,26,28,30,32,34,36,38,40,42,44,46,48,50,52,54,56,58,60,62,-1,-1,-1,-1,-1,-1,-1,-1,-1,-1,-1,-1,-1,-1,-1,-1,-1,-1,-1,-1,-1,-1,-1,-1,-1,-1,-1,-1,-1,-1,-1,-1],"split_conditions":[9.531523E-2,2.1430757E0,3.9682397E-1,-9.948554E-2,3.366496E-2,1.3553826E0,4.6531017E1,5.2267794E-2,7.762841E-2,-3.0047286E-2,5.6643605E-2,-1.6745878E0,1.9607224E0,2.0364301E0,-1.802354E-1,8.9028245E-1,1.5745772E0,-3.899844E-2,1.674327E-1,5.4372303E-2,1.5689374E0,1.3553826E0,1.890254E0,9.902418E-2,-2.1338503E0,8.852736E-1,-1.0986706E-1,1.0036293E0,2.963588E-2,-1.7177058E-2,6.653433E-1,3.2794857E-4,8.1688995E-5,1.3670378E-4,-1.3527059E-3,-7.130338E-5,-5.5267674E-7,2.2805016E-4,-3.6717523E-4,-8.433539E-5,1.1806445E-3,-2.3983551E-4,2.2224126E-4,-6.4955646E-4,-5.9466404E-10,-1.848515E-3,8.354615E-4,7.838768E-4,1.3874013E-4,-1.0219277E-3,1.571473E-4,-2.370303E-3,7.9534587E-4,-8.5396966E-4,9.889093E-4,-1.4908708E-5,-1.1079066E-3,9.890365E-4,-8.037079E-4,1.8259271E-3,4.376159E-4,1.5334648E-3,-1.7814046E-4],"split_indices":[12,14,13,8,7,10,0,7,12,13,12,2,14,14,5,10,14,7,8,12,10,10,10,3,1,14,8,14,7,11,14,0,0,0,0,0,0,0,0,0,0,0,0,0,0,0,0,0,0,0,0,0,0,0,0,0,0,0,0,0,0,0,0],"split_type":[0,0,0,0,0,0,0,0,0,0,0,0,0,0,0,0,0,0,0,0,0,0,0,0,0,0,0,0,0,0,0,0,0,0,0,0,0,0,0,0,0,0,0,0,0,0,0,0,0,0,0,0,0,0,0,0,0,0,0,0,0,0,0],"sum_hessian":[1.873142E6,1.865798E6,7.344E3,1.860085E6,5.713E3,4.976E3,2.368E3,2.5198E4,1.834887E6,4.515E3,1.198E3,3.844E3,1.132E3,8.97E2,1.471E3,2.4776E4,4.22E2,1.829921E6,4.966E3,5.7E2,3.945E3,6.12E2,5.86E2,2.933E3,9.11E2,4.09E2,7.23E2,6.64E2,2.33E2,6.51E2,8.2E2,1.833E3,2.2943E4,1.57E2,2.65E2,3.1145E4,1.798776E6,4.467E3,4.99E2,3.09E2,2.61E2,2.744E3,1.201E3,1.33E2,4.79E2,5.26E2,6E1,2.081E3,8.52E2,1.01E2,8.1E2,2.3E1,3.86E2,5.55E2,1.68E2,6.8E1,5.96E2,8E1,1.53E2,1.03E2,5.48E2,3.9E1,7.81E2],"tree_param":{"num_deleted":"0","num_feature":"15","num_nodes":"63","size_leaf_vector":"1"}},{"base_weights":[2.5235073E-8,1.4536658E-3,-3.487531E-5,1.0791704E-3,4.291281E-3,-1.33369E-5,-1.5828774E-3,2.2906994E-3,3.3690047E-4,7.5992453E-3,-5.6671933E-4,3.2261168E-3,-2.5428408E-5,-2.4792267E-4,-9.260775E-3,8.474693E-3,1.4488325E-3,5.307929E-4,-7.6258215E-3,2.2852294E-4,1.5126327E-2,-1.1165303E-2,1.0238614E-2,6.952301E-3,1.6194108E-3,-1.13631984E-4,2.534688E-4,9.449761E-3,-7.9345604E-4,-2.3709234E-2,-4.6446435E-3,1.9487544E-4,7.686971E-4,5.9897524E-5,6.0587E-4,2.9710058E-5,-1.0345684E-3,-1.8909437E-3,-5.513987E-6,5.036752E-4,-1.0507657E-3,1.7956828E-4,1.2405937E-3,-8.6873677E-4,4.683247E-4,6.724077E-4,-8.9025975E-4,4.5050104E-4,-3.2704766E-4,9.897031E-5,-7.2141713E-4,-5.0345123E-5,-4.328651E-6,2.479312E-5,-1.4593107E-5,-2.8480834E-4,9.036839E-4,-5.3599157E-5,5.78734E-4,-1.8077182E-3,-3.0547625E-4,-4.4099978E-4,5.1439078E-5],"categories":[],"categories_nodes":[],"categories_segments":[],"categories_sizes":[],"default_left":[0,0,0,0,0,0,0,0,0,0,0,0,0,0,0,0,0,0,0,0,0,0,0,0,0,0,0,0,0,0,0,0,0,0,0,0,0,0,0,0,0,0,0,0,0,0,0,0,0,0,0,0,0,0,0,0,0,0,0,0,0,0,0],"id":23,"left_children":[1,3,5,7,9,11,13,15,17,19,21,23,25,27,29,31,33,35,37,39,41,43,45,47,49,51,53,55,57,59,61,-1,-1,-1,-1,-1,-1,-1,-1,-1,-1,-1,-1,-1,-1,-1,-1,-1,-1,-1,-1,-1,-1,-1,-1,-1,-1,-1,-1,-1,-1,-1,-1],"loss_changes":[9.502993E-2,4.6665855E-2,6.098912E-2,3.4890454E-2,8.2283184E-2,7.066744E-2,2.5728428E-1,7.6725625E-2,3.7150566E-2,1.6898872E-1,2.377459E-1,4.015474E-2,4.4216003E-2,1.13142915E-1,2.4786562E-1,5.5708826E-2,3.4713738E-2,3.1620484E-2,1.2979244E-1,3.2229525E-1,1.6827655E-1,1.3377313E-1,9.27674E-2,5.617266E-2,2.7117468E-2,3.300661E-2,5.7086363E-2,1.4887598E-1,6.9760524E-2,1.9690669E-1,6.678709E-2,0E0,0E0,0E0,0E0,0E0,0E0,0E0,0E0,0E0,0E0,0E0,0E0,0E0,0E0,0E0,0E0,0E0,0E0,0E0,0E0,0E0,0E0,0E0,0E0,0E0,0E0,0E0,0E0,0E0,0E0,0E0,0E0],"parents":[2147483647,0,0,1,1,2,2,3,3,4,4,5,5,6,6,7,7,8,8,9,9,10,10,11,11,12,12,13,13,14,14,15,15,16,16,17,17,18,18,19,19,20,20,21,21,22,22,23,23,24,24,25,25,26,26,27,27,28,28,29,29,30,30],"right_children":[2,4,6,8,10,12,14,16,18,20,22,24,26,28,30,32,34,36,38,40,42,44,46,48,50,52,54,56,58,60,62,-1,-1,-1,-1,-1,-1,-1,-1,-1,-1,-1,-1,-1,-1,-1,-1,-1,-1,-1,-1,-1,-1,-1,-1,-1,-1,-1,-1,-1,-1,-1,-1],"split_conditions":[-2.3459059E-1,9.531523E-2,1.8994757E0,8.3328456E-1,3.1330296E-1,-1.2529036E-1,3.7416097E-2,-8.0647476E-2,7.788545E-2,-1.544332E-1,4.691133E1,-1.6333371E-1,2.813146E-2,-7.45949E-2,2.1143396E-1,3.491987E1,1.9585009E-1,2.2123241E-1,2.3989472E-1,2.1430757E0,1.8994757E0,2.0364301E0,8.397993E-1,4.74162E-3,6.160837E-1,-2.5047693E-2,2.8374681E-2,4.2918254E-2,9.531523E-2,1.5005847E0,3.145297E-2,1.9487544E-4,7.686971E-4,5.9897524E-5,6.0587E-4,2.9710058E-5,-1.0345684E-3,-1.8909437E-3,-5.513987E-6,5.036752E-4,-1.0507657E-3,1.7956828E-4,1.2405937E-3,-8.6873677E-4,4.683247E-4,6.724077E-4,-8.9025975E-4,4.5050104E-4,-3.2704766E-4,9.897031E-5,-7.2141713E-4,-5.0345123E-5,-4.328651E-6,2.479312E-5,-1.4593107E-5,-2.8480834E-4,9.036839E-4,-5.3599157E-5,5.78734E-4,-1.8077182E-3,-3.0547625E-4,-4.4099978E-4,5.1439078E-5],"split_indices":[6,12,14,14,13,8,7,8,7,8,0,5,12,7,13,0,5,5,13,14,14,14,2,7,6,7,8,12,12,10,5,0,0,0,0,0,0,0,0,0,0,0,0,0,0,0,0,0,0,0,0,0,0,0,0,0,0,0,0,0,0,0,0],"split_type":[0,0,0,0,0,0,0,0,0,0,0,0,0,0,0,0,0,0,0,0,0,0,0,0,0,0,0,0,0,0,0,0,0,0,0,0,0,0,0,0,0,0,0,0,0,0,0,0,0,0,0,0,0,0,0,0,0,0,0,0,0,0,0],"sum_hessian":[1.873142E6,4.3917E4,1.829225E6,3.8798E4,5.119E3,1.804124E6,2.5101E4,1.4739E4,2.4059E4,3.045E3,2.074E3,6.708E3,1.797416E6,2.1384E4,3.717E3,1.765E3,1.2974E4,2.3488E4,5.71E2,1.539E3,1.506E3,1.047E3,1.027E3,2.02E3,4.688E3,1.36555E6,4.31866E5,1.138E3,2.0246E4,8.99E2,2.818E3,1.062E3,7.03E2,1.2677E4,2.97E2,2.3419E4,6.9E1,1.13E2,4.58E2,1.052E3,4.87E2,6.88E2,8.18E2,8.04E2,2.43E2,9.22E2,1.05E2,1.753E3,2.67E2,4.586E3,1.02E2,4.0148E4,1.325402E6,2.98975E5,1.32891E5,4.13E2,7.25E2,1.9801E4,4.45E2,5.26E2,3.73E2,1.623E3,1.195E3],"tree_param":{"num_deleted":"0","num_feature":"15","num_nodes":"63","size_leaf_vector":"1"}},{"base_weights":[2.244798E-8,1.9657966E-3,-2.3326982E-5,4.310645E-6,3.0507997E-3,1.0110812E-4,-2.9251742E-4,-4.9726977E-3,5.7044206E-4,9.412749E-3,2.4007976E-3,6.3974796E-5,2.673712E-3,-2.065654E-2,-2.7318546E-4,-1.3309598E-2,-3.106804E-3,9.448707E-4,-3.6605515E-3,-1.1480258E-2,1.1202211E-2,3.67993E-3,-1.146917E-3,3.5846261E-3,5.278729E-5,1.4136199E-2,1.8780861E-3,-3.571038E-2,1.252578E-3,-2.0088271E-4,-2.2005592E-3,-2.87228E-4,-1.8568722E-3,-5.6596356E-4,-5.6465902E-5,7.058196E-5,-1.8005505E-4,-2.2669997E-4,8.2360423E-4,-3.255228E-3,-4.6214284E-4,3.997651E-4,1.1991777E-3,7.563506E-5,3.2799644E-4,3.636183E-4,-1.4175588E-4,2.4179135E-4,-8.826411E-5,-4.6584017E-5,4.4469475E-6,2.1760001E-4,1.4036349E-3,2.5849068E-4,-5.0253834E-6,-1.798859E-4,-2.4366097E-3,-6.904725E-4,6.9375726E-4,-2.908737E-5,-4.634922E-6,-2.370057E-5,-3.5488952E-4],"categories":[],"categories_nodes":[],"categories_segments":[],"categories_sizes":[],"default_left":[0,0,0,0,0,0,0,0,0,0,0,0,0,0,0,0,0,0,0,0,0,0,0,0,0,0,0,0,0,0,0,0,0,0,0,0,0,0,0,0,0,0,0,0,0,0,0,0,0,0,0,0,0,0,0,0,0,0,0,0,0,0,0],"id":24,"left_children":[1,3,5,7,9,11,13,15,17,19,21,23,25,27,29,31,33,35,37,39,41,43,45,47,49,51,53,55,57,59,61,-1,-1,-1,-1,-1,-1,-1,-1,-1,-1,-1,-1,-1,-1,-1,-1,-1,-1,-1,-1,-1,-1,-1,-1,-1,-1,-1,-1,-1,-1,-1,-1],"loss_changes":[8.597676E-2,4.6795256E-2,6.2007725E-2,2.2070598E-2,5.8520555E-2,1.2093606E-1,2.3037328E-1,1.24032665E-2,1.11451745E-2,4.918067E-2,5.8299325E-2,4.9153075E-2,1.6424936E-1,1.8309279E-1,8.147228E-2,2.610441E-2,1.0624444E-2,1.3716906E-2,1.013319E-2,1.1876066E-2,4.9363464E-2,5.892341E-2,4.8417374E-2,2.6469156E-2,4.4274032E-2,1.5927972E-1,1.0971186E-1,1.3740104E-1,4.3349177E-2,2.3218403E-2,1.7873329E-1,0E0,0E0,0E0,0E0,0E0,0E0,0E0,0E0,0E0,0E0,0E0,0E0,0E0,0E0,0E0,0E0,0E0,0E0,0E0,0E0,0E0,0E0,0E0,0E0,0E0,0E0,0E0,0E0,0E0,0E0,0E0,0E0],"parents":[2147483647,0,0,1,1,2,2,3,3,4,4,5,5,6,6,7,7,8,8,9,9,10,10,11,11,12,12,13,13,14,14,15,15,16,16,17,17,18,18,19,19,20,20,21,21,22,22,23,23,24,24,25,25,26,26,27,27,28,28,29,29,30,30],"right_children":[2,4,6,8,10,12,14,16,18,20,22,24,26,28,30,32,34,36,38,40,42,44,46,48,50,52,54,56,58,60,62,-1,-1,-1,-1,-1,-1,-1,-1,-1,-1,-1,-1,-1,-1,-1,-1,-1,-1,-1,-1,-1,-1,-1,-1,-1,-1,-1,-1,-1,-1,-1,-1],"split_conditions":[-2.950051E-1,5.257268E-2,6.845754E-3,-3.899844E-2,6.243268E-1,5.6643605E-2,-1.480842E-1,1.5160061E-1,1.3971351E0,-6.6542773E0,2.1518037E-2,-1.19724095E-1,-7.2989926E-2,-1.2529036E-1,1.7276747E0,4.715659E-2,-7.45949E-2,6.101684E-2,6.0662746E-2,-1.2143488E0,1.0332845E0,-3.3110797E-2,-1.2529036E-1,-8.565411E-2,-3.4626637E-2,1.8475162E0,-1.4413408E0,1.7626998E0,-3.59164E-2,1.7275399E-2,4.28728E-2,-2.87228E-4,-1.8568722E-3,-5.6596356E-4,-5.6465902E-5,7.058196E-5,-1.8005505E-4,-2.2669997E-4,8.2360423E-4,-3.255228E-3,-4.6214284E-4,3.997651E-4,1.1991777E-3,7.563506E-5,3.2799644E-4,3.636183E-4,-1.4175588E-4,2.4179135E-4,-8.826411E-5,-4.6584017E-5,4.4469475E-6,2.1760001E-4,1.4036349E-3,2.5849068E-4,-5.0253834E-6,-1.798859E-4,-2.4366097E-3,-6.904725E-4,6.9375726E-4,-2.908737E-5,-4.634922E-6,-2.370057E-5,-3.5488952E-4],"split_indices":[6,12,7,7,14,12,11,4,10,2,9,11,13,8,14,12,7,8,7,9,10,9,8,8,7,14,2,14,9,12,7,0,0,0,0,0,0,0,0,0,0,0,0,0,0,0,0,0,0,0,0,0,0,0,0,0,0,0,0,0,0,0,0],"split_type":[0,0,0,0,0,0,0,0,0,0,0,0,0,0,0,0,0,0,0,0,0,0,0,0,0,0,0,0,0,0,0,0,0,0,0,0,0,0,0,0,0,0,0,0,0,0,0,0,0,0,0,0,0,0,0,0,0,0,0,0,0,0,0],"sum_hessian":[1.873142E6,2.1987E4,1.851155E6,7.831E3,1.4156E4,1.265958E6,5.85197E5,7.99E2,7.032E3,1.311E3,1.2845E4,1.247946E6,1.8012E4,5.54E2,5.84643E5,1.45E2,6.54E2,6.461E3,5.71E2,1.03E2,1.208E3,9.441E3,3.404E3,3.952E3,1.243994E6,1.168E3,1.6844E4,3.28E2,2.26E2,5.63505E5,2.1138E4,1.11E2,3.4E1,1.26E2,5.28E2,5.86E3,6.01E2,5.48E2,2.3E1,3E0,1E2,9.67E2,2.41E2,5.388E3,4.053E3,5.68E2,2.836E3,3.203E3,7.49E2,4.4063E4,1.199931E6,6.87E2,4.81E2,6.323E3,1.0521E4,9.5E1,2.33E2,1.03E2,1.23E2,1.24654E5,4.38851E5,1.5629E4,5.509E3],"tree_param":{"num_deleted":"0","num_feature":"15","num_nodes":"63","size_leaf_vector":"1"}},{"base_weights":[1.8748938E-8,-1.289496E-5,3.280398E-3,-2.0156956E-6,-3.554434E-3,6.246561E-3,-2.9525596E-3,-3.158191E-5,1.0853548E-3,-1.2684405E-3,-1.903837E-2,4.939435E-3,2.00221E-2,-9.861769E-3,9.918157E-3,1.2249933E-4,-1.5732566E-4,7.91542E-3,7.5980683E-4,8.544958E-3,-2.6045104E-3,-3.323086E-2,-1.5196154E-3,6.8459245E-3,-1.1153356E-2,2.804927E-2,1.6268451E-3,-2.5544153E-3,-1.4462856E-2,2.598503E-2,1.346664E-3,6.803177E-6,-2.9626655E-4,-4.7036533E-6,-2.4623585E-5,5.9273065E-4,-3.6558238E-4,7.400158E-5,-2.5167983E-4,1.090285E-4,1.3183786E-3,-1.0302825E-3,-6.903553E-5,-7.155279E-5,-1.915737E-3,-3.122056E-4,5.4786477E-4,-2.6332693E-5,6.023886E-4,3.8755676E-4,-9.776702E-4,