{"learner":{"attributes":{"scikit_learn":"{\"_estimator_type\": \"regressor\"}"},"feature_names":[],"feature_types":[],"gradient_booster":{"model":{"gbtree_model_param":{"num_parallel_tree":"1","num_trees":"100"},"iteration_indptr":[0,1,2,3,4,5,6,7,8,9,10,11,12,13,14,15,16,17,18,19,20,21,22,23,24,25,26,27,28,29,30,31,32,33,34,35,36,37,38,39,40,41,42,43,44,45,46,47,48,49,50,51,52,53,54,55,56,57,58,59,60,61,62,63,64,65,66,67,68,69,70,71,72,73,74,75,76,77,78,79,80,81,82,83,84,85,86,87,88,89,90,91,92,93,94,95,96,97,98,99,100],"tree_info":[0,0,0,0,0,0,0,0,0,0,0,0,0,0,0,0,0,0,0,0,0,0,0,0,0,0,0,0,0,0,0,0,0,0,0,0,0,0,0,0,0,0,0,0,0,0,0,0,0,0,0,0,0,0,0,0,0,0,0,0,0,0,0,0,0,0,0,0,0,0,0,0,0,0,0,0,0,0,0,0,0,0,0,0,0,0,0,0,0,0,0,0,0,0,0,0,0,0,0,0],"trees":[{"base_weights":[1.7022734E-11,1.0174763E-2,-3.9672206E-5,2.2200417E-2,3.5466836E-3,-1.4031433E-5,-8.159932E-3,3.0825082E-2,5.815737E-3,-1.2415305E-2,1.2665867E-2,3.7922405E-3,-6.379312E-5,-1.8075948E-3,-3.494542E-2,3.764781E-2,1.8051019E-2,1.0732591E-2,-7.976202E-3,-4.903894E-3,-6.309503E-2,2.2707416E-3,2.0199519E-2,4.361865E-3,-2.628247E-2,1.7083933E-3,-1.0839257E-4,2.2639988E-2,-3.8682185E-3,-6.520743E-2,-1.3914249E-2,8.902793E-4,2.3645253E-3,1.40924E-3,-1.1844019E-3,-6.2786596E-4,7.639052E-4,-5.2431115E-4,2.204512E-3,5.212382E-4,-7.9755875E-4,2.6832387E-4,-3.916926E-3,9.126239E-5,3.5741979E-3,1.5440847E-3,3.665372E-4,7.802503E-4,1.9771942E-4,-3.5335994E-4,-2.2994836E-3,1.9763513E-4,6.188079E-5,-4.0445425E-6,-1.0999082E-4,2.2559995E-3,2.981965E-4,-2.5932936E-4,9.908191E-4,-3.7014193E-3,-4.666606E-4,-1.6851806E-3,-2.8160293E-4],"categories":[],"categories_nodes":[],"categories_segments":[],"categories_sizes":[],"default_left":[0,0,0,0,0,0,0,0,0,0,0,0,0,0,0,0,0,0,0,0,0,0,0,0,0,0,0,0,0,0,0,0,0,0,0,0,0,0,0,0,0,0,0,0,0,0,0,0,0,0,0,0,0,0,0,0,0,0,0,0,0,0,0],"id":0,"left_children":[1,3,5,7,9,11,13,15,17,19,21,23,25,27,29,31,33,35,37,39,41,43,45,47,49,51,53,55,57,59,61,-1,-1,-1,-1,-1,-1,-1,-1,-1,-1,-1,-1,-1,-1,-1,-1,-1,-1,-1,-1,-1,-1,-1,-1,-1,-1,-1,-1,-1,-1,-1,-1],"loss_changes":[7.555672E-1,5.793911E-1,3.882157E-1,3.648306E-1,6.825439E-1,3.5204518E-1,9.9854976E-1,1.467849E-1,6.0574755E-2,6.487436E-1,2.3364085E-1,4.1102573E-1,1.4501132E-1,2.3912771E-1,7.1509385E-1,2.1000648E-1,2.5064552E-1,6.985075E-2,3.1173985E-2,2.5180548E-1,2.3001063E-1,3.8566273E-2,2.3759073E-1,1.0778716E-1,1.6856593E-1,4.7581986E-2,1.02936536E-1,1.3806081E-1,1.3677475E-1,2.2651935E-1,1.0880318E-1,0E0,0E0,0E0,0E0,0E0,0E0,0E0,0E0,0E0,0E0,0E0,0E0,0E0,0E0,0E0,0E0,0E0,0E0,0E0,0E0,0E0,0E0,0E0,0E0,0E0,0E0,0E0,0E0,0E0,0E0,0E0,0E0],"parents":[2147483647,0,0,1,1,2,2,3,3,4,4,5,5,6,6,7,7,8,8,9,9,10,10,11,11,12,12,13,13,14,14,15,15,16,16,17,17,18,18,19,19,20,20,21,21,22,22,23,23,24,24,25,25,26,26,27,27,28,28,29,29,30,30],"right_children":[2,4,6,8,10,12,14,16,18,20,22,24,26,28,30,32,34,36,38,40,42,44,46,48,50,52,54,56,58,60,62,-1,-1,-1,-1,-1,-1,-1,-1,-1,-1,-1,-1,-1,-1,-1,-1,-1,-1,-1,-1,-1,-1,-1,-1,-1,-1,-1,-1,-1,-1,-1,-1],"split_conditions":[-2.591437E-1,-4.5485105E-2,2.1446912E0,-3.0635622E-1,1.3595039E-1,-9.937588E-2,4.657907E-2,1.4516861E0,-2.2932587E-2,6.0558837E-2,9.614679E-2,5.2083343E-2,-2.0797805E-1,-7.475323E-2,2.5063393E-1,1.8483807E0,3.0082263E-2,3.3353055E-1,-2.6738402E-1,-1.7417904E-2,1.9010555E0,1.4822578E-1,3.2423908E-1,6.676918E-1,1.7641686E0,6.2709224E-1,1.8483807E0,-1.1679852E0,9.614679E-2,1.7939665E0,9.859145E-4,8.902793E-4,2.3645253E-3,1.40924E-3,-1.1844019E-3,-6.2786596E-4,7.639052E-4,-5.2431115E-4,2.204512E-3,5.212382E-4,-7.9755875E-4,2.6832387E-4,-3.916926E-3,9.126239E-5,3.5741979E-3,1.5440847E-3,3.665372E-4,7.802503E-4,1.9771942E-4,-3.5335994E-4,-2.2994836E-3,1.9763513E-4,6.188079E-5,-4.0445425E-6,-1.0999082E-4,2.2559995E-3,2.981965E-4,-2.5932936E-4,9.908191E-4,-3.7014193E-3,-4.666606E-4,-1.6851806E-3,-2.8160293E-4],"split_indices":[5,7,14,3,13,8,7,10,8,7,12,7,6,7,13,14,13,4,6,7,14,11,13,14,14,14,14,3,12,10,8,0,0,0,0,0,0,0,0,0,0,0,0,0,0,0,0,0,0,0,0,0,0,0,0,0,0,0,0,0,0,0,0],"split_type":[0,0,0,0,0,0,0,0,0,0,0,0,0,0,0,0,0,0,0,0,0,0,0,0,0,0,0,0,0,0,0,0,0,0,0,0,0,0,0,0,0,0,0,0,0,0,0,0,0,0,0,0,0,0,0,0,0,0,0,0,0,0,0],"sum_hessian":[1.87181E6,7.269E3,1.864541E6,2.582E3,4.687E3,1.858673E6,5.868E3,1.691E3,8.91E2,1.704E3,2.983E3,2.3985E4,1.834688E6,4.744E3,1.124E3,1.101E3,5.9E2,6.57E2,2.34E2,1.485E3,2.19E2,1.254E3,1.729E3,2.354E4,4.45E2,4.5038E4,1.78965E6,3.68E2,4.376E3,4.6E2,6.64E2,3.61E2,7.4E2,4.75E2,1.15E2,1.07E2,5.5E2,2.24E2,1E1,6.22E2,8.63E2,4E1,1.79E2,1.247E3,7E0,9.44E2,7.85E2,8.22E2,2.2718E4,2.26E2,2.19E2,7.808E3,3.723E4,1.766423E6,2.3227E4,1.56E2,2.12E2,4.146E3,2.3E2,3.97E2,6.3E1,1.95E2,4.69E2],"tree_param":{"num_deleted":"0","num_feature":"15","num_nodes":"63","size_leaf_vector":"1"}},{"base_weights":[1.2939816E-9,9.666981E-3,-3.7691043E-5,2.5629267E-2,5.136427E-3,-1.3330781E-5,-7.7524204E-3,3.5513744E-2,1.2036846E-3,-9.471556E-3,1.1351063E-2,5.56634E-3,-4.421991E-5,-1.7165227E-3,-3.32036E-2,4.350729E-2,2.1630803E-2,-1.4296667E-1,2.1372503E-3,1.3674479E-2,-3.4723073E-2,1.9552284E-3,2.0567935E-2,6.484975E-3,-2.202071E-2,-1.3875905E-4,9.270317E-4,2.151491E-2,-3.6746406E-3,-6.1956096E-2,-1.3221493E-2,2.560787E-3,1.3556926E-3,1.5942894E-3,-2.2118338E-3,-1.9822575E-3,-8.740243E-3,-1.5325464E-4,1.0745758E-3,4.5043277E-4,4.1208914E-3,-2.2065998E-3,-1.5955417E-4,2.5161562E-4,-3.2260895E-4,1.85363E-3,4.3473314E-4,6.659687E-4,2.5270288E-4,-3.1082152E-4,-2.445738E-3,-9.4517956E-5,-5.8776727E-6,6.9338195E-5,-1.9924462E-4,2.143918E-3,2.8335664E-4,-2.4636602E-4,9.414926E-4,-3.5613596E-3,-4.5764443E-4,-1.6013514E-3,-2.6755274E-4],"categories":[],"categories_nodes":[],"categories_segments":[],"categories_sizes":[],"default_left":[0,0,0,0,0,0,0,0,0,0,0,0,0,0,0,0,0,0,0,0,0,0,0,0,0,0,0,0,0,0,0,0,0,0,0,0,0,0,0,0,0,0,0,0,0,0,0,0,0,0,0,0,0,0,0,0,0,0,0,0,0,0,0],"id":1,"left_children":[1,3,5,7,9,11,13,15,17,19,21,23,25,27,29,31,33,35,37,39,41,43,45,47,49,51,53,55,57,59,61,-1,-1,-1,-1,-1,-1,-1,-1,-1,-1,-1,-1,-1,-1,-1,-1,-1,-1,-1,-1,-1,-1,-1,-1,-1,-1,-1,-1,-1,-1,-1,-1],"loss_changes":[6.820341E-1,5.256202E-1,3.504085E-1,3.8794184E-1,5.1430404E-1,3.203449E-1,9.015431E-1,1.2601304E-1,6.275648E-2,9.888177E-1,3.4410906E-1,2.5947186E-1,1.6972645E-1,2.1592854E-1,6.455333E-1,9.02282E-2,2.8510797E-1,2.93855E-3,4.658351E-2,2.8247482E-1,2.3987496E-1,5.0971095E-2,3.927822E-1,9.6788436E-2,1.399595E-1,6.2567584E-2,3.7026176E-1,1.2468685E-1,1.23484455E-1,2.2502756E-1,9.825382E-2,0E0,0E0,0E0,0E0,0E0,0E0,0E0,0E0,0E0,0E0,0E0,0E0,0E0,0E0,0E0,0E0,0E0,0E0,0E0,0E0,0E0,0E0,0E0,0E0,0E0,0E0,0E0,0E0,0E0,0E0,0E0,0E0],"parents":[2147483647,0,0,1,1,2,2,3,3,4,4,5,5,6,6,7,7,8,8,9,9,10,10,11,11,12,12,13,13,14,14,15,15,16,16,17,17,18,18,19,19,20,20,21,21,22,22,23,23,24,24,25,25,26,26,27,27,28,28,29,29,30,30],"right_children":[2,4,6,8,10,12,14,16,18,20,22,24,26,28,30,32,34,36,38,40,42,44,46,48,50,52,54,56,58,60,62,-1,-1,-1,-1,-1,-1,-1,-1,-1,-1,-1,-1,-1,-1,-1,-1,-1,-1,-1,-1,-1,-1,-1,-1,-1,-1,-1,-1,-1,-1,-1,-1],"split_conditions":[-2.591437E-1,-7.475323E-2,2.1446912E0,-3.5837838E-1,-1.5495497E-1,-1.2551305E-1,4.657907E-2,1.4516861E0,5.611266E-1,1.9616414E0,9.614679E-2,3.9757233E-2,3.8388602E-2,-7.475323E-2,2.5063393E-1,2.703837E1,3.0082263E-2,4.679886E1,-6.7567617E-1,4.3682186E1,2.076893E0,1.4474838E0,-2.4125E-1,-7.475323E-2,1.9010555E0,-3.8936116E-2,1.7291282E0,-1.1679852E0,9.614679E-2,9.614679E-2,9.859145E-4,2.560787E-3,1.3556926E-3,1.5942894E-3,-2.2118338E-3,-1.9822575E-3,-8.740243E-3,-1.5325464E-4,1.0745758E-3,4.5043277E-4,4.1208914E-3,-2.2065998E-3,-1.5955417E-4,2.5161562E-4,-3.2260895E-4,1.85363E-3,4.3473314E-4,6.659687E-4,2.5270288E-4,-3.1082152E-4,-2.445738E-3,-9.4517956E-5,-5.8776727E-6,6.9338195E-5,-1.9924462E-4,2.143918E-3,2.8335664E-4,-2.4636602E-4,9.414926E-4,-3.5613596E-3,-4.5764443E-4,-1.6013514E-3,-2.6755274E-4],"split_indices":[5,7,14,3,8,8,7,10,10,14,12,7,12,7,13,0,13,0,2,0,10,14,3,7,14,7,14,3,12,12,8,0,0,0,0,0,0,0,0,0,0,0,0,0,0,0,0,0,0,0,0,0,0,0,0,0,0,0,0,0,0,0,0],"split_type":[0,0,0,0,0,0,0,0,0,0,0,0,0,0,0,0,0,0,0,0,0,0,0,0,0,0,0,0,0,0,0,0,0,0,0,0,0,0,0,0,0,0,0,0,0,0,0,0,0,0,0,0,0,0,0,0,0,0,0,0,0,0,0],"sum_hessian":[1.87181E6,7.269E3,1.864541E6,1.606E3,5.663E3,1.858673E6,5.868E3,1.143E3,4.63E2,1.69E3,3.973E3,1.0232E4,1.848441E6,4.744E3,1.124E3,7.24E2,4.19E2,2E0,4.61E2,8.82E2,8.08E2,1.968E3,2.005E3,9.903E3,3.29E2,1.684479E6,1.63962E5,3.68E2,4.376E3,4.6E2,6.64E2,4.91E2,2.33E2,3.63E2,5.6E1,1E0,1E0,3.64E2,9.7E1,8.27E2,5.5E1,6.22E2,1.86E2,1.441E3,5.27E2,8.38E2,1.167E3,1.713E3,8.19E3,2.08E2,1.21E2,2.0148E4,1.664331E6,1.4993E5,1.4032E4,1.56E2,2.12E2,4.146E3,2.3E2,3.91E2,6.9E1,1.95E2,4.69E2],"tree_param":{"num_deleted":"0","num_feature":"15","num_nodes":"63","size_leaf_vector":"1"}},{"base_weights":[-2.3604627E-9,9.183346E-3,-3.580898E-5,2.0217123E-2,3.1019826E-3,-1.266525E-5,-7.3652705E-3,2.8094828E-2,5.251546E-3,-1.4304868E-2,1.0204928E-2,3.4806544E-3,-5.8335525E-5,-1.6300384E-3,-3.1548657E-2,3.79125E-2,2.0533156E-2,9.985108E-3,-7.503827E-3,3.5551046E-3,-3.787025E-2,1.1947084E-3,1.7052444E-2,4.126403E-3,-1.9563286E-2,-1.8949424E-4,4.7545086E-4,2.0445744E-2,-3.4907497E-3,-5.886701E-2,-1.256323E-2,5.5886636E-4,2.2755775E-3,-2.5071326E-5,1.5616714E-3,-6.0911605E-4,7.1838195E-4,-5.200715E-4,1.8519992E-3,-1.604822E-4,9.08727E-4,-3.052955E-4,-2.7797369E-3,1.12199625E-4,-1.6061682E-3,5.916596E-4,1.6875475E-3,1.4637939E-4,4.1098706E-4,-3.621465E-4,-2.2343022E-3,-1.2894963E-4,-8.585956E-6,3.430551E-5,-1.3484425E-4,2.0374048E-3,2.6925534E-4,-2.3405068E-4,8.946218E-4,-3.3657071E-3,-2.7083125E-4,-1.5216924E-3,-2.542036E-4],"categories":[],"categories_nodes":[],"categories_segments":[],"categories_sizes":[],"default_left":[0,0,0,0,0,0,0,0,0,0,0,0,0,0,0,0,0,0,0,0,0,0,0,0,0,0,0,0,0,0,0,0,0,0,0,0,0,0,0,0,0,0,0,0,0,0,0,0,0,0,0,0,0,0,0,0,0,0,0,0,0,0,0],"id":2,"left_children":[1,3,5,7,9,11,13,15,17,19,21,23,25,27,29,31,33,35,37,39,41,43,45,47,49,51,53,55,57,59,61,-1,-1,-1,-1,-1,-1,-1,-1,-1,-1,-1,-1,-1,-1,-1,-1,-1,-1,-1,-1,-1,-1,-1,-1,-1,-1,-1,-1,-1,-1,-1,-1],"loss_changes":[6.154979E-1,4.8775727E-1,3.1628415E-1,3.0437374E-1,5.797699E-1,2.9653466E-1,8.139632E-1,1.2483227E-1,5.3932413E-2,5.721066E-1,2.0543271E-1,3.570067E-1,1.2844802E-1,1.9498008E-1,5.8274245E-1,1.4881527E-1,2.1563819E-1,6.341932E-2,3.162027E-2,7.660446E-2,3.2958233E-1,5.0379697E-2,1.6449547E-1,1.14474624E-1,2.0210326E-1,6.255488E-2,2.4184519E-1,1.1260837E-1,1.11485556E-1,2.0777798E-1,8.872729E-2,0E0,0E0,0E0,0E0,0E0,0E0,0E0,0E0,0E0,0E0,0E0,0E0,0E0,0E0,0E0,0E0,0E0,0E0,0E0,0E0,0E0,0E0,0E0,0E0,0E0,0E0,0E0,0E0,0E0,0E0,0E0,0E0],"parents":[2147483647,0,0,1,1,2,2,3,3,4,4,5,5,6,6,7,7,8,8,9,9,10,10,11,11,12,12,13,13,14,14,15,15,16,16,17,17,18,18,19,19,20,20,21,21,22,22,23,23,24,24,25,25,26,26,27,27,28,28,29,29,30,30],"right_children":[2,4,6,8,10,12,14,16,18,20,22,24,26,28,30,32,34,36,38,40,42,44,46,48,50,52,54,56,58,60,62,-1,-1,-1,-1,-1,-1,-1,-1,-1,-1,-1,-1,-1,-1,-1,-1,-1,-1,-1,-1,-1,-1,-1,-1,-1,-1,-1,-1,-1,-1,-1,-1],"split_conditions":[-2.591437E-1,-4.5485105E-2,2.1446912E0,-3.0635622E-1,1.06921904E-1,-9.937588E-2,4.657907E-2,-4.2765822E-2,-2.6229434E-2,-5.1669485E-4,9.614679E-2,4.273507E-2,3.0327179E-2,-7.475323E-2,2.5063393E-1,4.7257906E-1,9.614679E-2,3.3353055E-1,3.2313043E-1,2.6540087E1,1.8483807E0,7.780599E-2,4.3682186E1,5.655681E-2,1.9010555E0,-3.8936116E-2,1.7291282E0,-1.1679852E0,9.614679E-2,1.7939665E0,9.859145E-4,5.5886636E-4,2.2755775E-3,-2.5071326E-5,1.5616714E-3,-6.0911605E-4,7.1838195E-4,-5.200715E-4,1.8519992E-3,-1.604822E-4,9.08727E-4,-3.052955E-4,-2.7797369E-3,1.12199625E-4,-1.6061682E-3,5.916596E-4,1.6875475E-3,1.4637939E-4,4.1098706E-4,-3.621465E-4,-2.2343022E-3,-1.2894963E-4,-8.585956E-6,3.430551E-5,-1.3484425E-4,2.0374048E-3,2.6925534E-4,-2.3405068E-4,8.946218E-4,-3.3657071E-3,-2.7083125E-4,-1.5216924E-3,-2.542036E-4],"split_indices":[5,7,14,3,13,8,7,13,8,7,12,7,12,7,13,4,12,4,9,0,14,7,0,12,14,7,14,3,12,10,8,0,0,0,0,0,0,0,0,0,0,0,0,0,0,0,0,0,0,0,0,0,0,0,0,0,0,0,0,0,0,0,0],"split_type":[0,0,0,0,0,0,0,0,0,0,0,0,0,0,0,0,0,0,0,0,0,0,0,0,0,0,0,0,0,0,0,0,0,0,0,0,0,0,0,0,0,0,0,0,0,0,0,0,0,0,0,0,0,0,0,0,0,0,0,0,0,0,0],"sum_hessian":[1.87181E6,7.269E3,1.864541E6,2.582E3,4.687E3,1.858673E6,5.868E3,1.691E3,8.91E2,1.358E3,3.329E3,2.3985E4,1.834688E6,4.744E3,1.124E3,7.34E2,9.57E2,6.5E2,2.41E2,7.73E2,5.85E2,1.438E3,1.891E3,2.3332E4,6.53E2,1.472801E6,3.61887E5,3.68E2,4.376E3,4.6E2,6.64E2,1.63E2,5.71E2,3.23E2,6.34E2,1.07E2,5.43E2,2.27E2,1.4E1,5.29E2,2.44E2,2.1E2,3.75E2,1.395E3,4.3E1,1.442E3,4.49E2,1.8048E4,5.284E3,4.39E2,2.14E2,1.0874E4,1.461927E6,3.39353E5,2.2534E4,1.56E2,2.12E2,4.146E3,2.3E2,3.97E2,6.3E1,1.95E2,4.69E2],"tree_param":{"num_deleted":"0","num_feature":"15","num_nodes":"63","size_leaf_vector":"1"}},{"base_weights":[-2.4469984E-9,8.724765E-3,-3.402102E-5,1.9208517E-2,2.9465526E-3,-1.2033171E-5,-6.9974237E-3,2.669267E-2,4.990584E-3,-1.0078284E-2,1.1624102E-2,5.0904243E-3,-4.0280436E-5,-1.5479112E-3,-2.9976035E-2,3.294017E-2,1.4998189E-2,9.48602E-3,-7.1231322E-3,5.042935E-3,-2.7969088E-2,2.1907245E-3,1.8287348E-2,5.973727E-3,-1.880658E-2,1.6178787E-3,-9.0724825E-5,1.9429706E-2,-3.3160613E-3,-5.593155E-2,-1.1937738E-2,7.2804734E-4,2.0937251E-3,1.2011916E-3,-1.108368E-3,1.9724916E-5,9.651221E-4,-4.94182E-4,1.7655725E-3,-1.1979414E-4,6.477184E-4,-8.239694E-5,-2.1913727E-3,8.656784E-5,3.423389E-3,1.5436745E-3,2.930475E-4,6.1967835E-4,2.3119261E-4,-2.8912856E-3,-4.1727023E-4,1.7442735E-4,5.2591095E-5,-3.4199054E-6,-1.1657799E-4,1.9361835E-3,2.5585576E-4,-2.2235098E-4,8.5008435E-4,-3.2403644E-3,-2.7141848E-4,-9.0889906E-4,4.5317248E-4],"categories":[],"categories_nodes":[],"categories_segments":[],"categories_sizes":[],"default_left":[0,0,0,0,0,0,0,0,0,0,0,0,0,0,0,0,0,0,0,0,0,0,0,0,0,0,0,0,0,0,0,0,0,0,0,0,0,0,0,0,0,0,0,0,0,0,0,0,0,0,0,0,0,0,0,0,0,0,0,0,0,0,0],"id":3,"left_children":[1,3,5,7,9,11,13,15,17,19,21,23,25,27,29,31,33,35,37,39,41,43,45,47,49,51,53,55,57,59,61,-1,-1,-1,-1,-1,-1,-1,-1,-1,-1,-1,-1,-1,-1,-1,-1,-1,-1,-1,-1,-1,-1,-1,-1,-1,-1,-1,-1,-1,-1,-1,-1],"loss_changes":[5.5556154E-1,4.403407E-1,2.854804E-1,2.7472168E-1,5.29972E-1,2.6789176E-1,7.348827E-1,1.2312579E-1,4.864271E-2,5.073862E-1,1.7683932E-1,2.1611351E-1,1.5461275E-1,1.7606395E-1,5.2604973E-1,1.8034542E-1,1.9877933E-1,5.8091667E-2,2.8697116E-2,5.9883222E-2,3.5848325E-1,3.538096E-2,2.5772333E-1,8.546725E-2,1.485053E-1,5.778393E-2,8.9748055E-2,1.0169995E-1,1.0065259E-1,2.0629287E-1,8.731466E-2,0E0,0E0,0E0,0E0,0E0,0E0,0E0,0E0,0E0,0E0,0E0,0E0,0E0,0E0,0E0,0E0,0E0,0E0,0E0,0E0,0E0,0E0,0E0,0E0,0E0,0E0,0E0,0E0,0E0,0E0,0E0,0E0],"parents":[2147483647,0,0,1,1,2,2,3,3,4,4,5,5,6,6,7,7,8,8,9,9,10,10,11,11,12,12,13,13,14,14,15,15,16,16,17,17,18,18,19,19,20,20,21,21,22,22,23,23,24,24,25,25,26,26,27,27,28,28,29,29,30,30],"right_children":[2,4,6,8,10,12,14,16,18,20,22,24,26,28,30,32,34,36,38,40,42,44,46,48,50,52,54,56,58,60,62,-1,-1,-1,-1,-1,-1,-1,-1,-1,-1,-1,-1,-1,-1,-1,-1,-1,-1,-1,-1,-1,-1,-1,-1,-1,-1,-1,-1,-1,-1,-1,-1],"split_conditions":[-2.591437E-1,-4.5485105E-2,2.1446912E0,-3.0635622E-1,1.5219234E-1,-1.2551305E-1,4.657907E-2,1.4516861E0,-2.6229434E-2,-5.1669485E-4,9.614679E-2,3.727907E-2,-1.982136E-1,-7.475323E-2,2.5063393E-1,1.8483807E0,3.0082263E-2,-7.475323E-2,3.2313043E-1,-1.5495497E-1,1.8483807E0,1.4822578E-1,3.1500357E-1,-7.475323E-2,-1.484566E-1,6.9168955E-1,1.9010555E0,-1.1679852E0,9.614679E-2,9.614679E-2,9.614679E-2,7.2804734E-4,2.0937251E-3,1.2011916E-3,-1.108368E-3,1.9724916E-5,9.651221E-4,-4.94182E-4,1.7655725E-3,-1.1979414E-4,6.477184E-4,-8.239694E-5,-2.1913727E-3,8.656784E-5,3.423389E-3,1.5436745E-3,2.930475E-4,6.1967835E-4,2.3119261E-4,-2.8912856E-3,-4.1727023E-4,1.7442735E-4,5.2591095E-5,-3.4199054E-6,-1.1657799E-4,1.9361835E-3,2.5585576E-4,-2.2235098E-4,8.5008435E-4,-3.2403644E-3,-2.7141848E-4,-9.0889906E-4,4.5317248E-4],"split_indices":[5,7,14,3,13,8,7,10,8,7,12,7,6,7,13,14,13,7,9,8,14,11,13,7,11,14,14,3,12,12,12,0,0,0,0,0,0,0,0,0,0,0,0,0,0,0,0,0,0,0,0,0,0,0,0,0,0,0,0,0,0,0,0],"split_type":[0,0,0,0,0,0,0,0,0,0,0,0,0,0,0,0,0,0,0,0,0,0,0,0,0,0,0,0,0,0,0,0,0,0,0,0,0,0,0,0,0,0,0,0,0,0,0,0,0,0,0,0,0,0,0,0,0,0,0,0,0,0,0],"sum_hessian":[1.87181E6,7.269E3,1.864541E6,2.582E3,4.687E3,1.858673E6,5.868E3,1.691E3,8.91E2,1.874E3,2.813E3,1.0232E4,1.848441E6,4.744E3,1.124E3,1.101E3,5.9E2,6.5E2,2.41E2,1.016E3,8.58E2,1.165E3,1.648E3,9.868E3,3.64E2,5.4572E4,1.793869E6,3.68E2,4.376E3,4.6E2,6.64E2,3.61E2,7.4E2,4.75E2,1.15E2,3.38E2,3.12E2,2.27E2,1.4E1,5.24E2,4.92E2,3.23E2,5.35E2,1.158E3,7E0,8.18E2,8.3E2,1.713E3,8.155E3,7.6E1,2.88E2,1.2676E4,4.1896E4,1.776173E6,1.7696E4,1.56E2,2.12E2,4.146E3,2.3E2,3.91E2,6.9E1,5.12E2,1.52E2],"tree_param":{"num_deleted":"0","num_feature":"15","num_nodes":"63","size_leaf_vector":"1"}},{"base_weights":[4.642173E-10,8.289733E-3,-3.2321874E-5,1.8250093E-2,2.7999934E-3,-1.1432805E-5,-6.647748E-3,2.535976E-2,4.7435844E-3,-1.3072959E-2,9.277033E-3,3.1955622E-3,-5.335979E-5,-1.4699216E-3,-2.848076E-2,3.1295724E-2,1.4248437E-2,8.687446E-3,-7.7920496E-3,3.2044365E-3,-3.4550145E-2,5.534459E-3,2.4323655E-2,3.6893592E-3,-2.2875443E-2,-1.7669343E-4,4.485803E-4,1.8464161E-2,-3.150115E-3,-4.7334146E-2,-5.8158026E-3,6.9174555E-4,1.9891802E-3,1.1412582E-3,-1.0534273E-3,-6.248592E-4,6.3802337E-4,-5.1021174E-4,2.1218471E-3,-1.580799E-4,8.481389E-4,-2.860028E-4,-2.531842E-3,5.6601077E-4,-6.717871E-4,3.6789149E-3,8.229457E-4,8.656354E-4,1.6913486E-4,-4.8358135E-5,-1.8183085E-3,-1.2225461E-4,-7.990957E-6,3.2275544E-5,-1.258506E-4,-3.4103583E-4,1.4206511E-3,-2.1123611E-4,8.077641E-4,-2.8196096E-3,2.6722238E-4,7.1749574E-4,-5.046316E-4],"categories":[],"categories_nodes":[],"categories_segments":[],"categories_sizes":[],"default_left":[0,0,0,0,0,0,0,0,0,0,0,0,0,0,0,0,0,0,0,0,0,0,0,0,0,0,0,0,0,0,0,0,0,0,0,0,0,0,0,0,0,0,0,0,0,0,0,0,0,0,0,0,0,0,0,0,0,0,0,0,0,0,0],"id":4,"left_children":[1,3,5,7,9,11,13,15,17,19,21,23,25,27,29,31,33,35,37,39,41,43,45,47,49,51,53,55,57,59,61,-1,-1,-1,-1,-1,-1,-1,-1,-1,-1,-1,-1,-1,-1,-1,-1,-1,-1,-1,-1,-1,-1,-1,-1,-1,-1,-1,-1,-1,-1,-1,-1],"loss_changes":[5.0153995E-1,3.9747098E-1,2.5766116E-1,2.4791682E-1,4.8209336E-1,2.4991676E-1,6.634342E-1,1.1115229E-1,4.416711E-2,4.752071E-1,1.87388E-1,3.0887496E-1,1.1357851E-1,1.5898299E-1,4.804498E-1,1.627717E-1,1.7949721E-1,5.8747284E-2,2.6361626E-2,6.7845255E-2,2.7148598E-1,2.929836E-1,2.5561857E-1,9.8290116E-2,1.3178396E-1,5.6374997E-2,2.1134989E-1,9.301786E-2,9.087227E-2,2.9328084E-1,4.4302434E-2,0E0,0E0,0E0,0E0,0E0,0E0,0E0,0E0,0E0,0E0,0E0,0E0,0E0,0E0,0E0,0E0,0E0,0E0,0E0,0E0,0E0,0E0,0E0,0E0,0E0,0E0,0E0,0E0,0E0,0E0,0E0,0E0],"parents":[2147483647,0,0,1,1,2,2,3,3,4,4,5,5,6,6,7,7,8,8,9,9,10,10,11,11,12,12,13,13,14,14,15,15,16,16,17,17,18,18,19,19,20,20,21,21,22,22,23,23,24,24,25,25,26,26,27,27,28,28,29,29,30,30],"right_children":[2,4,6,8,10,12,14,16,18,20,22,24,26,28,30,32,34,36,38,40,42,44,46,48,50,52,54,56,58,60,62,-1,-1,-1,-1,-1,-1,-1,-1,-1,-1,-1,-1,-1,-1,-1,-1,-1,-1,-1,-1,-1,-1,-1,-1,-1,-1,-1,-1,-1,-1,-1,-1],"split_conditions":[-2.591437E-1,-4.5485105E-2,2.1446912E0,-3.0635622E-1,1.06921904E-1,-9.937588E-2,4.657907E-2,1.4516861E0,-1.4753797E-2,-5.1669485E-4,4.3682186E1,5.2083343E-2,3.0327179E-2,-7.475323E-2,-5.6179725E-3,1.8483807E0,3.0082263E-2,3.3353055E-1,-2.6738402E-1,2.6540087E1,1.8483807E0,1.3386677E-1,-8.337866E-2,6.1522776E-1,1.5958622E0,-3.8936116E-2,1.7291282E0,4.5987688E-2,9.614679E-2,9.614679E-2,3.765337E1,6.9174555E-4,1.9891802E-3,1.1412582E-3,-1.0534273E-3,-6.248592E-4,6.3802337E-4,-5.1021174E-4,2.1218471E-3,-1.580799E-4,8.481389E-4,-2.860028E-4,-2.531842E-3,5.6601077E-4,-6.717871E-4,3.6789149E-3,8.229457E-4,8.656354E-4,1.6913486E-4,-4.8358135E-5,-1.8183085E-3,-1.2225461E-4,-7.990957E-6,3.2275544E-5,-1.258506E-4,-3.4103583E-4,1.4206511E-3,-2.1123611E-4,8.077641E-4,-2.8196096E-3,2.6722238E-4,7.1749574E-4,-5.046316E-4],"split_indices":[5,7,14,3,13,8,7,10,8,7,0,7,12,7,8,14,13,4,6,0,14,3,11,14,14,7,14,12,12,12,0,0,0,0,0,0,0,0,0,0,0,0,0,0,0,0,0,0,0,0,0,0,0,0,0,0,0,0,0,0,0,0,0],"split_type":[0,0,0,0,0,0,0,0,0,0,0,0,0,0,0,0,0,0,0,0,0,0,0,0,0,0,0,0,0,0,0,0,0,0,0,0,0,0,0,0,0,0,0,0,0,0,0,0,0,0,0,0,0,0,0,0,0,0,0,0,0,0,0],"sum_hessian":[1.87181E6,7.269E3,1.864541E6,2.582E3,4.687E3,1.858673E6,5.868E3,1.691E3,8.91E2,1.358E3,3.329E3,2.3985E4,1.834688E6,4.744E3,1.124E3,1.101E3,5.9E2,6.78E2,2.13E2,7.73E2,5.85E2,2.667E3,6.62E2,2.354E4,4.45E2,1.472801E6,3.61887E5,3.68E2,4.376E3,6.13E2,5.11E2,3.61E2,7.4E2,4.75E2,1.15E2,1.09E2,5.69E2,2.04E2,9E0,5.29E2,2.44E2,2.1E2,3.75E2,2.044E3,6.23E2,9E1,5.72E2,5.17E2,2.3023E4,1.7E2,2.75E2,1.0874E4,1.461927E6,3.39353E5,2.2534E4,1.04E2,2.64E2,4.146E3,2.3E2,5.23E2,9E1,8.9E1,4.22E2],"tree_param":{"num_deleted":"0","num_feature":"15","num_nodes":"63","size_leaf_vector":"1"}},{"base_weights":[3.0665392E-9,7.876162E-3,-3.0706717E-5,1.733929E-2,2.6604773E-3,-1.0861749E-5,-6.3154735E-3,2.4093408E-2,4.5082266E-3,-9.556087E-3,1.040934E-2,2.676404E-3,-5.6541827E-5,-1.3960721E-3,-2.70588E-2,3.31628E-2,1.711001E-2,1.023987E-2,-3.3847732E-3,-3.3465656E-3,-4.9840324E-2,1.6469224E-3,1.6627692E-2,3.110705E-3,-2.1293512E-2,-1.1146166E-4,9.733835E-4,1.7543878E-2,-2.9924728E-3,-5.0860446E-2,-1.0518025E-2,4.0605452E-4,2.0142307E-3,-1.12655514E-4,1.3481416E-3,3.3856786E-4,2.68916E-3,-2.669918E-6,-1.0464563E-3,4.775033E-4,-6.2544545E-4,1.6455057E-4,-3.1131664E-3,6.0975257E-5,3.2376118E-3,1.391822E-3,2.5848157E-4,9.0323294E-5,2.785958E-4,-1.5367234E-4,-1.9084847E-3,-8.998071E-5,-4.537671E-6,8.213474E-5,-1.4125343E-4,1.7817538E-3,2.0633439E-4,-2.0067685E-4,7.675507E-4,-2.9501754E-3,2.8696724E-5,-8.1014493E-4,4.3058835E-4],"categories":[],"categories_nodes":[],"categories_segments":[],"categories_sizes":[],"default_left":[0,0,0,0,0,0,0,0,0,0,0,0,0,0,0,0,0,0,0,0,0,0,0,0,0,0,0,0,0,0,0,0,0,0,0,0,0,0,0,0,0,0,0,0,0,0,0,0,0,0,0,0,0,0,0,0,0,0,0,0,0,0,0],"id":5,"left_children":[1,3,5,7,9,11,13,15,17,19,21,23,25,27,29,31,33,35,37,39,41,43,45,47,49,51,53,55,57,59,61,-1,-1,-1,-1,-1,-1,-1,-1,-1,-1,-1,-1,-1,-1,-1,-1,-1,-1,-1,-1,-1,-1,-1,-1,-1,-1,-1,-1,-1,-1,-1,-1],"loss_changes":[4.527448E-1,3.5877705E-1,2.3254746E-1,2.2374064E-1,4.4388658E-1,2.2816077E-1,5.988629E-1,1.06595695E-1,4.038862E-2,4.5509863E-1,1.5629807E-1,3.234784E-1,1.033757E-1,1.4352113E-1,4.4237489E-1,1.3075447E-1,1.8282929E-1,7.771863E-2,2.1974882E-2,1.8658127E-1,1.6059726E-1,3.207202E-2,2.1536252E-1,9.7943336E-2,1.6992196E-1,6.065616E-2,2.3522767E-1,8.942145E-2,8.2042284E-2,1.931163E-1,7.2458565E-2,0E0,0E0,0E0,0E0,0E0,0E0,0E0,0E0,0E0,0E0,0E0,0E0,0E0,0E0,0E0,0E0,0E0,0E0,0E0,0E0,0E0,0E0,0E0,0E0,0E0,0E0,0E0,0E0,0E0,0E0,0E0,0E0],"parents":[2147483647,0,0,1,1,2,2,3,3,4,4,5,5,6,6,7,7,8,8,9,9,10,10,11,11,12,12,13,13,14,14,15,15,16,16,17,17,18,18,19,19,20,20,21,21,22,22,23,23,24,24,25,25,26,26,27,27,28,28,29,29,30,30],"right_children":[2,4,6,8,10,12,14,16,18,20,22,24,26,28,30,32,34,36,38,40,42,44,46,48,50,52,54,56,58,60,62,-1,-1,-1,-1,-1,-1,-1,-1,-1,-1,-1,-1,-1,-1,-1,-1,-1,-1,-1,-1,-1,-1,-1,-1,-1,-1,-1,-1,-1,-1,-1,-1],"split_conditions":[-2.591437E-1,-4.5485105E-2,2.1446912E0,-3.0635622E-1,1.4683557E-1,-9.1633454E-2,4.657907E-2,-4.2765822E-2,-8.048473E-2,6.0558837E-2,9.614679E-2,5.2083343E-2,4.3471657E-2,-7.475323E-2,2.5063393E-1,4.7257906E-1,9.614679E-2,3.65863E-1,4.2733908E-1,-1.7417904E-2,1.9010555E0,1.4822578E-1,3.1500357E-1,2.6050344E-1,1.7291282E0,-3.8936116E-2,1.5754701E0,-1.1679852E0,9.614679E-2,1.7939665E0,9.614679E-2,4.0605452E-4,2.0142307E-3,-1.12655514E-4,1.3481416E-3,3.3856786E-4,2.68916E-3,-2.669918E-6,-1.0464563E-3,4.775033E-4,-6.2544545E-4,1.6455057E-4,-3.1131664E-3,6.0975257E-5,3.2376118E-3,1.391822E-3,2.5848157E-4,9.0323294E-5,2.785958E-4,-1.5367234E-4,-1.9084847E-3,-8.998071E-5,-4.537671E-6,8.213474E-5,-1.4125343E-4,1.7817538E-3,2.0633439E-4,-2.0067685E-4,7.675507E-4,-2.9501754E-3,2.8696724E-5,-8.1014493E-4,4.3058835E-4],"split_indices":[5,7,14,3,13,8,7,13,8,7,12,7,12,7,13,4,12,13,13,7,14,11,13,4,14,7,14,3,12,10,12,0,0,0,0,0,0,0,0,0,0,0,0,0,0,0,0,0,0,0,0,0,0,0,0,0,0,0,0,0,0,0,0],"split_type":[0,0,0,0,0,0,0,0,0,0,0,0,0,0,0,0,0,0,0,0,0,0,0,0,0,0,0,0,0,0,0,0,0,0,0,0,0,0,0,0,0,0,0,0,0,0,0,0,0,0,0,0,0,0,0,0,0,0,0,0,0,0,0],"sum_hessian":[1.87181E6,7.269E3,1.864541E6,2.582E3,4.687E3,1.858673E6,5.868E3,1.691E3,8.91E2,1.819E3,2.868E3,3.1066E4,1.827607E6,4.744E3,1.124E3,7.34E2,9.57E2,5.16E2,3.75E2,1.577E3,2.42E2,1.191E3,1.677E3,3.0514E4,5.52E2,1.735086E6,9.2521E4,3.68E2,4.376E3,4.6E2,6.64E2,1.63E2,5.71E2,3.23E2,6.34E2,4.79E2,3.7E1,3.16E2,5.9E1,6.55E2,9.22E2,4.6E1,1.96E2,1.184E3,7E0,8.47E2,8.3E2,1.9946E4,1.0568E4,2.66E2,2.86E2,2.1025E4,1.714061E6,7.8661E4,1.386E4,1.56E2,2.12E2,4.146E3,2.3E2,3.97E2,6.3E1,5.12E2,1.52E2],"tree_param":{"num_deleted":"0","num_feature":"15","num_nodes":"63","size_leaf_vector":"1"}},{"base_weights":[5.6667573E-9,-2.9253066E-5,7.4874703E-3,-6.985969E-6,-7.2526354E-3,1.3079343E-2,-2.7173504E-3,4.5997305E-3,-3.505703E-5,-2.488539E-3,-3.8834456E-2,1.682039E-2,7.67633E-4,-1.696558E-2,7.800344E-3,5.474926E-3,-2.2772722E-2,1.5830043E-3,-7.8181234E-5,2.1859396E-2,-4.712597E-3,-6.186348E-2,-8.293547E-3,1.4533524E-2,3.396997E-2,1.9694613E-2,-1.0064355E-2,4.6563023E-3,-2.2401048E-2,1.943328E-2,-1.8389747E-3,6.3845137E-4,1.8704816E-4,-2.5614767E-4,-2.5188853E-3,-1.568847E-4,9.284757E-5,-2.8539082E-6,-1.11333655E-4,-5.621288E-5,1.780053E-3,-1.2694317E-3,-1.4946469E-4,-3.8577027E-3,-1.8870122E-3,-1.1831031E-3,-5.6287594E-5,9.3741016E-4,-3.659742E-4,2.624469E-3,1.0560722E-3,1.6070874E-3,-2.351906E-4,-1.2036338E-3,9.680232E-4,7.8455434E-4,-5.4934697E-4,4.277878E-4,-1.2303245E-3,1.4507194E-3,2.8994872E-4,1.8643889E-3,-1.9826251E-4],"categories":[],"categories_nodes":[],"categories_segments":[],"categories_sizes":[],"default_left":[0,0,0,0,0,0,0,0,0,0,0,0,0,0,0,0,0,0,0,0,0,0,0,0,0,0,0,0,0,0,0,0,0,0,0,0,0,0,0,0,0,0,0,0,0,0,0,0,0,0,0,0,0,0,0,0,0,0,0,0,0,0,0],"id":6,"left_children":[1,3,5,7,9,11,13,15,17,19,21,23,25,27,29,31,33,35,37,39,41,43,45,47,49,51,53,55,57,59,61,-1,-1,-1,-1,-1,-1,-1,-1,-1,-1,-1,-1,-1,-1,-1,-1,-1,-1,-1,-1,-1,-1,-1,-1,-1,-1,-1,-1,-1,-1,-1,-1],"loss_changes":[4.1006482E-1,2.998973E-1,4.1580433E-1,2.4037124E-1,8.620326E-1,2.1678531E-1,3.8676727E-1,2.6982418E-1,1.2891705E-1,2.6977608E-1,5.2768564E-1,1.4108598E-1,2.2530669E-1,1.2891176E-1,1.665541E-1,1.3793865E-1,1.6978224E-1,6.203132E-2,8.159239E-2,1.3174264E-1,1.6254435E-1,1.5495956E-1,3.566467E-2,2.9367077E-1,9.978092E-2,1.21627375E-1,2.8858852E-1,3.832137E-2,6.0018033E-2,8.774692E-2,6.778479E-2,0E0,0E0,0E0,0E0,0E0,0E0,0E0,0E0,0E0,0E0,0E0,0E0,0E0,0E0,0E0,0E0,0E0,0E0,0E0,0E0,0E0,0E0,0E0,0E0,0E0,0E0,0E0,0E0,0E0,0E0,0E0,0E0],"parents":[2147483647,0,0,1,1,2,2,3,3,4,4,5,5,6,6,7,7,8,8,9,9,10,10,11,11,12,12,13,13,14,14,15,15,16,16,17,17,18,18,19,19,20,20,21,21,22,22,23,23,24,24,25,25,26,26,27,27,28,28,29,29,30,30],"right_children":[2,4,6,8,10,12,14,16,18,20,22,24,26,28,30,32,34,36,38,40,42,44,46,48,50,52,54,56,58,60,62,-1,-1,-1,-1,-1,-1,-1,-1,-1,-1,-1,-1,-1,-1,-1,-1,-1,-1,-1,-1,-1,-1,-1,-1,-1,-1,-1,-1,-1,-1,-1,-1],"split_conditions":[9.614679E-2,2.1446912E0,3.7995145E-1,-1.2551305E-1,6.0558837E-2,1.356527E0,4.6608917E1,3.9757233E-2,-2.0797805E-1,-7.475323E-2,-1.0854868E0,4.4085903E1,-7.475323E-2,3.6632363E-2,-1.7974254E-1,-7.475323E-2,1.9010555E0,-5.0759267E-2,1.9010555E0,5.655681E-2,-1.19625345E-1,-6.340345E-2,1.5227467E0,9.7215414E-2,-2.591437E-1,1.2292087E-2,-1.2551305E-1,2.083991E-3,1.0172582E0,5.7648957E-2,6.676918E-1,6.3845137E-4,1.8704816E-4,-2.5614767E-4,-2.5188853E-3,-1.568847E-4,9.284757E-5,-2.8539082E-6,-1.11333655E-4,-5.621288E-5,1.780053E-3,-1.2694317E-3,-1.4946469E-4,-3.8577027E-3,-1.8870122E-3,-1.1831031E-3,-5.6287594E-5,9.3741016E-4,-3.659742E-4,2.624469E-3,1.0560722E-3,1.6070874E-3,-2.351906E-4,-1.2036338E-3,9.680232E-4,7.8455434E-4,-5.4934697E-4,4.277878E-4,-1.2303245E-3,1.4507194E-3,2.8994872E-4,1.8643889E-3,-1.9826251E-4],"split_indices":[12,14,13,8,7,10,0,7,6,7,1,0,7,3,5,7,14,7,14,12,11,11,10,3,5,13,8,9,14,11,14,0,0,0,0,0,0,0,0,0,0,0,0,0,0,0,0,0,0,0,0,0,0,0,0,0,0,0,0,0,0,0,0],"split_type":[0,0,0,0,0,0,0,0,0,0,0,0,0,0,0,0,0,0,0,0,0,0,0,0,0,0,0,0,0,0,0,0,0,0,0,0,0,0,0,0,0,0,0,0,0,0,0,0,0,0,0,0,0,0,0,0,0,0,0,0,0,0,0],"sum_hessian":[1.87181E6,1.864525E6,7.285E3,1.858796E6,5.729E3,4.706E3,2.579E3,1.1257E4,1.847539E6,4.979E3,7.5E2,3.609E3,1.097E3,1.095E3,1.484E3,1.0909E4,3.48E2,4.7961E4,1.799578E6,4.16E2,4.563E3,4.27E2,3.23E2,3.186E3,4.23E2,3.99E2,6.98E2,2.2E2,8.75E2,6.72E2,8.12E2,2.094E3,8.815E3,2.13E2,1.35E2,2.63E3,4.5331E4,1.782075E6,1.7503E4,1.56E2,2.6E2,3.5E2,4.213E3,2.6E2,1.67E2,1.02E2,2.21E2,2.671E3,5.15E2,1.72E2,2.51E2,2.64E2,1.35E2,4.73E2,2.25E2,1.29E2,9.1E1,5.8E1,8.17E2,3.94E2,2.78E2,4.1E1,7.71E2],"tree_param":{"num_deleted":"0","num_feature":"15","num_nodes":"63","size_leaf_vector":"1"}},{"base_weights":[5.1328235E-9,7.1707056E-3,-2.7954007E-5,1.5882231E-2,2.3692888E-3,-9.991112E-6,-5.716681E-3,2.2200307E-2,3.8799122E-3,-1.260188E-2,7.965785E-3,2.4600248E-3,-5.197822E-5,-1.2402342E-3,-2.4592258E-2,2.7821412E-2,1.168143E-2,-2.7097661E-2,5.2521555E-3,1.3769484E-2,-3.0700305E-2,6.2387774E-4,1.5303027E-2,2.8657014E-3,-1.993E-2,-8.323767E-5,1.556406E-3,1.574838E-2,-2.6721645E-3,-4.809628E-2,-1.0414742E-2,5.913407E-4,1.7798844E-3,9.756204E-4,-1.0276642E-3,-9.838633E-4,-5.3554927E-3,4.552031E-4,-3.622434E-4,4.454228E-4,3.4440258E-3,-2.1061345E-3,9.916195E-5,1.8635449E-4,-3.910867E-4,1.4020066E-3,2.991556E-4,5.9361843E-4,1.2680516E-4,-1.4696746E-4,-1.7833594E-3,6.125288E-6,-1.2458147E-5,1.2691393E-4,-9.5456526E-5,1.6322695E-3,1.6099206E-4,-1.8055434E-4,7.0976495E-4,-2.859938E-3,2.412902E-4,-1.2256962E-3,-1.8634074E-4],"categories":[],"categories_nodes":[],"categories_segments":[],"categories_sizes":[],"default_left":[0,0,0,0,0,0,0,0,0,0,0,0,0,0,0,0,0,0,0,0,0,0,0,0,0,0,0,0,0,0,0,0,0,0,0,0,0,0,0,0,0,0,0,0,0,0,0,0,0,0,0,0,0,0,0,0,0,0,0,0,0,0,0],"id":7,"left_children":[1,3,5,7,9,11,13,15,17,19,21,23,25,27,29,31,33,35,37,39,41,43,45,47,49,51,53,55,57,59,61,-1,-1,-1,-1,-1,-1,-1,-1,-1,-1,-1,-1,-1,-1,-1,-1,-1,-1,-1,-1,-1,-1,-1,-1,-1,-1,-1,-1,-1,-1,-1,-1],"loss_changes":[3.752733E-1,3.0404946E-1,1.9053005E-1,1.9578677E-1,3.9288962E-1,1.9276103E-1,4.9587372E-1,9.971911E-2,3.806014E-2,6.0943216E-1,1.8384653E-1,2.8224212E-1,9.188715E-2,1.1547138E-1,3.7438124E-1,1.3664407E-1,1.495868E-1,2.045381E-2,4.1223407E-2,1.3869247E-1,2.8268993E-1,4.4767097E-2,2.0246807E-1,9.0556175E-2,1.4775912E-1,6.1201528E-2,1.1856564E-1,7.8010276E-2,6.9370866E-2,2.0404452E-1,6.6197544E-2,0E0,0E0,0E0,0E0,0E0,0E0,0E0,0E0,0E0,0E0,0E0,0E0,0E0,0E0,0E0,0E0,0E0,0E0,0E0,0E0,0E0,0E0,0E0,0E0,0E0,0E0,0E0,0E0,0E0,0E0,0E0,0E0],"parents":[2147483647,0,0,1,1,2,2,3,3,4,4,5,5,6,6,7,7,8,8,9,9,10,10,11,11,12,12,13,13,14,14,15,15,16,16,17,17,18,18,19,19,20,20,21,21,22,22,23,23,24,24,25,25,26,26,27,27,28,28,29,29,30,30],"right_children":[2,4,6,8,10,12,14,16,18,20,22,24,26,28,30,32,34,36,38,40,42,44,46,48,50,52,54,56,58,60,62,-1,-1,-1,-1,-1,-1,-1,-1,-1,-1,-1,-1,-1,-1,-1,-1,-1,-1,-1,-1,-1,-1,-1,-1,-1,-1,-1,-1,-1,-1,-1,-1],"split_conditions":[-2.591437E-1,-4.5485105E-2,2.1446912E0,-3.0635622E-1,-1.5495497E-1,-9.1633454E-2,4.657907E-2,1.4516861E0,6.554822E-1,1.8483807E0,9.614679E-2,5.2083343E-2,5.4259166E-2,-7.475323E-2,-5.0423115E-2,1.8483807E0,3.0082263E-2,5.137968E1,-9.925099E-3,4.3682186E1,2.076893E0,1.4474838E0,-2.632218E-1,6.4976543E-1,1.7291282E0,6.994307E-4,3.5267558E-2,-1.1679852E0,9.614679E-2,9.614679E-2,3.5844042E-3,5.913407E-4,1.7798844E-3,9.756204E-4,-1.0276642E-3,-9.838633E-4,-5.3554927E-3,4.552031E-4,-3.622434E-4,4.454228E-4,3.4440258E-3,-2.1061345E-3,9.916195E-5,1.8635449E-4,-3.910867E-4,1.4020066E-3,2.991556E-4,5.9361843E-4,1.2680516E-4,-1.4696746E-4,-1.7833594E-3,6.125288E-6,-1.2458147E-5,1.2691393E-4,-9.5456526E-5,1.6322695E-3,1.6099206E-4,-1.8055434E-4,7.0976495E-4,-2.859938E-3,2.412902E-4,-1.2256962E-3,-1.8634074E-4],"split_indices":[5,7,14,3,8,8,7,10,10,14,12,7,12,7,8,14,13,0,8,0,10,14,3,14,14,8,7,3,12,12,8,0,0,0,0,0,0,0,0,0,0,0,0,0,0,0,0,0,0,0,0,0,0,0,0,0,0,0,0,0,0,0,0],"split_type":[0,0,0,0,0,0,0,0,0,0,0,0,0,0,0,0,0,0,0,0,0,0,0,0,0,0,0,0,0,0,0,0,0,0,0,0,0,0,0,0,0,0,0,0,0,0,0,0,0,0,0,0,0,0,0,0,0,0,0,0,0,0,0],"sum_hessian":[1.87181E6,7.269E3,1.864541E6,2.582E3,4.687E3,1.858673E6,5.868E3,1.691E3,8.91E2,1.275E3,3.412E3,3.1066E4,1.827607E6,4.744E3,1.124E3,1.101E3,5.9E2,3.7E1,8.54E2,5.19E2,7.56E2,1.706E3,1.706E3,3.0514E4,5.52E2,1.792765E6,3.4842E4,3.68E2,4.376E3,4.22E2,7.02E2,3.61E2,7.4E2,4.75E2,1.15E2,3.5E1,2E0,6.53E2,2.01E2,4.78E2,4.1E1,5.6E2,1.96E2,1.248E3,4.58E2,7.2E2,9.86E2,1.076E3,2.9438E4,2.66E2,2.86E2,8.0035E5,9.92415E5,2.715E4,7.692E3,1.56E2,2.12E2,4.146E3,2.3E2,3.6E2,6.2E1,2.25E2,4.77E2],"tree_param":{"num_deleted":"0","num_feature":"15","num_nodes":"63","size_leaf_vector":"1"}},{"base_weights":[2.8585994E-9,-2.6637836E-5,6.817498E-3,-6.4743167E-6,-6.567626E-3,1.2028303E-2,-2.691834E-3,4.214914E-3,-3.219738E-5,-2.2180767E-3,-3.540143E-2,1.7353581E-2,4.2002304E-3,-1.3959125E-2,9.552249E-3,5.437384E-3,-1.3168025E-2,-9.157667E-5,1.0143388E-3,1.990808E-2,-4.239196E-3,-5.6725338E-2,-7.123552E-3,1.458574E-2,3.3979572E-2,2.095216E-2,-4.1592945E-3,1.2950088E-3,-1.971201E-2,2.1129556E-2,-3.4089162E-4,5.906161E-4,1.9257584E-4,-1.9642373E-4,-1.6755015E-3,2.89343E-6,-1.549189E-5,7.75399E-5,-2.0753498E-4,-1.4680237E-4,1.6048405E-3,-1.1845323E-3,-1.3090027E-4,-3.5400752E-3,-1.7259674E-3,-1.0667851E-3,-2.487693E-5,1.0091948E-3,-3.8837272E-4,2.550285E-3,1.0940232E-3,1.5302151E-3,-2.0004214E-4,-8.678914E-4,1.0923756E-3,9.07913E-4,-2.6075702E-4,7.5381435E-4,-1.1228959E-3,1.7098163E-3,2.9807023E-4,3.3670798E-4,-4.1216356E-4],"categories":[],"categories_nodes":[],"categories_segments":[],"categories_sizes":[],"default_left":[0,0,0,0,0,0,0,0,0,0,0,0,0,0,0,0,0,0,0,0,0,0,0,0,0,0,0,0,0,0,0,0,0,0,0,0,0,0,0,0,0,0,0,0,0,0,0,0,0,0,0,0,0,0,0,0,0,0,0,0,0,0,0],"id":8,"left_children":[1,3,5,7,9,11,13,15,17,19,21,23,25,27,29,31,33,35,37,39,41,43,45,47,49,51,53,55,57,59,61,-1,-1,-1,-1,-1,-1,-1,-1,-1,-1,-1,-1,-1,-1,-1,-1,-1,-1,-1,-1,-1,-1,-1,-1,-1,-1,-1,-1,-1,-1,-1,-1],"loss_changes":[3.3996373E-1,2.4591108E-1,3.6106297E-1,2.0184137E-1,7.18544E-1,1.9614619E-1,3.5606405E-1,2.3930545E-1,1.1481099E-1,2.2278802E-1,4.524451E-1,1.2840122E-1,2.671399E-1,1.1796865E-1,1.4168815E-1,1.0629952E-1,1.3895208E-1,5.70276E-2,2.7487025E-1,1.162041E-1,1.438615E-1,1.3133812E-1,3.0500425E-2,3.008601E-1,8.107835E-2,1.5306216E-1,4.373387E-1,4.060436E-2,9.3571365E-2,1.12769395E-1,3.7403215E-2,0E0,0E0,0E0,0E0,0E0,0E0,0E0,0E0,0E0,0E0,0E0,0E0,0E0,0E0,0E0,0E0,0E0,0E0,0E0,0E0,0E0,0E0,0E0,0E0,0E0,0E0,0E0,0E0,0E0,0E0,0E0,0E0],"parents":[2147483647,0,0,1,1,2,2,3,3,4,4,5,5,6,6,7,7,8,8,9,9,10,10,11,11,12,12,13,13,14,14,15,15,16,16,17,17,18,18,19,19,20,20,21,21,22,22,23,23,24,24,25,25,26,26,27,27,28,28,29,29,30,30],"right_children":[2,4,6,8,10,12,14,16,18,20,22,24,26,28,30,32,34,36,38,40,42,44,46,48,50,52,54,56,58,60,62,-1,-1,-1,-1,-1,-1,-1,-1,-1,-1,-1,-1,-1,-1,-1,-1,-1,-1,-1,-1,-1,-1,-1,-1,-1,-1,-1,-1,-1,-1,-1,-1],"split_conditions":[9.614679E-2,2.1446912E0,3.7995145E-1,-1.2551305E-1,6.0558837E-2,1.1862519E0,4.9035213E1,2.2414647E-2,4.3471657E-2,-7.475323E-2,-1.0854868E0,4.4085903E1,-7.475323E-2,1.6204587E-1,-1.7974254E-1,-7.475323E-2,1.9010555E0,3.7370446E-1,1.7291282E0,5.4259166E-2,-1.19625345E-1,-6.340345E-2,1.5227467E0,9.7215414E-2,-2.591437E-1,3.8217038E-2,1.7310758E-1,1.5790531E-2,1.0172582E0,5.7648957E-2,6.564808E-2,5.906161E-4,1.9257584E-4,-1.9642373E-4,-1.6755015E-3,2.89343E-6,-1.549189E-5,7.75399E-5,-2.0753498E-4,-1.4680237E-4,1.6048405E-3,-1.1845323E-3,-1.3090027E-4,-3.5400752E-3,-1.7259674E-3,-1.0667851E-3,-2.487693E-5,1.0091948E-3,-3.8837272E-4,2.550285E-3,1.0940232E-3,1.5302151E-3,-2.0004214E-4,-8.678914E-4,1.0923756E-3,9.07913E-4,-2.6075702E-4,7.5381435E-4,-1.1228959E-3,1.7098163E-3,2.9807023E-4,3.3670798E-4,-4.1216356E-4],"split_indices":[12,14,13,8,7,10,0,7,12,7,1,0,7,3,5,7,14,1,14,12,11,11,10,3,5,13,13,7,14,11,11,0,0,0,0,0,0,0,0,0,0,0,0,0,0,0,0,0,0,0,0,0,0,0,0,0,0,0,0,0,0,0,0],"split_type":[0,0,0,0,0,0,0,0,0,0,0,0,0,0,0,0,0,0,0,0,0,0,0,0,0,0,0,0,0,0,0,0,0,0,0,0,0,0,0,0,0,0,0,0,0,0,0,0,0,0,0,0,0,0,0,0,0,0,0,0,0,0,0],"sum_hessian":[1.87181E6,1.864525E6,7.285E3,1.858796E6,5.729E3,4.706E3,2.579E3,1.1257E4,1.847539E6,4.979E3,7.5E2,2.8E3,1.906E3,1.343E3,1.236E3,1.0518E4,7.39E2,1.748341E6,9.9198E4,4.16E2,4.563E3,4.27E2,3.23E2,2.402E3,3.98E2,6.34E2,1.272E3,3.68E2,9.75E2,5.69E2,6.67E2,2.094E3,8.424E3,5.09E2,2.3E2,1.037771E6,7.1057E5,8.9865E4,9.333E3,1.45E2,2.71E2,3.5E2,4.213E3,2.6E2,1.67E2,1.02E2,2.21E2,1.921E3,4.81E2,1.64E2,2.34E2,4.57E2,1.77E2,8.44E2,4.28E2,1.02E2,2.66E2,7.1E1,9.04E2,3.05E2,2.64E2,3.52E2,3.15E2],"tree_param":{"num_deleted":"0","num_feature":"15","num_nodes":"63","size_leaf_vector":"1"}},{"base_weights":[3.1248468E-9,6.5341406E-3,-2.5474004E-5,1.3494706E-2,1.4488217E-3,1.0327891E-5,-2.5235172E-3,1.606816E-2,-7.2083166E-3,-1.6019607E-2,7.663734E-3,-7.2478164E-5,1.5520041E-3,-1.5742151E-4,-1.4507015E-2,-3.7552111E-3,1.7772857E-2,8.954873E-3,-1.4173023E-2,1.0267707E-2,-2.9629368E-2,-3.7580743E-5,1.5345223E-2,-1.6829844E-4,2.8343502E-4,2.0114628E-3,-1.9853138E-3,1.3270991E-2,-9.6280815E-4,-3.492684E-2,-7.213334E-3,-3.3123785E-4,2.815343E-3,1.2839268E-3,5.7672866E-4,-4.993785E-4,9.862725E-4,-1.2237692E-3,2.3295835E-4,2.8000184E-4,3.203521E-3,-2.0704733E-3,2.553479E-4,1.3570527E-4,-3.6489047E-4,1.1348746E-3,6.0305105E-5,-1.1417819E-4,-7.729194E-6,2.7612099E-5,-2.4196468E-5,2.0537067E-4,7.0856506E-5,-2.5883664E-5,-2.9658416E-4,-1.9395024E-4,1.2412396E-3,-6.729476E-5,7.2964566E-4,-2.2193457E-3,-3.9152574E-4,-5.8048236E-4,3.366766E-5],"categories":[],"categories_nodes":[],"categories_segments":[],"categories_sizes":[],"default_left":[0,0,0,0,0,0,0,0,0,0,0,0,0,0,0,0,0,0,0,0,0,0,0,0,0,0,0,0,0,0,0,0,0,0,0,0,0,0,0,0,0,0,0,0,0,0,0,0,0,0,0,0,0,0,0,0,0,0,0,0,0,0,0],"id":9,"left_children":[1,3,5,7,9,11,13,15,17,19,21,23,25,27,29,31,33,35,37,39,41,43,45,47,49,51,53,55,57,59,61,-1,-1,-1,-1,-1,-1,-1,-1,-1,-1,-1,-1,-1,-1,-1,-1,-1,-1,-1,-1,-1,-1,-1,-1,-1,-1,-1,-1,-1,-1,-1,-1],"loss_changes":[3.1160253E-1,2.573144E-1,1.6675474E-1,1.6362697E-1,4.5631182E-1,2.3466471E-1,7.4698657E-1,9.23211E-2,3.8401358E-2,3.9491802E-1,1.8338902E-1,5.949392E-2,1.5229002E-1,2.3796582E-1,6.4672464E-1,3.7773155E-2,1.23688936E-1,2.1211173E-2,4.628983E-2,9.4318464E-2,2.9769778E-1,3.0965526E-2,1.6131023E-1,3.9872702E-2,7.632907E-2,1.0329813E-1,6.238675E-2,2.4679005E-1,1.237206E-1,2.9264128E-1,1.1102866E-1,0E0,0E0,0E0,0E0,0E0,0E0,0E0,0E0,0E0,0E0,0E0,0E0,0E0,0E0,0E0,0E0,0E0,0E0,0E0,0E0,0E0,0E0,0E0,0E0,0E0,0E0,0E0,0E0,0E0,0E0,0E0,0E0],"parents":[2147483647,0,0,1,1,2,2,3,3,4,4,5,5,6,6,7,7,8,8,9,9,10,10,11,11,12,12,13,13,14,14,15,15,16,16,17,17,18,18,19,19,20,20,21,21,22,22,23,23,24,24,25,25,26,26,27,27,28,28,29,29,30,30],"right_children":[2,4,6,8,10,12,14,16,18,20,22,24,26,28,30,32,34,36,38,40,42,44,46,48,50,52,54,56,58,60,62,-1,-1,-1,-1,-1,-1,-1,-1,-1,-1,-1,-1,-1,-1,-1,-1,-1,-1,-1,-1,-1,-1,-1,-1,-1,-1,-1,-1,-1,-1,-1,-1],"split_conditions":[-2.591437E-1,-3.457332E-2,1.9010555E0,-2.242477E-2,-1.5495497E-1,4.425949E-2,3.354731E-2,3.529255E-1,2.8305364E-1,1.7641686E0,9.614679E-2,2.8150417E-2,9.737396E-2,-7.475323E-2,-5.3571466E-2,2.9210052E-1,-7.5602513E-3,-4.6605908E-4,4.448475E1,4.3682186E1,2.076893E0,1.1821579E0,2.982903E-1,-3.8936116E-2,3.353957E-2,-7.243788E-2,3.529255E-1,4.700948E-2,9.614679E-2,1.7261693E0,7.840441E-1,-3.3123785E-4,2.815343E-3,1.2839268E-3,5.7672866E-4,-4.993785E-4,9.862725E-4,-1.2237692E-3,2.3295835E-4,2.8000184E-4,3.203521E-3,-2.0704733E-3,2.553479E-4,1.3570527E-4,-3.6489047E-4,1.1348746E-3,6.0305105E-5,-1.1417819E-4,-7.729194E-6,2.7612099E-5,-2.4196468E-5,2.0537067E-4,7.0856506E-5,-2.5883664E-5,-2.9658416E-4,-1.9395024E-4,1.2412396E-3,-6.729476E-5,7.2964566E-4,-2.2193457E-3,-3.9152574E-4,-5.8048236E-4,3.366766E-5],"split_indices":[5,7,14,8,8,12,7,4,13,14,12,12,8,7,8,13,13,8,0,0,10,10,3,7,8,8,4,12,12,10,13,0,0,0,0,0,0,0,0,0,0,0,0,0,0,0,0,0,0,0,0,0,0,0,0,0,0,0,0,0,0,0,0],"split_type":[0,0,0,0,0,0,0,0,0,0,0,0,0,0,0,0,0,0,0,0,0,0,0,0,0,0,0,0,0,0,0,0,0,0,0,0,0,0,0,0,0,0,0,0,0,0,0,0,0,0,0,0,0,0,0,0,0,0,0,0,0,0,0],"sum_hessian":[1.87181E6,7.269E3,1.864541E6,3.068E3,4.201E3,1.838197E6,2.6344E4,2.729E3,3.39E2,1.102E3,3.099E3,1.744498E6,9.3699E4,2.2001E4,4.343E3,2.16E2,2.513E3,1.02E2,2.37E2,3.76E2,7.26E2,1.548E3,1.551E3,1.374461E6,3.70037E5,8.2928E4,1.0771E4,1.244E3,2.0757E4,1.142E3,3.201E3,2.07E2,9E0,1.107E3,1.406E3,3.7E1,6.5E1,1.53E2,8.4E1,3.47E2,2.9E1,5.42E2,1.84E2,1.123E3,4.25E2,1.02E3,5.31E2,8.853E3,1.365608E6,2.74041E5,9.5996E4,1.8319E4,6.4609E4,7.852E3,2.919E3,5.01E2,7.43E2,2.0259E4,4.98E2,8.46E2,2.96E2,2.055E3,1.146E3],"tree_param":{"num_deleted":"0","num_feature":"15","num_nodes":"63","size_leaf_vector":"1"}},{"base_weights":[5.54026E-9,-2.4456662E-5,6.2600127E-3,-5.8526184E-6,-6.0595553E-3,1.1104546E-2,-2.5808688E-3,3.834649E-3,-2.9254743E-5,-7.0374645E-4,-2.5982233E-2,1.613563E-2,3.7090706E-3,-1.3254328E-2,9.017926E-3,4.9696364E-3,-1.2304225E-2,1.3997564E-3,-6.734043E-5,1.8076729E-2,-2.6132208E-3,-5.46655E-3,-4.47419E-2,1.3508573E-2,3.191678E-2,1.8978618E-2,-3.910624E-3,5.8023063E-3,-1.75504E-2,1.9968368E-2,-3.3951388E-4,5.3762016E-4,1.7655383E-4,-1.7992788E-3,-2.4252478E-4,-1.6207735E-4,8.345499E-5,-2.269922E-6,-8.459135E-5,-9.030813E-5,1.4983838E-3,-3.0848436E-4,1.8181262E-4,-4.6131402E-4,1.9941774E-4,-2.5594912E-3,5.76245E-4,9.39656E-4,-3.7959253E-4,2.11727E-3,6.577683E-4,1.3985733E-3,-2.1334516E-4,-8.0997916E-4,1.0152009E-3,1.0226417E-3,-7.1305505E-5,6.487311E-4,-9.901595E-4,1.6153116E-3,2.8231385E-4,3.1514917E-4,-3.8793485E-4],"categories":[],"categories_nodes":[],"categories_segments":[],"categories_sizes":[],"default_left":[0,0,0,0,0,0,0,0,0,0,0,0,0,0,0,0,0,0,0,0,0,0,0,0,0,0,0,0,0,0,0,0,0,0,0,0,0,0,0,0,0,0,0,0,0,0,0,0,0,0,0,0,0,0,0,0,0,0,0,0,0,0,0],"id":10,"left_children":[1,3,5,7,9,11,13,15,17,19,21,23,25,27,29,31,33,35,37,39,41,43,45,47,49,51,53,55,57,59,61,-1,-1,-1,-1,-1,-1,-1,-1,-1,-1,-1,-1,-1,-1,-1,-1,-1,-1,-1,-1,-1,-1,-1,-1,-1,-1,-1,-1,-1,-1,-1,-1],"loss_changes":[2.8663725E-1,2.093438E-1,3.1208757E-1,1.6706116E-1,6.113845E-1,1.750747E-1,3.1952158E-1,2.0627862E-1,1.0055222E-1,1.6203062E-1,4.669844E-1,1.15692556E-1,2.2195232E-1,1.10133365E-1,1.2675983E-1,8.746806E-2,1.3044608E-1,5.996289E-2,6.414495E-2,9.864393E-2,9.117142E-2,2.0690123E-2,2.3060751E-1,2.6809195E-1,7.750952E-2,1.3286194E-1,3.7913898E-1,2.6292395E-2,7.56937E-2,1.0053885E-1,3.296921E-2,0E0,0E0,0E0,0E0,0E0,0E0,0E0,0E0,0E0,0E0,0E0,0E0,0E0,0E0,0E0,0E0,0E0,0E0,0E0,0E0,0E0,0E0,0E0,0E0,0E0,0E0,0E0,0E0,0E0,0E0,0E0,0E0],"parents":[2147483647,0,0,1,1,2,2,3,3,4,4,5,5,6,6,7,7,8,8,9,9,10,10,11,11,12,12,13,13,14,14,15,15,16,16,17,17,18,18,19,19,20,20,21,21,22,22,23,23,24,24,25,25,26,26,27,27,28,28,29,29,30,30],"right_children":[2,4,6,8,10,12,14,16,18,20,22,24,26,28,30,32,34,36,38,40,42,44,46,48,50,52,54,56,58,60,62,-1,-1,-1,-1,-1,-1,-1,-1,-1,-1,-1,-1,-1,-1,-1,-1,-1,-1,-1,-1,-1,-1,-1,-1,-1,-1,-1,-1,-1,-1,-1,-1],"split_conditions":[9.614679E-2,2.1446912E0,3.7995145E-1,-1.2551305E-1,3.354731E-2,1.1862519E0,4.9035213E1,2.2414647E-2,-2.0797805E-1,-7.475323E-2,5.4259166E-2,4.4085903E1,-7.475323E-2,3.6632363E-2,-1.7974254E-1,-7.475323E-2,-1.484566E-1,-5.0759267E-2,1.8483807E0,5.655681E-2,1.5227467E0,1.4147647E-1,1.8937489E0,9.7215414E-2,-4.757247E-2,3.8217038E-2,1.7310758E-1,3.2059528E-2,1.0172582E0,5.7648957E-2,6.564808E-2,5.3762016E-4,1.7655383E-4,-1.7992788E-3,-2.4252478E-4,-1.6207735E-4,8.345499E-5,-2.269922E-6,-8.459135E-5,-9.030813E-5,1.4983838E-3,-3.0848436E-4,1.8181262E-4,-4.6131402E-4,1.9941774E-4,-2.5594912E-3,5.76245E-4,9.39656E-4,-3.7959253E-4,2.11727E-3,6.577683E-4,1.3985733E-3,-2.1334516E-4,-8.0997916E-4,1.0152009E-3,1.0226417E-3,-7.1305505E-5,6.487311E-4,-9.901595E-4,1.6153116E-3,2.8231385E-4,3.1514917E-4,-3.8793485E-4],"split_indices":[12,14,13,8,7,10,0,7,6,7,12,0,7,3,5,7,11,7,14,12,10,3,10,3,8,13,13,7,14,11,11,0,0,0,0,0,0,0,0,0,0,0,0,0,0,0,0,0,0,0,0,0,0,0,0,0,0,0,0,0,0,0,0],"split_type":[0,0,0,0,0,0,0,0,0,0,0,0,0,0,0,0,0,0,0,0,0,0,0,0,0,0,0,0,0,0,0,0,0,0,0,0,0,0,0,0,0,0,0,0,0,0,0,0,0,0,0,0,0,0,0,0,0,0,0,0,0,0,0],"sum_hessian":[1.87181E6,1.864525E6,7.285E3,1.858796E6,5.729E3,4.706E3,2.579E3,1.1257E4,1.847539E6,4.516E3,1.213E3,2.8E3,1.906E3,1.343E3,1.236E3,1.0518E4,7.39E2,4.7961E4,1.799578E6,4.16E2,4.1E3,5.8E2,6.33E2,2.402E3,3.98E2,6.34E2,1.272E3,2.47E2,1.096E3,5.69E2,6.67E2,2.094E3,8.424E3,1.76E2,5.63E2,2.63E3,4.5331E4,1.775596E6,2.3982E4,1.56E2,2.6E2,2.613E3,1.487E3,4.15E2,1.65E2,5.68E2,6.5E1,1.921E3,4.81E2,2.55E2,1.43E2,4.57E2,1.77E2,8.44E2,4.28E2,8.1E1,1.66E2,7.5E1,1.021E3,3.05E2,2.64E2,3.52E2,3.15E2],"tree_param":{"num_deleted":"0","num_feature":"15","num_nodes":"63","size_leaf_vector":"1"}},{"base_weights":[7.7645215E-9,5.95697E-3,-2.3218912E-5,1.1450981E-2,3.6526815E-4,-6.7752276E-6,-4.610369E-3,1.4056243E-2,-8.723648E-3,-2.0245804E-2,7.2736586E-3,-5.135088E-5,1.9239484E-3,-2.948834E-2,-2.5108265E-4,5.1292996E-3,1.7555181E-2,1.4704019E-2,-1.244288E-2,-1.9943542E-3,-3.400127E-2,-7.0900796E-4,1.31431185E-2,4.067588E-3,-6.114772E-5,1.4074864E-2,1.4889318E-3,-4.4626417E-3,-4.0212363E-2,-6.130934E-3,1.512526E-3,6.405604E-4,-1.409739E-4,4.921327E-4,1.1774789E-3,-1.2335338E-3,1.3896514E-3,-8.4801327E-4,4.264262E-4,1.1568496E-3,-2.7527314E-4,-2.3403156E-3,1.0608495E-4,1.7162693E-5,-1.3523635E-3,4.87257E-4,1.4645737E-3,2.801009E-4,-1.21443976E-4,8.143229E-6,-1.0942355E-5,3.059305E-4,1.779395E-3,1.3265683E-4,-1.6407743E-4,-1.2013986E-3,-7.609943E-5,-2.3208994E-3,7.433598E-5,-4.0186055E-6,-6.04478E-4,9.3431695E-4,5.0483948E-5],"categories":[],"categories_nodes":[],"categories_segments":[],"categories_sizes":[],"default_left":[0,0,0,0,0,0,0,0,0,0,0,0,0,0,0,0,0,0,0,0,0,0,0,0,0,0,0,0,0,0,0,0,0,0,0,0,0,0,0,0,0,0,0,0,0,0,0,0,0,0,0,0,0,0,0,0,0,0,0,0,0,0,0],"id":11,"left_children":[1,3,5,7,9,11,13,15,17,19,21,23,25,27,29,31,33,35,37,39,41,43,45,47,49,51,53,55,57,59,61,-1,-1,-1,-1,-1,-1,-1,-1,-1,-1,-1,-1,-1,-1,-1,-1,-1,-1,-1,-1,-1,-1,-1,-1,-1,-1,-1,-1,-1,-1,-1,-1],"loss_changes":[2.589847E-1,2.2333655E-1,1.4064173E-1,1.928609E-1,5.133184E-1,1.5989557E-1,7.2227097E-1,1.0136074E-1,3.6778785E-2,2.271389E-1,1.2651497E-1,7.327889E-2,2.2159357E-1,2.6631802E-1,5.8785055E-2,5.596871E-2,1.0762739E-1,3.0577466E-2,3.4533795E-2,3.454054E-2,2.387783E-1,3.1742666E-2,8.509502E-2,4.2967334E-2,6.399948E-2,2.477977E-1,2.2481608E-1,1.7166352E-2,1.799134E-1,4.71564E-2,3.7641857E-2,0E0,0E0,0E0,0E0,0E0,0E0,0E0,0E0,0E0,0E0,0E0,0E0,0E0,0E0,0E0,0E0,0E0,0E0,0E0,0E0,0E0,0E0,0E0,0E0,0E0,0E0,0E0,0E0,0E0,0E0,0E0,0E0],"parents":[2147483647,0,0,1,1,2,2,3,3,4,4,5,5,6,6,7,7,8,8,9,9,10,10,11,11,12,12,13,13,14,14,15,15,16,16,17,17,18,18,19,19,20,20,21,21,22,22,23,23,24,24,25,25,26,26,27,27,28,28,29,29,30,30],"right_children":[2,4,6,8,10,12,14,16,18,20,22,24,26,28,30,32,34,36,38,40,42,44,46,48,50,52,54,56,58,60,62,-1,-1,-1,-1,-1,-1,-1,-1,-1,-1,-1,-1,-1,-1,-1,-1,-1,-1,-1,-1,-1,-1,-1,-1,-1,-1,-1,-1,-1,-1,-1,-1],"split_conditions":[-2.591437E-1,-2.2071695E-2,7.780599E-2,-1.5560044E-2,1.06921904E-1,5.4259166E-2,-2.7424345E-2,7.789838E-2,2.2704205E-1,1.8483807E0,9.614679E-2,-1.19625345E-1,-7.3034264E-2,1.7291282E0,5.298883E1,-1.5495497E-1,-5.5859454E-2,6.893192E-2,4.9035213E1,-3.6642509E0,2.076893E0,7.780599E-2,4.718216E1,-9.215904E-3,-2.242588E-3,1.9010555E0,1.642511E0,2.0784247E-1,9.614679E-2,-1.1389627E-1,6.4976543E-1,6.405604E-4,-1.409739E-4,4.921327E-4,1.1774789E-3,-1.2335338E-3,1.3896514E-3,-8.4801327E-4,4.264262E-4,1.1568496E-3,-2.7527314E-4,-2.3403156E-3,1.0608495E-4,1.7162693E-5,-1.3523635E-3,4.87257E-4,1.4645737E-3,2.801009E-4,-1.21443976E-4,8.143229E-6,-1.0942355E-5,3.059305E-4,1.779395E-3,1.3265683E-4,-1.6407743E-4,-1.2013986E-3,-7.609943E-5,-2.3208994E-3,7.433598E-5,-4.0186055E-6,-6.04478E-4,9.3431695E-4,5.0483948E-5],"split_indices":[5,7,7,8,13,12,8,12,13,14,12,11,13,14,0,8,9,12,0,3,10,7,0,7,8,14,14,13,12,6,14,0,0,0,0,0,0,0,0,0,0,0,0,0,0,0,0,0,0,0,0,0,0,0,0,0,0,0,0,0,0,0,0],"split_type":[0,0,0,0,0,0,0,0,0,0,0,0,0,0,0,0,0,0,0,0,0,0,0,0,0,0,0,0,0,0,0,0,0,0,0,0,0,0,0,0,0,0,0,0,0,0,0,0,0,0,0,0,0,0,0,0,0,0,0,0,0,0,0],"sum_hessian":[1.87181E6,7.269E3,1.864541E6,3.666E3,3.603E3,1.857882E6,6.659E3,3.247E3,4.19E2,9.04E2,2.699E3,1.815957E6,4.1925E4,9.92E2,5.667E3,9.15E2,2.332E3,5.7E1,3.62E2,3.89E2,5.15E2,1.144E3,1.555E3,4.308E3,1.811649E6,1.448E3,4.0477E4,2.98E2,6.94E2,1.307E3,4.36E3,4.65E2,4.5E2,1.021E3,1.311E3,1.4E1,4.3E1,2.98E2,6.4E1,4.7E1,3.42E2,3.8E2,1.35E2,1.101E3,4.3E1,1.286E3,2.69E2,3.485E3,8.23E2,7.4846E5,1.063189E6,1.058E3,3.9E2,3.2537E4,7.94E3,3.8E1,2.6E2,6.04E2,9E1,6.49E2,6.58E2,1.23E2,4.237E3],"tree_param":{"num_deleted":"0","num_feature":"15","num_nodes":"63","size_leaf_vector":"1"}},{"base_weights":[7.5002715E-9,-2.2289472E-5,5.705921E-3,-4.932862E-6,-5.6527248E-3,1.0273267E-2,-2.6290403E-3,-4.7599362E-5,1.8366585E-3,-7.070698E-4,-2.4049653E-2,1.34714125E-2,-2.5094315E-4,-1.48545895E-2,6.395762E-3,1.3848004E-3,-7.445081E-5,1.1957325E-2,1.3380849E-3,1.6536193E-2,-2.4602357E-3,-5.0879233E-3,-4.1388318E-2,1.6715746E-2,3.0299088E-3,8.0934735E-3,-1.689362E-2,-1.4393327E-4,-2.113708E-2,1.6012881E-2,-1.5731388E-3,3.7949014E-4,5.1270817E-5,-8.122478E-6,1.0460988E-5,1.6270987E-4,1.127588E-3,1.17242664E-4,-3.1206067E-4,-9.7123346E-5,1.3794176E-3,-6.207133E-5,-1.0049194E-3,-4.3023072E-4,1.8778202E-4,-2.3719019E-3,5.697335E-4,7.340376E-4,1.90343E-3,3.491244E-4,-8.460666E-4,8.916774E-4,-5.37681E-5,-1.9767599E-3,8.824848E-4,4.6559694E-4,-5.885564E-4,3.800993E-4,-1.1660635E-3,1.2193862E-3,2.049314E-4,1.7610647E-3,-1.7864355E-4],"categories":[],"categories_nodes":[],"categories_segments":[],"categories_sizes":[],"default_left":[0,0,0,0,0,0,0,0,0,0,0,0,0,0,0,0,0,0,0,0,0,0,0,0,0,0,0,0,0,0,0,0,0,0,0,0,0,0,0,0,0,0,0,0,0,0,0,0,0,0,0,0,0,0,0,0,0,0,0,0,0,0,0],"id":12,"left_children":[1,3,5,7,9,11,13,15,17,19,21,23,25,27,29,31,33,35,37,39,41,43,45,47,49,51,53,55,57,59,61,-1,-1,-1,-1,-1,-1,-1,-1,-1,-1,-1,-1,-1,-1,-1,-1,-1,-1,-1,-1,-1,-1,-1,-1,-1,-1,-1,-1,-1,-1,-1,-1],"loss_changes":[2.3814052E-1,1.8221128E-1,2.7739513E-1,1.4605369E-1,5.213262E-1,1.5843144E-1,2.8475457E-1,6.987433E-2,2.1236575E-1,1.3659094E-1,3.989175E-1,1.2224072E-1,1.5261973E-1,1.01288766E-1,1.1383242E-1,7.45382E-2,4.4515442E-2,1.821231E-1,3.0611607E-1,8.521712E-2,8.813647E-2,1.8101465E-2,2.0299077E-1,1.19110584E-1,6.7700185E-2,6.539054E-2,2.8773403E-1,3.62816E-2,4.838586E-2,6.705198E-2,5.9945572E-2,0E0,0E0,0E0,0E0,0E0,0E0,0E0,0E0,0E0,0E0,0E0,0E0,0E0,0E0,0E0,0E0,0E0,0E0,0E0,0E0,0E0,0E0,0E0,0E0,0E0,0E0,0E0,0E0,0E0,0E0,0E0,0E0],"parents":[2147483647,0,0,1,1,2,2,3,3,4,4,5,5,6,6,7,7,8,8,9,9,10,10,11,11,12,12,13,13,14,14,15,15,16,16,17,17,18,18,19,19,20,20,21,21,22,22,23,23,24,24,25,25,26,26,27,27,28,28,29,29,30,30],"right_children":[2,4,6,8,10,12,14,16,18,20,22,24,26,28,30,32,34,36,38,40,42,44,46,48,50,52,54,56,58,60,62,-1,-1,-1,-1,-1,-1,-1,-1,-1,-1,-1,-1,-1,-1,-1,-1,-1,-1,-1,-1,-1,-1,-1,-1,-1,-1,-1,-1,-1,-1,-1,-1],"split_conditions":[9.614679E-2,2.1446912E0,3.7995145E-1,5.4259166E-2,3.354731E-2,1.356527E0,4.6608917E1,1.9184944E1,-5.7030436E-2,-7.475323E-2,5.4259166E-2,-1.6720699E0,1.1525894E-2,1.6204587E-1,-1.7974254E-1,-1.2551305E-1,2.8150417E-2,1.5209117E0,1.7641686E0,5.655681E-2,7.789838E-2,1.4147647E-1,1.8937489E0,4.4878284E1,4.657907E-2,1.2292087E-2,1.6268554E-1,1.1235629E-3,1.0172582E0,5.7648957E-2,6.676918E-1,3.7949014E-4,5.1270817E-5,-8.122478E-6,1.0460988E-5,1.6270987E-4,1.127588E-3,1.17242664E-4,-3.1206067E-4,-9.7123346E-5,1.3794176E-3,-6.207133E-5,-1.0049194E-3,-4.3023072E-4,1.8778202E-4,-2.3719019E-3,5.697335E-4,7.340376E-4,1.90343E-3,3.491244E-4,-8.460666E-4,8.916774E-4,-5.37681E-5,-1.9767599E-3,8.824848E-4,4.6559694E-4,-5.885564E-4,3.800993E-4,-1.1660635E-3,1.2193862E-3,2.049314E-4,1.7610647E-3,-1.7864355E-4],"split_indices":[12,14,13,12,7,10,0,0,13,7,12,2,7,3,5,8,12,14,14,12,12,3,10,0,7,13,13,9,14,11,14,0,0,0,0,0,0,0,0,0,0,0,0,0,0,0,0,0,0,0,0,0,0,0,0,0,0,0,0,0,0,0,0],"split_type":[0,0,0,0,0,0,0,0,0,0,0,0,0,0,0,0,0,0,0,0,0,0,0,0,0,0,0,0,0,0,0,0,0,0,0,0,0,0,0,0,0,0,0,0,0,0,0,0,0,0,0,0,0,0,0,0,0,0,0,0,0,0,0],"sum_hessian":[1.87181E6,1.864525E6,7.285E3,1.858796E6,5.729E3,4.706E3,2.579E3,1.816707E6,4.2089E4,4.516E3,1.213E3,3.609E3,1.097E3,1.095E3,1.484E3,3.3428E4,1.783279E6,1.975E3,4.0114E4,4.16E2,4.1E3,5.8E2,6.33E2,2.753E3,8.56E2,7.31E2,3.66E2,3.28E2,7.67E2,6.72E2,8.12E2,1.829E3,3.1599E4,1.361059E6,4.2222E5,1.085E3,8.9E2,3.5411E4,4.703E3,1.56E2,2.6E2,3.836E3,2.64E2,4.15E2,1.65E2,5.68E2,6.5E1,2.515E3,2.38E2,7.15E2,1.41E2,3.54E2,3.77E2,2.21E2,1.45E2,1.81E2,1.47E2,5.4E1,7.13E2,3.94E2,2.78E2,4.1E1,7.71E2],"tree_param":{"num_deleted":"0","num_feature":"15","num_nodes":"63","size_leaf_vector":"1"}},{"base_weights":[9.094561E-9,2.029356E-3,-5.7030094E-5,1.4900827E-3,6.7362315E-3,-4.263431E-5,-4.668381E-3,1.6432874E-3,-6.5000914E-3,1.4097574E-2,3.1338718E-3,9.181323E-5,-3.366554E-4,-2.8840844E-2,-4.4913095E-4,3.4478442E-3,9.968181E-4,2.63898E-3,-4.409946E-2,1.7850617E-2,-4.7296165E-3,-1.797444E-2,6.571016E-3,5.2197367E-5,3.5364113E-3,-7.743312E-3,-3.07762E-4,-8.631812E-3,-3.588722E-2,-8.4856395E-3,9.763364E-4,7.044897E-4,1.281967E-4,-2.1791726E-4,6.578147E-5,3.9459546E-6,2.4116805E-3,-2.9504094E-3,4.794292E-5,1.1250514E-3,9.695612E-5,-1.2257973E-4,-4.791285E-3,4.241774E-4,-1.7383948E-3,6.9799786E-4,1.0032375E-5,1.6949642E-4,1.7441993E-6,9.23799E-4,1.2875276E-4,-9.868736E-5,-1.2698867E-3,-1.3204905E-5,-9.3508235E-5,8.721645E-4,-5.7427253E-4,-2.0746235E-3,5.740582E-5,1.9201332E-4,-6.938339E-4,2.6575237E-4,5.745192E-6],"categories":[],"categories_nodes":[],"categories_segments":[],"categories_sizes":[],"default_left":[0,0,0,0,0,0,0,0,0,0,0,0,0,0,0,0,0,0,0,0,0,0,0,0,0,0,0,0,0,0,0,0,0,0,0,0,0,0,0,0,0,0,0,0,0,0,0,0,0,0,0,0,0,0,0,0,0,0,0,0,0,0,0],"id":13,"left_children":[1,3,5,7,9,11,13,15,17,19,21,23,25,27,29,31,33,35,37,39,41,43,45,47,49,51,53,55,57,59,61,-1,-1,-1,-1,-1,-1,-1,-1,-1,-1,-1,-1,-1,-1,-1,-1,-1,-1,-1,-1,-1,-1,-1,-1,-1,-1,-1,-1,-1,-1,-1,-1],"loss_changes":[2.1666653E-1,1.2988201E-1,1.2086112E-1,5.6215458E-2,1.394416E-1,7.174669E-2,5.778605E-1,5.2552626E-2,2.970069E-1,1.2218353E-1,2.564454E-1,1.6995631E-1,1.2187549E-1,1.19591355E-1,5.528243E-2,1.1173226E-1,5.663645E-2,8.123682E-2,1.1358443E-1,1.0658318E-1,5.953051E-2,2.2023389E-1,1.4304376E-1,7.115358E-2,2.0333622E-1,2.2536236E-1,3.8701203E-2,1.6495895E-2,1.2958527E-1,4.836203E-2,1.531943E-2,0E0,0E0,0E0,0E0,0E0,0E0,0E0,0E0,0E0,0E0,0E0,0E0,0E0,0E0,0E0,0E0,0E0,0E0,0E0,0E0,0E0,0E0,0E0,0E0,0E0,0E0,0E0,0E0,0E0,0E0,0E0,0E0],"parents":[2147483647,0,0,1,1,2,2,3,3,4,4,5,5,6,6,7,7,8,8,9,9,10,10,11,11,12,12,13,13,14,14,15,15,16,16,17,17,18,18,19,19,20,20,21,21,22,22,23,23,24,24,25,25,26,26,27,27,28,28,29,29,30,30],"right_children":[2,4,6,8,10,12,14,16,18,20,22,24,26,28,30,32,34,36,38,40,42,44,46,48,50,52,54,56,58,60,62,-1,-1,-1,-1,-1,-1,-1,-1,-1,-1,-1,-1,-1,-1,-1,-1,-1,-1,-1,-1,-1,-1,-1,-1,-1,-1,-1,-1,-1,-1,-1,-1],"split_conditions":[-2.1913879E-1,9.614679E-2,7.780599E-2,7.780599E-2,-4.5485105E-2,6.8408838E-3,-1.6820889E-2,-6.923539E-2,1.7291282E0,-9.925099E-3,1.0091597E-1,5.655681E-2,-9.5915414E-2,1.7641686E0,-1.0167671E-2,6.385781E-1,-4.5485105E-2,7.818329E1,-3.7743475E-2,2.1446912E0,1.5127978E0,-1.07162725E-2,-8.886245E-2,-1.05283245E-1,-7.3034264E-2,1.8036684E0,1.0555966E-1,-1.7974254E-1,9.614679E-2,-1.1903838E-1,1.0288922E0,7.044897E-4,1.281967E-4,-2.1791726E-4,6.578147E-5,3.9459546E-6,2.4116805E-3,-2.9504094E-3,4.794292E-5,1.1250514E-3,9.695612E-5,-1.2257973E-4,-4.791285E-3,4.241774E-4,-1.7383948E-3,6.9799786E-4,1.0032375E-5,1.6949642E-4,1.7441993E-6,9.23799E-4,1.2875276E-4,-9.868736E-5,-1.2698867E-3,-1.3204905E-5,-9.3508235E-5,8.721645E-4,-5.7427253E-4,-2.0746235E-3,5.740582E-5,1.9201332E-4,-6.938339E-4,2.6575237E-4,5.745192E-6],"split_indices":[6,12,7,7,7,7,8,8,14,8,13,12,11,14,5,14,7,0,8,14,1,7,11,11,13,14,8,5,12,5,10,0,0,0,0,0,0,0,0,0,0,0,0,0,0,0,0,0,0,0,0,0,0,0,0,0,0,0,0,0,0,0,0],"split_type":[0,0,0,0,0,0,0,0,0,0,0,0,0,0,0,0,0,0,0,0,0,0,0,0,0,0,0,0,0,0,0,0,0,0,0,0,0,0,0,0,0,0,0,0,0,0,0,0,0,0,0,0,0,0,0,0,0,0,0,0,0,0,0],"sum_hessian":[1.87181E6,5.1172E4,1.820638E6,4.5913E4,5.259E3,1.814973E6,5.665E3,4.505E4,8.63E2,1.727E3,3.532E3,1.24546E6,5.69513E5,8.41E2,4.824E3,1.1881E4,3.3169E4,6.95E2,1.68E2,1.44E3,2.87E2,4.94E2,3.038E3,1.2313E6,1.416E4,2.212E3,5.67301E5,2.18E2,6.23E2,7.26E2,4.098E3,9.1E2,1.0971E4,1.863E3,3.1306E4,6.59E2,3.6E1,1.26E2,4.2E1,1.114E3,3.26E2,2.81E2,6E0,1.92E2,3.02E2,1.406E3,1.632E3,6.353E3,1.224947E6,8.55E2,1.3305E4,1.668E3,5.44E2,5.51879E5,1.5422E4,2.1E1,1.97E2,5.41E2,8.2E1,2.21E2,5.05E2,6.78E2,3.42E3],"tree_param":{"num_deleted":"0","num_feature":"15","num_nodes":"63","size_leaf_vector":"1"}},{"base_weights":[5.2930207E-9,-2.0216758E-5,5.1749353E-3,-4.0946525E-6,-5.250182E-3,9.406347E-3,-2.5469367E-3,-4.3375436E-5,1.6913607E-3,-6.142523E-4,-2.1881878E-2,1.3949067E-2,2.7290713E-3,-1.4147074E-2,6.0162265E-3,1.2920504E-3,-6.840903E-5,2.692948E-3,-2.6811124E-3,1.5443337E-2,-2.2609322E-3,-3.5550005E-3,-3.6580563E-2,8.226482E-3,2.1084214E-2,1.5946003E-2,-3.8659642E-3,4.243285E-3,-1.8770501E-2,1.511852E-2,-1.5260363E-3,3.54838E-4,4.7792535E-5,-5.4713113E-5,-2.1657586E-6,5.5052567E-4,1.0924677E-4,4.8054076E-6,-1.0001481E-3,1.0746027E-3,-7.687357E-4,-2.8335204E-4,1.869434E-4,-1.9607584E-4,3.2717735E-3,-2.1292022E-3,3.431488E-4,9.914082E-5,1.3873585E-3,3.842421E-4,1.3811317E-3,1.2116726E-3,-2.733734E-4,-8.802696E-4,7.0559065E-4,7.1365794E-4,-4.987743E-4,-8.95469E-4,-3.727906E-3,1.1509495E-3,1.9395385E-4,1.669865E-3,-1.712017E-4],"categories":[],"categories_nodes":[],"categories_segments":[],"categories_sizes":[],"default_left":[0,0,0,0,0,0,0,0,0,0,0,0,0,0,0,0,0,0,0,0,0,0,0,0,0,0,0,0,0,0,0,0,0,0,0,0,0,0,0,0,0,0,0,0,0,0,0,0,0,0,0,0,0,0,0,0,0,0,0,0,0,0,0],"id":14,"left_children":[1,3,5,7,9,11,13,15,17,19,21,23,25,27,29,31,33,35,37,39,41,43,45,47,49,51,53,55,57,59,61,-1,-1,-1,-1,-1,-1,-1,-1,-1,-1,-1,-1,-1,-1,-1,-1,-1,-1,-1,-1,-1,-1,-1,-1,-1,-1,-1,-1,-1,-1,-1,-1],"loss_changes":[1.9588082E-1,1.572132E-1,2.380898E-1,1.2379375E-1,4.417889E-1,1.427393E-1,2.5636646E-1,6.0733557E-2,1.8433674E-1,1.1854666E-1,3.3632678E-1,1.14195585E-1,1.6628747E-1,9.326869E-2,1.0197112E-1,6.523129E-2,4.5906235E-2,1.4467993E-1,3.773982E-1,7.806328E-2,8.311384E-2,1.43409725E-2,1.8103528E-1,1.8959124E-1,1.08950734E-1,1.1282152E-1,3.14685E-1,3.1659737E-2,4.0747702E-2,5.9671E-2,5.4003574E-2,0E0,0E0,0E0,0E0,0E0,0E0,0E0,0E0,0E0,0E0,0E0,0E0,0E0,0E0,0E0,0E0,0E0,0E0,0E0,0E0,0E0,0E0,0E0,0E0,0E0,0E0,0E0,0E0,0E0,0E0,0E0,0E0],"parents":[2147483647,0,0,1,1,2,2,3,3,4,4,5,5,6,6,7,7,8,8,9,9,10,10,11,11,12,12,13,13,14,14,15,15,16,16,17,17,18,18,19,19,20,20,21,21,22,22,23,23,24,24,25,25,26,26,27,27,28,28,29,29,30,30],"right_children":[2,4,6,8,10,12,14,16,18,20,22,24,26,28,30,32,34,36,38,40,42,44,46,48,50,52,54,56,58,60,62,-1,-1,-1,-1,-1,-1,-1,-1,-1,-1,-1,-1,-1,-1,-1,-1,-1,-1,-1,-1,-1,-1,-1,-1,-1,-1,-1,-1,-1,-1,-1,-1],"split_conditions":[9.614679E-2,2.1446912E0,3.7995145E-1,5.4259166E-2,3.2059528E-2,1.1862519E0,4.6608917E1,1.9184944E1,3.5267558E-2,-7.475323E-2,5.0831866E-2,1.9010555E0,-7.475323E-2,3.6632363E-2,-1.7974254E-1,-1.2551305E-1,-3.457332E-2,-5.7030436E-2,1.7641686E0,2.6321455E-3,1.5227467E0,1.306249E0,1.8937489E0,4.4085903E1,-1.2551305E-1,3.8217038E-2,-1.2551305E-1,2.083991E-3,1.4516861E0,5.7648957E-2,6.676918E-1,3.54838E-4,4.7792535E-5,-5.4713113E-5,-2.1657586E-6,5.5052567E-4,1.0924677E-4,4.8054076E-6,-1.0001481E-3,1.0746027E-3,-7.687357E-4,-2.8335204E-4,1.869434E-4,-1.9607584E-4,3.2717735E-3,-2.1292022E-3,3.431488E-4,9.914082E-5,1.3873585E-3,3.842421E-4,1.3811317E-3,1.2116726E-3,-2.733734E-4,-8.802696E-4,7.0559065E-4,7.1365794E-4,-4.987743E-4,-8.95469E-4,-3.727906E-3,1.1509495E-3,1.9395385E-4,1.669865E-3,-1.712017E-4],"split_indices":[12,14,13,12,7,10,0,0,7,7,12,14,7,3,5,8,7,13,14,13,10,9,10,0,8,13,8,9,10,11,14,0,0,0,0,0,0,0,0,0,0,0,0,0,0,0,0,0,0,0,0,0,0,0,0,0,0,0,0,0,0,0,0],"split_type":[0,0,0,0,0,0,0,0,0,0,0,0,0,0,0,0,0,0,0,0,0,0,0,0,0,0,0,0,0,0,0,0,0,0,0,0,0,0,0,0,0,0,0,0,0,0,0,0,0,0,0,0,0,0,0,0,0,0,0,0,0,0,0],"sum_hessian":[1.87181E6,1.864525E6,7.285E3,1.858796E6,5.729E3,4.706E3,2.579E3,1.816707E6,4.2089E4,4.481E3,1.248E3,2.8E3,1.906E3,1.095E3,1.484E3,3.3428E4,1.783279E6,3.4245E4,7.844E3,4.16E2,4.065E3,5.56E2,6.92E2,1.555E3,1.245E3,6.34E2,1.272E3,2.2E2,8.75E2,6.72E2,8.12E2,1.829E3,3.1599E4,4.2579E4,1.7407E6,1.97E3,3.2275E4,6.761E3,1.083E3,3.48E2,6.8E1,2.593E3,1.472E3,5.54E2,2E0,6.08E2,8.4E1,1.179E3,3.76E2,4.09E2,8.36E2,4.57E2,1.77E2,7.21E2,5.51E2,1.29E2,9.1E1,8.63E2,1.2E1,3.94E2,2.78E2,4.1E1,7.71E2],"tree_param":{"num_deleted":"0","num_feature":"15","num_nodes":"63","size_leaf_vector":"1"}},{"base_weights":[7.120502E-9,1.8702478E-3,-5.256004E-5,8.0192415E-3,1.5286477E-3,-2.477809E-5,-2.0827518E-3,-1.1156364E-3,1.8581195E-2,1.9781787E-3,-1.9271596E-3,3.7721377E-3,-3.8153936E-5,-3.9394258E-4,-1.3348737E-2,1.5562092E-2,-4.685498E-3,2.4146922E-2,5.445209E-3,1.3577874E-3,7.2328537E-3,-1.3906243E-2,4.0500327E-3,5.2871862E-3,-6.863565E-4,-1.2404859E-4,4.009093E-4,1.1822444E-2,-1.0452551E-3,-2.678557E-2,-4.3955497E-3,1.4802323E-3,6.989804E-5,-1.966285E-4,-3.6304926E-3,1.5262789E-3,-7.162109E-5,6.913861E-4,-6.982179E-4,1.661132E-4,4.0890252E-5,6.198887E-4,1.224495E-4,-2.8378505E-4,-1.5028178E-3,1.1475381E-3,-5.200372E-6,3.1481322E-4,-1.674402E-4,-1.8735265E-4,1.4558631E-4,-8.5551066E-5,-5.1946663E-6,4.056383E-5,-2.3164157E-5,-1.9841632E-4,1.1687503E-3,-6.7527886E-5,6.9379405E-4,-1.6297543E-3,-3.9223998E-4,-4.668851E-4,3.4592133E-5],"categories":[],"categories_nodes":[],"categories_segments":[],"categories_sizes":[],"default_left":[0,0,0,0,0,0,0,0,0,0,0,0,0,0,0,0,0,0,0,0,0,0,0,0,0,0,0,0,0,0,0,0,0,0,0,0,0,0,0,0,0,0,0,0,0,0,0,0,0,0,0,0,0,0,0,0,0,0,0,0,0,0,0],"id":15,"left_children":[1,3,5,7,9,11,13,15,17,19,21,23,25,27,29,31,33,35,37,39,41,43,45,47,49,51,53,55,57,59,61,-1,-1,-1,-1,-1,-1,-1,-1,-1,-1,-1,-1,-1,-1,-1,-1,-1,-1,-1,-1,-1,-1,-1,-1,-1,-1,-1,-1,-1,-1,-1,-1],"loss_changes":[1.840239E-1,1.0747643E-1,1.02688886E-1,2.5984722E-1,7.5318694E-2,9.1216676E-2,4.6761814E-1,8.610414E-2,9.118456E-2,1.3984549E-1,3.9966315E-1,4.259286E-2,6.749752E-2,1.7008652E-1,3.853314E-1,5.067826E-2,6.0624756E-2,1.4313668E-1,6.088055E-2,4.0701643E-2,1.11898124E-1,2.4680257E-1,2.9239E-1,4.1031018E-2,1.7631134E-2,4.7879927E-2,1.03853494E-1,1.9747537E-1,9.246727E-2,1.4070135E-1,4.838094E-2,0E0,0E0,0E0,0E0,0E0,0E0,0E0,0E0,0E0,0E0,0E0,0E0,0E0,0E0,0E0,0E0,0E0,0E0,0E0,0E0,0E0,0E0,0E0,0E0,0E0,0E0,0E0,0E0,0E0,0E0,0E0,0E0],"parents":[2147483647,0,0,1,1,2,2,3,3,4,4,5,5,6,6,7,7,8,8,9,9,10,10,11,11,12,12,13,13,14,14,15,15,16,16,17,17,18,18,19,19,20,20,21,21,22,22,23,23,24,24,25,25,26,26,27,27,28,28,29,29,30,30],"right_children":[2,4,6,8,10,12,14,16,18,20,22,24,26,28,30,32,34,36,38,40,42,44,46,48,50,52,54,56,58,60,62,-1,-1,-1,-1,-1,-1,-1,-1,-1,-1,-1,-1,-1,-1,-1,-1,-1,-1,-1,-1,-1,-1,-1,-1,-1,-1,-1,-1,-1,-1,-1,-1],"split_conditions":[-2.1913879E-1,-7.475323E-2,1.9010555E0,1.7641686E0,1.6691039E0,-1.2551305E-1,4.273507E-2,1.7919014E1,2.1446912E0,7.789838E-2,-1.2551305E-1,3.4720985E1,3.1317137E-2,-7.475323E-2,-1.6820889E-2,-3.1890762E0,6.695142E1,-1.484566E-1,3.0082263E-2,-6.923539E-2,-3.4354165E-2,1.9417457E-2,-1.484566E-1,7.4457317E-3,5.655681E-2,-3.457332E-2,2.8379396E-2,4.700948E-2,9.614679E-2,-2.2317143E-1,5.600602E1,1.4802323E-3,6.989804E-5,-1.966285E-4,-3.6304926E-3,1.5262789E-3,-7.162109E-5,6.913861E-4,-6.982179E-4,1.661132E-4,4.0890252E-5,6.198887E-4,1.224495E-4,-2.8378505E-4,-1.5028178E-3,1.1475381E-3,-5.200372E-6,3.1481322E-4,-1.674402E-4,-1.8735265E-4,1.4558631E-4,-8.5551066E-5,-5.1946663E-6,4.056383E-5,-2.3164157E-5,-1.9841632E-4,1.1687503E-3,-6.7527886E-5,6.9379405E-4,-1.6297543E-3,-3.9223998E-4,-4.668851E-4,3.4592133E-5],"split_indices":[6,7,14,14,14,8,7,0,14,12,8,0,12,7,8,1,0,11,13,8,8,7,11,7,12,7,8,12,12,2,0,0,0,0,0,0,0,0,0,0,0,0,0,0,0,0,0,0,0,0,0,0,0,0,0,0,0,0,0,0,0,0,0],"split_type":[0,0,0,0,0,0,0,0,0,0,0,0,0,0,0,0,0,0,0,0,0,0,0,0,0,0,0,0,0,0,0,0,0,0,0,0,0,0,0,0,0,0,0,0,0,0,0,0,0,0,0,0,0,0,0,0,0,0,0,0,0,0,0],"sum_hessian":[1.87181E6,5.1172E4,1.820638E6,2.692E3,4.848E4,1.796061E6,2.4577E4,1.444E3,1.248E3,4.29E4,5.58E3,6.304E3,1.789757E6,2.1374E4,3.203E3,2.54E2,1.19E3,8.76E2,3.72E2,3.8371E4,4.529E3,1.857E3,3.723E3,4.705E3,1.599E3,1.496914E6,2.92843E5,1.081E3,2.0293E4,1.28E3,1.923E3,1.27E2,1.27E2,1.178E3,1.2E1,7.01E2,1.75E2,2.6E2,1.12E2,8.272E3,3.0099E4,2.177E3,2.352E3,1.231E3,6.26E2,6.7E2,3.053E3,4.213E3,4.92E2,8.64E2,7.35E2,1.8772E4,1.478142E6,1.98557E5,9.4286E4,4.57E2,6.24E2,1.9887E4,4.06E2,9.79E2,3.01E2,9.75E2,9.48E2],"tree_param":{"num_deleted":"0","num_feature":"15","num_nodes":"63","size_leaf_vector":"1"}},{"base_weights":[6.03842E-9,1.776725E-3,-4.9932496E-5,1.309514E-3,5.8546243E-3,-1.051129E-5,-1.3848966E-3,3.729464E-3,8.9689175E-4,1.2443518E-2,2.630321E-3,-6.153203E-5,1.1943294E-3,-5.8725075E-4,-1.1603721E-2,2.610775E-3,1.7509544E-2,1.0914463E-3,-8.274052E-3,1.39841465E-2,-2.718801E-2,-1.6354911E-2,5.721818E-3,5.549918E-5,-3.0814458E-4,6.7233606E-3,8.578706E-4,-1.0313261E-2,-4.3780822E-4,-2.8402586E-2,-6.368984E-3,9.4947456E-5,5.652645E-4,1.8918188E-3,5.0402666E-4,6.0506223E-5,-5.301668E-4,1.9210047E-6,-2.002429E-3,8.577212E-4,1.0807585E-4,-8.1058993E-4,-3.7157652E-3,4.01198E-4,-1.5914695E-3,6.25762E-4,-6.746353E-6,-2.3698499E-6,2.1227004E-5,-6.3971625E-6,-3.211431E-5,1.256742E-4,7.2300166E-4,6.8160814E-5,-1.3502961E-4,-1.4373071E-4,-9.156364E-4,-1.466248E-4,-9.647873E-6,-2.1067986E-3,-5.4827024E-4,-6.658553E-4,-4.582744E-5],"categories":[],"categories_nodes":[],"categories_segments":[],"categories_sizes":[],"default_left":[0,0,0,0,0,0,0,0,0,0,0,0,0,0,0,0,0,0,0,0,0,0,0,0,0,0,0,0,0,0,0,0,0,0,0,0,0,0,0,0,0,0,0,0,0,0,0,0,0,0,0,0,0,0,0,0,0,0,0,0,0,0,0],"id":16,"left_children":[1,3,5,7,9,11,13,15,17,19,21,23,25,27,29,31,33,35,37,39,41,43,45,47,49,51,53,55,57,59,61,-1,-1,-1,-1,-1,-1,-1,-1,-1,-1,-1,-1,-1,-1,-1,-1,-1,-1,-1,-1,-1,-1,-1,-1,-1,-1,-1,-1,-1,-1,-1,-1],"loss_changes":[1.6607979E-1,9.748915E-2,9.581273E-2,4.5842946E-2,1.1171383E-1,1.0870808E-1,4.2564666E-1,1.0305399E-1,6.999975E-2,1.058875E-1,2.074552E-1,4.8965514E-2,1.3364497E-1,7.040349E-2,3.323114E-1,3.8269754E-2,7.542473E-2,5.332683E-2,2.1526332E-1,6.233135E-2,3.241837E-2,1.8699433E-1,1.2091541E-1,4.3690458E-2,3.2876562E-2,1.3418642E-1,1.2178863E-1,4.3564677E-2,2.9141342E-2,2.1458334E-1,1.09245785E-1,0E0,0E0,0E0,0E0,0E0,0E0,0E0,0E0,0E0,0E0,0E0,0E0,0E0,0E0,0E0,0E0,0E0,0E0,0E0,0E0,0E0,0E0,0E0,0E0,0E0,0E0,0E0,0E0,0E0,0E0,0E0,0E0],"parents":[2147483647,0,0,1,1,2,2,3,3,4,4,5,5,6,6,7,7,8,8,9,9,10,10,11,11,12,12,13,13,14,14,15,15,16,16,17,17,18,18,19,19,20,20,21,21,22,22,23,23,24,24,25,25,26,26,27,27,28,28,29,29,30,30],"right_children":[2,4,6,8,10,12,14,16,18,20,22,24,26,28,30,32,34,36,38,40,42,44,46,48,50,52,54,56,58,60,62,-1,-1,-1,-1,-1,-1,-1,-1,-1,-1,-1,-1,-1,-1,-1,-1,-1,-1,-1,-1,-1,-1,-1,-1,-1,-1,-1,-1,-1,-1,-1,-1],"split_conditions":[-2.1913879E-1,9.614679E-2,3.5267558E-2,6.1522776E-1,-4.5485105E-2,4.3471657E-2,1.9010555E0,6.893192E-2,7.780599E-2,4.6756987E-2,1.0091597E-1,7.6251584E-1,-2.994563E-2,1.414253E-1,2.1261424E-1,6.136052E-2,-6.923539E-2,1.4822578E-1,1.7291282E0,2.1446912E0,1.6969754E0,-1.07162725E-2,-8.886245E-2,2.8302401E-2,7.376394E-2,1.5754701E0,1.7291282E0,1.5754701E0,-5.1171625E-1,1.4836812E0,-7.3446894E-1,9.4947456E-5,5.652645E-4,1.8918188E-3,5.0402666E-4,6.0506223E-5,-5.301668E-4,1.9210047E-6,-2.002429E-3,8.577212E-4,1.0807585E-4,-8.1058993E-4,-3.7157652E-3,4.01198E-4,-1.5914695E-3,6.25762E-4,-6.746353E-6,-2.3698499E-6,2.1227004E-5,-6.3971625E-6,-3.211431E-5,1.256742E-4,7.2300166E-4,6.8160814E-5,-1.3502961E-4,-1.4373071E-4,-9.156364E-4,-1.466248E-4,-9.647873E-6,-2.1067986E-3,-5.4827024E-4,-6.658553E-4,-4.582744E-5],"split_indices":[6,12,7,14,7,12,14,12,7,11,13,13,13,13,13,5,8,11,14,14,14,7,11,12,5,14,14,14,3,10,1,0,0,0,0,0,0,0,0,0,0,0,0,0,0,0,0,0,0,0,0,0,0,0,0,0,0,0,0,0,0,0,0],"split_type":[0,0,0,0,0,0,0,0,0,0,0,0,0,0,0,0,0,0,0,0,0,0,0,0,0,0,0,0,0,0,0,0,0,0,0,0,0,0,0,0,0,0,0,0,0,0,0,0,0,0,0,0,0,0,0,0,0,0,0,0,0,0,0],"sum_hessian":[1.87181E6,5.1172E4,1.820638E6,4.5913E4,5.259E3,1.768418E6,5.222E4,6.687E3,3.9226E4,1.727E3,3.532E3,1.696575E6,7.1843E4,4.844E4,3.78E3,6.186E3,5.01E2,3.8412E4,8.14E2,1.663E3,6.4E1,4.94E2,3.038E3,1.150568E6,5.46007E5,4.12E3,6.7723E4,7.32E2,4.7708E4,8.97E2,2.883E3,5.719E3,4.67E2,1.33E2,3.68E2,3.8027E4,3.85E2,6.46E2,1.68E2,1.311E3,3.52E2,5.3E1,1.1E1,1.92E2,3.02E2,1.406E3,1.632E3,8.99711E5,2.50857E5,3.54713E5,1.91294E5,2.669E3,1.451E3,5.9302E4,8.421E3,3.8E2,3.52E2,4.263E3,4.3445E4,5.01E2,3.96E2,1.267E3,1.616E3],"tree_param":{"num_deleted":"0","num_feature":"15","num_nodes":"63","size_leaf_vector":"1"}},{"base_weights":[1.8234492E-9,-1.7797794E-5,4.555018E-3,-3.419137E-6,-4.6821935E-3,8.4296E-3,-2.5156061E-3,-3.853747E-5,1.5123746E-3,-1.6476904E-3,-2.4798227E-2,1.2698085E-2,2.1556322E-3,-8.956535E-3,1.1774828E-2,9.362495E-4,-6.827207E-5,2.4108978E-3,-2.410167E-3,1.3789785E-2,-3.0578086E-3,-4.0881816E-2,-3.4754693E-3,7.116526E-3,1.9658124E-2,1.3663078E-2,-3.5862243E-3,-2.5341134E-3,-1.45204235E-2,3.0550292E-2,1.9194146E-3,2.2902549E-4,3.200295E-5,-6.613478E-5,-2.368269E-6,4.94433E-4,9.7708915E-5,3.3447393E-6,-8.9299364E-4,-5.0738646E-4,1.063697E-3,-1.0260387E-3,-8.012633E-5,-2.6193927E-3,-1.1381512E-3,-4.0201307E-4,3.8063579E-4,5.883542E-5,1.284456E-3,3.638408E-4,1.2849778E-3,1.0679722E-3,-3.1083447E-4,-7.001836E-4,8.470676E-4,-5.5002095E-4,5.702083E-4,4.223568E-3,-7.6711073E-4,-5.116858E-4,2.0724013E-3,4.2679906E-4,-9.386176E-4],"categories":[],"categories_nodes":[],"categories_segments":[],"categories_sizes":[],"default_left":[0,0,0,0,0,0,0,0,0,0,0,0,0,0,0,0,0,0,0,0,0,0,0,0,0,0,0,0,0,0,0,0,0,0,0,0,0,0,0,0,0,0,0,0,0,0,0,0,0,0,0,0,0,0,0,0,0,0,0,0,0,0,0],"id":17,"left_children":[1,3,5,7,9,11,13,15,17,19,21,23,25,27,29,31,33,35,37,39,41,43,45,47,49,51,53,55,57,59,61,-1,-1,-1,-1,-1,-1,-1,-1,-1,-1,-1,-1,-1,-1,-1,-1,-1,-1,-1,-1,-1,-1,-1,-1,-1,-1,-1,-1,-1,-1,-1,-1],"loss_changes":[1.5176192E-1,1.2504953E-1,1.9962637E-1,9.894781E-2,3.497308E-1,1.2602767E-1,2.3757811E-1,5.2657165E-2,1.4835179E-1,1.08450115E-1,2.574107E-1,1.0867295E-1,1.2605232E-1,6.353335E-2,1.4834341E-1,5.8042634E-2,4.623434E-2,1.1693899E-1,3.002284E-1,7.49223E-2,1.159545E-1,8.803499E-2,1.6460553E-2,1.7162429E-1,9.301481E-2,9.728902E-2,2.7246186E-1,9.771619E-2,7.882303E-2,1.2309328E-1,7.2311E-2,0E0,0E0,0E0,0E0,0E0,0E0,0E0,0E0,0E0,0E0,0E0,0E0,0E0,0E0,0E0,0E0,0E0,0E0,0E0,0E0,0E0,0E0,0E0,0E0,0E0,0E0,0E0,0E0,0E0,0E0,0E0,0E0],"parents":[2147483647,0,0,1,1,2,2,3,3,4,4,5,5,6,6,7,7,8,8,9,9,10,10,11,11,12,12,13,13,14,14,15,15,16,16,17,17,18,18,19,19,20,20,21,21,22,22,23,23,24,24,25,25,26,26,27,27,28,28,29,29,30,30],"right_children":[2,4,6,8,10,12,14,16,18,20,22,24,26,28,30,32,34,36,38,40,42,44,46,48,50,52,54,56,58,60,62,-1,-1,-1,-1,-1,-1,-1,-1,-1,-1,-1,-1,-1,-1,-1,-1,-1,-1,-1,-1,-1,-1,-1,-1,-1,-1,-1,-1,-1,-1,-1,-1],"split_conditions":[9.614679E-2,2.1446912E0,3.7995145E-1,5.4259166E-2,6.0558837E-2,1.1862519E0,5.405769E1,2.20544E1,3.5267558E-2,-7.475323E-2,-1.0854868E0,1.9010555E0,-7.475323E-2,-1.1937289E-2,6.1008906E-1,-1.09881E-1,-3.8936116E-2,-5.7030436E-2,1.7641686E0,2.20544E1,-1.19625345E-1,-6.340345E-2,3.2892622E-2,4.4085903E1,-1.2551305E-1,3.8217038E-2,1.7310758E-1,4.4878284E1,3.9424527E-1,-5.459256E-2,1.3237388E0,2.2902549E-4,3.200295E-5,-6.613478E-5,-2.368269E-6,4.94433E-4,9.7708915E-5,3.3447393E-6,-8.9299364E-4,-5.0738646E-4,1.063697E-3,-1.0260387E-3,-8.012633E-5,-2.6193927E-3,-1.1381512E-3,-4.0201307E-4,3.8063579E-4,5.883542E-5,1.284456E-3,3.638408E-4,1.2849778E-3,1.0679722E-3,-3.1083447E-4,-7.001836E-4,8.470676E-4,-5.5002095E-4,5.702083E-4,4.223568E-3,-7.6711073E-4,-5.116858E-4,2.0724013E-3,4.2679906E-4,-9.386176E-4],"split_indices":[12,14,13,12,7,10,0,0,7,7,1,14,7,11,13,8,7,13,14,0,11,11,9,0,8,13,13,0,13,3,1,0,0,0,0,0,0,0,0,0,0,0,0,0,0,0,0,0,0,0,0,0,0,0,0,0,0,0,0,0,0,0,0],"split_type":[0,0,0,0,0,0,0,0,0,0,0,0,0,0,0,0,0,0,0,0,0,0,0,0,0,0,0,0,0,0,0,0,0,0,0,0,0,0,0,0,0,0,0,0,0,0,0,0,0,0,0,0,0,0,0,0,0,0,0,0,0,0,0],"sum_hessian":[1.87181E6,1.864525E6,7.285E3,1.858796E6,5.729E3,4.706E3,2.579E3,1.816707E6,4.2089E4,4.979E3,7.5E2,2.8E3,1.906E3,1.778E3,8.01E2,5.3775E4,1.762932E6,3.4245E4,7.844E3,4.16E2,4.563E3,4.27E2,3.23E2,1.555E3,1.245E3,6.34E2,1.272E3,8.26E2,9.52E2,2.75E2,5.26E2,4.041E3,4.9734E4,2.8899E4,1.734033E6,1.97E3,3.2275E4,6.761E3,1.083E3,9.9E1,3.17E2,3.5E2,4.213E3,2.6E2,1.67E2,2.29E2,9.4E1,1.179E3,3.76E2,4.09E2,8.36E2,4.57E2,1.77E2,8.44E2,4.28E2,5.14E2,3.12E2,7E0,9.45E2,5.8E1,2.17E2,3.99E2,1.27E2],"tree_param":{"num_deleted":"0","num_feature":"15","num_nodes":"63","size_leaf_vector":"1"}},{"base_weights":[3.893027E-9,1.6369208E-3,-4.60052E-5,6.9802725E-3,1.340077E-3,-9.4221E-6,-1.2848594E-3,-1.5506052E-3,1.6844274E-2,1.7581984E-3,-1.8742507E-3,-5.641621E-5,1.1003308E-3,-1.2913116E-2,-6.7925616E-4,1.4210419E-2,-4.92383E-3,2.206931E-2,4.513974E-3,1.1917624E-3,6.555886E-3,-1.2873705E-2,3.614165E-3,1.233389E-4,-2.0627036E-4,6.2217927E-3,7.8867405E-4,-3.890165E-3,-2.378815E-2,-3.4832518E-4,-5.9930235E-3,1.4501394E-3,1.02246915E-4,-4.4297785E-4,3.5300697E-4,1.3990004E-3,-8.15851E-5,6.182559E-4,-6.8300153E-4,1.5089537E-4,3.4490302E-5,6.185748E-4,1.4126432E-4,-4.040928E-4,-1.8205217E-3,1.0499143E-3,-1.0325798E-5,1.3784957E-6,3.740629E-5,-5.563326E-6,-2.6105748E-5,1.1318929E-4,6.747831E-4,6.345787E-5,-1.297357E-4,-8.43501E-6,-4.6127342E-4,-1.8723579E-3,-4.6235742E-4,-9.258426E-5,-1.9567008E-6,-6.2503316E-4,-4.088608E-5],"categories":[],"categories_nodes":[],"categories_segments":[],"categories_sizes":[],"default_left":[0,0,0,0,0,0,0,0,0,0,0,0,0,0,0,0,0,0,0,0,0,0,0,0,0,0,0,0,0,0,0,0,0,0,0,0,0,0,0,0,0,0,0,0,0,0,0,0,0,0,0,0,0,0,0,0,0,0,0,0,0,0,0],"id":18,"left_children":[1,3,5,7,9,11,13,15,17,19,21,23,25,27,29,31,33,35,37,39,41,43,45,47,49,51,53,55,57,59,61,-1,-1,-1,-1,-1,-1,-1,-1,-1,-1,-1,-1,-1,-1,-1,-1,-1,-1,-1,-1,-1,-1,-1,-1,-1,-1,-1,-1,-1,-1,-1,-1],"loss_changes":[1.409719E-1,8.1158206E-2,8.25134E-2,2.2663827E-1,6.5160744E-2,9.2226386E-2,3.677372E-1,7.689408E-2,8.036882E-2,1.1657919E-1,3.3696917E-1,4.5700777E-2,1.1466807E-1,2.5356036E-1,8.7284096E-2,4.5829542E-2,5.623681E-2,1.2290412E-1,5.3391054E-2,3.517143E-2,9.824662E-2,2.0925921E-1,2.4734935E-1,4.6152964E-2,2.7763173E-2,1.1861315E-1,1.1009959E-1,2.8073616E-2,2.3243129E-1,2.17203E-2,9.7995676E-2,0E0,0E0,0E0,0E0,0E0,0E0,0E0,0E0,0E0,0E0,0E0,0E0,0E0,0E0,0E0,0E0,0E0,0E0,0E0,0E0,0E0,0E0,0E0,0E0,0E0,0E0,0E0,0E0,0E0,0E0,0E0,0E0],"parents":[2147483647,0,0,1,1,2,2,3,3,4,4,5,5,6,6,7,7,8,8,9,9,10,10,11,11,12,12,13,13,14,14,15,15,16,16,17,17,18,18,19,19,20,20,21,21,22,22,23,23,24,24,25,25,26,26,27,27,28,28,29,29,30,30],"right_children":[2,4,6,8,10,12,14,16,18,20,22,24,26,28,30,32,34,36,38,40,42,44,46,48,50,52,54,56,58,60,62,-1,-1,-1,-1,-1,-1,-1,-1,-1,-1,-1,-1,-1,-1,-1,-1,-1,-1,-1,-1,-1,-1,-1,-1,-1,-1,-1,-1,-1,-1,-1,-1],"split_conditions":[-2.1913879E-1,-7.475323E-2,3.5267558E-2,1.7641686E0,1.6691039E0,4.3471657E-2,2.0784247E-1,1.7919014E1,2.1446912E0,7.789838E-2,-1.2551305E-1,6.994307E-4,-2.994563E-2,1.7641686E0,1.9010555E0,-2.2304049E0,-1.6667326E-1,-1.484566E-1,3.0082263E-2,-6.923539E-2,-5.9143893E-2,6.0558837E-2,-1.484566E-1,3.173596E-2,7.376394E-2,1.5754701E0,1.7291282E0,1.3662076E0,1.4836812E0,-1.1422207E0,-7.3446894E-1,1.4501394E-3,1.02246915E-4,-4.4297785E-4,3.5300697E-4,1.3990004E-3,-8.15851E-5,6.182559E-4,-6.8300153E-4,1.5089537E-4,3.4490302E-5,6.185748E-4,1.4126432E-4,-4.040928E-4,-1.8205217E-3,1.0499143E-3,-1.0325798E-5,1.3784957E-6,3.740629E-5,-5.563326E-6,-2.6105748E-5,1.1318929E-4,6.747831E-4,6.345787E-5,-1.297357E-4,-8.43501E-6,-4.6127342E-4,-1.8723579E-3,-4.6235742E-4,-9.258426E-5,-1.9567008E-6,-6.2503316E-4,-4.088608E-5],"split_indices":[6,7,7,14,14,12,13,0,14,12,8,8,13,14,14,2,1,11,13,8,8,7,11,12,5,14,14,10,10,2,1,0,0,0,0,0,0,0,0,0,0,0,0,0,0,0,0,0,0,0,0,0,0,0,0,0,0,0,0,0,0,0,0],"split_type":[0,0,0,0,0,0,0,0,0,0,0,0,0,0,0,0,0,0,0,0,0,0,0,0,0,0,0,0,0,0,0,0,0,0,0,0,0,0,0,0,0,0,0,0,0,0,0,0,0,0,0,0,0,0,0,0,0,0,0,0,0,0,0],"sum_hessian":[1.87181E6,5.1172E4,1.820638E6,2.692E3,4.848E4,1.768418E6,5.222E4,1.444E3,1.248E3,4.29E4,5.58E3,1.696575E6,7.1843E4,2.584E3,4.9636E4,2.54E2,1.19E3,8.76E2,3.72E2,3.8371E4,4.529E3,1.857E3,3.723E3,7.71334E5,9.25241E5,4.12E3,6.7723E4,1.413E3,1.171E3,4.6727E4,2.909E3,1.14E2,1.4E2,8.96E2,2.94E2,7.01E2,1.75E2,2.6E2,1.12E2,8.272E3,3.0099E4,1.769E3,2.76E3,1.544E3,3.13E2,6.7E2,3.053E3,6.68817E5,1.02517E5,7.11291E5,2.1395E5,2.669E3,1.451E3,5.9302E4,8.421E3,8.33E2,5.8E2,6.03E2,5.68E2,7.97E3,3.8757E4,1.288E3,1.621E3],"tree_param":{"num_deleted":"0","num_feature":"15","num_nodes":"63","size_leaf_vector":"1"}},{"base_weights":[3.5049854E-9,-1.6485035E-5,4.2195083E-3,-3.2303428E-6,-4.31627E-3,8.077996E-3,-2.1181665E-3,1.1455144E-3,-4.2151554E-5,-1.5195865E-4,-1.6896766E-2,2.6020287E-3,1.3263272E-2,-1.0207475E-2,7.56364E-3,1.4211616E-3,-1.44207915E-2,-1.6266766E-3,-1.9605495E-5,1.1477926E-2,-1.9186403E-3,-3.8045898E-2,-8.0801E-3,1.1677463E-2,-1.8924883E-2,2.8167686E-3,2.4185061E-2,3.4152733E-3,-1.592222E-2,1.7146071E-2,-1.0329328E-3,3.467575E-4,5.747146E-5,-1.7320596E-4,-1.3365935E-3,-6.353963E-5,-7.3133665E-4,-1.4266058E-6,2.0888571E-4,1.16573174E-4,1.8247506E-3,-2.9402037E-5,-9.0212555E-4,-2.3437322E-3,-2.6255482E-4,-7.3820096E-4,4.072171E-5,9.145808E-4,-1.319411E-4,8.5403305E-4,-1.1362293E-3,-1.1996754E-4,9.254166E-4,1.3865746E-3,-7.502786E-4,9.414279E-4,-1.4682213E-4,8.397868E-4,-9.234437E-4,1.5497623E-3,3.389991E-4,4.0387944E-4,-5.2094524E-4],"categories":[],"categories_nodes":[],"categories_segments":[],"categories_sizes":[],"default_left":[0,0,0,0,0,0,0,0,0,0,0,0,0,0,0,0,0,0,0,0,0,0,0,0,0,0,0,0,0,0,0,0,0,0,0,0,0,0,0,0,0,0,0,0,0,0,0,0,0,0,0,0,0,0,0,0,0,0,0,0,0,0,0],"id":19,"left_children":[1,3,5,7,9,11,13,15,17,19,21,23,25,27,29,31,33,35,37,39,41,43,45,47,49,51,53,55,57,59,61,-1,-1,-1,-1,-1,-1,-1,-1,-1,-1,-1,-1,-1,-1,-1,-1,-1,-1,-1,-1,-1,-1,-1,-1,-1,-1,-1,-1,-1,-1,-1,-1],"loss_changes":[1.3022847E-1,1.0626365E-1,1.7818777E-1,8.310785E-2,3.0018696E-1,1.2856373E-1,2.1608132E-1,2.613951E-1,6.4228974E-2,8.849441E-2,2.6540497E-1,4.308078E-1,2.6531568E-1,1.1706376E-1,1.03482045E-1,8.967601E-2,1.4288917E-1,1.1667595E-1,6.641796E-2,1.2988344E-1,8.020744E-2,1.2106985E-1,5.987852E-2,1.4691263E-1,8.986212E-2,9.7444795E-2,1.584441E-1,4.3621145E-2,8.854744E-2,8.506556E-2,5.677802E-2,0E0,0E0,0E0,0E0,0E0,0E0,0E0,0E0,0E0,0E0,0E0,0E0,0E0,0E0,0E0,0E0,0E0,0E0,0E0,0E0,0E0,0E0,0E0,0E0,0E0,0E0,0E0,0E0,0E0,0E0,0E0,0E0],"parents":[2147483647,0,0,1,1,2,2,3,3,4,4,5,5,6,6,7,7,8,8,9,9,10,10,11,11,12,12,13,13,14,14,15,15,16,16,17,17,18,18,19,19,20,20,21,21,22,22,23,23,24,24,25,25,26,26,27,27,28,28,29,29,30,30],"right_children":[2,4,6,8,10,12,14,16,18,20,22,24,26,28,30,32,34,36,38,40,42,44,46,48,50,52,54,56,58,60,62,-1,-1,-1,-1,-1,-1,-1,-1,-1,-1,-1,-1,-1,-1,-1,-1,-1,-1,-1,-1,-1,-1,-1,-1,-1,-1,-1,-1,-1,-1,-1,-1],"split_conditions":[9.614679E-2,2.1446912E0,3.65863E-1,-7.243788E-2,2.5041938E-2,-1.2551305E-1,4.9035213E1,4.657907E-2,-3.8936116E-2,-2.994563E-2,-7.492608E-2,2.1446912E0,1.9616414E0,1.7112E-1,5.1612478E-2,6.424046E-1,1.7291282E0,9.20492E-2,7.789838E-2,6.893192E-2,7.789838E-2,1.6006716E0,1.6006716E0,-1.829804E-2,-1.1319129E-1,4.2654026E1,4.0041695E1,1.5790531E-2,1.0172582E0,-2.0532908E-1,8.964906E-1,3.467575E-4,5.747146E-5,-1.7320596E-4,-1.3365935E-3,-6.353963E-5,-7.3133665E-4,-1.4266058E-6,2.0888571E-4,1.16573174E-4,1.8247506E-3,-2.9402037E-5,-9.0212555E-4,-2.3437322E-3,-2.6255482E-4,-7.3820096E-4,4.072171E-5,9.145808E-4,-1.319411E-4,8.5403305E-4,-1.1362293E-3,-1.1996754E-4,9.254166E-4,1.3865746E-3,-7.502786E-4,9.414279E-4,-1.4682213E-4,8.397868E-4,-9.234437E-4,1.5497623E-3,3.389991E-4,4.0387944E-4,-5.2094524E-4],"split_indices":[12,14,13,8,7,8,0,7,7,13,11,14,14,3,11,14,14,11,12,12,12,10,10,7,13,0,0,7,14,5,10,0,0,0,0,0,0,0,0,0,0,0,0,0,0,0,0,0,0,0,0,0,0,0,0,0,0,0,0,0,0,0,0],"split_type":[0,0,0,0,0,0,0,0,0,0,0,0,0,0,0,0,0,0,0,0,0,0,0,0,0,0,0,0,0,0,0,0,0,0,0,0,0,0,0,0,0,0,0,0,0,0,0,0,0,0,0,0,0,0,0,0,0,0,0,0,0,0,0],"sum_hessian":[1.87181E6,1.864525E6,7.285E3,1.858796E6,5.729E3,4.528E3,2.757E3,6.0914E4,1.797882E6,4.305E3,1.424E3,2.203E3,2.325E3,1.502E3,1.255E3,5.9855E4,1.059E3,2.5222E4,1.77266E6,5.67E2,3.738E3,4.18E2,1.006E3,1.55E3,6.53E2,1.189E3,1.136E3,4.44E2,1.058E3,5.93E2,6.62E2,2.81E3,5.7045E4,5.61E2,4.98E2,2.4551E4,6.71E2,1.768899E6,3.761E3,4.16E2,1.51E2,3.454E3,2.84E2,3.29E2,8.9E1,5.74E2,4.32E2,1.06E3,4.9E2,6.2E1,5.91E2,8.93E2,2.96E2,1.042E3,9.4E1,1.29E2,3.15E2,7.6E1,9.82E2,2.53E2,3.4E2,3.36E2,3.26E2],"tree_param":{"num_deleted":"0","num_feature":"15","num_nodes":"63","size_leaf_vector":"1"}},{"base_weights":[3.5647831E-9,1.5193722E-3,-4.270158E-5,6.4067324E-3,1.2478601E-3,-8.62452E-6,-1.196691E-3,-8.807241E-4,1.673687E-2,1.6442457E-3,-1.7993685E-3,-3.1333246E-5,2.0337997E-3,-1.1957649E-2,-6.3625677E-4,-5.2481145E-3,9.413722E-3,2.0697165E-2,-4.487297E-3,1.0489435E-2,1.3732854E-3,-1.1984024E-2,3.2825028E-3,1.6729016E-4,-1.7328966E-4,1.4214661E-2,1.4611752E-3,-3.666982E-3,-2.1950008E-2,-2.1434439E-4,-4.217068E-3,-4.238281E-4,4.92512E-4,5.5052736E-4,-4.218943E-3,1.4467906E-3,1.8212854E-4,3.3878649E-4,-3.486345E-3,2.6483936E-4,1.1151388E-3,5.0472365E-5,2.4006279E-4,-2.5068477E-4,-1.2830498E-3,9.5693924E-4,-1.0119259E-5,1.6894963E-6,4.0211893E-5,-5.447293E-6,-2.9144983E-5,1.8259247E-4,1.6050743E-3,2.0771682E-4,2.2674149E-6,-5.199446E-5,-5.256768E-4,-1.7332686E-3,-4.2069642E-4,-3.6156434E-6,-1.8087757E-4,-5.4595334E-4,-1.1424613E-5],"categories":[],"categories_nodes":[],"categories_segments":[],"categories_sizes":[],"default_left":[0,0,0,0,0,0,0,0,0,0,0,0,0,0,0,0,0,0,0,0,0,0,0,0,0,0,0,0,0,0,0,0,0,0,0,0,0,0,0,0,0,0,0,0,0,0,0,0,0,0,0,0,0,0,0,0,0,0,0,0,0,0,0],"id":20,"left_children":[1,3,5,7,9,11,13,15,17,19,21,23,25,27,29,31,33,35,37,39,41,43,45,47,49,51,53,55,57,59,61,-1,-1,-1,-1,-1,-1,-1,-1,-1,-1,-1,-1,-1,-1,-1,-1,-1,-1,-1,-1,-1,-1,-1,-1,-1,-1,-1,-1,-1,-1,-1,-1],"loss_changes":[1.2145226E-1,6.789744E-2,7.159583E-2,2.0274493E-1,5.8562055E-2,8.2020834E-2,3.1492725E-1,7.108599E-2,9.372899E-2,1.0280616E-1,2.888958E-1,4.931387E-2,1.3561621E-1,2.1406949E-1,7.499011E-2,5.418961E-2,7.14709E-2,1.3183048E-1,1.2979642E-1,7.809356E-2,5.1913448E-2,1.7700005E-1,2.0578231E-1,6.1987683E-2,2.6882611E-2,1.6482319E-1,7.0823394E-2,2.542202E-2,2.0142847E-1,2.146394E-2,1.3985634E-1,0E0,0E0,0E0,0E0,0E0,0E0,0E0,0E0,0E0,0E0,0E0,0E0,0E0,0E0,0E0,0E0,0E0,0E0,0E0,0E0,0E0,0E0,0E0,0E0,0E0,0E0,0E0,0E0,0E0,0E0,0E0,0E0],"parents":[2147483647,0,0,1,1,2,2,3,3,4,4,5,5,6,6,7,7,8,8,9,9,10,10,11,11,12,12,13,13,14,14,15,15,16,16,17,17,18,18,19,19,20,20,21,21,22,22,23,23,24,24,25,25,26,26,27,27,28,28,29,29,30,30],"right_children":[2,4,6,8,10,12,14,16,18,20,22,24,26,28,30,32,34,36,38,40,42,44,46,48,50,52,54,56,58,60,62,-1,-1,-1,-1,-1,-1,-1,-1,-1,-1,-1,-1,-1,-1,-1,-1,-1,-1,-1,-1,-1,-1,-1,-1,-1,-1,-1,-1,-1,-1,-1,-1],"split_conditions":[-2.1913879E-1,-7.475323E-2,3.5267558E-2,1.8483807E0,1.6691039E0,5.655681E-2,2.0784247E-1,1.3982332E0,1.7939665E0,-1.5495497E-1,-1.2551305E-1,-2.242588E-3,-7.3034264E-2,1.7641686E0,1.7291282E0,-9.771576E-2,6.4208534E1,2.1446912E0,2.6321455E-3,7.5180925E-2,7.789838E-2,1.9417457E-2,-1.484566E-1,3.173596E-2,9.3894504E-2,1.8483807E0,-1.5072784E0,1.5754701E0,1.4836812E0,1.6574767E-1,-7.626202E-1,-4.238281E-4,4.92512E-4,5.5052736E-4,-4.218943E-3,1.4467906E-3,1.8212854E-4,3.3878649E-4,-3.486345E-3,2.6483936E-4,1.1151388E-3,5.0472365E-5,2.4006279E-4,-2.5068477E-4,-1.2830498E-3,9.5693924E-4,-1.0119259E-5,1.6894963E-6,4.0211893E-5,-5.447293E-6,-2.9144983E-5,1.8259247E-4,1.6050743E-3,2.0771682E-4,2.2674149E-6,-5.199446E-5,-5.256768E-4,-1.7332686E-3,-4.2069642E-4,-3.6156434E-6,-1.8087757E-4,-5.4595334E-4,-1.1424613E-5],"split_indices":[6,7,7,14,14,12,13,10,10,8,8,8,13,14,14,1,0,14,13,13,12,7,11,12,5,14,2,14,10,8,1,0,0,0,0,0,0,0,0,0,0,0,0,0,0,0,0,0,0,0,0,0,0,0,0,0,0,0,0,0,0,0,0],"split_type":[0,0,0,0,0,0,0,0,0,0,0,0,0,0,0,0,0,0,0,0,0,0,0,0,0,0,0,0,0,0,0,0,0,0,0,0,0,0,0,0,0,0,0,0,0,0,0,0,0,0,0,0,0,0,0,0,0,0,0,0,0,0,0],"sum_hessian":[1.87181E6,5.1172E4,1.820638E6,2.692E3,4.848E4,1.768418E6,5.222E4,1.579E3,1.113E3,4.29E4,5.58E3,1.748973E6,1.9445E4,2.584E3,4.9636E4,1.109E3,4.7E2,9.38E2,1.75E2,1.274E3,4.1626E4,1.857E3,3.723E3,7.28986E5,1.019987E6,8.72E2,1.8573E4,1.413E3,1.171E3,4.4405E4,5.231E3,9.14E2,1.95E2,4.63E2,7E0,6.32E2,3.06E2,1.5E2,2.5E1,8.86E2,3.88E2,3.7633E4,3.993E3,1.231E3,6.26E2,6.7E2,3.053E3,6.02671E5,1.26315E5,8.81515E5,1.38472E5,5.49E2,3.23E2,6.399E3,1.2174E4,1.022E3,3.91E2,6.03E2,5.68E2,4.2627E4,1.778E3,1.951E3,3.28E3],"tree_param":{"num_deleted":"0","num_feature":"15","num_nodes":"63","size_leaf_vector":"1"}},{"base_weights":[4.6202464E-10,-1.51683E-5,3.881767E-3,3.1564523E-6,-2.7796242E-3,7.1530906E-3,-2.851952E-3,-3.4599845E-5,1.4334627E-3,-3.4240598E-4,-1.498224E-2,9.625442E-3,-1.3061238E-3,-1.3054551E-2,6.6904547E-3,9.385888E-5,-2.2613822E-4,6.35935E-3,9.828928E-4,1.3961907E-2,-1.5897239E-3,-3.5025157E-2,-6.149984E-3,1.2576377E-2,-9.1843496E-5,1.2740531E-2,-9.053501E-3,3.1965678E-3,-1.6247341E-2,1.6410755E-2,-1.4342162E-3,-4.9239898E-5,6.3169937E-6,8.3876395E-5,-1.2588405E-5,7.239625E-4,2.230493E-4,8.858935E-5,-7.1374634E-5,-2.442903E-4,1.0947114E-3,-1.2348952E-3,-4.6667734E-5,-2.0338113E-3,5.9309654E-4,-7.2115543E-4,-1.173081E-5,7.939989E-4,5.3024927E-5,-1.0788521E-3,1.3054928E-4,-1.7011836E-3,8.6195825E-4,-8.539483E-4,9.248517E-4,-2.0245041E-3,2.9242746E-4,1.1101475E-4,-9.3279715E-4,1.540163E-3,3.1213296E-4,3.6265806E-4,-5.020122E-4],"categories":[],"categories_nodes":[],"categories_segments":[],"categories_sizes":[],"default_left":[0,0,0,0,0,0,0,0,0,0,0,0,0,0,0,0,0,0,0,0,0,0,0,0,0,0,0,0,0,0,0,0,0,0,0,0,0,0,0,0,0,0,0,0,0,0,0,0,0,0,0,0,0,0,0,0,0,0,0,0,0,0,0],"id":21,"left_children":[1,3,5,7,9,11,13,15,17,19,21,23,25,27,29,31,33,35,37,39,41,43,45,47,49,51,53,55,57,59,61,-1,-1,-1,-1,-1,-1,-1,-1,-1,-1,-1,-1,-1,-1,-1,-1,-1,-1,-1,-1,-1,-1,-1,-1,-1,-1,-1,-1,-1,-1,-1,-1],"loss_changes":[1.1021526E-1,9.445311E-2,1.605177E-1,1.0002718E-1,3.6514795E-1,1.0257557E-1,2.3208988E-1,4.4402115E-2,1.05722E-1,1.8263532E-1,3.6162198E-1,1.0882309E-1,1.20910816E-1,5.9825107E-2,9.73198E-2,3.784498E-2,3.5346355E-2,6.1470196E-2,8.299711E-2,1.22851446E-1,1.4277895E-1,1.6608387E-1,6.948939E-2,1.1072886E-1,5.144901E-2,8.368467E-2,1.586277E-1,2.2249479E-2,4.287678E-2,8.1906885E-2,5.0314102E-2,0E0,0E0,0E0,0E0,0E0,0E0,0E0,0E0,0E0,0E0,0E0,0E0,0E0,0E0,0E0,0E0,0E0,0E0,0E0,0E0,0E0,0E0,0E0,0E0,0E0,0E0,0E0,0E0,0E0,0E0,0E0,0E0],"parents":[2147483647,0,0,1,1,2,2,3,3,4,4,5,5,6,6,7,7,8,8,9,9,10,10,11,11,12,12,13,13,14,14,15,15,16,16,17,17,18,18,19,19,20,20,21,21,22,22,23,23,24,24,25,25,26,26,27,27,28,28,29,29,30,30],"right_children":[2,4,6,8,10,12,14,16,18,20,22,24,26,28,30,32,34,36,38,40,42,44,46,48,50,52,54,56,58,60,62,-1,-1,-1,-1,-1,-1,-1,-1,-1,-1,-1,-1,-1,-1,-1,-1,-1,-1,-1,-1,-1,-1,-1,-1,-1,-1,-1,-1,-1,-1,-1,-1],"split_conditions":[9.614679E-2,2.0375257E0,3.9424527E-1,5.2433744E-2,3.727907E-2,1.356527E0,4.8850803E1,3.7370446E-1,6.3478225E-1,-7.475323E-2,-6.340345E-2,-1.6720699E0,1.9616414E0,3.4683157E-2,5.1612478E-2,-3.457332E-2,-6.136151E-2,-6.923539E-2,2.5824528E-2,4.700948E-2,-1.484566E-1,1.8937489E0,-7.0687413E-1,2.734086E-1,-2.1351757E0,9.991979E-1,-1.09881E-1,3.352156E1,-2.999516E-2,-2.0532908E-1,8.922699E-1,-4.9239898E-5,6.3169937E-6,8.3876395E-5,-1.2588405E-5,7.239625E-4,2.230493E-4,8.858935E-5,-7.1374634E-5,-2.442903E-4,1.0947114E-3,-1.2348952E-3,-4.6667734E-5,-2.0338113E-3,5.9309654E-4,-7.2115543E-4,-1.173081E-5,7.939989E-4,5.3024927E-5,-1.0788521E-3,1.3054928E-4,-1.7011836E-3,8.6195825E-4,-8.539483E-4,9.248517E-4,-2.0245041E-3,2.9242746E-4,1.1101475E-4,-9.3279715E-4,1.540163E-3,3.1213296E-4,3.6265806E-4,-5.020122E-4],"split_indices":[12,14,13,12,7,10,0,1,14,7,11,2,14,3,11,7,8,8,7,12,11,10,1,3,1,14,8,0,8,5,10,0,0,0,0,0,0,0,0,0,0,0,0,0,0,0,0,0,0,0,0,0,0,0,0,0,0,0,0,0,0,0,0],"split_type":[0,0,0,0,0,0,0,0,0,0,0,0,0,0,0,0,0,0,0,0,0,0,0,0,0,0,0,0,0,0,0,0,0,0,0,0,0,0,0,0,0,0,0,0,0,0,0,0,0,0,0,0,0,0,0,0,0,0,0,0,0,0,0],"sum_hessian":[1.87181E6,1.864525E6,7.285E3,1.852248E6,1.2277E4,4.903E3,2.382E3,1.804612E6,4.7636E4,1.0234E4,2.043E3,3.794E3,1.109E3,1.151E3,1.231E3,1.080174E6,7.24438E5,3.991E3,4.3645E4,8.2E2,9.414E3,6.24E2,1.419E3,2.91E3,8.84E2,3.94E2,7.15E2,1.89E2,9.62E2,5.6E2,6.71E2,3.1575E4,1.048599E6,9.623E3,7.14815E5,7.55E2,3.236E3,3.2883E4,1.0762E4,2.43E2,5.77E2,2.59E2,9.155E3,5.57E2,6.7E1,5.91E2,8.28E2,2.261E3,6.49E2,9.8E1,7.86E2,3.4E1,3.6E2,5.54E2,1.61E2,1E1,1.79E2,1.11E2,8.51E2,2.31E2,3.29E2,3.34E2,3.37E2],"tree_param":{"num_deleted":"0","num_feature":"15","num_nodes":"63","size_leaf_vector":"1"}},{"base_weights":[-1.3525325E-9,1.4002437E-3,-3.9358274E-5,5.8810366E-3,1.1513178E-3,2.016901E-5,-6.36801E-4,-9.837627E-4,1.5612187E-2,1.523903E-3,-1.7129405E-3,-1.8892983E-6,2.755065E-3,-4.163372E-4,-6.7878533E-3,-5.1302896E-3,8.790396E-3,1.9353984E-2,-4.4398583E-3,9.810064E-3,1.2700682E-3,-1.0527015E-2,3.4587372E-3,-9.9980665E-5,3.761493E-4,1.3920985E-2,2.1281864E-3,-4.252499E-3,-3.6307046E-4,-1.528028E-2,-1.9368422E-3,-4.1031252E-4,4.6277998E-4,5.1564805E-4,-4.0308577E-3,1.3600903E-3,1.5548013E-4,3.1009625E-4,-3.3036645E-3,2.4592827E-4,1.0469235E-3,4.668182E-5,2.2199124E-4,-3.3048255E-4,-1.4912339E-3,5.606017E-4,-1.6822605E-4,-1.1812876E-4,-4.393399E-6,3.3487988E-5,-2.3213892E-5,-5.0252824E-5,1.2535857E-3,2.706618E-4,9.091129E-6,-7.460082E-5,-6.1491685E-4,-1.2891846E-5,-7.181294E-5,-3.232121E-4,-1.2330039E-3,8.916771E-4,-1.17640455E-4],"categories":[],"categories_nodes":[],"categories_segments":[],"categories_sizes":[],"default_left":[0,0,0,0,0,0,0,0,0,0,0,0,0,0,0,0,0,0,0,0,0,0,0,0,0,0,0,0,0,0,0,0,0,0,0,0,0,0,0,0,0,0,0,0,0,0,0,0,0,0,0,0,0,0,0,0,0,0,0,0,0,0,0],"id":22,"left_children":[1,3,5,7,9,11,13,15,17,19,21,23,25,27,29,31,33,35,37,39,41,43,45,47,49,51,53,55,57,59,61,-1,-1,-1,-1,-1,-1,-1,-1,-1,-1,-1,-1,-1,-1,-1,-1,-1,-1,-1,-1,-1,-1,-1,-1,-1,-1,-1,-1,-1,-1,-1,-1],"loss_changes":[1.0315431E-1,5.707085E-2,6.474948E-2,1.799142E-1,5.174058E-2,9.988215E-2,2.2370498E-1,6.4080626E-2,8.367011E-2,9.0221874E-2,2.544382E-1,6.0905084E-2,9.269505E-2,3.2541417E-2,2.3512208E-1,4.9193926E-2,6.494805E-2,1.1962199E-1,1.1584636E-1,6.9301106E-2,4.4387184E-2,1.5583293E-1,1.8614958E-1,3.5738956E-2,8.3495885E-2,1.1719631E-1,8.020413E-2,4.8422527E-2,1.7739417E-2,1.7142788E-1,2.9927332E-2,0E0,0E0,0E0,0E0,0E0,0E0,0E0,0E0,0E0,0E0,0E0,0E0,0E0,0E0,0E0,0E0,0E0,0E0,0E0,0E0,0E0,0E0,0E0,0E0,0E0,0E0,0E0,0E0,0E0,0E0,0E0,0E0],"parents":[2147483647,0,0,1,1,2,2,3,3,4,4,5,5,6,6,7,7,8,8,9,9,10,10,11,11,12,12,13,13,14,14,15,15,16,16,17,17,18,18,19,19,20,20,21,21,22,22,23,23,24,24,25,25,26,26,27,27,28,28,29,29,30,30],"right_children":[2,4,6,8,10,12,14,16,18,20,22,24,26,28,30,32,34,36,38,40,42,44,46,48,50,52,54,56,58,60,62,-1,-1,-1,-1,-1,-1,-1,-1,-1,-1,-1,-1,-1,-1,-1,-1,-1,-1,-1,-1,-1,-1,-1,-1,-1,-1,-1,-1,-1,-1,-1,-1],"split_conditions":[-2.1913879E-1,-7.475323E-2,2.0804096E-2,1.8483807E0,1.6691039E0,5.94056E-2,1.9010555E0,1.3982332E0,1.7939665E0,-1.5495497E-1,-1.09881E-1,2.8302401E-2,-7.3034264E-2,-7.492608E-2,-2.0922083E-2,-9.771576E-2,6.4208534E1,2.1446912E0,2.6321455E-3,7.5180925E-2,7.789838E-2,6.0558837E-2,-3.5837838E-1,-4.1832678E-2,2.7909933E-2,1.5754701E0,-1.5072784E0,1.5754701E0,9.737396E-2,5.0831866E-2,-7.889229E-2,-4.1031252E-4,4.6277998E-4,5.1564805E-4,-4.0308577E-3,1.3600903E-3,1.5548013E-4,3.1009625E-4,-3.3036645E-3,2.4592827E-4,1.0469235E-3,4.668182E-5,2.2199124E-4,-3.3048255E-4,-1.4912339E-3,5.606017E-4,-1.6822605E-4,-1.1812876E-4,-4.393399E-6,3.3487988E-5,-2.3213892E-5,-5.0252824E-5,1.2535857E-3,2.706618E-4,9.091129E-6,-7.460082E-5,-6.1491685E-4,-1.2891846E-5,-7.181294E-5,-3.232121E-4,-1.2330039E-3,8.916771E-4,-1.17640455E-4],"split_indices":[6,7,7,14,14,12,14,10,10,8,8,12,13,11,8,1,0,14,13,13,12,7,3,7,8,14,2,14,8,12,11,0,0,0,0,0,0,0,0,0,0,0,0,0,0,0,0,0,0,0,0,0,0,0,0,0,0,0,0,0,0,0,0],"split_type":[0,0,0,0,0,0,0,0,0,0,0,0,0,0,0,0,0,0,0,0,0,0,0,0,0,0,0,0,0,0,0,0,0,0,0,0,0,0,0,0,0,0,0,0,0,0,0,0,0,0,0,0,0,0,0,0,0,0,0,0,0,0,0],"sum_hessian":[1.87181E6,5.1172E4,1.820638E6,2.692E3,4.848E4,1.655673E6,1.64965E5,1.579E3,1.113E3,4.29E4,5.58E3,1.642427E6,1.3246E4,1.59258E5,5.707E3,1.109E3,4.7E2,9.38E2,1.75E2,1.274E3,4.1626E4,2.063E3,3.517E3,1.304058E6,3.38369E5,7.03E2,1.2543E4,2.18E3,1.57078E5,2.074E3,3.633E3,9.14E2,1.95E2,4.63E2,7E0,6.32E2,3.06E2,1.5E2,2.5E1,8.86E2,3.88E2,3.7633E4,3.993E3,1.716E3,3.47E2,1.646E3,1.871E3,6.943E3,1.297115E6,2.50763E5,8.7606E4,3.01E2,4.02E2,4.666E3,7.877E3,1.624E3,5.56E2,1.43052E5,1.4026E4,1.07E3,1.004E3,7.4E1,3.559E3],"tree_param":{"num_deleted":"0","num_feature":"15","num_nodes":"63","size_leaf_vector":"1"}},{"base_weights":[-3.960968E-9,-1.4033775E-5,3.5903E-3,1.1354818E-5,-1.8047857E-3,6.699277E-3,-2.8092023E-3,-4.3513715E-5,1.0321402E-3,-2.517232E-4,-1.05546815E-2,9.022886E-3,-1.2509886E-3,-1.2453718E-2,6.211326E-3,8.0748185E-5,-2.257184E-4,3.8255842E-3,7.352196E-4,1.1752015E-2,-1.0843537E-3,-2.262469E-2,-2.5715667E-3,1.1823162E-2,-1.9816251E-4,1.183727E-2,-8.469719E-3,3.035826E-3,-1.5496874E-2,1.5440042E-2,-1.5022464E-3,-6.52979E-5,5.810602E-6,-2.8483623E-6,-2.1302023E-5,5.3155853E-4,1.3311153E-4,6.3994514E-5,-4.65307E-5,-7.4341835E-5,1.1184108E-3,-8.1456447E-4,-3.678327E-5,-1.4693039E-3,-1.5690365E-4,-3.245256E-4,8.315082E-5,6.381575E-4,-1.244763E-3,-1.0355749E-3,1.19127355E-4,-1.629759E-3,8.056168E-4,-7.981781E-4,8.627957E-4,-1.9333862E-3,2.7837555E-4,4.0073387E-4,-8.646091E-4,-2.6983823E-4,1.1027962E-3,-6.2411104E-4,2.3731378E-4],"categories":[],"categories_nodes":[],"categories_segments":[],"categories_sizes":[],"default_left":[0,0,0,0,0,0,0,0,0,0,0,0,0,0,0,0,0,0,0,0,0,0,0,0,0,0,0,0,0,0,0,0,0,0,0,0,0,0,0,0,0,0,0,0,0,0,0,0,0,0,0,0,0,0,0,0,0,0,0,0,0,0,0],"id":23,"left_children":[1,3,5,7,9,11,13,15,17,19,21,23,25,27,29,31,33,35,37,39,41,43,45,47,49,51,53,55,57,59,61,-1,-1,-1,-1,-1,-1,-1,-1,-1,-1,-1,-1,-1,-1,-1,-1,-1,-1,-1,-1,-1,-1,-1,-1,-1,-1,-1,-1,-1,-1,-1,-1],"loss_changes":[9.42856E-2,8.477008E-2,1.4498037E-1,1.0297046E-1,3.5419816E-1,9.0604395E-2,2.0739506E-1,3.950158E-2,7.7780426E-2,2.2126494E-1,3.7852558E-1,9.7994864E-2,1.0497373E-1,5.434899E-2,8.7724805E-2,5.1011156E-2,2.3913704E-2,7.13066E-2,7.691561E-2,2.0185779E-1,1.09759964E-1,2.0597506E-1,3.9274797E-2,1.0079038E-1,4.690033E-2,7.555607E-2,1.3830869E-1,2.027553E-2,4.0787295E-2,7.745503E-2,4.6164226E-2,0E0,0E0,0E0,0E0,0E0,0E0,0E0,0E0,0E0,0E0,0E0,0E0,0E0,0E0,0E0,0E0,0E0,0E0,0E0,0E0,0E0,0E0,0E0,0E0,0E0,0E0,0E0,0E0,0E0,0E0,0E0,0E0],"parents":[2147483647,0,0,1,1,2,2,3,3,4,4,5,5,6,6,7,7,8,8,9,9,10,10,11,11,12,12,13,13,14,14,15,15,16,16,17,17,18,18,19,19,20,20,21,21,22,22,23,23,24,24,25,25,26,26,27,27,28,28,29,29,30,30],"right_children":[2,4,6,8,10,12,14,16,18,20,22,24,26,28,30,32,34,36,38,40,42,44,46,48,50,52,54,56,58,60,62,-1,-1,-1,-1,-1,-1,-1,-1,-1,-1,-1,-1,-1,-1,-1,-1,-1,-1,-1,-1,-1,-1,-1,-1,-1,-1,-1,-1,-1,-1,-1,-1],"split_conditions":[9.614679E-2,1.9010555E0,3.9424527E-1,4.425949E-2,3.354731E-2,1.356527E0,4.8850803E1,3.7370446E-1,6.385781E-1,-7.475323E-2,-2.7424345E-2,-1.6720699E0,1.9616414E0,3.4683157E-2,5.1612478E-2,-3.457332E-2,2.4635242E-3,-6.923539E-2,2.3024736E-2,5.4259166E-2,-1.484566E-1,1.7261693E0,7.840441E-1,3.2313043E-1,-2.1351757E0,9.991979E-1,-1.09881E-1,3.352156E1,1.0172582E0,7.769925E-2,5.8860043E1,-6.52979E-5,5.810602E-6,-2.8483623E-6,-2.1302023E-5,5.3155853E-4,1.3311153E-4,6.3994514E-5,-4.65307E-5,-7.4341835E-5,1.1184108E-3,-8.1456447E-4,-3.678327E-5,-1.4693039E-3,-1.5690365E-4,-3.245256E-4,8.315082E-5,6.381575E-4,-1.244763E-3,-1.0355749E-3,1.19127355E-4,-1.629759E-3,8.056168E-4,-7.981781E-4,8.627957E-4,-1.9333862E-3,2.7837555E-4,4.0073387E-4,-8.646091E-4,-2.6983823E-4,1.1027962E-3,-6.2411104E-4,2.3731378E-4],"split_indices":[12,14,13,12,7,10,0,1,14,7,8,2,14,3,11,7,7,8,7,12,11,10,13,9,1,14,8,0,14,3,0,0,0,0,0,0,0,0,0,0,0,0,0,0,0,0,0,0,0,0,0,0,0,0,0,0,0,0,0,0,0,0,0],"split_type":[0,0,0,0,0,0,0,0,0,0,0,0,0,0,0,0,0,0,0,0,0,0,0,0,0,0,0,0,0,0,0,0,0,0,0,0,0,0,0,0,0,0,0,0,0,0,0,0,0,0,0,0,0,0,0,0,0,0,0,0,0,0,0],"sum_hessian":[1.87181E6,1.864525E6,7.285E3,1.838461E6,2.6064E4,4.903E3,2.382E3,1.744683E6,9.3778E4,2.2136E4,3.928E3,3.794E3,1.109E3,1.151E3,1.231E3,1.037273E6,7.0741E5,9.009E3,8.4769E4,1.435E3,2.0701E4,1.563E3,2.365E3,2.91E3,8.84E2,3.94E2,7.15E2,1.89E2,9.62E2,5.6E2,6.71E2,2.5865E4,1.011408E6,3.83962E5,3.23448E5,1.314E3,7.695E3,6.3882E4,2.0887E4,6.39E2,7.96E2,4.63E2,2.0238E4,1.16E3,4.03E2,1.228E3,1.137E3,2.838E3,7.2E1,9.8E1,7.86E2,3.4E1,3.6E2,5.54E2,1.61E2,1E1,1.79E2,6.8E1,8.94E2,1.35E2,4.25E2,2.43E2,4.28E2],"tree_param":{"num_deleted":"0","num_feature":"15","num_nodes":"63","size_leaf_vector":"1"}},{"base_weights":[-6.4286536E-9,1.2851199E-3,-3.6127687E-5,5.3357016E-3,1.0600935E-3,8.391024E-5,-2.9605118E-4,-1.8129837E-3,1.3601926E-2,1.5331144E-3,-9.213007E-4,5.9758248E-5,2.774588E-3,-7.26105E-3,-2.6661024E-4,1.2767318E-2,-4.933188E-3,7.928952E-3,2.264333E-2,4.5054536E-3,8.2253857E-4,4.4041197E-4,-6.628635E-3,2.6064417E-3,4.5622044E-5,6.953568E-3,4.6847452E-4,-3.2693488E-4,-1.6752733E-2,-2.3684098E-4,-2.7676963E-3,1.3288319E-3,7.0692455E-5,-2.0397686E-4,-2.7355247E-3,8.4671844E-4,-3.9738548E-4,8.796363E-5,1.4675615E-3,2.5657463E-4,-6.263264E-4,2.9092373E-5,4.8706643E-4,3.281939E-4,-2.4324527E-5,-8.207424E-4,3.1239368E-4,2.4575408E-4,1.178598E-6,-5.280882E-5,4.185316E-6,1.0129152E-3,2.73269E-4,4.9200124E-4,-1.1929496E-5,4.5709434E-4,-8.881069E-5,-1.1862537E-3,6.659374E-4,-2.9179128E-5,-6.928303E-6,-9.6753065E-6,-3.9921093E-4],"categories":[],"categories_nodes":[],"categories_segments":[],"categories_sizes":[],"default_left":[0,0,0,0,0,0,0,0,0,0,0,0,0,0,0,0,0,0,0,0,0,0,0,0,0,0,0,0,0,0,0,0,0,0,0,0,0,0,0,0,0,0,0,0,0,0,0,0,0,0,0,0,0,0,0,0,0,0,0,0,0,0,0],"id":24,"left_children":[1,3,5,7,9,11,13,15,17,19,21,23,25,27,29,31,33,35,37,39,41,43,45,47,49,51,53,55,57,59,61,-1,-1,-1,-1,-1,-1,-1,-1,-1,-1,-1,-1,-1,-1,-1,-1,-1,-1,-1,-1,-1,-1,-1,-1,-1,-1,-1,-1,-1,-1,-1,-1],"loss_changes":[8.689022E-2,4.6637893E-2,5.6805193E-2,1.5916112E-1,4.5439783E-2,8.093643E-2,1.1794201E-1,6.580113E-2,6.388375E-2,8.265858E-2,7.262214E-2,4.443816E-2,1.06776945E-1,1.593361E-1,4.2644385E-2,3.994226E-2,5.0385326E-2,1.10083096E-1,6.733078E-2,8.057815E-2,6.780346E-2,4.2827528E-2,2.2692455E-1,4.063119E-2,5.151034E-2,7.790111E-2,4.7320686E-2,1.9228384E-2,2.1459731E-1,1.928772E-2,9.0465054E-2,0E0,0E0,0E0,0E0,0E0,0E0,0E0,0E0,0E0,0E0,0E0,0E0,0E0,0E0,0E0,0E0,0E0,0E0,0E0,0E0,0E0,0E0,0E0,0E0,0E0,0E0,0E0,0E0,0E0,0E0,0E0,0E0],"parents":[2147483647,0,0,1,1,2,2,3,3,4,4,5,5,6,6,7,7,8,8,9,9,10,10,11,11,12,12,13,13,14,14,15,15,16,16,17,17,18,18,19,19,20,20,21,21,22,22,23,23,24,24,25,25,26,26,27,27,28,28,29,29,30,30],"right_children":[2,4,6,8,10,12,14,16,18,20,22,24,26,28,30,32,34,36,38,40,42,44,46,48,50,52,54,56,58,60,62,-1,-1,-1,-1,-1,-1,-1,-1,-1,-1,-1,-1,-1,-1,-1,-1,-1,-1,-1,-1,-1,-1,-1,-1,-1,-1,-1,-1,-1,-1,-1,-1],"split_conditions":[-2.1913879E-1,-7.475323E-2,6.8408838E-3,1.7641686E0,1.2438486E0,5.94056E-2,-9.5915414E-2,1.7919014E1,-2.9964803E-2,-6.923539E-2,1.9010555E0,-1.05283245E-1,-1.5866568E0,1.5754701E0,1.9616414E0,-2.2304049E0,2.6451737E-1,-7.5602513E-3,4.14921E-1,2.1446912E0,2.0375257E0,-1.5495497E-1,-1.2551305E-1,-2.994563E-2,-3.457332E-2,-7.5602513E-3,-7.3034264E-2,-2.0532908E-1,1.8320659E-1,1.721721E-2,4.273507E-2,1.3288319E-3,7.0692455E-5,-2.0397686E-4,-2.7355247E-3,8.4671844E-4,-3.9738548E-4,8.796363E-5,1.4675615E-3,2.5657463E-4,-6.263264E-4,2.9092373E-5,4.8706643E-4,3.281939E-4,-2.4324527E-5,-8.207424E-4,3.1239368E-4,2.4575408E-4,1.178598E-6,-5.280882E-5,4.185316E-6,1.0129152E-3,2.73269E-4,4.9200124E-4,-1.1929496E-5,4.5709434E-4,-8.881069E-5,-1.1862537E-3,6.659374E-4,-2.9179128E-5,-6.928303E-6,-9.6753065E-6,-3.9921093E-4],"split_indices":[6,7,7,14,10,12,11,0,9,8,14,11,2,14,14,2,5,13,4,14,14,8,8,13,7,13,13,5,13,12,7,0,0,0,0,0,0,0,0,0,0,0,0,0,0,0,0,0,0,0,0,0,0,0,0,0,0,0,0,0,0,0,0],"split_type":[0,0,0,0,0,0,0,0,0,0,0,0,0,0,0,0,0,0,0,0,0,0,0,0,0,0,0,0,0,0,0,0,0,0,0,0,0,0,0,0,0,0,0,0,0,0,0,0,0,0,0,0,0,0,0,0,0,0,0,0,0,0,0],"sum_hessian":[1.87181E6,5.1172E4,1.820638E6,2.692E3,4.848E4,1.24546E6,5.75178E5,1.444E3,1.248E3,3.9137E4,9.343E3,1.234381E6,1.1079E4,2.42E3,5.72758E5,2.54E2,1.19E3,7.68E2,4.8E2,7.55E3,3.1587E4,7.544E3,1.799E3,6.813E3,1.227568E6,3.939E3,7.14E3,1.399E3,1.021E3,5.66022E5,6.736E3,1.14E2,1.4E2,1.171E3,1.9E1,4.9E2,2.78E2,1.17E2,3.63E2,7.283E3,2.67E2,3.0758E4,8.29E2,9.91E2,6.553E3,1.022E3,7.77E2,3.597E3,3.216E3,4.1013E4,1.186555E6,3.95E2,3.544E3,5E2,6.64E3,1.85E2,1.214E3,8.29E2,1.92E2,1.24996E5,4.41026E5,4.511E3,2.225E3],"tree_param":{"num_deleted":"0","num_feature":"15","num_nodes":"63","size_leaf_vector":"1"}},{"base_weights":[-5.1404214E-9,2.3386814E-3,-1.8456127E-5,1.0098786E-3,4.4081346E-3,-7.258569E-6,-3.2384037E-3,6.1082456E-4,7.833029E-3,1.9053923E-2,3.4225623E-3,1.93364E-4,-1.5074373E-4,-2.4606526E-2,-3.3873465E-4,1.1119872E-3,-3.9021475E-3,3.5192335E-3,3.260392E-2,-3.300982E-3,2.4442736E-2,1.0466625E-2,1.0748577E-3,2.3903092E-4,-2.8035236E-3,-1.3719835E-4,-2.675938E-3,-2.2935197E-3,-3.1322975E-2,2.1722116E-2,-9.1365294E-4,5.906928E-5,-8.51129E-4,7.543693E-4,-2.5338316E-4,1.5279868E-3,1.04718565E-4,4.06567E-3,9.302343E-4,2.209174E-4,-1.2330058E-3,-6.009129E-4,