{"learner":{"attributes":{"scikit_learn":"{\"_estimator_type\": \"regressor\"}"},"feature_names":[],"feature_types":[],"gradient_booster":{"model":{"gbtree_model_param":{"num_parallel_tree":"1","num_trees":"100"},"iteration_indptr":[0,1,2,3,4,5,6,7,8,9,10,11,12,13,14,15,16,17,18,19,20,21,22,23,24,25,26,27,28,29,30,31,32,33,34,35,36,37,38,39,40,41,42,43,44,45,46,47,48,49,50,51,52,53,54,55,56,57,58,59,60,61,62,63,64,65,66,67,68,69,70,71,72,73,74,75,76,77,78,79,80,81,82,83,84,85,86,87,88,89,90,91,92,93,94,95,96,97,98,99,100],"tree_info":[0,0,0,0,0,0,0,0,0,0,0,0,0,0,0,0,0,0,0,0,0,0,0,0,0,0,0,0,0,0,0,0,0,0,0,0,0,0,0,0,0,0,0,0,0,0,0,0,0,0,0,0,0,0,0,0,0,0,0,0,0,0,0,0,0,0,0,0,0,0,0,0,0,0,0,0,0,0,0,0,0,0,0,0,0,0,0,0,0,0,0,0,0,0,0,0,0,0,0,0],"trees":[{"base_weights":[5.959889E-11,9.931492E-3,-3.882581E-5,2.6602326E-2,5.314203E-3,-1.3775086E-5,-7.9569165E-3,3.6529068E-2,2.2357446E-3,-8.6612245E-3,1.1131651E-2,3.8068704E-3,-6.3905994E-5,-1.6898206E-3,-3.488529E-2,4.5502923E-2,2.149317E-2,-1.4291376E-1,3.1836939E-3,1.584878E-2,-3.5706487E-2,1.5944778E-3,2.0825312E-2,4.3369704E-3,-2.5030792E-2,-1.2759166E-4,1.1086308E-3,2.2349553E-2,-3.684542E-3,-6.525522E-2,-1.4033637E-2,2.6722779E-3,1.425128E-3,1.5998749E-3,-2.3166377E-3,-1.9976709E-3,-8.720862E-3,-1.4232255E-4,1.0675996E-3,5.710264E-4,4.176858E-3,-9.7072864E-4,-2.7463876E-3,2.2108002E-4,-3.2518333E-4,1.837443E-3,4.6717803E-4,3.9821994E-4,1.5646774E-4,-2.9871828E-4,-2.3191015E-3,1.4191238E-6,-1.7715602E-5,9.36111E-5,-1.6224325E-4,2.2711474E-3,2.6872166E-4,-2.4823748E-4,9.0968853E-4,-3.7405395E-3,-6.020181E-4,-1.6771645E-3,-2.8300536E-4],"categories":[],"categories_nodes":[],"categories_segments":[],"categories_sizes":[],"default_left":[0,0,0,0,0,0,0,0,0,0,0,0,0,0,0,0,0,0,0,0,0,0,0,0,0,0,0,0,0,0,0,0,0,0,0,0,0,0,0,0,0,0,0,0,0,0,0,0,0,0,0,0,0,0,0,0,0,0,0,0,0,0,0],"id":0,"left_children":[1,3,5,7,9,11,13,15,17,19,21,23,25,27,29,31,33,35,37,39,41,43,45,47,49,51,53,55,57,59,61,-1,-1,-1,-1,-1,-1,-1,-1,-1,-1,-1,-1,-1,-1,-1,-1,-1,-1,-1,-1,-1,-1,-1,-1,-1,-1,-1,-1,-1,-1,-1,-1],"loss_changes":[7.223518E-1,5.613844E-1,3.701342E-1,3.8257372E-1,4.6465218E-1,3.5627854E-1,9.931096E-1,1.5068316E-1,6.361081E-2,1.1142035E0,3.73003E-1,3.683839E-1,1.3710538E-1,2.2905244E-1,7.026398E-1,9.340119E-2,3.021431E-1,2.7622543E-3,5.0128542E-2,2.6341766E-1,2.4914145E-1,4.6618946E-2,3.654999E-1,1.0360554E-1,1.767149E-1,6.1582766E-2,3.144408E-1,1.4310844E-1,1.2360902E-1,2.2894025E-1,1.0763082E-1,0E0,0E0,0E0,0E0,0E0,0E0,0E0,0E0,0E0,0E0,0E0,0E0,0E0,0E0,0E0,0E0,0E0,0E0,0E0,0E0,0E0,0E0,0E0,0E0,0E0,0E0,0E0,0E0,0E0,0E0,0E0,0E0],"parents":[2147483647,0,0,1,1,2,2,3,3,4,4,5,5,6,6,7,7,8,8,9,9,10,10,11,11,12,12,13,13,14,14,15,15,16,16,17,17,18,18,19,19,20,20,21,21,22,22,23,23,24,24,25,25,26,26,27,27,28,28,29,29,30,30],"right_children":[2,4,6,8,10,12,14,16,18,20,22,24,26,28,30,32,34,36,38,40,42,44,46,48,50,52,54,56,58,60,62,-1,-1,-1,-1,-1,-1,-1,-1,-1,-1,-1,-1,-1,-1,-1,-1,-1,-1,-1,-1,-1,-1,-1,-1,-1,-1,-1,-1,-1,-1,-1,-1],"split_conditions":[-2.5894403E-1,-7.484241E-2,2.1429727E0,-3.5757068E-1,-1.5447918E-1,-9.961101E-2,4.6850376E-2,1.4499246E0,5.6282955E-1,1.960388E0,9.5445715E-2,5.231139E-2,4.3708682E-2,-7.484241E-2,2.4926081E-1,2.6959494E1,2.9710108E-2,4.6720802E1,1.3129263E0,4.3599323E1,1.1557443E-2,1.4469279E0,-2.3379047E-1,-1.20010264E-1,1.7624128E0,3.7442118E-1,1.5743649E0,-1.1330813E0,9.5445715E-2,9.5445715E-2,8.788161E-4,2.6722779E-3,1.425128E-3,1.5998749E-3,-2.3166377E-3,-1.9976709E-3,-8.720862E-3,-1.4232255E-4,1.0675996E-3,5.710264E-4,4.176858E-3,-9.7072864E-4,-2.7463876E-3,2.2108002E-4,-3.2518333E-4,1.837443E-3,4.6717803E-4,3.9821994E-4,1.5646774E-4,-2.9871828E-4,-2.3191015E-3,1.4191238E-6,-1.7715602E-5,9.36111E-5,-1.6224325E-4,2.2711474E-3,2.6872166E-4,-2.4823748E-4,9.0968853E-4,-3.7405395E-3,-6.020181E-4,-1.6771645E-3,-2.8300536E-4],"split_indices":[5,6,13,3,7,7,6,9,9,13,11,6,11,6,12,0,12,0,9,0,6,13,3,10,13,1,13,3,11,11,7,0,0,0,0,0,0,0,0,0,0,0,0,0,0,0,0,0,0,0,0,0,0,0,0,0,0,0,0,0,0,0,0],"split_type":[0,0,0,0,0,0,0,0,0,0,0,0,0,0,0,0,0,0,0,0,0,0,0,0,0,0,0,0,0,0,0,0,0,0,0,0,0,0,0,0,0,0,0,0,0,0,0,0,0,0,0,0,0,0,0,0,0,0,0,0,0,0,0],"sum_hessian":[1.873323E6,7.294E3,1.866029E6,1.581E3,5.713E3,1.860145E6,5.884E3,1.123E3,4.58E2,1.679E3,4.034E3,2.409E4,1.836055E6,4.774E3,1.11E3,7.02E2,4.21E2,2E0,4.56E2,8.81E2,7.98E2,2.034E3,2E3,2.3656E4,4.34E2,1.741469E6,9.4586E4,3.65E2,4.409E3,4.51E2,6.59E2,4.77E2,2.25E2,3.65E2,5.6E1,1E0,1E0,3.43E2,1.13E2,8.28E2,5.3E1,4.33E2,3.65E2,1.508E3,5.26E2,8.37E2,1.163E3,5.907E3,1.7749E4,2.3E2,2.04E2,1.031702E6,7.09767E5,8.0472E4,1.4114E4,1.54E2,2.11E2,4.166E3,2.43E2,3.82E2,6.9E1,1.97E2,4.62E2],"tree_param":{"num_deleted":"0","num_feature":"14","num_nodes":"63","size_leaf_vector":"1"}},{"base_weights":[-4.536744E-9,9.434481E-3,-3.6887424E-5,2.0853778E-2,3.2932672E-3,-1.308758E-5,-7.5595975E-3,2.8610438E-2,6.117984E-3,-1.2937365E-2,1.099902E-2,3.6164408E-3,-6.071083E-5,-1.6046591E-3,-3.3146698E-2,3.5531435E-2,1.6034769E-2,1.1414029E-2,-8.404739E-3,3.9989613E-3,-3.457437E-2,1.1926338E-3,1.8578727E-2,4.120145E-3,-2.378527E-2,-1.5222396E-4,6.9445046E-4,2.1239016E-2,-3.500165E-3,-6.200206E-2,-1.3334926E-2,7.9278386E-4,2.2571639E-3,1.2717949E-3,-1.1712954E-3,-6.123481E-4,8.199784E-4,-5.636311E-4,1.5866592E-3,-1.0643222E-4,8.1630715E-4,-8.614835E-5,-2.7101447E-3,4.134187E-5,3.703851E-3,1.3802302E-3,3.697886E-4,7.958635E-4,1.8766889E-4,-2.8384707E-4,-2.203712E-3,-1.0916858E-4,-6.5791646E-6,5.4069755E-5,-1.7316181E-4,2.1965278E-3,2.8161166E-4,-2.3582857E-4,8.6439046E-4,-3.528554E-3,-2.959584E-4,-1.5937297E-3,-2.6888566E-4],"categories":[],"categories_nodes":[],"categories_segments":[],"categories_sizes":[],"default_left":[0,0,0,0,0,0,0,0,0,0,0,0,0,0,0,0,0,0,0,0,0,0,0,0,0,0,0,0,0,0,0,0,0,0,0,0,0,0,0,0,0,0,0,0,0,0,0,0,0,0,0,0,0,0,0,0,0,0,0,0,0,0,0],"id":1,"left_children":[1,3,5,7,9,11,13,15,17,19,21,23,25,27,29,31,33,35,37,39,41,43,45,47,49,51,53,55,57,59,61,-1,-1,-1,-1,-1,-1,-1,-1,-1,-1,-1,-1,-1,-1,-1,-1,-1,-1,-1,-1,-1,-1,-1,-1,-1,-1,-1,-1,-1,-1,-1,-1],"loss_changes":[6.518629E-1,5.1151764E-1,3.3409265E-1,2.9140568E-1,5.9359586E-1,3.2152635E-1,8.9664185E-1,1.4486754E-1,6.785628E-2,5.60076E-1,2.391702E-1,3.3261052E-1,1.2688474E-1,2.0683335E-1,6.343051E-1,2.0296693E-1,2.213259E-1,7.64048E-2,2.7523875E-2,6.484473E-2,4.325838E-1,3.7370574E-2,1.8299472E-1,1.0229924E-1,1.5956852E-1,6.865512E-2,3.192706E-1,1.2936854E-1,1.1159557E-1,2.1680224E-1,9.7194485E-2,0E0,0E0,0E0,0E0,0E0,0E0,0E0,0E0,0E0,0E0,0E0,0E0,0E0,0E0,0E0,0E0,0E0,0E0,0E0,0E0,0E0,0E0,0E0,0E0,0E0,0E0,0E0,0E0,0E0,0E0,0E0,0E0],"parents":[2147483647,0,0,1,1,2,2,3,3,4,4,5,5,6,6,7,7,8,8,9,9,10,10,11,11,12,12,13,13,14,14,15,15,16,16,17,17,18,18,19,19,20,20,21,21,22,22,23,23,24,24,25,25,26,26,27,27,28,28,29,29,30,30],"right_children":[2,4,6,8,10,12,14,16,18,20,22,24,26,28,30,32,34,36,38,40,42,44,46,48,50,52,54,56,58,60,62,-1,-1,-1,-1,-1,-1,-1,-1,-1,-1,-1,-1,-1,-1,-1,-1,-1,-1,-1,-1,-1,-1,-1,-1,-1,-1,-1,-1,-1,-1,-1,-1],"split_conditions":[-2.5894403E-1,-4.56127E-2,2.1429727E0,-3.0580324E-1,1.237574E-1,-9.961101E-2,4.6850376E-2,1.4499246E0,-2.528553E-2,-5.2141125E-4,9.5445715E-2,5.231139E-2,3.6264893E-2,-7.484241E-2,2.4926081E-1,1.8473847E0,2.9710108E-2,3.3589914E-1,3.175301E-1,2.6451252E1,1.8473847E0,1.5022169E-1,3.1796432E-1,6.5125257E-1,1.7624128E0,-3.9059225E-2,1.6956567E0,-1.2167475E0,9.5445715E-2,1.7902962E0,8.788161E-4,7.9278386E-4,2.2571639E-3,1.2717949E-3,-1.1712954E-3,-6.123481E-4,8.199784E-4,-5.636311E-4,1.5866592E-3,-1.0643222E-4,8.1630715E-4,-8.614835E-5,-2.7101447E-3,4.134187E-5,3.703851E-3,1.3802302E-3,3.697886E-4,7.958635E-4,1.8766889E-4,-2.8384707E-4,-2.203712E-3,-1.0916858E-4,-6.5791646E-6,5.4069755E-5,-1.7316181E-4,2.1965278E-3,2.8161166E-4,-2.3582857E-4,8.6439046E-4,-3.528554E-3,-2.959584E-4,-1.5937297E-3,-2.6888566E-4],"split_indices":[5,6,13,3,12,7,6,9,7,6,11,6,11,6,12,13,12,4,8,0,13,10,12,13,13,6,13,3,11,9,7,0,0,0,0,0,0,0,0,0,0,0,0,0,0,0,0,0,0,0,0,0,0,0,0,0,0,0,0,0,0,0,0],"split_type":[0,0,0,0,0,0,0,0,0,0,0,0,0,0,0,0,0,0,0,0,0,0,0,0,0,0,0,0,0,0,0,0,0,0,0,0,0,0,0,0,0,0,0,0,0,0,0,0,0,0,0,0,0,0,0,0,0,0,0,0,0,0,0],"sum_hessian":[1.873323E6,7.294E3,1.866029E6,2.55E3,4.744E3,1.860145E6,5.884E3,1.67E3,8.8E2,1.527E3,3.217E3,2.409E4,1.836055E6,4.774E3,1.11E3,1.076E3,5.94E2,6.45E2,2.35E2,8.57E2,6.7E2,1.403E3,1.814E3,2.3656E4,4.34E2,1.637605E6,1.9845E5,3.65E2,4.409E3,4.51E2,6.59E2,3.54E2,7.22E2,4.8E2,1.14E2,1.12E2,5.33E2,2.2E2,1.5E1,5.73E2,2.84E2,2.51E2,4.19E2,1.397E3,6E0,1.003E3,8.11E2,7.12E2,2.2944E4,2.3E2,2.04E2,1.6473E4,1.621132E6,1.81554E5,1.6896E4,1.48E2,2.17E2,4.166E3,2.43E2,3.91E2,6E1,1.97E2,4.62E2],"tree_param":{"num_deleted":"0","num_feature":"14","num_nodes":"63","size_leaf_vector":"1"}},{"base_weights":[-2.4189288E-9,8.963825E-3,-3.504533E-5,1.9812806E-2,3.1293223E-3,-1.2434096E-5,-7.182056E-3,2.7181802E-2,5.8134818E-3,-1.2291862E-2,1.0450777E-2,5.368472E-3,-4.23337E-5,-1.5237757E-3,-3.1494483E-2,3.742623E-2,1.9348394E-2,1.0843649E-2,-7.980167E-3,-5.4434696E-3,-6.228532E-2,1.1356695E-3,1.7650755E-2,6.2583913E-3,-1.9098226E-2,-1.3282633E-4,8.4403896E-4,2.0183835E-2,-3.3250144E-3,-5.8910422E-2,-1.2671001E-2,5.060683E-4,2.2741058E-3,-1.0836134E-4,1.5020876E-3,-5.820016E-4,7.790562E-4,-5.9437833E-4,9.623446E-4,3.8519592E-4,-9.175243E-4,3.7094913E-4,-3.7956126E-3,3.927625E-5,3.5451148E-3,1.2471005E-3,2.5021547E-4,6.741281E-4,2.3759482E-4,-2.649502E-4,-2.287804E-3,-9.043433E-5,-5.6452145E-6,6.395435E-5,-1.7016464E-4,2.0529113E-3,2.4133474E-4,-2.2403999E-4,8.213481E-4,-3.4029323E-3,-4.0074886E-4,-1.5144458E-3,-2.554704E-4],"categories":[],"categories_nodes":[],"categories_segments":[],"categories_sizes":[],"default_left":[0,0,0,0,0,0,0,0,0,0,0,0,0,0,0,0,0,0,0,0,0,0,0,0,0,0,0,0,0,0,0,0,0,0,0,0,0,0,0,0,0,0,0,0,0,0,0,0,0,0,0,0,0,0,0,0,0,0,0,0,0,0,0],"id":2,"left_children":[1,3,5,7,9,11,13,15,17,19,21,23,25,27,29,31,33,35,37,39,41,43,45,47,49,51,53,55,57,59,61,-1,-1,-1,-1,-1,-1,-1,-1,-1,-1,-1,-1,-1,-1,-1,-1,-1,-1,-1,-1,-1,-1,-1,-1,-1,-1,-1,-1,-1,-1,-1,-1],"loss_changes":[5.8844626E-1,4.6169972E-1,3.0155545E-1,2.6300573E-1,5.35865E-1,2.992735E-1,8.095311E-1,1.3337159E-1,6.121415E-2,5.228097E-1,2.158066E-1,2.2392818E-1,1.4837837E-1,1.867724E-1,5.726E-1,1.585741E-1,2.1840551E-1,6.899064E-2,2.5336126E-2,2.2837918E-1,1.7533678E-1,3.424178E-2,1.6723359E-1,1.07886136E-1,1.3255411E-1,5.6039304E-2,3.1664962E-1,1.1713077E-1,1.0074969E-1,2.0990717E-1,8.777011E-2,0E0,0E0,0E0,0E0,0E0,0E0,0E0,0E0,0E0,0E0,0E0,0E0,0E0,0E0,0E0,0E0,0E0,0E0,0E0,0E0,0E0,0E0,0E0,0E0,0E0,0E0,0E0,0E0,0E0,0E0,0E0,0E0],"parents":[2147483647,0,0,1,1,2,2,3,3,4,4,5,5,6,6,7,7,8,8,9,9,10,10,11,11,12,12,13,13,14,14,15,15,16,16,17,17,18,18,19,19,20,20,21,21,22,22,23,23,24,24,25,25,26,26,27,27,28,28,29,29,30,30],"right_children":[2,4,6,8,10,12,14,16,18,20,22,24,26,28,30,32,34,36,38,40,42,44,46,48,50,52,54,56,58,60,62,-1,-1,-1,-1,-1,-1,-1,-1,-1,-1,-1,-1,-1,-1,-1,-1,-1,-1,-1,-1,-1,-1,-1,-1,-1,-1,-1,-1,-1,-1,-1,-1],"split_conditions":[-2.5894403E-1,-4.56127E-2,2.1429727E0,-3.0580324E-1,1.237574E-1,-1.257453E-1,4.6850376E-2,-4.281622E-2,-2.528553E-2,6.087259E-2,9.5445715E-2,3.745782E-2,3.8169958E-2,-7.484241E-2,2.4926081E-1,4.739166E-1,9.5445715E-2,3.3589914E-1,1.4151701E-1,-1.1749803E-2,1.8992822E0,1.5022169E-1,3.5014728E-1,-7.484241E-2,1.8992822E0,-3.9059225E-2,1.6956567E0,-1.1330813E0,9.5445715E-2,9.5445715E-2,8.788161E-4,5.060683E-4,2.2741058E-3,-1.0836134E-4,1.5020876E-3,-5.820016E-4,7.790562E-4,-5.9437833E-4,9.623446E-4,3.8519592E-4,-9.175243E-4,3.7094913E-4,-3.7956126E-3,3.927625E-5,3.5451148E-3,1.2471005E-3,2.5021547E-4,6.741281E-4,2.3759482E-4,-2.649502E-4,-2.287804E-3,-9.043433E-5,-5.6452145E-6,6.395435E-5,-1.7016464E-4,2.0529113E-3,2.4133474E-4,-2.2403999E-4,8.213481E-4,-3.4029323E-3,-4.0074886E-4,-1.5144458E-3,-2.554704E-4],"split_indices":[5,6,13,3,12,7,6,12,7,6,11,6,11,6,12,4,11,4,8,6,13,10,12,6,13,6,13,3,11,11,7,0,0,0,0,0,0,0,0,0,0,0,0,0,0,0,0,0,0,0,0,0,0,0,0,0,0,0,0,0,0,0,0],"split_type":[0,0,0,0,0,0,0,0,0,0,0,0,0,0,0,0,0,0,0,0,0,0,0,0,0,0,0,0,0,0,0,0,0,0,0,0,0,0,0,0,0,0,0,0,0,0,0,0,0,0,0,0,0,0,0,0,0,0,0,0,0,0,0],"sum_hessian":[1.873323E6,7.294E3,1.866029E6,2.55E3,4.744E3,1.860145E6,5.884E3,1.67E3,8.8E2,1.527E3,3.217E3,1.0278E4,1.849867E6,4.774E3,1.11E3,7.22E2,9.48E2,6.45E2,2.35E2,1.344E3,1.83E2,1.403E3,1.814E3,9.918E3,3.6E2,1.678504E6,1.71363E5,3.65E2,4.409E3,4.51E2,6.59E2,1.65E2,5.57E2,3.15E2,6.33E2,1.12E2,5.33E2,2.06E2,2.9E1,6.66E2,6.78E2,3E1,1.53E2,1.397E3,6E0,1.15E3,6.64E2,1.71E3,8.208E3,2.38E2,1.22E2,1.9718E4,1.658786E6,1.55442E5,1.5921E4,1.54E2,2.11E2,4.166E3,2.43E2,3.82E2,6.9E1,1.97E2,4.62E2],"tree_param":{"num_deleted":"0","num_feature":"14","num_nodes":"63","size_leaf_vector":"1"}},{"base_weights":[-1.6618932E-9,8.516437E-3,-3.3295568E-5,1.8824024E-2,2.9730934E-3,-1.1813461E-5,-6.8234093E-3,2.582521E-2,5.523449E-3,-9.284401E-3,1.1453957E-2,3.3180944E-3,-5.5505374E-5,-1.4469814E-3,-2.9924776E-2,3.2436058E-2,1.38156125E-2,1.0301771E-2,-7.5796E-3,-3.1138556E-3,-5.0070383E-2,1.6378773E-3,1.8622743E-2,3.7855678E-3,-2.2112574E-2,-1.781917E-4,4.3158585E-4,1.918091E-2,-3.1586282E-3,-5.3559612E-2,-1.0140697E-2,7.090576E-4,2.0677268E-3,1.2123664E-3,-8.78613E-4,-5.5315904E-4,7.4017636E-4,-5.1092345E-4,1.4671747E-3,5.1193975E-4,-6.10379E-4,2.066813E-4,-3.1169138E-3,6.216452E-5,3.3931811E-3,1.5567826E-3,3.432484E-4,1.345839E-4,3.6921815E-4,-2.6545752E-4,-2.0469648E-3,-1.2217267E-4,-8.078521E-6,3.1279455E-5,-1.267531E-4,1.9854817E-3,2.5309125E-4,-2.1284066E-4,7.8044896E-4,-3.10967E-3,-3.4036455E-4,1.5852051E-3,-6.776873E-4],"categories":[],"categories_nodes":[],"categories_segments":[],"categories_sizes":[],"default_left":[0,0,0,0,0,0,0,0,0,0,0,0,0,0,0,0,0,0,0,0,0,0,0,0,0,0,0,0,0,0,0,0,0,0,0,0,0,0,0,0,0,0,0,0,0,0,0,0,0,0,0,0,0,0,0,0,0,0,0,0,0,0,0],"id":3,"left_children":[1,3,5,7,9,11,13,15,17,19,21,23,25,27,29,31,33,35,37,39,41,43,45,47,49,51,53,55,57,59,61,-1,-1,-1,-1,-1,-1,-1,-1,-1,-1,-1,-1,-1,-1,-1,-1,-1,-1,-1,-1,-1,-1,-1,-1,-1,-1,-1,-1,-1,-1,-1,-1],"loss_changes":[5.3117293E-1,4.167694E-1,2.7219012E-1,2.3740596E-1,4.9336874E-1,2.706329E-1,7.308903E-1,1.322186E-1,5.5238016E-2,4.8833895E-1,1.973556E-1,2.864815E-1,1.0972174E-1,1.6865468E-1,5.1895326E-1,1.7475557E-1,1.9524655E-1,6.229593E-2,2.329455E-2,2.0496948E-1,1.6982478E-1,3.088183E-2,2.3827416E-1,9.311032E-2,1.3739641E-1,5.5221062E-2,2.1261275E-1,1.0588294E-1,9.095791E-2,2.0382321E-1,8.6977616E-2,0E0,0E0,0E0,0E0,0E0,0E0,0E0,0E0,0E0,0E0,0E0,0E0,0E0,0E0,0E0,0E0,0E0,0E0,0E0,0E0,0E0,0E0,0E0,0E0,0E0,0E0,0E0,0E0,0E0,0E0,0E0,0E0],"parents":[2147483647,0,0,1,1,2,2,3,3,4,4,5,5,6,6,7,7,8,8,9,9,10,10,11,11,12,12,13,13,14,14,15,15,16,16,17,17,18,18,19,19,20,20,21,21,22,22,23,23,24,24,25,25,26,26,27,27,28,28,29,29,30,30],"right_children":[2,4,6,8,10,12,14,16,18,20,22,24,26,28,30,32,34,36,38,40,42,44,46,48,50,52,54,56,58,60,62,-1,-1,-1,-1,-1,-1,-1,-1,-1,-1,-1,-1,-1,-1,-1,-1,-1,-1,-1,-1,-1,-1,-1,-1,-1,-1,-1,-1,-1,-1,-1,-1],"split_conditions":[-2.5894403E-1,-4.56127E-2,2.1429727E0,-3.0580324E-1,1.565218E-1,-9.961101E-2,4.6850376E-2,1.4499246E0,-2.528553E-2,6.087259E-2,9.5445715E-2,5.231139E-2,3.0315235E-2,-7.484241E-2,2.7704105E-1,1.8473847E0,1.2201228E-2,3.3589914E-1,3.175301E-1,-1.7514328E-2,1.8992822E0,1.5022169E-1,3.1335527E-1,5.6731205E-2,1.7624128E0,-3.9059225E-2,1.7273587E0,-1.2167475E0,9.5445715E-2,9.5445715E-2,-6.902549E-2,7.090576E-4,2.0677268E-3,1.2123664E-3,-8.78613E-4,-5.5315904E-4,7.4017636E-4,-5.1092345E-4,1.4671747E-3,5.1193975E-4,-6.10379E-4,2.066813E-4,-3.1169138E-3,6.216452E-5,3.3931811E-3,1.5567826E-3,3.432484E-4,1.345839E-4,3.6921815E-4,-2.6545752E-4,-2.0469648E-3,-1.2217267E-4,-8.078521E-6,3.1279455E-5,-1.267531E-4,1.9854817E-3,2.5309125E-4,-2.1284066E-4,7.8044896E-4,-3.10967E-3,-3.4036455E-4,1.5852051E-3,-6.776873E-4],"split_indices":[5,6,13,3,12,7,6,9,7,6,11,6,11,6,12,13,12,4,8,6,13,10,12,11,13,6,13,3,11,11,10,0,0,0,0,0,0,0,0,0,0,0,0,0,0,0,0,0,0,0,0,0,0,0,0,0,0,0,0,0,0,0,0],"split_type":[0,0,0,0,0,0,0,0,0,0,0,0,0,0,0,0,0,0,0,0,0,0,0,0,0,0,0,0,0,0,0,0,0,0,0,0,0,0,0,0,0,0,0,0,0,0,0,0,0,0,0,0,0,0,0,0,0,0,0,0,0,0,0],"sum_hessian":[1.873323E6,7.294E3,1.866029E6,2.55E3,4.744E3,1.860145E6,5.884E3,1.67E3,8.8E2,1.94E3,2.804E3,2.409E4,1.836055E6,4.774E3,1.11E3,1.076E3,5.94E2,6.45E2,2.35E2,1.686E3,2.54E2,1.184E3,1.62E3,2.3656E4,4.34E2,1.466644E6,3.69411E5,3.65E2,4.409E3,5.05E2,6.05E2,3.54E2,7.22E2,4.46E2,1.48E2,1.12E2,5.33E2,2.2E2,1.5E1,6.83E2,1.003E3,4.7E1,2.07E2,1.178E3,6E0,7.84E2,8.36E2,1.8143E4,5.513E3,2.3E2,2.04E2,1.0682E4,1.455962E6,3.46737E5,2.2674E4,1.48E2,2.17E2,4.166E3,2.43E2,4.26E2,7.9E1,4.5E1,5.6E2],"tree_param":{"num_deleted":"0","num_feature":"14","num_nodes":"63","size_leaf_vector":"1"}},{"base_weights":[1.0204052E-9,8.0915205E-3,-3.1631716E-5,1.788449E-2,2.8249333E-3,-1.122386E-5,-6.4821937E-3,2.453581E-2,5.248574E-3,-1.2568099E-2,8.955916E-3,4.9111405E-3,-3.8575527E-5,-1.3740447E-3,-2.8430825E-2,3.0816834E-2,1.3125393E-2,9.786972E-3,-7.196568E-3,3.297732E-3,-3.3375606E-2,5.878991E-3,2.5835404E-2,5.7323407E-3,-1.7666131E-2,-1.022851E-4,1.0736485E-3,1.8227983E-2,-3.0005681E-3,-4.7262944E-2,-5.7386938E-3,6.737046E-4,1.9644832E-3,1.0789958E-3,-1.117535E-3,3.4722663E-5,9.759202E-4,-6.925262E-4,3.6359663E-4,-1.2474913E-4,7.6551083E-4,-2.2042927E-4,-2.509794E-3,4.2969608E-4,-1.2896593E-3,3.833151E-3,1.0090509E-3,6.28608E-4,2.1530101E-4,-2.6142814E-3,-4.1254034E-4,2.3033954E-6,-1.5963871E-5,8.26633E-5,-1.8163187E-4,-3.7743244E-4,1.424437E-3,-2.0220119E-4,7.4158644E-4,-2.8165565E-3,1.7307754E-4,1.0822605E-3,-4.4649406E-4],"categories":[],"categories_nodes":[],"categories_segments":[],"categories_sizes":[],"default_left":[0,0,0,0,0,0,0,0,0,0,0,0,0,0,0,0,0,0,0,0,0,0,0,0,0,0,0,0,0,0,0,0,0,0,0,0,0,0,0,0,0,0,0,0,0,0,0,0,0,0,0,0,0,0,0,0,0,0,0,0,0,0,0],"id":4,"left_children":[1,3,5,7,9,11,13,15,17,19,21,23,25,27,29,31,33,35,37,39,41,43,45,47,49,51,53,55,57,59,61,-1,-1,-1,-1,-1,-1,-1,-1,-1,-1,-1,-1,-1,-1,-1,-1,-1,-1,-1,-1,-1,-1,-1,-1,-1,-1,-1,-1,-1,-1,-1,-1],"loss_changes":[4.7949046E-1,3.7619296E-1,2.456481E-1,2.142713E-1,4.479192E-1,2.504407E-1,6.597688E-1,1.19354606E-1,4.98302E-2,4.4644362E-1,1.7612201E-1,1.906786E-1,1.3108048E-1,1.5229677E-1,4.745046E-1,1.5772724E-1,1.7894273E-1,5.7146605E-2,2.2821093E-2,5.3479403E-2,2.8481013E-1,2.4717847E-1,1.4876255E-1,9.6713394E-2,1.1723792E-1,5.632372E-2,2.733961E-1,9.7017564E-2,8.211778E-2,2.7940226E-1,4.4323813E-2,0E0,0E0,0E0,0E0,0E0,0E0,0E0,0E0,0E0,0E0,0E0,0E0,0E0,0E0,0E0,0E0,0E0,0E0,0E0,0E0,0E0,0E0,0E0,0E0,0E0,0E0,0E0,0E0,0E0,0E0,0E0,0E0],"parents":[2147483647,0,0,1,1,2,2,3,3,4,4,5,5,6,6,7,7,8,8,9,9,10,10,11,11,12,12,13,13,14,14,15,15,16,16,17,17,18,18,19,19,20,20,21,21,22,22,23,23,24,24,25,25,26,26,27,27,28,28,29,29,30,30],"right_children":[2,4,6,8,10,12,14,16,18,20,22,24,26,28,30,32,34,36,38,40,42,44,46,48,50,52,54,56,58,60,62,-1,-1,-1,-1,-1,-1,-1,-1,-1,-1,-1,-1,-1,-1,-1,-1,-1,-1,-1,-1,-1,-1,-1,-1,-1,-1,-1,-1,-1,-1,-1,-1],"split_conditions":[-2.5894403E-1,-4.56127E-2,2.1429727E0,-3.0580324E-1,1.0621048E-1,-1.257453E-1,4.6850376E-2,1.4499246E0,-2.528553E-2,-5.2141125E-4,4.691387E1,3.745782E-2,4.3708682E-2,-7.484241E-2,-5.4101697E-3,1.8473847E0,2.9710108E-2,-7.484241E-2,4.3599323E1,2.6451252E1,1.8473847E0,3.922279E-1,-7.932369E-2,-7.484241E-2,-1.4788432E-1,3.7442118E-1,1.6956567E0,4.623782E-2,9.5445715E-2,9.5445715E-2,3.575299E1,6.737046E-4,1.9644832E-3,1.0789958E-3,-1.117535E-3,3.4722663E-5,9.759202E-4,-6.925262E-4,3.6359663E-4,-1.2474913E-4,7.6551083E-4,-2.2042927E-4,-2.509794E-3,4.2969608E-4,-1.2896593E-3,3.833151E-3,1.0090509E-3,6.28608E-4,2.1530101E-4,-2.6142814E-3,-4.1254034E-4,2.3033954E-6,-1.5963871E-5,8.26633E-5,-1.8163187E-4,-3.7743244E-4,1.424437E-3,-2.0220119E-4,7.4158644E-4,-2.8165565E-3,1.7307754E-4,1.0822605E-3,-4.4649406E-4],"split_indices":[5,6,13,3,12,7,6,9,7,6,0,6,11,6,7,13,12,6,0,0,13,12,10,6,10,1,13,11,11,11,0,0,0,0,0,0,0,0,0,0,0,0,0,0,0,0,0,0,0,0,0,0,0,0,0,0,0,0,0,0,0,0,0],"split_type":[0,0,0,0,0,0,0,0,0,0,0,0,0,0,0,0,0,0,0,0,0,0,0,0,0,0,0,0,0,0,0,0,0,0,0,0,0,0,0,0,0,0,0,0,0,0,0,0,0,0,0,0,0,0,0,0,0,0,0,0,0,0,0],"sum_hessian":[1.873323E6,7.294E3,1.866029E6,2.55E3,4.744E3,1.860145E6,5.884E3,1.67E3,8.8E2,1.351E3,3.393E3,1.0278E4,1.849867E6,4.774E3,1.11E3,1.076E3,5.94E2,6.45E2,2.35E2,7.67E2,5.84E2,2.871E3,5.22E2,9.918E3,3.6E2,1.749646E6,1.00221E5,3.65E2,4.409E3,6.06E2,5.04E2,3.54E2,7.22E2,4.8E2,1.14E2,3.34E2,3.11E2,1.61E2,7.4E1,5.18E2,2.49E2,2.15E2,3.69E2,2.645E3,2.26E2,5.1E1,4.71E2,1.71E3,8.208E3,7.6E1,2.84E2,1.039181E6,7.10465E5,8.9232E4,1.0989E4,1.04E2,2.61E2,4.166E3,2.43E2,5.14E2,9.2E1,5.2E1,4.52E2],"tree_param":{"num_deleted":"0","num_feature":"14","num_nodes":"63","size_leaf_vector":"1"}},{"base_weights":[2.343086E-9,-3.0194193E-5,7.708236E-3,-7.5529156E-6,-7.4196504E-3,1.2617947E-2,-2.640277E-3,4.8139505E-3,-3.69375E-5,-1.8651672E-3,-3.579731E-2,1.0552601E-2,3.0571058E-2,-1.6997054E-2,1.0638672E-2,6.0420185E-3,-1.2872112E-2,-9.725923E-5,1.0270125E-3,2.2265518E-2,-4.1223224E-3,-6.8259235E-3,-5.668474E-2,1.995144E-2,5.229163E-3,5.0184533E-2,1.8105965E-2,-3.978418E-3,-2.129618E-2,2.3294281E-2,5.424485E-5,6.6292164E-4,2.1328917E-4,6.837313E-5,-1.4557111E-3,4.7705344E-6,-1.25918805E-5,7.587359E-5,-2.2206595E-4,-1.0530976E-4,1.7783579E-3,-1.3891906E-4,-1.2118404E-3,-6.1152637E-4,8.940622E-5,-3.1367354E-3,3.4432407E-4,1.2778697E-3,1.6457766E-4,-9.178623E-4,7.1854744E-4,5.577078E-4,3.525731E-3,-3.750174E-3,9.92766E-4,5.497705E-4,-5.5273337E-4,5.819678E-4,-1.2064643E-3,1.8708004E-3,3.567739E-4,1.4662999E-3,-9.548807E-5],"categories":[],"categories_nodes":[],"categories_segments":[],"categories_sizes":[],"default_left":[0,0,0,0,0,0,0,0,0,0,0,0,0,0,0,0,0,0,0,0,0,0,0,0,0,0,0,0,0,0,0,0,0,0,0,0,0,0,0,0,0,0,0,0,0,0,0,0,0,0,0,0,0,0,0,0,0,0,0,0,0,0,0],"id":5,"left_children":[1,3,5,7,9,11,13,15,17,19,21,23,25,27,29,31,33,35,37,39,41,43,45,47,49,51,53,55,57,59,61,-1,-1,-1,-1,-1,-1,-1,-1,-1,-1,-1,-1,-1,-1,-1,-1,-1,-1,-1,-1,-1,-1,-1,-1,-1,-1,-1,-1,-1,-1,-1,-1],"loss_changes":[4.360388E-1,3.121968E-1,3.7144125E-1,2.635658E-1,8.9838564E-1,1.8351698E-1,4.4876358E-1,2.4483696E-1,1.18670724E-1,2.5978905E-1,5.642066E-1,2.2244745E-1,1.2402263E-1,6.321597E-2,1.6382247E-1,1.3502002E-1,1.693373E-1,5.2114807E-2,2.660846E-1,1.3234186E-1,1.1782223E-1,1.8271629E-2,2.0888722E-1,1.5009433E-1,6.1284566E-1,1.5632465E-1,5.263401E-2,3.0001856E-2,7.9594165E-2,1.2683496E-1,3.840177E-2,0E0,0E0,0E0,0E0,0E0,0E0,0E0,0E0,0E0,0E0,0E0,0E0,0E0,0E0,0E0,0E0,0E0,0E0,0E0,0E0,0E0,0E0,0E0,0E0,0E0,0E0,0E0,0E0,0E0,0E0,0E0,0E0],"parents":[2147483647,0,0,1,1,2,2,3,3,4,4,5,5,6,6,7,7,8,8,9,9,10,10,11,11,12,12,13,13,14,14,15,15,16,16,17,17,18,18,19,19,20,20,21,21,22,22,23,23,24,24,25,25,26,26,27,27,28,28,29,29,30,30],"right_children":[2,4,6,8,10,12,14,16,18,20,22,24,26,28,30,32,34,36,38,40,42,44,46,48,50,52,54,56,58,60,62,-1,-1,-1,-1,-1,-1,-1,-1,-1,-1,-1,-1,-1,-1,-1,-1,-1,-1,-1,-1,-1,-1,-1,-1,-1,-1,-1,-1,-1,-1,-1,-1],"split_conditions":[9.5445715E-2,2.1429727E0,3.9692557E-1,-1.257453E-1,4.6850376E-2,4.420421E1,4.8962315E1,2.2498002E-2,4.3708682E-2,-7.484241E-2,5.266043E-2,-4.56127E-2,-2.5894403E-1,1.6591246E-1,-1.8029782E-1,-7.484241E-2,1.7273587E0,3.3107653E-4,1.7624128E0,5.4500073E-2,7.778833E-2,8.742129E-2,1.8901669E0,-2.2690985E-1,-1.5447918E-1,-5.875145E-2,2.9710108E-2,3.087157E-2,1.0148187E0,5.902707E-2,6.8647677E-1,6.6292164E-4,2.1328917E-4,6.837313E-5,-1.4557111E-3,4.7705344E-6,-1.25918805E-5,7.587359E-5,-2.2206595E-4,-1.0530976E-4,1.7783579E-3,-1.3891906E-4,-1.2118404E-3,-6.1152637E-4,8.940622E-5,-3.1367354E-3,3.4432407E-4,1.2778697E-3,1.6457766E-4,-9.178623E-4,7.1854744E-4,5.577078E-4,3.525731E-3,-3.750174E-3,9.92766E-4,5.497705E-4,-5.5273337E-4,5.819678E-4,-1.2064643E-3,1.8708004E-3,3.567739E-4,1.4662999E-3,-9.548807E-5],"split_indices":[11,13,12,7,6,0,0,6,11,6,11,6,5,3,5,6,13,7,13,11,11,3,9,3,7,6,12,6,13,10,13,0,0,0,0,0,0,0,0,0,0,0,0,0,0,0,0,0,0,0,0,0,0,0,0,0,0,0,0,0,0,0,0],"split_type":[0,0,0,0,0,0,0,0,0,0,0,0,0,0,0,0,0,0,0,0,0,0,0,0,0,0,0,0,0,0,0,0,0,0,0,0,0,0,0,0,0,0,0,0,0,0,0,0,0,0,0,0,0,0,0,0,0,0,0,0,0,0,0],"sum_hessian":[1.873323E6,1.866014E6,7.309E3,1.860315E6,5.699E3,4.957E3,2.352E3,1.1268E4,1.849047E6,4.767E3,9.32E2,4.447E3,5.1E2,1.13E3,1.222E3,1.0537E4,7.31E2,1.749839E6,9.9208E4,4.07E2,4.36E3,3.91E2,5.41E2,1.607E3,2.84E3,1.97E2,3.13E2,2.81E2,8.49E2,5.56E2,6.66E2,2.08E3,8.457E3,3.9E2,3.41E2,7.78945E5,9.70894E5,9.1043E4,8.165E3,1.44E2,2.63E2,4.088E3,2.72E2,2.4E2,1.51E2,4.94E2,4.7E1,1.202E3,4.05E2,7.93E2,2.047E3,6.8E1,1.29E2,5E0,3.08E2,9E1,1.91E2,6.7E1,7.82E2,2.96E2,2.6E2,4.1E1,6.25E2],"tree_param":{"num_deleted":"0","num_feature":"14","num_nodes":"63","size_leaf_vector":"1"}},{"base_weights":[3.249313E-9,7.3430235E-3,-2.8703327E-5,1.9875458E-2,3.8719606E-3,1.10917945E-5,-2.7995096E-3,4.0774066E-3,2.989191E-2,9.907252E-3,-5.4036956E-3,2.694079E-3,-4.123058E-5,-2.8249423E-4,-1.5694262E-2,2.7876696E-2,-4.1417317E-3,3.9054174E-2,1.4978157E-2,2.336277E-3,1.6419234E-2,-1.1101909E-2,1.5174527E-2,9.277015E-3,2.2413528E-3,-7.6892335E-5,1.6511524E-3,1.43781E-2,-1.1521413E-3,-3.7800502E-2,-7.848769E-3,4.872713E-3,1.17581E-3,-6.9966554E-3,-1.6196423E-4,6.178666E-4,2.1662244E-3,1.23332E-3,-2.171695E-3,1.0242051E-4,2.9718825E-3,1.2289713E-3,3.3527584E-4,-2.644966E-4,-2.483728E-3,1.0148258E-3,-2.3074758E-3,3.3448162E-4,9.817322E-4,2.4365458E-4,5.935534E-5,-8.668139E-6,1.28524425E-5,3.1602575E-4,5.8648537E-5,-2.7764495E-4,1.257189E-3,-7.726303E-5,7.2566717E-4,-2.3679996E-3,-5.10194E-4,-6.1544526E-4,1.8421588E-6],"categories":[],"categories_nodes":[],"categories_segments":[],"categories_sizes":[],"default_left":[0,0,0,0,0,0,0,0,0,0,0,0,0,0,0,0,0,0,0,0,0,0,0,0,0,0,0,0,0,0,0,0,0,0,0,0,0,0,0,0,0,0,0,0,0,0,0,0,0,0,0,0,0,0,0,0,0,0,0,0,0,0,0],"id":6,"left_children":[1,3,5,7,9,11,13,15,17,19,21,23,25,27,29,31,33,35,37,39,41,43,45,47,49,51,53,55,57,59,61,-1,-1,-1,-1,-1,-1,-1,-1,-1,-1,-1,-1,-1,-1,-1,-1,-1,-1,-1,-1,-1,-1,-1,-1,-1,-1,-1,-1,-1,-1,-1,-1],"loss_changes":[3.9488375E-1,3.1726187E-1,2.0575704E-1,2.5021452E-1,3.199306E-1,2.5824502E-1,8.575232E-1,1.2041539E-1,1.3168621E-1,1.706453E-1,2.6435325E-1,1.0485184E-1,1.0890302E-1,2.8187072E-1,7.480726E-1,4.5644328E-2,5.567211E-2,6.775296E-2,2.104581E-1,2.6211247E-2,1.4734882E-1,3.9542088E-1,1.5453207E-1,6.0541913E-2,9.134738E-2,5.693072E-2,8.313771E-2,2.6577815E-1,1.2854835E-1,2.9762173E-1,1.12054944E-1,0E0,0E0,0E0,0E0,0E0,0E0,0E0,0E0,0E0,0E0,0E0,0E0,0E0,0E0,0E0,0E0,0E0,0E0,0E0,0E0,0E0,0E0,0E0,0E0,0E0,0E0,0E0,0E0,0E0,0E0,0E0,0E0],"parents":[2147483647,0,0,1,1,2,2,3,3,4,4,5,5,6,6,7,7,8,8,9,9,10,10,11,11,12,12,13,13,14,14,15,15,16,16,17,17,18,18,19,19,20,20,21,21,22,22,23,23,24,24,25,25,26,26,27,27,28,28,29,29,30,30],"right_children":[2,4,6,8,10,12,14,16,18,20,22,24,26,28,30,32,34,36,38,40,42,44,46,48,50,52,54,56,58,60,62,-1,-1,-1,-1,-1,-1,-1,-1,-1,-1,-1,-1,-1,-1,-1,-1,-1,-1,-1,-1,-1,-1,-1,-1,-1,-1,-1,-1,-1,-1,-1,-1],"split_conditions":[-2.5894403E-1,-7.484241E-2,1.8992822E0,1.8019732E0,1.1896133E0,-8.573634E-2,3.3664834E-2,-1.1330813E0,-7.6877004E-3,9.5445715E-2,1.7206691E-1,7.03165E-1,5.266043E-2,-7.484241E-2,-5.3899456E-2,-1.2132131E0,5.6282955E-1,4.739166E-1,1.6318189E0,1.5022169E-1,3.1335527E-1,6.087259E-2,1.2171712E0,2.1154638E-1,-1.4097972E-1,2.8315729E-2,6.3617176E-1,4.2994175E-2,9.5445715E-2,1.7234939E0,7.831091E-1,4.872713E-3,1.17581E-3,-6.9966554E-3,-1.6196423E-4,6.178666E-4,2.1662244E-3,1.23332E-3,-2.171695E-3,1.0242051E-4,2.9718825E-3,1.2289713E-3,3.3527584E-4,-2.644966E-4,-2.483728E-3,1.0148258E-3,-2.3074758E-3,3.3448162E-4,9.817322E-4,2.4365458E-4,5.935534E-5,-8.668139E-6,1.28524425E-5,3.1602575E-4,5.8648537E-5,-2.7764495E-4,1.257189E-3,-7.726303E-5,7.2566717E-4,-2.3679996E-3,-5.10194E-4,-6.1544526E-4,1.8421588E-6],"split_indices":[5,6,13,13,9,7,6,3,12,11,12,13,11,6,7,8,9,4,9,10,12,6,3,12,5,11,13,11,11,9,12,0,0,0,0,0,0,0,0,0,0,0,0,0,0,0,0,0,0,0,0,0,0,0,0,0,0,0,0,0,0,0,0],"split_type":[0,0,0,0,0,0,0,0,0,0,0,0,0,0,0,0,0,0,0,0,0,0,0,0,0,0,0,0,0,0,0,0,0,0,0,0,0,0,0,0,0,0,0,0,0,0,0,0,0,0,0,0,0,0,0,0,0,0,0,0,0,0,0],"sum_hessian":[1.873323E6,7.294E3,1.866029E6,1.581E3,5.713E3,1.839609E6,2.642E4,6.14E2,9.67E2,3.461E3,2.252E3,3.5188E4,1.804421E6,2.2106E4,4.314E3,1.57E2,4.57E2,5.98E2,3.69E2,1.601E3,1.86E3,1.764E3,4.88E2,2.263E3,3.2925E4,1.767184E6,3.7237E4,1.237E3,2.0869E4,1.129E3,3.185E3,8E0,1.49E2,2E0,4.55E2,8.3E1,5.15E2,3.17E2,5.2E1,1.594E3,7E0,1.01E3,8.5E2,1.534E3,2.3E2,4.51E2,3.7E1,1.812E3,4.51E2,9.416E3,2.3509E4,1.371096E6,3.96088E5,3.458E3,3.3779E4,4.34E2,8.03E2,2.0359E4,5.1E2,8.38E2,2.91E2,2.034E3,1.151E3],"tree_param":{"num_deleted":"0","num_feature":"14","num_nodes":"63","size_leaf_vector":"1"}},{"base_weights":[3.8318224E-9,-2.737811E-5,6.9897594E-3,-6.4708415E-6,-6.850904E-3,1.1544508E-2,-2.6105095E-3,4.416223E-3,-3.342489E-5,-2.4021089E-3,-3.7231408E-2,9.564699E-3,2.875517E-2,-1.621393E-2,9.9717295E-3,5.185308E-3,-2.017142E-2,-1.2845996E-4,5.373751E-4,2.0216765E-2,-4.4227173E-3,-5.9466533E-2,-8.053122E-3,1.1896091E-2,-1.1277859E-2,4.7248267E-2,1.700234E-2,-3.7116236E-3,-2.0342678E-2,2.1944236E-2,-4.1251187E-5,6.0514564E-4,1.7788702E-4,-1.8926109E-4,-2.3432206E-3,-1.0167312E-4,-5.4958878E-6,3.9482515E-5,-1.4085403E-4,-1.1152702E-4,1.62346E-3,-1.2168105E-3,-1.430284E-4,-3.7288496E-3,-1.803485E-3,-1.1349911E-3,-6.8234935E-5,1.7053868E-4,1.0083063E-3,4.777125E-4,-1.0242712E-3,-2.1835975E-4,3.037764E-3,-3.61789E-3,9.341232E-4,-2.6206856E-4,2.8567188E-3,5.428758E-4,-1.1513146E-3,1.7673926E-3,3.3038825E-4,1.379939E-3,-9.478141E-5],"categories":[],"categories_nodes":[],"categories_segments":[],"categories_sizes":[],"default_left":[0,0,0,0,0,0,0,0,0,0,0,0,0,0,0,0,0,0,0,0,0,0,0,0,0,0,0,0,0,0,0,0,0,0,0,0,0,0,0,0,0,0,0,0,0,0,0,0,0,0,0,0,0,0,0,0,0,0,0,0,0,0,0],"id":7,"left_children":[1,3,5,7,9,11,13,15,17,19,21,23,25,27,29,31,33,35,37,39,41,43,45,47,49,51,53,55,57,59,61,-1,-1,-1,-1,-1,-1,-1,-1,-1,-1,-1,-1,-1,-1,-1,-1,-1,-1,-1,-1,-1,-1,-1,-1,-1,-1,-1,-1,-1,-1,-1,-1],"loss_changes":[3.5854143E-1,2.6620808E-1,3.1967312E-1,2.2176753E-1,7.7030337E-1,1.6866302E-1,4.0290463E-1,2.1320115E-1,1.0030356E-1,2.2737485E-1,4.7183502E-1,2.1627209E-1,1.10260576E-1,5.8305442E-2,1.4661472E-1,1.2299389E-1,1.494123E-1,5.599136E-2,2.2334011E-1,1.12286374E-1,1.4196885E-1,1.4332092E-1,3.0925428E-2,2.8069693E-1,8.612795E-2,1.383051E-1,4.8494577E-2,2.6547745E-2,7.1419924E-2,1.1426571E-1,3.4239426E-2,0E0,0E0,0E0,0E0,0E0,0E0,0E0,0E0,0E0,0E0,0E0,0E0,0E0,0E0,0E0,0E0,0E0,0E0,0E0,0E0,0E0,0E0,0E0,0E0,0E0,0E0,0E0,0E0,0E0,0E0,0E0,0E0],"parents":[2147483647,0,0,1,1,2,2,3,3,4,4,5,5,6,6,7,7,8,8,9,9,10,10,11,11,12,12,13,13,14,14,15,15,16,16,17,17,18,18,19,19,20,20,21,21,22,22,23,23,24,24,25,25,26,26,27,27,28,28,29,29,30,30],"right_children":[2,4,6,8,10,12,14,16,18,20,22,24,26,28,30,32,34,36,38,40,42,44,46,48,50,52,54,56,58,60,62,-1,-1,-1,-1,-1,-1,-1,-1,-1,-1,-1,-1,-1,-1,-1,-1,-1,-1,-1,-1,-1,-1,-1,-1,-1,-1,-1,-1,-1,-1,-1,-1],"split_conditions":[9.5445715E-2,2.1429727E0,3.9692557E-1,-1.257453E-1,6.087259E-2,4.420421E1,4.8962315E1,3.99128E-2,3.383435E-2,-7.484241E-2,-1.0948008E0,2.580195E-1,-2.5894403E-1,1.6591246E-1,-1.8029782E-1,-7.484241E-2,1.8992822E0,-3.9059225E-2,1.7273587E0,5.4500073E-2,-1.20010264E-1,-6.3935384E-2,1.5205002E0,-1.257453E-1,2.9060188E-1,-7.484241E-2,2.9710108E-2,4.268144E-1,1.0148187E0,5.902707E-2,6.8647677E-1,6.0514564E-4,1.7788702E-4,-1.8926109E-4,-2.3432206E-3,-1.0167312E-4,-5.4958878E-6,3.9482515E-5,-1.4085403E-4,-1.1152702E-4,1.62346E-3,-1.2168105E-3,-1.430284E-4,-3.7288496E-3,-1.803485E-3,-1.1349911E-3,-6.8234935E-5,1.7053868E-4,1.0083063E-3,4.777125E-4,-1.0242712E-3,-2.1835975E-4,3.037764E-3,-3.61789E-3,9.341232E-4,-2.6206856E-4,2.8567188E-3,5.428758E-4,-1.1513146E-3,1.7673926E-3,3.3038825E-4,1.379939E-3,-9.478141E-5],"split_indices":[11,13,12,7,6,0,0,6,11,6,1,3,5,3,5,6,13,6,13,11,10,10,9,7,12,6,12,8,13,10,13,0,0,0,0,0,0,0,0,0,0,0,0,0,0,0,0,0,0,0,0,0,0,0,0,0,0,0,0,0,0,0,0],"split_type":[0,0,0,0,0,0,0,0,0,0,0,0,0,0,0,0,0,0,0,0,0,0,0,0,0,0,0,0,0,0,0,0,0,0,0,0,0,0,0,0,0,0,0,0,0,0,0,0,0,0,0,0,0,0,0,0,0,0,0,0,0,0,0],"sum_hessian":[1.873323E6,1.866014E6,7.309E3,1.860315E6,5.699E3,4.957E3,2.352E3,1.1268E4,1.849047E6,4.972E3,7.27E2,4.447E3,5.1E2,1.13E3,1.222E3,1.0927E4,3.41E2,1.585132E6,2.63915E5,4.07E2,4.565E3,4.12E2,3.15E2,4E3,4.47E2,1.97E2,3.13E2,2.81E2,8.49E2,5.56E2,6.66E2,2.08E3,8.847E3,2.12E2,1.29E2,1.5279E4,1.569853E6,2.45456E5,1.8459E4,1.44E2,2.63E2,3.31E2,4.234E3,2.49E2,1.63E2,9.8E1,2.17E2,1.975E3,2.025E3,1.37E2,3.1E2,4.1E1,1.56E2,5E0,3.08E2,2.75E2,6E0,6.7E1,7.82E2,2.96E2,2.6E2,4.1E1,6.25E2],"tree_param":{"num_deleted":"0","num_feature":"14","num_nodes":"63","size_leaf_vector":"1"}},{"base_weights":[2.415286E-9,6.691621E-3,-2.6157591E-5,1.30189555E-2,4.108391E-4,1.02287995E-5,-2.559625E-3,1.5952691E-2,-9.89997E-3,-2.1469168E-2,7.579783E-3,3.1989813E-3,-2.7600352E-5,-2.2411157E-4,-1.4524546E-2,9.604447E-3,2.2017585E-2,1.6651671E-2,-1.4111577E-2,1.6355416E-3,-3.5598494E-2,-9.0476347E-4,1.4063119E-2,1.4060556E-2,2.8269668E-3,-8.337484E-5,1.045857E-3,1.325294E-2,-1.0235541E-3,-3.4934536E-2,-7.2810403E-3,1.1140582E-3,1.3458771E-4,1.3758157E-3,2.5985477E-4,-3.0613778E-4,2.109168E-3,-7.7280414E-4,2.7660856E-3,4.201245E-4,-3.3839265E-4,-2.4265614E-3,1.0947813E-4,-6.1261715E-5,3.1429739E-3,-2.567206E-4,9.209293E-4,4.467857E-4,1.6635197E-3,3.4555656E-4,1.0590385E-4,2.9765474E-6,-1.4553555E-5,7.155082E-5,-8.099047E-5,-2.6645232E-4,1.1645071E-3,-6.9436064E-5,6.7639834E-4,-2.1363369E-3,-2.1287717E-4,-5.796495E-4,-1.9408767E-6],"categories":[],"categories_nodes":[],"categories_segments":[],"categories_sizes":[],"default_left":[0,0,0,0,0,0,0,0,0,0,0,0,0,0,0,0,0,0,0,0,0,0,0,0,0,0,0,0,0,0,0,0,0,0,0,0,0,0,0,0,0,0,0,0,0,0,0,0,0,0,0,0,0,0,0,0,0,0,0,0,0,0,0],"id":8,"left_children":[1,3,5,7,9,11,13,15,17,19,21,23,25,27,29,31,33,35,37,39,41,43,45,47,49,51,53,55,57,59,61,-1,-1,-1,-1,-1,-1,-1,-1,-1,-1,-1,-1,-1,-1,-1,-1,-1,-1,-1,-1,-1,-1,-1,-1,-1,-1,-1,-1,-1,-1,-1,-1],"loss_changes":[3.2793075E-1,2.8990236E-1,1.7201765E-1,2.4450105E-1,5.7457143E-1,2.219082E-1,7.3831135E-1,1.2384021E-1,4.6418734E-2,2.9517257E-1,1.5178025E-1,8.71093E-2,1.0884909E-1,2.3819722E-1,6.3767475E-1,1.380453E-1,1.5219021E-1,3.3402044E-2,3.4182236E-2,1.9618545E-2,2.7426845E-1,2.4516767E-2,1.3086721E-1,6.999412E-2,6.036523E-2,5.1296137E-2,9.2196465E-2,2.3102495E-1,1.10916495E-1,2.6993465E-1,9.94923E-2,0E0,0E0,0E0,0E0,0E0,0E0,0E0,0E0,0E0,0E0,0E0,0E0,0E0,0E0,0E0,0E0,0E0,0E0,0E0,0E0,0E0,0E0,0E0,0E0,0E0,0E0,0E0,0E0,0E0,0E0,0E0,0E0],"parents":[2147483647,0,0,1,1,2,2,3,3,4,4,5,5,6,6,7,7,8,8,9,9,10,10,11,11,12,12,13,13,14,14,15,15,16,16,17,17,18,18,19,19,20,20,21,21,22,22,23,23,24,24,25,25,26,26,27,27,28,28,29,29,30,30],"right_children":[2,4,6,8,10,12,14,16,18,20,22,24,26,28,30,32,34,36,38,40,42,44,46,48,50,52,54,56,58,60,62,-1,-1,-1,-1,-1,-1,-1,-1,-1,-1,-1,-1,-1,-1,-1,-1,-1,-1,-1,-1,-1,-1,-1,-1,-1,-1,-1,-1,-1,-1,-1,-1],"split_conditions":[-2.5894403E-1,-2.2184694E-2,1.8992822E0,-1.5725188E-2,1.0621048E-1,-9.961101E-2,3.3664834E-2,9.5445715E-2,2.2574408E-1,1.7273587E0,9.5445715E-2,6.5125257E-1,4.3708682E-2,-7.484241E-2,-5.3899456E-2,-5.695943E-2,2.1429727E0,1.82086E-1,1.3005711E0,1.4351892E0,2.0704312E0,1.5022169E-1,1.7206691E-1,1.8706954E-1,-1.5447918E-1,3.7442118E-1,9.78531E-2,4.2994175E-2,9.5445715E-2,-2.5668088E-1,5.380622E1,1.1140582E-3,1.3458771E-4,1.3758157E-3,2.5985477E-4,-3.0613778E-4,2.109168E-3,-7.7280414E-4,2.7660856E-3,4.201245E-4,-3.3839265E-4,-2.4265614E-3,1.0947813E-4,-6.1261715E-5,3.1429739E-3,-2.567206E-4,9.209293E-4,4.467857E-4,1.6635197E-3,3.4555656E-4,1.0590385E-4,2.9765474E-6,-1.4553555E-5,7.155082E-5,-8.099047E-5,-2.6645232E-4,1.1645071E-3,-6.9436064E-5,6.7639834E-4,-2.1363369E-3,-2.1287717E-4,-5.796495E-4,-1.9408767E-6],"split_indices":[5,6,13,7,12,7,6,11,12,13,11,13,11,6,7,12,13,12,8,9,9,10,12,12,7,1,7,11,11,2,0,0,0,0,0,0,0,0,0,0,0,0,0,0,0,0,0,0,0,0,0,0,0,0,0,0,0,0,0,0,0,0,0],"split_type":[0,0,0,0,0,0,0,0,0,0,0,0,0,0,0,0,0,0,0,0,0,0,0,0,0,0,0,0,0,0,0,0,0,0,0,0,0,0,0,0,0,0,0,0,0,0,0,0,0,0,0,0,0,0,0,0,0,0,0,0,0,0,0],"sum_hessian":[1.873323E6,7.294E3,1.866029E6,3.633E3,3.661E3,1.839609E6,2.642E4,3.221E3,4.12E2,9.03E2,2.758E3,2.1567E4,1.818042E6,2.2106E4,4.314E3,1.575E3,1.646E3,5.6E1,3.56E2,3.43E2,5.6E2,1.195E3,1.563E3,7.13E2,2.0854E4,1.728247E6,8.9795E4,1.237E3,2.0869E4,1.129E3,3.185E3,5.55E2,1.02E3,1.24E3,4.06E2,3E1,2.6E1,3.5E2,6E0,1.9E2,1.53E2,4.17E2,1.43E2,1.19E3,5E0,2.89E2,1.274E3,5.64E2,1.49E2,3.083E3,1.7771E4,1.023812E6,7.04435E5,7.8459E4,1.1336E4,4.34E2,8.03E2,2.0359E4,5.1E2,9E2,2.29E2,1.996E3,1.189E3],"tree_param":{"num_deleted":"0","num_feature":"14","num_nodes":"63","size_leaf_vector":"1"}},{"base_weights":[7.214223E-9,4.513576E-3,-3.540702E-5,1.6584035E-2,1.2257386E-3,-4.0103805E-6,-2.3252473E-3,6.879499E-3,2.639669E-2,3.807336E-3,-1.1300708E-2,-5.237876E-5,2.012927E-3,-7.797583E-4,-1.2173999E-2,2.3965267E-2,9.440956E-4,3.2764196E-2,9.21281E-3,3.4097661E-3,3.6240127E-2,-2.8112458E-2,1.8642621E-2,-1.5264655E-4,2.7966028E-4,3.2760098E-3,-7.7472665E-5,-1.0831179E-3,9.851696E-3,-2.7889548E-2,-3.8456419E-3,5.893964E-4,1.6589692E-3,-3.9512521E-4,2.0766852E-4,1.4896838E-4,1.9346382E-3,9.964643E-5,3.1992148E-3,2.6837047E-4,-1.1410865E-4,-9.0903486E-5,3.6836748E-3,-5.279053E-4,-1.904165E-3,-6.0388696E-4,1.6073305E-3,-1.1509111E-4,-6.9370844E-6,2.7538115E-5,-1.8207886E-5,4.087599E-5,2.577922E-4,2.3597215E-5,-4.5888333E-4,-1.216888E-4,4.268484E-5,1.1342227E-3,-2.7172614E-4,-5.2402075E-4,-1.8549602E-3,1.058712E-3,-2.9471942E-4],"categories":[],"categories_nodes":[],"categories_segments":[],"categories_sizes":[],"default_left":[0,0,0,0,0,0,0,0,0,0,0,0,0,0,0,0,0,0,0,0,0,0,0,0,0,0,0,0,0,0,0,0,0,0,0,0,0,0,0,0,0,0,0,0,0,0,0,0,0,0,0,0,0,0,0,0,0,0,0,0,0,0,0],"id":9,"left_children":[1,3,5,7,9,11,13,15,17,19,21,23,25,27,29,31,33,35,37,39,41,43,45,47,49,51,53,55,57,59,61,-1,-1,-1,-1,-1,-1,-1,-1,-1,-1,-1,-1,-1,-1,-1,-1,-1,-1,-1,-1,-1,-1,-1,-1,-1,-1,-1,-1,-1,-1,-1,-1],"loss_changes":[2.994409E-1,5.7875603E-1,1.33631E-1,2.971179E-1,3.7073633E-1,1.7887887E-1,3.8266516E-1,1.5929395E-1,1.6951573E-1,1.2243673E-1,9.866842E-1,5.9616167E-2,1.13382086E-1,7.00997E-2,4.4620955E-1,4.505126E-2,3.3165313E-2,1.9977474E-1,1.6635427E-1,1.0465416E-1,1.639683E-1,2.1926266E-1,2.9285568E-1,4.1100368E-2,7.249029E-2,1.23705566E-1,8.0876105E-2,5.5277612E-2,1.1841038E-1,1.8896335E-1,1.14433214E-1,0E0,0E0,0E0,0E0,0E0,0E0,0E0,0E0,0E0,0E0,0E0,0E0,0E0,0E0,0E0,0E0,0E0,0E0,0E0,0E0,0E0,0E0,0E0,0E0,0E0,0E0,0E0,0E0,0E0,0E0,0E0,0E0],"parents":[2147483647,0,0,1,1,2,2,3,3,4,4,5,5,6,6,7,7,8,8,9,9,10,10,11,11,12,12,13,13,14,14,15,15,16,16,17,17,18,18,19,19,20,20,21,21,22,22,23,23,24,24,25,25,26,26,27,27,28,28,29,29,30,30],"right_children":[2,4,6,8,10,12,14,16,18,20,22,24,26,28,30,32,34,36,38,40,42,44,46,48,50,52,54,56,58,60,62,-1,-1,-1,-1,-1,-1,-1,-1,-1,-1,-1,-1,-1,-1,-1,-1,-1,-1,-1,-1,-1,-1,-1,-1,-1,-1,-1,-1,-1,-1,-1,-1],"split_conditions":[-1.20010264E-1,-7.484241E-2,1.8992822E0,1.8473847E0,2.0372028E0,5.266043E-2,4.2941567E-2,1.6339443E1,-7.6877004E-3,4.3599323E1,-1.1012063E-1,2.8315729E-2,2.7941542E-2,9.5445715E-2,-2.1118933E-2,1.3967912E0,1.0406437E0,5.4500073E-2,-4.5979847E-3,-3.03435E-3,-1.6064854E-1,-4.9306575E-2,9.5445715E-2,-3.9059225E-2,2.8411895E-2,-1.0948778E-1,5.966408E-1,1.3749856E0,1.3688006E-1,6.087259E-2,-6.902549E-2,5.893964E-4,1.6589692E-3,-3.9512521E-4,2.0766852E-4,1.4896838E-4,1.9346382E-3,9.964643E-5,3.1992148E-3,2.6837047E-4,-1.1410865E-4,-9.0903486E-5,3.6836748E-3,-5.279053E-4,-1.904165E-3,-6.0388696E-4,1.6073305E-3,-1.1509111E-4,-6.9370844E-6,2.7538115E-5,-1.8207886E-5,4.087599E-5,2.577922E-4,2.3597215E-5,-4.5888333E-4,-1.216888E-4,4.268484E-5,1.1342227E-3,-2.7172614E-4,-5.2402075E-4,-1.8549602E-3,1.058712E-3,-2.9471942E-4],"split_indices":[10,6,13,13,13,11,6,0,12,0,7,11,7,11,7,9,9,11,8,6,3,8,11,6,7,3,4,9,3,6,10,0,0,0,0,0,0,0,0,0,0,0,0,0,0,0,0,0,0,0,0,0,0,0,0,0,0,0,0,0,0,0,0],"split_type":[0,0,0,0,0,0,0,0,0,0,0,0,0,0,0,0,0,0,0,0,0,0,0,0,0,0,0,0,0,0,0,0,0,0,0,0,0,0,0,0,0,0,0,0,0,0,0,0,0,0,0,0,0,0,0,0,0,0,0,0,0,0,0],"sum_hessian":[1.873323E6,1.4583E4,1.85874E6,3.121E3,1.1462E4,1.8336E6,2.514E4,1.57E3,1.551E3,9.504E3,1.958E3,1.790659E6,4.2941E4,2.1731E4,3.409E3,4.04E2,1.166E3,1.131E3,4.2E2,9.39E3,1.14E2,1.254E3,7.04E2,1.37534E6,4.15319E5,2.6767E4,1.6174E4,2.1129E4,6.02E2,1.18E3,2.229E3,1.75E2,2.29E2,3.1E2,8.56E2,1.88E2,9.43E2,3.72E2,4.8E1,6.987E3,2.403E3,5.7E1,5.7E1,4.55E2,7.99E2,2.15E2,4.89E2,8.84E3,1.3665E6,2.92255E5,1.23064E5,1.1599E4,1.5168E4,1.5254E4,9.2E2,1.2448E4,8.681E3,3.27E2,2.75E2,4.09E2,7.71E2,1.68E2,2.061E3],"tree_param":{"num_deleted":"0","num_feature":"14","num_nodes":"63","size_leaf_vector":"1"}},{"base_weights":[1.1479384E-8,-2.4108289E-5,6.157036E-3,-5.435055E-6,-6.1185104E-3,1.0324668E-2,-2.6271867E-3,3.8395359E-3,-2.8868179E-5,-2.1423716E-3,-3.3271287E-2,1.4808427E-2,3.3535953E-3,-1.5408204E-2,9.194529E-3,4.876348E-3,-1.1091839E-2,-4.0896153E-5,4.045899E-3,1.750902E-2,-3.8978744E-3,-5.3514615E-2,-6.7087337E-3,1.2193946E-2,2.950316E-2,1.9505005E-2,-4.471728E-3,8.355216E-4,-1.8382564E-2,2.035883E-2,-1.4236903E-4,5.218763E-4,1.7537519E-4,-1.7519506E-3,-1.9205983E-4,-6.6462535E-6,1.6001753E-5,3.2154817E-4,-4.969114E-5,1.2169703E-3,-7.627031E-4,-3.9649018E-4,1.309359E-4,-3.3650175E-3,-1.6086735E-3,-1.0076413E-3,-2.863078E-5,9.1047585E-4,-4.4356938E-4,1.8793925E-3,3.3100825E-4,1.4550356E-3,-2.4295853E-4,-8.6685613E-4,9.26563E-4,-1.0804475E-4,2.0983312E-3,4.4175072E-4,-1.0288052E-3,1.6471187E-3,2.980813E-4,1.8314213E-4,-6.3677365E-4],"categories":[],"categories_nodes":[],"categories_segments":[],"categories_sizes":[],"default_left":[0,0,0,0,0,0,0,0,0,0,0,0,0,0,0,0,0,0,0,0,0,0,0,0,0,0,0,0,0,0,0,0,0,0,0,0,0,0,0,0,0,0,0,0,0,0,0,0,0,0,0,0,0,0,0,0,0,0,0,0,0,0,0],"id":10,"left_children":[1,3,5,7,9,11,13,15,17,19,21,23,25,27,29,31,33,35,37,39,41,43,45,47,49,51,53,55,57,59,61,-1,-1,-1,-1,-1,-1,-1,-1,-1,-1,-1,-1,-1,-1,-1,-1,-1,-1,-1,-1,-1,-1,-1,-1,-1,-1,-1,-1,-1,-1,-1,-1],"loss_changes":[2.782E-1,2.1235657E-1,2.676419E-1,1.6761398E-1,6.15319E-1,1.5492064E-1,3.5566482E-1,1.7450981E-1,9.0624206E-2,1.7162716E-1,3.910972E-1,1.1555064E-1,2.4553663E-1,5.4659247E-2,1.2748834E-1,8.018273E-2,1.2696433E-1,6.1237484E-2,6.541956E-2,9.1675326E-2,1.1998986E-1,1.1934066E-1,2.6056735E-2,3.2494485E-1,8.3927035E-2,1.483652E-1,3.8771E-1,2.1781966E-2,5.725774E-2,1.0071409E-1,3.2008905E-2,0E0,0E0,0E0,0E0,0E0,0E0,0E0,0E0,0E0,0E0,0E0,0E0,0E0,0E0,0E0,0E0,0E0,0E0,0E0,0E0,0E0,0E0,0E0,0E0,0E0,0E0,0E0,0E0,0E0,0E0,0E0,0E0],"parents":[2147483647,0,0,1,1,2,2,3,3,4,4,5,5,6,6,7,7,8,8,9,9,10,10,11,11,12,12,13,13,14,14,15,15,16,16,17,17,18,18,19,19,20,20,21,21,22,22,23,23,24,24,25,25,26,26,27,27,28,28,29,29,30,30],"right_children":[2,4,6,8,10,12,14,16,18,20,22,24,26,28,30,32,34,36,38,40,42,44,46,48,50,52,54,56,58,60,62,-1,-1,-1,-1,-1,-1,-1,-1,-1,-1,-1,-1,-1,-1,-1,-1,-1,-1,-1,-1,-1,-1,-1,-1,-1,-1,-1,-1,-1,-1,-1,-1],"split_conditions":[9.5445715E-2,2.1429727E0,3.9692557E-1,-1.257453E-1,6.087259E-2,1.1896133E0,4.8962315E1,2.2498002E-2,7.778833E-2,-7.484241E-2,-1.0948008E0,4.420421E1,-7.484241E-2,3.5253357E-2,-1.8029782E-1,-7.484241E-2,-1.4788432E-1,3.0315235E-2,2.5144951E-2,2.6897073E-3,1.5001733E0,-6.3935384E-2,1.5205002E0,9.6151605E-2,-1.3161027E0,3.7874915E-2,1.7206691E-1,1.3343525E-2,1.0148187E0,5.902707E-2,2.6998273E-1,5.218763E-4,1.7537519E-4,-1.7519506E-3,-1.9205983E-4,-6.6462535E-6,1.6001753E-5,3.2154817E-4,-4.969114E-5,1.2169703E-3,-7.627031E-4,-3.9649018E-4,1.309359E-4,-3.3650175E-3,-1.6086735E-3,-1.0076413E-3,-2.863078E-5,9.1047585E-4,-4.4356938E-4,1.8793925E-3,3.3100825E-4,1.4550356E-3,-2.4295853E-4,-8.6685613E-4,9.26563E-4,-1.0804475E-4,2.0983312E-3,4.4175072E-4,-1.0288052E-3,1.6471187E-3,2.980813E-4,1.8314213E-4,-6.3677365E-4],"split_indices":[11,13,12,7,6,9,0,6,11,6,1,0,6,3,5,6,10,11,6,12,9,10,9,3,2,12,12,3,13,10,5,0,0,0,0,0,0,0,0,0,0,0,0,0,0,0,0,0,0,0,0,0,0,0,0,0,0,0,0,0,0,0,0],"split_type":[0,0,0,0,0,0,0,0,0,0,0,0,0,0,0,0,0,0,0,0,0,0,0,0,0,0,0,0,0,0,0,0,0,0,0,0,0,0,0,0,0,0,0,0,0,0,0,0,0,0,0,0,0,0,0,0,0,0,0,0,0,0,0],"sum_hessian":[1.873323E6,1.866014E6,7.309E3,1.860315E6,5.699E3,4.957E3,2.352E3,1.1268E4,1.849047E6,4.972E3,7.27E2,3.016E3,1.941E3,1.13E3,1.222E3,1.0537E4,7.31E2,1.843606E6,5.441E3,4.07E2,4.565E3,4.12E2,3.15E2,2.562E3,4.54E2,6.33E2,1.308E3,1.75E2,9.55E2,5.56E2,6.66E2,2.08E3,8.457E3,1.69E2,5.62E2,1.469037E6,3.74569E5,3.693E3,1.748E3,3.37E2,7E1,2.82E3,1.745E3,2.49E2,1.63E2,9.8E1,2.17E2,1.993E3,5.69E2,3.35E2,1.19E2,4.54E2,1.79E2,8.39E2,4.69E2,1.64E2,1.1E1,7.1E1,8.84E2,2.96E2,2.6E2,5.12E2,1.54E2],"tree_param":{"num_deleted":"0","num_feature":"14","num_nodes":"63","size_leaf_vector":"1"}},{"base_weights":[1.0938322E-8,5.8804625E-3,-2.2977918E-5,1.1499959E-2,3.0232695E-4,9.590693E-6,-2.2906256E-3,1.4202771E-2,-9.613743E-3,-1.9590978E-2,6.8203574E-3,2.2505508E-3,-3.4111476E-5,-1.9921585E-4,-1.3004995E-2,8.330748E-3,1.9813035E-2,1.4999874E-2,-1.35167185E-2,1.5988521E-3,-3.2549463E-2,-8.514812E-4,1.2682697E-2,1.1120736E-2,1.958353E-3,-6.329541E-5,1.3508567E-3,1.1516209E-2,-8.941606E-4,-3.0161584E-2,-6.0060574E-3,9.889732E-4,1.04401435E-4,1.2492071E-3,1.9984633E-4,-3.225387E-4,1.9536423E-3,-9.249177E-4,1.9817117E-4,-2.1135043E-4,5.380238E-4,-2.2352396E-3,1.4803912E-4,-5.793216E-5,3.013104E-3,-2.1868703E-4,8.2761265E-4,4.1780339E-4,1.3667612E-3,4.8602727E-5,2.0290216E-4,-7.518185E-5,-2.1959384E-6,2.8752978E-4,4.5014644E-5,-2.9406915E-4,1.0228074E-3,-6.116463E-5,6.110671E-4,-1.8900669E-3,-3.5360976E-4,-4.8961065E-4,2.8593844E-5],"categories":[],"categories_nodes":[],"categories_segments":[],"categories_sizes":[],"default_left":[0,0,0,0,0,0,0,0,0,0,0,0,0,0,0,0,0,0,0,0,0,0,0,0,0,0,0,0,0,0,0,0,0,0,0,0,0,0,0,0,0,0,0,0,0,0,0,0,0,0,0,0,0,0,0,0,0,0,0,0,0,0,0],"id":11,"left_children":[1,3,5,7,9,11,13,15,17,19,21,23,25,27,29,31,33,35,37,39,41,43,45,47,49,51,53,55,57,59,61,-1,-1,-1,-1,-1,-1,-1,-1,-1,-1,-1,-1,-1,-1,-1,-1,-1,-1,-1,-1,-1,-1,-1,-1,-1,-1,-1,-1,-1,-1,-1,-1],"loss_changes":[2.5324517E-1,2.2866789E-1,1.3781404E-1,2.0751563E-1,4.7496745E-1,1.8016197E-1,5.9204274E-1,1.05979264E-1,3.9878152E-2,2.4827963E-1,1.2409662E-1,9.118281E-2,7.2932705E-2,1.7999604E-1,5.1795495E-1,1.12597205E-1,1.346029E-1,2.9685754E-2,3.1160764E-2,1.840626E-2,2.4228173E-1,2.2520848E-2,1.0329771E-1,5.006826E-2,7.054819E-2,4.9320284E-2,7.381408E-2,1.9267066E-1,9.010513E-2,2.2022915E-1,7.636458E-2,0E0,0E0,0E0,0E0,0E0,0E0,0E0,0E0,0E0,0E0,0E0,0E0,0E0,0E0,0E0,0E0,0E0,0E0,0E0,0E0,0E0,0E0,0E0,0E0,0E0,0E0,0E0,0E0,0E0,0E0,0E0,0E0],"parents":[2147483647,0,0,1,1,2,2,3,3,4,4,5,5,6,6,7,7,8,8,9,9,10,10,11,11,12,12,13,13,14,14,15,15,16,16,17,17,18,18,19,19,20,20,21,21,22,22,23,23,24,24,25,25,26,26,27,27,28,28,29,29,30,30],"right_children":[2,4,6,8,10,12,14,16,18,20,22,24,26,28,30,32,34,36,38,40,42,44,46,48,50,52,54,56,58,60,62,-1,-1,-1,-1,-1,-1,-1,-1,-1,-1,-1,-1,-1,-1,-1,-1,-1,-1,-1,-1,-1,-1,-1,-1,-1,-1,-1,-1,-1,-1,-1,-1],"split_conditions":[-2.5894403E-1,-2.2184694E-2,1.8992822E0,-1.5725188E-2,1.0621048E-1,-8.573634E-2,3.3664834E-2,9.5445715E-2,2.2574408E-1,1.7273587E0,9.5445715E-2,6.1658734E-1,5.266043E-2,-7.484241E-2,-4.6561863E-2,-5.695943E-2,2.1429727E0,1.82086E-1,4.7293983E1,-2.7908266E-1,2.0704312E0,1.5022169E-1,1.7206691E-1,6.901942E-2,2.5574517E-1,-3.9059225E-2,6.3617176E-1,4.2315852E-2,9.5445715E-2,1.7234939E0,5.5746838E1,9.889732E-4,1.04401435E-4,1.2492071E-3,1.9984633E-4,-3.225387E-4,1.9536423E-3,-9.249177E-4,1.9817117E-4,-2.1135043E-4,5.380238E-4,-2.2352396E-3,1.4803912E-4,-5.793216E-5,3.013104E-3,-2.1868703E-4,8.2761265E-4,4.1780339E-4,1.3667612E-3,4.8602727E-5,2.0290216E-4,-7.518185E-5,-2.1959384E-6,2.8752978E-4,4.5014644E-5,-2.9406915E-4,1.0228074E-3,-6.116463E-5,6.110671E-4,-1.8900669E-3,-3.5360976E-4,-4.8961065E-4,2.8593844E-5],"split_indices":[5,6,13,7,12,7,6,11,12,13,11,13,11,6,7,12,13,12,0,3,9,10,12,11,4,6,13,11,11,9,0,0,0,0,0,0,0,0,0,0,0,0,0,0,0,0,0,0,0,0,0,0,0,0,0,0,0,0,0,0,0,0,0],"split_type":[0,0,0,0,0,0,0,0,0,0,0,0,0,0,0,0,0,0,0,0,0,0,0,0,0,0,0,0,0,0,0,0,0,0,0,0,0,0,0,0,0,0,0,0,0,0,0,0,0,0,0,0,0,0,0,0,0,0,0,0,0,0,0],"sum_hessian":[1.873323E6,7.294E3,1.866029E6,3.633E3,3.661E3,1.839609E6,2.642E4,3.221E3,4.12E2,9.03E2,2.758E3,3.5188E4,1.804421E6,2.2106E4,4.314E3,1.575E3,1.646E3,5.6E1,3.56E2,3.43E2,5.6E2,1.195E3,1.563E3,1.121E3,3.4067E4,1.767184E6,3.7237E4,1.237E3,2.0869E4,1.249E3,3.065E3,5.55E2,1.02E3,1.24E3,4.06E2,3E1,2.6E1,2.77E2,7.9E1,2.1E2,1.33E2,4.17E2,1.43E2,1.19E3,5E0,2.89E2,1.274E3,9.59E2,1.62E2,2.318E4,1.0887E4,2.3457E4,1.743727E6,3.458E3,3.3779E4,4.2E2,8.17E2,2.0359E4,5.1E2,9.38E2,3.11E2,1.945E3,1.12E3],"tree_param":{"num_deleted":"0","num_feature":"14","num_nodes":"63","size_leaf_vector":"1"}},{"base_weights":[1.3658796E-8,5.593602E-3,-2.1989166E-5,1.1580796E-2,-7.539509E-3,1.0772383E-5,-1.8223431E-3,1.8674294E-2,5.7043433E-3,-2.0082654E-2,1.626089E-2,-3.7414477E-5,1.91771E-3,-5.472278E-4,-1.0671817E-2,8.49344E-3,2.673879E-2,2.794683E-3,1.3189707E-2,2.1218848E-4,-3.6479585E-2,1.429834E-2,1.1079627E-1,4.9831165E-4,-1.0374026E-4,3.065619E-3,-1.9181416E-4,-8.164676E-4,8.572477E-3,-2.5270531E-2,-3.0298238E-3,1.1377627E-3,8.055567E-5,1.6296856E-3,4.5173513E-4,3.1447184E-4,-6.22706E-4,1.8486341E-4,1.5513682E-3,-1.8654292E-4,6.61019E-4,-7.238027E-4,-2.3053628E-3,1.7295477E-4,1.2550461E-3,3.464219E-3,1.8336868E-2,-2.3378714E-4,2.7720165E-5,1.3697454E-6,-1.33406575E-5,1.10670226E-4,3.7823047E-4,1.6563503E-5,-4.3304698E-4,1.2962201E-5,-1.10824825E-4,8.562187E-4,-1.7345224E-4,-1.5672703E-3,-3.521614E-4,1.1021672E-3,-2.6815452E-4],"categories":[],"categories_nodes":[],"categories_segments":[],"categories_sizes":[],"default_left":[0,0,0,0,0,0,0,0,0,0,0,0,0,0,0,0,0,0,0,0,0,0,0,0,0,0,0,0,0,0,0,0,0,0,0,0,0,0,0,0,0,0,0,0,0,0,0,0,0,0,0,0,0,0,0,0,0,0,0,0,0,0,0],"id":12,"left_children":[1,3,5,7,9,11,13,15,17,19,21,23,25,27,29,31,33,35,37,39,41,43,45,47,49,51,53,55,57,59,61,-1,-1,-1,-1,-1,-1,-1,-1,-1,-1,-1,-1,-1,-1,-1,-1,-1,-1,-1,-1,-1,-1,-1,-1,-1,-1,-1,-1,-1,-1,-1,-1],"loss_changes":[2.30559E-1,5.77235E-1,1.1006026E-1,2.1006727E-1,6.866514E-1,1.6839986E-1,3.763076E-1,1.8729722E-1,6.0053796E-2,5.011641E-1,1.4572704E-1,6.351324E-2,1.093768E-1,7.158155E-2,4.684891E-1,9.9197485E-2,1.3176334E-1,1.0602045E-1,1.3060255E-1,3.462007E-2,1.7579746E-1,9.112771E-2,1.4458445E-1,5.7152685E-2,3.4013316E-2,1.12134635E-1,7.052065E-2,4.264374E-2,8.614889E-2,1.5956056E-1,1.6146778E-1,0E0,0E0,0E0,0E0,0E0,0E0,0E0,0E0,0E0,0E0,0E0,0E0,0E0,0E0,0E0,0E0,0E0,0E0,0E0,0E0,0E0,0E0,0E0,0E0,0E0,0E0,0E0,0E0,0E0,0E0,0E0,0E0],"parents":[2147483647,0,0,1,1,2,2,3,3,4,4,5,5,6,6,7,7,8,8,9,9,10,10,11,11,12,12,13,13,14,14,15,15,16,16,17,17,18,18,19,19,20,20,21,21,22,22,23,23,24,24,25,25,26,26,27,27,28,28,29,29,30,30],"right_children":[2,4,6,8,10,12,14,16,18,20,22,24,26,28,30,32,34,36,38,40,42,44,46,48,50,52,54,56,58,60,62,-1,-1,-1,-1,-1,-1,-1,-1,-1,-1,-1,-1,-1,-1,-1,-1,-1,-1,-1,-1,-1,-1,-1,-1,-1,-1,-1,-1,-1,-1,-1,-1],"split_conditions":[-1.4788432E-1,-1.5955383E-2,1.8473847E0,-7.484241E-2,1.5128045E-1,5.266043E-2,4.2941567E-2,1.8473847E0,9.5445715E-2,1.7624128E0,1.7902962E0,-3.6717623E-2,2.7941542E-2,9.5445715E-2,-2.3665214E-2,1.6339443E1,2.6897073E-3,1.8019732E0,-1.257453E-1,2.5364326E1,1.0749731E-2,2.0652765E-1,4.49219E-2,-7.484241E-2,3.7442118E-1,7.778833E-2,5.966408E-1,3.5595298E-2,1.3688006E-1,-2.5668088E-1,-6.902549E-2,1.1377627E-3,8.055567E-5,1.6296856E-3,4.5173513E-4,3.1447184E-4,-6.22706E-4,1.8486341E-4,1.5513682E-3,-1.8654292E-4,6.61019E-4,-7.238027E-4,-2.3053628E-3,1.7295477E-4,1.2550461E-3,3.464219E-3,1.8336868E-2,-2.3378714E-4,2.7720165E-5,1.3697454E-6,-1.33406575E-5,1.10670226E-4,3.7823047E-4,1.6563503E-5,-4.3304698E-4,1.2962201E-5,-1.10824825E-4,8.562187E-4,-1.7345224E-4,-1.5672703E-3,-3.521614E-4,1.1021672E-3,-2.6815452E-4],"split_indices":[10,6,13,6,12,11,6,13,11,13,9,10,7,11,7,0,12,13,7,0,6,12,7,6,1,11,4,11,3,2,10,0,0,0,0,0,0,0,0,0,0,0,0,0,0,0,0,0,0,0,0,0,0,0,0,0,0,0,0,0,0,0,0],"split_type":[0,0,0,0,0,0,0,0,0,0,0,0,0,0,0,0,0,0,0,0,0,0,0,0,0,0,0,0,0,0,0,0,0,0,0,0,0,0,0,0,0,0,0,0,0,0,0,0,0,0,0,0,0,0,0,0,0,0,0,0,0,0,0],"sum_hessian":[1.873323E6,7.339E3,1.865984E6,5.041E3,2.298E3,1.832636E6,3.3348E4,2.283E3,2.758E3,1.505E3,7.93E2,1.787469E6,4.5167E4,2.9149E4,4.199E3,1.01E3,1.273E3,1.987E3,7.71E2,6.73E2,8.32E2,7.78E2,1.5E1,1.96918E5,1.590551E6,2.925E4,1.5917E4,2.8314E4,8.35E2,1.442E3,2.757E3,3.28E2,6.82E2,9.56E2,3.17E2,1.617E3,3.7E2,5.04E2,2.67E2,5.17E2,1.56E2,2.54E2,5.78E2,3.89E2,3.89E2,1.4E1,1E0,2.111E3,1.94807E5,8.81607E5,7.08944E5,2.4593E4,4.657E3,1.4992E4,9.25E2,1.6012E4,1.2302E4,4.88E2,3.47E2,1.081E3,3.61E2,2.34E2,2.523E3],"tree_param":{"num_deleted":"0","num_feature":"14","num_nodes":"63","size_leaf_vector":"1"}},{"base_weights":[2.6210099E-8,3.0913884E-3,-3.6547426E-5,1.2689864E-2,1.668913E-3,-2.4049332E-5,-4.8137843E-3,1.8273156E-2,-3.0524002E-3,4.48772E-3,-3.0090301E-3,9.6658705E-4,-6.14926E-5,-1.5697997E-3,-1.9256163E-2,2.2632068E-2,5.8987043E-3,-9.5761895E-2,-2.292469E-3,3.1124607E-3,1.2146317E-2,1.6465349E-3,-1.2235706E-2,1.1523893E-3,-1.5577329E-2,6.913001E-5,-2.605141E-4,-3.7194658E-3,2.3034592E-3,-4.1299565E-3,-3.3382554E-2,6.1131635E-4,1.4813724E-3,4.6244433E-5,2.1968833E-3,-8.679378E-4,-6.5311887E-3,-3.0793226E-4,5.0219963E-4,2.2978743E-4,-4.152127E-4,3.2607277E-3,5.035684E-4,4.718145E-4,-5.5859146E-5,-1.089498E-3,3.4678957E-4,2.5508413E-4,3.8678336E-5,-1.5116534E-4,-1.4496185E-3,5.446683E-6,-6.654468E-5,-8.213374E-6,-3.0155195E-5,1.7247694E-3,-2.3056705E-4,2.7254823E-4,-1.7287657E-5,-3.8911682E-4,1.6927089E-4,-4.6340423E-4,-2.1716333E-3],"categories":[],"categories_nodes":[],"categories_segments":[],"categories_sizes":[],"default_left":[0,0,0,0,0,0,0,0,0,0,0,0,0,0,0,0,0,0,0,0,0,0,0,0,0,0,0,0,0,0,0,0,0,0,0,0,0,0,0,0,0,0,0,0,0,0,0,0,0,0,0,0,0,0,0,0,0,0,0,0,0,0,0],"id":13,"left_children":[1,3,5,7,9,11,13,15,17,19,21,23,25,27,29,31,33,35,37,39,41,43,45,47,49,51,53,55,57,59,61,-1,-1,-1,-1,-1,-1,-1,-1,-1,-1,-1,-1,-1,-1,-1,-1,-1,-1,-1,-1,-1,-1,-1,-1,-1,-1,-1,-1,-1,-1,-1,-1],"loss_changes":[2.1180251E-1,2.9904717E-1,1.1054148E-1,2.4853113E-1,2.5158018E-1,6.849505E-2,2.2630623E-1,1.1243743E-1,5.198602E-2,1.2535228E-1,3.0818206E-1,2.0674986E-1,4.6256945E-2,3.2863807E-2,1.8918145E-1,1.1195606E-1,1.0307269E-1,1.4132213E-2,3.5165332E-2,1.7097273E-1,1.9886953E-1,1.0268084E-1,4.408566E-1,9.949746E-2,1.2571666E-1,5.986499E-2,2.324821E-2,8.666141E-2,1.1750702E-2,1.1801968E-2,1.1059517E-1,0E0,0E0,0E0,0E0,0E0,0E0,0E0,0E0,0E0,0E0,0E0,0E0,0E0,0E0,0E0,0E0,0E0,0E0,0E0,0E0,0E0,0E0,0E0,0E0,0E0,0E0,0E0,0E0,0E0,0E0,0E0,0E0],"parents":[2147483647,0,0,1,1,2,2,3,3,4,4,5,5,6,6,7,7,8,8,9,9,10,10,11,11,12,12,13,13,14,14,15,15,16,16,17,17,18,18,19,19,20,20,21,21,22,22,23,23,24,24,25,25,26,26,27,27,28,28,29,29,30,30],"right_children":[2,4,6,8,10,12,14,16,18,20,22,24,26,28,30,32,34,36,38,40,42,44,46,48,50,52,54,56,58,60,62,-1,-1,-1,-1,-1,-1,-1,-1,-1,-1,-1,-1,-1,-1,-1,-1,-1,-1,-1,-1,-1,-1,-1,-1,-1,-1,-1,-1,-1,-1,-1,-1],"split_conditions":[-1.8029782E-1,-7.484241E-2,2.1429727E0,-2.4769555E-1,1.1853333E0,-6.6676386E-2,4.2941567E-2,-7.6877004E-3,5.936416E-1,4.691387E1,1.8992822E0,5.231139E-2,3.796206E-1,1.5205002E0,5.266043E-2,1.8473847E0,-4.3921964E-3,4.9988344E-2,-4.845948E-1,3.63998E-1,-8.9362144E-2,-1.5447918E-1,-9.182955E-2,7.129399E-1,1.7273587E0,1.6956567E0,8.8681674E-1,-1.1316711E-1,-4.5527355E-3,1.4068606E-1,1.1853333E0,6.1131635E-4,1.4813724E-3,4.6244433E-5,2.1968833E-3,-8.679378E-4,-6.5311887E-3,-3.0793226E-4,5.0219963E-4,2.2978743E-4,-4.152127E-4,3.2607277E-3,5.035684E-4,4.718145E-4,-5.5859146E-5,-1.089498E-3,3.4678957E-4,2.5508413E-4,3.8678336E-5,-1.5116534E-4,-1.4496185E-3,5.446683E-6,-6.654468E-5,-8.213374E-6,-3.0155195E-5,1.7247694E-3,-2.3056705E-4,2.7254823E-4,-1.7287657E-5,-3.8911682E-4,1.6927089E-4,-4.6340423E-4,-2.1716333E-3],"split_indices":[5,6,13,3,9,7,6,12,9,0,13,6,2,9,11,13,8,3,2,12,10,7,7,13,13,13,12,12,6,3,9,0,0,0,0,0,0,0,0,0,0,0,0,0,0,0,0,0,0,0,0,0,0,0,0,0,0,0,0,0,0,0,0],"split_type":[0,0,0,0,0,0,0,0,0,0,0,0,0,0,0,0,0,0,0,0,0,0,0,0,0,0,0,0,0,0,0,0,0,0,0,0,0,0,0,0,0,0,0,0,0,0,0,0,0,0,0,0,0,0,0,0,0,0,0,0,0,0,0],"sum_hessian":[1.873323E6,2.1903E4,1.85142E6,2.826E3,1.9077E4,1.84659E6,4.83E3,2.086E3,7.4E2,1.1904E4,7.173E3,6.7253E4,1.779337E6,3.945E3,8.85E2,1.542E3,5.44E2,5E0,7.35E2,1.0093E4,1.811E3,4.768E3,2.405E3,6.6507E4,7.46E2,1.074269E6,7.05068E5,2.537E3,1.408E3,4.28E2,4.57E2,6.21E2,9.21E2,4.82E2,6.2E1,2E0,3E0,5.6E2,1.75E2,8.933E3,1.16E3,6.7E1,1.744E3,1.248E3,3.52E3,1.605E3,8E2,5.82E3,6.0687E4,3.86E2,3.6E2,1.044572E6,2.9697E4,5.50432E5,1.54636E5,5.7E1,2.48E3,6.43E2,7.65E2,2.88E2,1.4E2,1.35E2,3.22E2],"tree_param":{"num_deleted":"0","num_feature":"14","num_nodes":"63","size_leaf_vector":"1"}},{"base_weights":[2.3807472E-8,-2.0572614E-5,5.257648E-3,-4.4918747E-6,-5.2688597E-3,9.29959E-3,-2.2909588E-3,3.2985262E-3,-2.4622073E-5,-6.261352E-4,-2.2826558E-2,1.3830814E-2,2.5992924E-3,-1.4876666E-2,6.443672E-3,4.208822E-3,-9.81076E-3,-3.5325196E-5,3.6013203E-3,1.2006063E-2,-2.457148E-3,-3.742053E-3,-3.8896594E-2,8.040241E-3,2.1085627E-2,1.595284E-2,-3.970722E-3,4.5748604E-3,-1.9571718E-2,1.6391983E-2,-1.7222065E-3,3.0030476E-4,5.022993E-5,-1.5601063E-3,-1.6670648E-4,7.511532E-6,-9.325073E-6,2.3262366E-4,-3.37598E-4,-1.06247215E-4,1.4458548E-3,-6.069519E-5,-9.2569954E-4,-7.355408E-4,-8.719787E-5,-2.2567285E-3,7.0059474E-4,7.9467245E-5,1.4687421E-3,3.1682043E-4,1.283401E-3,1.226444E-3,-2.907052E-4,-9.7330194E-4,5.575502E-4,7.575078E-4,-5.3565315E-4,-9.3363924E-4,-3.7729812E-3,1.8589182E-3,5.653962E-4,1.6631248E-3,-1.8169683E-4],"categories":[],"categories_nodes":[],"categories_segments":[],"categories_sizes":[],"default_left":[0,0,0,0,0,0,0,0,0,0,0,0,0,0,0,0,0,0,0,0,0,0,0,0,0,0,0,0,0,0,0,0,0,0,0,0,0,0,0,0,0,0,0,0,0,0,0,0,0,0,0,0,0,0,0,0,0,0,0,0,0,0,0],"id":14,"left_children":[1,3,5,7,9,11,13,15,17,19,21,23,25,27,29,31,33,35,37,39,41,43,45,47,49,51,53,55,57,59,61,-1,-1,-1,-1,-1,-1,-1,-1,-1,-1,-1,-1,-1,-1,-1,-1,-1,-1,-1,-1,-1,-1,-1,-1,-1,-1,-1,-1,-1,-1,-1,-1],"loss_changes":[2.0285906E-1,1.574848E-1,2.2305699E-1,1.2369325E-1,4.6462435E-1,1.4451057E-1,2.804212E-1,1.3451798E-1,7.175967E-2,1.0432138E-1,3.6542732E-1,1.19137585E-1,1.686862E-1,9.552516E-2,1.2237071E-1,6.0680866E-2,1.0131015E-1,5.1716223E-2,5.9256032E-2,1.3651326E-1,7.861012E-2,1.1940826E-2,2.1416956E-1,2.1754207E-1,8.499664E-2,1.1849402E-1,3.0225027E-1,3.3143863E-2,4.08926E-2,7.133578E-2,5.54986E-2,0E0,0E0,0E0,0E0,0E0,0E0,0E0,0E0,0E0,0E0,0E0,0E0,0E0,0E0,0E0,0E0,0E0,0E0,0E0,0E0,0E0,0E0,0E0,0E0,0E0,0E0,0E0,0E0,0E0,0E0,0E0,0E0],"parents":[2147483647,0,0,1,1,2,2,3,3,4,4,5,5,6,6,7,7,8,8,9,9,10,10,11,11,12,12,13,13,14,14,15,15,16,16,17,17,18,18,19,19,20,20,21,21,22,22,23,23,24,24,25,25,26,26,27,27,28,28,29,29,30,30],"right_children":[2,4,6,8,10,12,14,16,18,20,22,24,26,28,30,32,34,36,38,40,42,44,46,48,50,52,54,56,58,60,62,-1,-1,-1,-1,-1,-1,-1,-1,-1,-1,-1,-1,-1,-1,-1,-1,-1,-1,-1,-1,-1,-1,-1,-1,-1,-1,-1,-1,-1,-1,-1,-1],"split_conditions":[9.5445715E-2,2.1429727E0,3.8276497E-1,-1.257453E-1,3.3664834E-2,1.1896133E0,4.6534637E1,2.2498002E-2,7.778833E-2,-3.0019136E-2,5.266043E-2,1.8992822E0,-7.484241E-2,3.5253357E-2,-1.8029782E-1,-7.6877004E-3,-1.4788432E-1,3.3107653E-4,1.6755027E-1,5.4500073E-2,7.778833E-2,1.2912803E0,1.8901669E0,4.420421E1,-1.5447918E-1,3.7874915E-2,-1.5447918E-1,2.0066637E-3,1.4499246E0,-1.7192164E-2,6.656103E-1,3.0030476E-4,5.022993E-5,-1.5601063E-3,-1.6670648E-4,7.511532E-6,-9.325073E-6,2.3262366E-4,-3.37598E-4,-1.06247215E-4,1.4458548E-3,-6.069519E-5,-9.2569954E-4,-7.355408E-4,-8.719787E-5,-2.2567285E-3,7.0059474E-4,7.9467245E-5,1.4687421E-3,3.1682043E-4,1.283401E-3,1.226444E-3,-2.907052E-4,-9.7330194E-4,5.575502E-4,7.575078E-4,-5.3565315E-4,-9.3363924E-4,-3.7729812E-3,1.8589182E-3,5.653962E-4,1.6631248E-3,-1.8169683E-4],"split_indices":[11,13,12,7,6,9,0,6,11,12,11,13,6,3,5,12,10,7,7,11,11,9,9,0,7,12,7,8,9,10,13,0,0,0,0,0,0,0,0,0,0,0,0,0,0,0,0,0,0,0,0,0,0,0,0,0,0,0,0,0,0,0,0],"split_type":[0,0,0,0,0,0,0,0,0,0,0,0,0,0,0,0,0,0,0,0,0,0,0,0,0,0,0,0,0,0,0,0,0,0,0,0,0,0,0,0,0,0,0,0,0,0,0,0,0,0,0,0,0,0,0,0,0,0,0,0,0,0,0],"sum_hessian":[1.873323E6,1.866014E6,7.309E3,1.860315E6,5.699E3,4.76E3,2.549E3,1.1268E4,1.849047E6,4.508E3,1.191E3,2.839E3,1.921E3,1.044E3,1.505E3,1.0537E4,7.31E2,1.843606E6,5.441E3,5.7E2,3.938E3,5.45E2,6.46E2,1.58E3,1.259E3,6.33E2,1.288E3,2.03E2,8.41E2,6.78E2,8.27E2,6.75E3,3.787E3,1.69E2,5.62E2,8.27689E5,1.015917E6,4.94E3,5.01E2,3.11E2,2.59E2,3.656E3,2.82E2,8.3E1,4.62E2,5.78E2,6.8E1,1.214E3,3.66E2,2.99E2,9.6E2,4.54E2,1.79E2,6.36E2,6.52E2,1.2E2,8.3E1,8.29E2,1.2E1,1.32E2,5.46E2,4.2E1,7.85E2],"tree_param":{"num_deleted":"0","num_feature":"14","num_nodes":"63","size_leaf_vector":"1"}},{"base_weights":[2.2401824E-8,5.004115E-3,-1.9540443E-5,9.750612E-3,2.92544E-4,8.516701E-6,-1.9730693E-3,1.2227384E-2,-9.595419E-3,-1.708465E-2,5.9861615E-3,2.192212E-3,-2.5651654E-5,-1.6422539E-4,-1.1239845E-2,6.419482E-3,1.7327145E-2,1.33057395E-2,-1.3225029E-2,1.2933287E-3,-2.8323403E-2,-1.0310276E-3,1.134842E-2,1.0258656E-2,1.8728822E-3,-1.0068264E-4,4.605528E-4,9.765256E-3,-7.532304E-4,-2.358894E-2,-3.7931972E-3,5.287512E-4,-1.05302504E-4,1.8651865E-4,1.0993899E-3,-1.180026E-3,1.293529E-3,-7.24887E-4,2.62408E-3,7.4770016E-4,-1.2855003E-4,-1.9832363E-3,2.3973126E-4,-6.62285E-5,2.8704486E-3,3.8239404E-4,1.258151E-3,3.4666536E-4,1.1389483E-3,1.083183E-4,-2.9305654E-4,-9.8527606E-5,-4.230959E-6,3.588886E-5,-3.4452E-5,1.2170684E-3,5.1289902E-5,-5.209901E-5,5.376517E-4,-4.3430316E-4,-1.6091664E-3,-3.5582372E-4,4.9823982E-5],"categories":[],"categories_nodes":[],"categories_segments":[],"categories_sizes":[],"default_left":[0,0,0,0,0,0,0,0,0,0,0,0,0,0,0,0,0,0,0,0,0,0,0,0,0,0,0,0,0,0,0,0,0,0,0,0,0,0,0,0,0,0,0,0,0,0,0,0,0,0,0,0,0,0,0,0,0,0,0,0,0,0,0],"id":15,"left_children":[1,3,5,7,9,11,13,15,17,19,21,23,25,27,29,31,33,35,37,39,41,43,45,47,49,51,53,55,57,59,61,-1,-1,-1,-1,-1,-1,-1,-1,-1,-1,-1,-1,-1,-1,-1,-1,-1,-1,-1,-1,-1,-1,-1,-1,-1,-1,-1,-1,-1,-1,-1,-1],"loss_changes":[1.8338782E-1,1.6313855E-1,1.0227794E-1,1.7424309E-1,3.6241725E-1,1.3725938E-1,4.4287094E-1,9.532082E-2,3.4505464E-2,1.8675384E-1,1.03827305E-1,7.2983086E-2,6.60759E-2,1.2930046E-1,3.9671516E-1,5.3448E-2,1.0859728E-1,2.704267E-2,3.061518E-2,1.819798E-2,2.1090302E-1,2.0592963E-2,7.9761535E-2,4.4765584E-2,6.189446E-2,4.713098E-2,7.160416E-2,1.5768054E-1,6.935038E-2,2.0759612E-1,4.28727E-2,0E0,0E0,0E0,0E0,0E0,0E0,0E0,0E0,0E0,0E0,0E0,0E0,0E0,0E0,0E0,0E0,0E0,0E0,0E0,0E0,0E0,0E0,0E0,0E0,0E0,0E0,0E0,0E0,0E0,0E0,0E0,0E0],"parents":[2147483647,0,0,1,1,2,2,3,3,4,4,5,5,6,6,7,7,8,8,9,9,10,10,11,11,12,12,13,13,14,14,15,15,16,16,17,17,18,18,19,19,20,20,21,21,22,22,23,23,24,24,25,25,26,26,27,27,28,28,29,29,30,30],"right_children":[2,4,6,8,10,12,14,16,18,20,22,24,26,28,30,32,34,36,38,40,42,44,46,48,50,52,54,56,58,60,62,-1,-1,-1,-1,-1,-1,-1,-1,-1,-1,-1,-1,-1,-1,-1,-1,-1,-1,-1,-1,-1,-1,-1,-1,-1,-1,-1,-1,-1,-1,-1,-1],"split_conditions":[-2.5894403E-1,-2.2184694E-2,1.8992822E0,-1.5725188E-2,1.0621048E-1,-9.182955E-2,3.3664834E-2,-5.487206E-2,2.2574408E-1,1.7273587E0,9.5445715E-2,6.5125257E-1,3.383435E-2,-7.484241E-2,-2.528553E-2,1.960388E0,7.778833E-2,6.901942E-2,1.3005711E0,-2.4252488E-1,2.0704312E0,1.5022169E-1,4.420421E1,1.8706954E-1,3.217341E-2,-3.9059225E-2,6.108201E-2,-2.1370766E0,9.5445715E-2,4.963139E-2,5.5746838E1,5.287512E-4,-1.05302504E-4,1.8651865E-4,1.0993899E-3,-1.180026E-3,1.293529E-3,-7.24887E-4,2.62408E-3,7.4770016E-4,-1.2855003E-4,-1.9832363E-3,2.3973126E-4,-6.62285E-5,2.8704486E-3,3.8239404E-4,1.258151E-3,3.4666536E-4,1.1389483E-3,1.083183E-4,-2.9305654E-4,-9.8527606E-5,-4.230959E-6,3.588886E-5,-3.4452E-5,1.2170684E-3,5.1289902E-5,-5.209901E-5,5.376517E-4,-4.3430316E-4,-1.6091664E-3,-3.5582372E-4,4.9823982E-5],"split_indices":[5,6,13,7,12,7,6,8,12,13,11,13,11,6,7,13,11,11,8,8,9,10,0,12,6,6,7,1,11,11,0,0,0,0,0,0,0,0,0,0,0,0,0,0,0,0,0,0,0,0,0,0,0,0,0,0,0,0,0,0,0,0,0],"split_type":[0,0,0,0,0,0,0,0,0,0,0,0,0,0,0,0,0,0,0,0,0,0,0,0,0,0,0,0,0,0,0,0,0,0,0,0,0,0,0,0,0,0,0,0,0,0,0,0,0,0,0,0,0,0,0,0,0,0,0,0,0,0,0],"sum_hessian":[1.873323E6,7.294E3,1.866029E6,3.633E3,3.661E3,1.839609E6,2.642E4,3.221E3,4.12E2,9.03E2,2.758E3,2.834E4,1.811269E6,2.2106E4,4.314E3,1.507E3,1.714E3,5.6E1,3.56E2,3.43E2,5.6E2,1.195E3,1.563E3,1.078E3,2.7262E4,1.569123E6,2.42146E5,1.237E3,2.0869E4,1.622E3,2.692E3,1.013E3,4.94E2,4.38E2,1.276E3,1.4E1,4.2E1,3.5E2,6E0,7.5E1,2.68E2,4.17E2,1.43E2,1.19E3,5E0,1.234E3,3.29E2,8.53E2,2.25E2,2.6266E4,9.96E2,1.3364E4,1.555759E6,1.97872E5,4.4274E4,4.63E2,7.74E2,2.0359E4,5.1E2,5.94E2,1.028E3,1.589E3,1.103E3],"tree_param":{"num_deleted":"0","num_feature":"14","num_nodes":"63","size_leaf_vector":"1"}},{"base_weights":[2.53493E-8,-1.8778826E-5,4.800145E-3,-4.0081704E-6,-4.839493E-3,8.399491E-3,-2.7860682E-3,3.0239886E-3,-2.2462256E-5,-1.6457237E-3,-2.6649624E-2,1.1015709E-2,-7.01095E-4,-1.4056885E-2,7.6391804E-3,4.5684455E-3,-3.5704304E-3,-3.259668E-5,3.4108195E-3,1.0585005E-2,-3.3135556E-3,-4.429182E-2,-4.879556E-3,1.4047088E-2,1.2873813E-3,1.3686846E-2,-8.881083E-3,-2.7874054E-3,-1.7779162E-2,1.6349958E-2,-1.8265864E-3,3.177533E-4,3.0631836E-5,-9.2968345E-4,-3.9503466E-5,3.8847106E-6,-1.3320375E-5,2.3156105E-4,-2.312562E-4,-8.798285E-5,1.2571857E-3,-1.1622912E-3,-9.832162E-5,-4.0954966E-4,-2.511628E-3,-5.056978E-4,4.3004277E-4,5.9324934E-4,1.5448544E-3,2.4296662E-4,-8.278722E-4,-2.3694464E-3,8.7591645E-4,-9.2966045E-4,9.3116827E-4,-2.1256685E-4,2.766577E-3,4.7242438E-4,-1.0060527E-3,-2.9491293E-4,1.1314465E-3,5.070015E-4,-5.214406E-4],"categories":[],"categories_nodes":[],"categories_segments":[],"categories_sizes":[],"default_left":[0,0,0,0,0,0,0,0,0,0,0,0,0,0,0,0,0,0,0,0,0,0,0,0,0,0,0,0,0,0,0,0,0,0,0,0,0,0,0,0,0,0,0,0,0,0,0,0,0,0,0,0,0,0,0,0,0,0,0,0,0,0,0],"id":16,"left_children":[1,3,5,7,9,11,13,15,17,19,21,23,25,27,29,31,33,35,37,39,41,43,45,47,49,51,53,55,57,59,61,-1,-1,-1,-1,-1,-1,-1,-1,-1,-1,-1,-1,-1,-1,-1,-1,-1,-1,-1,-1,-1,-1,-1,-1,-1,-1,-1,-1,-1,-1,-1,-1],"loss_changes":[1.6909061E-1,1.3286981E-1,1.9962595E-1,1.039525E-1,3.9699835E-1,1.1805326E-1,2.7658737E-1,1.147888E-1,6.433651E-2,1.014783E-1,2.793882E-1,1.13548905E-1,1.305256E-1,4.7393784E-2,1.00871354E-1,6.452972E-2,8.93314E-2,4.7541488E-2,5.339153E-2,1.0733848E-1,1.1748205E-1,8.580375E-2,2.3160715E-2,1.0758543E-1,5.8467068E-2,9.4902486E-2,1.8920481E-1,2.4228407E-2,5.4389685E-2,8.911976E-2,6.053125E-2,0E0,0E0,0E0,0E0,0E0,0E0,0E0,0E0,0E0,0E0,0E0,0E0,0E0,0E0,0E0,0E0,0E0,0E0,0E0,0E0,0E0,0E0,0E0,0E0,0E0,0E0,0E0,0E0,0E0,0E0,0E0,0E0],"parents":[2147483647,0,0,1,1,2,2,3,3,4,4,5,5,6,6,7,7,8,8,9,9,10,10,11,11,12,12,13,13,14,14,15,15,16,16,17,17,18,18,19,19,20,20,21,21,22,22,23,23,24,24,25,25,26,26,27,27,28,28,29,29,30,30],"right_children":[2,4,6,8,10,12,14,16,18,20,22,24,26,28,30,32,34,36,38,40,42,44,46,48,50,52,54,56,58,60,62,-1,-1,-1,-1,-1,-1,-1,-1,-1,-1,-1,-1,-1,-1,-1,-1,-1,-1,-1,-1,-1,-1,-1,-1,-1,-1,-1,-1,-1,-1,-1,-1],"split_conditions":[9.5445715E-2,2.1429727E0,3.9692557E-1,-1.257453E-1,6.087259E-2,1.3647752E0,4.8962315E1,-2.818084E-4,7.778833E-2,-3.0019136E-2,-4.5479494E-1,-1.6785771E0,1.960388E0,1.6591246E-1,6.291474E-2,-7.6877004E-3,-1.4788432E-1,6.7036385E-3,1.3452002E-1,5.4500073E-2,-1.20010264E-1,5.1047616E-2,3.218154E-2,4.420421E1,4.6850376E-2,8.8568807E-1,-1.257453E-1,4.268144E-1,1.0148187E0,7.648799E-2,8.6069137E-1,3.177533E-4,3.0631836E-5,-9.2968345E-4,-3.9503466E-5,3.8847106E-6,-1.3320375E-5,2.3156105E-4,-2.312562E-4,-8.798285E-5,1.2571857E-3,-1.1622912E-3,-9.832162E-5,-4.0954966E-4,-2.511628E-3,-5.056978E-4,4.3004277E-4,5.9324934E-4,1.5448544E-3,2.4296662E-4,-8.278722E-4,-2.3694464E-3,8.7591645E-4,-9.2966045E-4,9.3116827E-4,-2.1256685E-4,2.766577E-3,4.7242438E-4,-1.0060527E-3,-2.9491293E-4,1.1314465E-3,5.070015E-4,-5.214406E-4],"split_indices":[11,13,12,7,6,9,0,6,11,12,3,2,13,3,10,12,10,6,7,11,10,11,8,0,6,13,7,8,13,3,9,0,0,0,0,0,0,0,0,0,0,0,0,0,0,0,0,0,0,0,0,0,0,0,0,0,0,0,0,0,0,0,0],"split_type":[0,0,0,0,0,0,0,0,0,0,0,0,0,0,0,0,0,0,0,0,0,0,0,0,0,0,0,0,0,0,0,0,0,0,0,0,0,0,0,0,0,0,0,0,0,0,0,0,0,0,0,0,0,0,0,0,0,0,0,0,0,0,0],"sum_hessian":[1.873323E6,1.866014E6,7.309E3,1.860315E6,5.699E3,4.957E3,2.352E3,1.1268E4,1.849047E6,4.972E3,7.27E2,3.85E3,1.107E3,1.13E3,1.222E3,9.13E3,2.138E3,1.843606E6,5.441E3,5.96E2,4.376E3,4.01E2,3.26E2,2.935E3,9.15E2,4.01E2,7.06E2,2.81E2,8.49E2,6.36E2,5.86E2,6.289E3,2.841E3,3.33E2,1.805E3,1.252697E6,5.90909E5,4.724E3,7.17E2,3.23E2,2.73E2,2.76E2,4.1E3,5.7E1,3.44E2,2.35E2,9.1E1,2.6E3,3.35E2,7.63E2,1.52E2,2.3E1,3.78E2,5.22E2,1.84E2,2.75E2,6E0,6.7E1,7.82E2,1.4E2,4.96E2,2.45E2,3.41E2],"tree_param":{"num_deleted":"0","num_feature":"14","num_nodes":"63","size_leaf_vector":"1"}},{"base_weights":[2.3593133E-8,4.608806E-3,-1.8105418E-5,9.711858E-3,-6.5848413E-3,9.379083E-6,-1.5284684E-3,1.688929E-2,5.25139E-3,-1.6017828E-2,1.854022E-2,-3.261586E-5,1.6712788E-3,-4.550698E-4,-8.978003E-3,5.512993E-3,2.1622594E-2,-4.7303163E-4,1.3215784E-2,1.3683233E-3,-2.8913982E-2,1.5937138E-2,1.50837E-1,-1.11288995E-4,3.1585607E-4,6.5492964E-3,1.2171041E-3,-6.832155E-4,7.2726826E-3,-2.1374146E-2,-2.48902E-3,5.899094E-4,-5.1072676E-4,1.2739577E-3,5.6025696E-5,1.7916677E-4,-2.1811237E-4,9.672354E-4,-8.1724625E-5,-1.02201164E-4,6.268549E-4,-1.758191E-3,2.6697974E-4,-2.1790374E-4,1.2733468E-3,-1.4255218E-4,1.1401871E-2,-9.826502E-5,-4.863155E-6,2.9960505E-5,-1.7435776E-5,7.872701E-4,2.2778286E-4,1.1356794E-4,-3.6226393E-5,-8.347741E-5,3.757703E-5,7.28594E-4,-1.5024235E-4,-1.3391197E-3,-2.5750574E-4,1.0025332E-3,-2.293309E-4],"categories":[],"categories_nodes":[],"categories_segments":[],"categories_sizes":[],"default_left":[0,0,0,0,0,0,0,0,0,0,0,0,0,0,0,0,0,0,0,0,0,0,0,0,0,0,0,0,0,0,0,0,0,0,0,0,0,0,0,0,0,0,0,0,0,0,0,0,0,0,0,0,0,0,0,0,0,0,0,0,0,0,0],"id":17,"left_children":[1,3,5,7,9,11,13,15,17,19,21,23,25,27,29,31,33,35,37,39,41,43,45,47,49,51,53,55,57,59,61,-1,-1,-1,-1,-1,-1,-1,-1,-1,-1,-1,-1,-1,-1,-1,-1,-1,-1,-1,-1,-1,-1,-1,-1,-1,-1,-1,-1,-1,-1,-1,-1],"loss_changes":[1.565213E-1,4.1933766E-1,7.746E-2,1.6132948E-1,5.4517E-1,1.2790233E-1,2.666652E-1,1.0391414E-1,1.4184156E-1,3.7492618E-1,2.1386638E-1,4.9004205E-2,1.0006045E-1,5.139798E-2,3.3778793E-1,5.636648E-2,1.0781944E-1,2.8586121E-2,1.1844374E-1,2.7199289E-2,2.0570385E-1,1.19444504E-1,1.4302751E-1,3.792034E-2,6.1995864E-2,7.0458084E-2,8.458674E-2,4.007114E-2,6.2758595E-2,1.2647611E-1,1.3048798E-1,0E0,0E0,0E0,0E0,0E0,0E0,0E0,0E0,0E0,0E0,0E0,0E0,0E0,0E0,0E0,0E0,0E0,0E0,0E0,0E0,0E0,0E0,0E0,0E0,0E0,0E0,0E0,0E0,0E0,0E0,0E0,0E0],"parents":[2147483647,0,0,1,1,2,2,3,3,4,4,5,5,6,6,7,7,8,8,9,9,10,10,11,11,12,12,13,13,14,14,15,15,16,16,17,17,18,18,19,19,20,20,21,21,22,22,23,23,24,24,25,25,26,26,27,27,28,28,29,29,30,30],"right_children":[2,4,6,8,10,12,14,16,18,20,22,24,26,28,30,32,34,36,38,40,42,44,46,48,50,52,54,56,58,60,62,-1,-1,-1,-1,-1,-1,-1,-1,-1,-1,-1,-1,-1,-1,-1,-1,-1,-1,-1,-1,-1,-1,-1,-1,-1,-1,-1,-1,-1,-1,-1,-1],"split_conditions":[-1.4788432E-1,-1.5955383E-2,1.8473847E0,-5.695943E-2,1.7206691E-1,5.266043E-2,4.2941567E-2,1.3789504E0,9.5445715E-2,1.7273587E0,1.7234939E0,3.0315235E-2,6.3240176E-1,9.5445715E-2,-2.3665214E-2,2.5914024E1,1.8901669E0,1.2920566E0,2.1429727E0,2.5364326E1,-1.1012063E-1,9.5445715E-2,2.673869E-2,-3.9059225E-2,2.8411895E-2,-6.6676386E-2,2.8411895E-2,1.3749856E0,1.3688006E-1,-2.5668088E-1,-6.902549E-2,5.899094E-4,-5.1072676E-4,1.2739577E-3,5.6025696E-5,1.7916677E-4,-2.1811237E-4,9.672354E-4,-8.1724625E-5,-1.02201164E-4,6.268549E-4,-1.758191E-3,2.6697974E-4,-2.1790374E-4,1.2733468E-3,-1.4255218E-4,1.1401871E-2,-9.826502E-5,-4.863155E-6,2.9960505E-5,-1.7435776E-5,7.872701E-4,2.2778286E-4,1.1356794E-4,-3.6226393E-5,-8.347741E-5,3.757703E-5,7.28594E-4,-1.5024235E-4,-1.3391197E-3,-2.5750574E-4,1.0025332E-3,-2.293309E-4],"split_indices":[10,6,13,12,12,11,6,13,11,13,9,11,13,11,7,0,9,13,13,0,7,11,6,6,7,7,7,9,3,2,10,0,0,0,0,0,0,0,0,0,0,0,0,0,0,0,0,0,0,0,0,0,0,0,0,0,0,0,0,0,0,0,0],"split_type":[0,0,0,0,0,0,0,0,0,0,0,0,0,0,0,0,0,0,0,0,0,0,0,0,0,0,0,0,0,0,0,0,0,0,0,0,0,0,0,0,0,0,0,0,0,0,0,0,0,0,0,0,0,0,0,0,0,0,0,0,0,0,0],"sum_hessian":[1.873323E6,7.339E3,1.865984E6,5.041E3,2.298E3,1.832636E6,3.3348E4,1.931E3,3.11E3,1.671E3,6.27E2,1.787469E6,4.5167E4,2.9149E4,4.199E3,5.68E2,1.363E3,1.81E3,1.3E3,7.12E2,9.59E2,6.16E2,1.1E1,1.458247E6,3.29222E5,3.846E3,4.1321E4,2.8314E4,8.35E2,1.442E3,2.757E3,4.06E2,1.62E2,1.147E3,2.16E2,8.86E2,9.24E2,9.2E2,3.8E2,5.46E2,1.66E2,8.11E2,1.48E2,1.97E2,4.19E2,4E0,7E0,1.0948E4,1.447299E6,2.30811E5,9.8411E4,6.84E2,3.162E3,2.678E4,1.4541E4,1.6779E4,1.1535E4,4.88E2,3.47E2,1.081E3,3.61E2,2.34E2,2.523E3],"tree_param":{"num_deleted":"0","num_feature":"14","num_nodes":"63","size_leaf_vector":"1"}},{"base_weights":[3.006731E-8,4.4052186E-3,-1.719144E-5,8.595047E-3,2.4622356E-4,7.853709E-6,-1.7610047E-3,1.0906303E-2,-9.456927E-3,-1.5244039E-2,5.3215954E-3,-5.137694E-5,1.0294387E-3,-1.4582995E-4,-1.0035607E-2,5.4274113E-3,1.5717536E-2,1.2142369E-2,-1.2879063E-2,1.1291822E-3,-2.5256773E-2,-9.496053E-4,1.0113817E-2,8.684975E-4,-7.797484E-5,1.571905E-3,-6.125404E-4,8.796415E-3,-6.7627337E-4,-2.634689E-2,-5.316563E-3,5.265248E-4,-5.9927446E-5,1.5656682E-4,1.001602E-3,-2.0893764E-4,2.0160212E-3,-7.0473744E-4,2.495936E-3,2.2874426E-3,3.3305441E-6,-1.7961393E-3,2.9398405E-4,-6.15218E-5,2.747678E-3,9.4406446E-4,2.3627025E-4,2.1254686E-4,3.4508397E-5,-7.05434E-5,-2.81537E-6,1.7732102E-4,4.7341047E-5,3.7419923E-6,-2.8146396E-4,-3.0491545E-4,8.225764E-4,-4.679629E-5,4.8352475E-4,-2.093146E-3,-4.1218847E-4,-5.092909E-4,4.9730015E-6],"categories":[],"categories_nodes":[],"categories_segments":[],"categories_sizes":[],"default_left":[0,0,0,0,0,0,0,0,0,0,0,0,0,0,0,0,0,0,0,0,0,0,0,0,0,0,0,0,0,0,0,0,0,0,0,0,0,0,0,0,0,0,0,0,0,0,0,0,0,0,0,0,0,0,0,0,0,0,0,0,0,0,0],"id":18,"left_children":[1,3,5,7,9,11,13,15,17,19,21,23,25,27,29,31,33,35,37,39,41,43,45,47,49,51,53,55,57,59,61,-1,-1,-1,-1,-1,-1,-1,-1,-1,-1,-1,-1,-1,-1,-1,-1,-1,-1,-1,-1,-1,-1,-1,-1,-1,-1,-1,-1,-1,-1,-1,-1],"loss_changes":[1.421179E-1,1.2711672E-1,8.1497125E-2,1.517236E-1,2.879833E-1,1.11313276E-1,3.531133E-1,8.484736E-2,3.0683588E-2,1.4823093E-1,8.292577E-2,4.2542737E-2,8.979785E-2,1.04867294E-1,3.320013E-1,5.1002383E-2,9.306732E-2,2.638264E-2,2.79578E-2,1.6306534E-2,1.8652031E-1,1.884401E-2,7.379845E-2,2.9471282E-2,4.8805855E-2,9.3525976E-2,8.633475E-2,1.4125809E-1,5.6077622E-2,2.7155495E-1,8.829446E-2,0E0,0E0,0E0,0E0,0E0,0E0,0E0,0E0,0E0,0E0,0E0,0E0,0E0,0E0,0E0,0E0,0E0,0E0,0E0,0E0,0E0,0E0,0E0,0E0,0E0,0E0,0E0,0E0,0E0,0E0,0E0,0E0],"parents":[2147483647,0,0,1,1,2,2,3,3,4,4,5,5,6,6,7,7,8,8,9,9,10,10,11,11,12,12,13,13,14,14,15,15,16,16,17,17,18,18,19,19,20,20,21,21,22,22,23,23,24,24,25,25,26,26,27,27,28,28,29,29,30,30],"right_children":[2,4,6,8,10,12,14,16,18,20,22,24,26,28,30,32,34,36,38,40,42,44,46,48,50,52,54,56,58,60,62,-1,-1,-1,-1,-1,-1,-1,-1,-1,-1,-1,-1,-1,-1,-1,-1,-1,-1,-1,-1,-1,-1,-1,-1,-1,-1,-1,-1,-1,-1,-1,-1],"split_conditions":[-2.5894403E-1,-2.2184694E-2,1.8992822E0,-1.5725188E-2,1.0621048E-1,4.3708682E-2,3.3664834E-2,-5.487206E-2,2.2574408E-1,1.7273587E0,9.5445715E-2,2.1967875E1,2.2498002E-2,-7.484241E-2,1.9686292E-1,3.7874915E-2,7.778833E-2,3.1804022E1,1.3005711E0,-2.0964408E-2,2.0704312E0,1.5022169E-1,-4.5479494E-1,-1.1012063E-1,-3.671945E-2,-6.95112E-2,1.5743649E0,4.2315852E-2,9.5445715E-2,1.481875E0,-4.7369128E-1,5.265248E-4,-5.9927446E-5,1.5656682E-4,1.001602E-3,-2.0893764E-4,2.0160212E-3,-7.0473744E-4,2.495936E-3,2.2874426E-3,3.3305441E-6,-1.7961393E-3,2.9398405E-4,-6.15218E-5,2.747678E-3,9.4406446E-4,2.3627025E-4,2.1254686E-4,3.4508397E-5,-7.05434E-5,-2.81537E-6,1.7732102E-4,4.7341047E-5,3.7419923E-6,-2.8146396E-4,-3.0491545E-4,8.225764E-4,-4.679629E-5,4.8352475E-4,-2.093146E-3,-4.1218847E-4,-5.092909E-4,4.9730015E-6],"split_indices":[5,6,13,7,12,11,6,8,12,13,11,0,6,6,12,12,11,0,8,6,9,10,3,7,6,7,13,11,11,9,1,0,0,0,0,0,0,0,0,0,0,0,0,0,0,0,0,0,0,0,0,0,0,0,0,0,0,0,0,0,0,0,0],"split_type":[0,0,0,0,0,0,0,0,0,0,0,0,0,0,0,0,0,0,0,0,0,0,0,0,0,0,0,0,0,0,0,0,0,0,0,0,0,0,0,0,0,0,0,0,0,0,0,0,0,0,0,0,0,0,0,0,0,0,0,0,0,0,0],"sum_hessian":[1.873323E6,7.294E3,1.866029E6,3.633E3,3.661E3,1.839609E6,2.642E4,3.221E3,4.12E2,9.03E2,2.758E3,1.738796E6,1.00813E5,2.2106E4,4.314E3,1.507E3,1.714E3,5.6E1,3.56E2,3.43E2,5.6E2,1.195E3,1.563E3,4.8863E4,1.689933E6,7.5778E4,2.5035E4,1.237E3,2.0869E4,9.67E2,3.347E3,8.51E2,6.56E2,4.38E2,1.276E3,3.6E1,2E1,3.5E2,6E0,7E0,3.36E2,4.17E2,1.43E2,1.19E3,5E0,5.94E2,9.69E2,2.446E3,4.6417E4,2.7031E4,1.662902E6,1.822E4,5.7558E4,2.2019E4,3.016E3,4.2E2,8.17E2,2.0359E4,5.1E2,5.2E2,4.47E2,1.762E3,1.585E3],"tree_param":{"num_deleted":"0","num_feature":"14","num_nodes":"63","size_leaf_vector":"1"}},{"base_weights":[3.281361E-8,2.4221872E-3,-2.8623484E-5,9.843195E-3,1.3224069E-3,-6.8745626E-6,-1.7051623E-3,1.49069335E-2,-4.4319266E-3,3.7742567E-3,-2.746536E-3,-5.2049265E-5,8.494487E-4,-4.919125E-4,-1.0193654E-2,1.8817283E-2,3.8086246E-3,-9.441668E-2,-3.6923336E-3,2.5625685E-3,1.0522054E-2,2.4004902E-3,-8.745651E-3,2.1454325E-4,-1.291481E-4,3.831183E-3,5.319391E-4,1.9089483E-2,-5.8005896E-4,-1.8638758E-2,-6.628801E-4,9.7578806E-5,1.1093143E-3,4.29825E-4,-1.5534998E-3,-8.7772537E-4,-6.422957E-3,-3.679418E-4,4.0078114E-4,1.9397118E-4,-3.7864785E-4,2.9303113E-3,4.321128E-4,5.29162E-4,-2.6745047E-6,-6.6411897E-4,1.4206873E-4,-2.5439507E-4,1.1686359E-5,-7.3976895E-5,-5.7751136E-6,6.11504E-4,1.3109842E-4,5.4200646E-5,-5.162325E-5,2.0274583E-3,-1.8591093E-4,3.0607094E-5,-1.04069826E-4,-1.4312766E-3,-5.5262673E-4,-1.08595605E-5,-2.0811034E-3],"categories":[],"categories_nodes":[],"categories_segments":[],"categories_sizes":[],"default_left":[0,0,0,0,0,0,0,0,0,0,0,0,0,0,0,0,0,0,0,0,0,0,0,0,0,0,0,0,0,0,0,0,0,0,0,0,0,0,0,0,0,0,0,0,0,0,0,0,0,0,0,0,0,0,0,0,0,0,0,0,0,0,0],"id":19,"left_children":[1,3,5,7,9,11,13,15,17,19,21,23,25,27,29,31,33,35,37,39,41,43,45,47,49,51,53,55,57,59,61,-1,-1,-1,-1,-1,-1,-1,-1,-1,-1,-1,-1,-1,-1,-1,-1,-1,-1,-1,-1,-1,-1,-1,-1,-1,-1,-1,-1,-1,-1,-1,-1],"loss_changes":[1.3002746E-1,1.7875601E-1,6.750819E-2,2.0441714E-1,1.9034082E-1,7.070353E-2,2.4417624E-1,9.0500504E-2,4.896649E-2,9.7311035E-2,2.2153689E-1,3.5684295E-2,8.6707E-2,3.5819322E-2,2.3863572E-1,8.763087E-2,9.127908E-2,1.3444427E-2,3.165344E-2,1.3475418E-1,1.6327743E-1,7.75507E-2,1.7419282E-1,3.9617516E-2,2.4815131E-2,8.948353E-2,7.1491115E-2,4.5669258E-2,3.696979E-2,1.1878133E-1,2.5438506E-2,0E0,0E0,0E0,0E0,0E0,0E0,0E0,0E0,0E0,0E0,0E0,0E0,0E0,0E0,0E0,0E0,0E0,0E0,0E0,0E0,0E0,0E0,0E0,0E0,0E0,0E0,0E0,0E0,0E0,0E0,0E0,0E0],"parents":[2147483647,0,0,1,1,2,2,3,3,4,4,5,5,6,6,7,7,8,8,9,9,10,10,11,11,12,12,13,13,14,14,15,15,16,16,17,17,18,18,19,19,20,20,21,21,22,22,23,23,24,24,25,25,26,26,27,27,28,28,29,29,30,30],"right_children":[2,4,6,8,10,12,14,16,18,20,22,24,26,28,30,32,34,36,38,40,42,44,46,48,50,52,54,56,58,60,62,-1,-1,-1,-1,-1,-1,-1,-1,-1,-1,-1,-1,-1,-1,-1,-1,-1,-1,-1,-1,-1,-1,-1,-1,-1,-1,-1,-1,-1,-1,-1,-1],"split_conditions":[-1.8029782E-1,-7.484241E-2,1.8992822E0,-2.4769555E-1,1.1853333E0,4.3708682E-2,4.2941567E-2,-7.6877004E-3,5.936416E-1,4.691387E1,1.6673086E0,4.0641003E1,6.3617176E-1,-1.4788432E-1,-4.9217832E-1,3.0651093E-1,1.6318189E0,4.9988344E-2,-4.845948E-1,3.63998E-1,-8.9362144E-2,-1.5447918E-1,-7.271789E-2,-7.484241E-2,-3.671945E-2,-6.95112E-2,2.2498002E-2,3.556016E-1,3.5279397E-2,-3.7114497E-2,9.5445715E-2,9.7578806E-5,1.1093143E-3,4.29825E-4,-1.5534998E-3,-8.7772537E-4,-6.422957E-3,-3.679418E-4,4.0078114E-4,1.9397118E-4,-3.7864785E-4,2.9303113E-3,4.321128E-4,5.29162E-4,-2.6745047E-6,-6.6411897E-4,1.4206873E-4,-2.5439507E-4,1.1686359E-5,-7.3976895E-5,-5.7751136E-6,6.11504E-4,1.3109842E-4,5.4200646E-5,-5.162325E-5,2.0274583E-3,-1.8591093E-4,3.0607094E-5,-1.04069826E-4,-1.4312766E-3,-5.5262673E-4,-1.08595605E-5,-2.0811034E-3],"split_indices":[5,6,13,3,9,11,6,12,9,0,13,0,13,10,1,4,9,3,2,12,10,7,7,6,6,7,6,4,11,7,11,0,0,0,0,0,0,0,0,0,0,0,0,0,0,0,0,0,0,0,0,0,0,0,0,0,0,0,0,0,0,0,0],"split_type":[0,0,0,0,0,0,0,0,0,0,0,0,0,0,0,0,0,0,0,0,0,0,0,0,0,0,0,0,0,0,0,0,0,0,0,0,0,0,0,0,0,0,0,0,0,0,0,0,0,0,0,0,0,0,0,0,0,0,0,0,0,0,0],"sum_hessian":[1.873323E6,2.1903E4,1.85142E6,2.826E3,1.9077E4,1.827711E6,2.3709E4,2.086E3,7.4E2,1.1904E4,7.173E3,1.736124E6,9.1587E4,2.0745E4,2.964E3,1.542E3,5.44E2,5E0,7.35E2,1.0093E4,1.811E3,3.861E3,3.312E3,3.89457E5,1.346667E6,8.813E3,8.2774E4,9.2E1,2.0653E4,1.571E3,1.393E3,2.57E2,1.285E3,4.79E2,6.5E1,2E0,3E0,5.6E2,1.75E2,8.933E3,1.16E3,6.7E1,1.744E3,8.9E2,2.971E3,2.38E3,9.32E2,1.403E3,3.88054E5,1.3471E4,1.333196E6,1.108E3,7.705E3,6.1183E4,2.1591E4,4.7E1,4.5E1,1.1512E4,9.141E3,6.77E2,8.94E2,1.379E3,1.4E1],"tree_param":{"num_deleted":"0","num_feature":"14","num_nodes":"63","size_leaf_vector":"1"}},{"base_weights":[2.803336E-8,-1.6103093E-5,4.1178013E-3,-3.2911914E-6,-4.197536E-3,7.8061447E-3,-1.874256E-3,1.7396122E-3,-2.7255714E-5,-1.4125626E-3,-2.3216048E-2,1.23105375E-2,1.513985E-3,-9.923887E-3,7.549787E-3,1.9324789E-3,-2.9476196E-2,-3.6104015E-5,3.228356E-3,9.485014E-3,-2.8986125E-3,-3.9618906E-2,-4.380966E-3,6.4635463E-3,1.8570421E-2,1.2824115E-2,-4.115394E-3,3.1342283E-3,-1.5489569E-2,1.6696917E-2,-8.054824E-4,1.1050422E-4,-2.7213318E-4,-2.3864582E-4,-2.0256718E-3,-6.936917E-5,-6.360198E-7,3.109744E-4,-2.0372701E-5,1.1245373E-4,1.514274E-3,-1.0604109E-3,-8.3059625E-5,-4.81137E-4,-2.302838E-3,-7.063795E-4,1.425949E-4,-3.497167E-5,1.2283574E-3,1.1990367E-3,3.084042E-4,1.0671223E-3,-2.8915395E-4,-7.817854E-4,5.8609736E-4,8.5102994E-4,-1.2801493E-4,7.180752E-4,-8.9449616E-4,1.5337317E-3,2.9824104E-4,1.7319314E-4,-1.1091568E-3],"categories":[],"categories_nodes":[],"categories_segments":[],"categories_sizes":[],"default_left":[0,0,0,0,0,0,0,0,0,0,0,0,0,0,0,0,0,0,0,0,0,0,0,0,0,0,0,0,0,0,0,0,0,0,0,0,0,0,0,0,0,0,0,0,0,0,0,0,0,0,0,0,0,0,0,0,0,0,0,0,0,0,0],"id":20,"left_children":[1,3,5,7,9,11,13,15,17,19,21,23,25,27,29,31,33,35,37,39,41,43,45,47,49,51,53,55,57,59,61,-1,-1,-1,-1,-1,-1,-1,-1,-1,-1,-1,-1,-1,-1,-1,-1,-1,-1,-1,-1,-1,-1,-1,-1,-1,-1,-1,-1,-1,-1,-1,-1],"loss_changes":[1.2443434E-1,9.996634E-2,1.6157123E-1,7.770144E-2,3.018737E-1,1.2823048E-1,2.114211E-1,1.5196595E-1,5.2862737E-2,8.056195E-2,2.2474143E-1,9.6398115E-2,1.2032354E-1,1.0928255E-1,9.814537E-2,5.1356226E-2,4.2068332E-2,5.7827502E-2,5.409573E-2,8.97869E-2,9.9133015E-2,7.467693E-2,2.400893E-2,1.7702454E-1,8.527106E-2,9.9662825E-2,2.3043664E-1,3.5627913E-2,7.577935E-2,9.177329E-2,6.1409324E-2,0E0,0E0,0E0,0E0,0E0,0E0,0E0,0E0,0E0,0E0,0E0,0E0,0E0,0E0,0E0,0E0,0E0,0E0,0E0,0E0,0E0,0E0,0E0,0E0,0E0,0E0,0E0,0E0,0E0,0E0,0E0,0E0],"parents":[2147483647,0,0,1,1,2,2,3,3,4,4,5,5,6,6,7,7,8,8,9,9,10,10,11,11,12,12,13,13,14,14,15,15,16,16,17,17,18,18,19,19,20,20,21,21,22,22,23,23,24,24,25,25,26,26,27,27,28,28,29,29,30,30],"right_children":[2,4,6,8,10,12,14,16,18,20,22,24,26,28,30,32,34,36,38,40,42,44,46,48,50,52,54,56,58,60,62,-1,-1,-1,-1,-1,-1,-1,-1,-1,-1,-1,-1,-1,-1,-1,-1,-1,-1,-1,-1,-1,-1,-1,-1,-1,-1,-1,-1,-1,-1,-1,-1],"split_conditions":[9.5445715E-2,2.1429727E0,3.63998E-1,-9.961101E-2,6.087259E-2,1.1896133E0,4.8962315E1,7.81803E-2,7.778833E-2,-3.0019136E-2,-1.297695E0,1.8473847E0,-7.484241E-2,1.704998E-1,5.1759783E-2,3.217341E-2,1.6956567E0,-3.9059225E-2,-1.098646E-1,6.901942E-2,-1.20010264E-1,1.1853333E0,1.5977201E0,4.257431E1,-2.3654053E0,2.1429727E0,-1.257453E-1,1.5533777E-2,1.0148187E0,-2.0542552E-1,1.4589431E0,1.1050422E-4,-2.7213318E-4,-2.3864582E-4,-2.0256718E-3,-6.936917E-5,-6.360198E-7,3.109744E-4,-2.0372701E-5,1.1245373E-4,1.514274E-3,-1.0604109E-3,-8.3059625E-5,-4.81137E-4,-2.302838E-3,-7.063795E-4,1.425949E-4,-3.497167E-5,1.2283574E-3,1.1990367E-3,3.084042E-4,1.0671223E-3,-2.8915395E-4,-7.817854E-4,5.8609736E-4,8.5102994E-4,-1.2801493E-4,7.180752E-4,-8.9449616E-4,1.5337317E-3,2.9824104E-4,1.7319314E-4,-1.1091568E-3],"split_indices":[11,13,12,7,6,9,0,6,11,12,1,13,6,3,10,6,13,6,5,11,10,9,9,0,2,13,7,6,13,5,1,0,0,0,0,0,0,0,0,0,0,0,0,0,0,0,0,0,0,0,0,0,0,0,0,0,0,0,0,0,0,0,0],"split_type":[0,0,0,0,0,0,0,0,0,0,0,0,0,0,0,0,0,0,0,0,0,0,0,0,0,0,0,0,0,0,0,0,0,0,0,0,0,0,0,0,0,0,0,0,0,0,0,0,0,0,0,0,0,0,0,0,0,0,0,0,0,0,0],"sum_hessian":[1.873323E6,1.866014E6,7.309E3,1.860315E6,5.699E3,4.524E3,2.785E3,2.5231E4,1.835084E6,4.972E3,7.27E2,2.636E3,1.888E3,1.502E3,1.283E3,2.5077E4,1.54E2,1.830111E6,4.973E3,5.96E2,4.376E3,3.88E2,3.39E2,1.364E3,1.272E3,6.27E2,1.261E3,4.49E2,1.053E3,6.12E2,6.71E2,2.4168E4,9.09E2,4.8E1,1.06E2,3.113E4,1.798981E6,2.728E3,2.245E3,4.43E2,1.53E2,2.76E2,4.1E3,6.9E1,3.19E2,1.44E2,1.95E2,9.78E2,3.86E2,8.85E2,3.87E2,4.3E2,1.97E2,7.3E2,5.31E2,1.3E2,3.19E2,7.8E1,9.75E2,2.65E2,3.47E2,5.6E2,1.11E2],"tree_param":{"num_deleted":"0","num_feature":"14","num_nodes":"63","size_leaf_vector":"1"}},{"base_weights":[2.6462336E-8,-1.530064E-5,3.912558E-3,-3.1278025E-6,-3.988162E-3,7.264211E-3,-2.0827951E-3,-3.5670506E-5,1.1927898E-3,-3.539423E-4,-1.7250108E-2,1.1229996E-2,1.4882187E-3,-8.165488E-3,1.11295385E-2,1.1714807E-3,-5.8216745E-5,9.007524E-3,8.20476E-4,9.59223E-3,-1.7994572E-3,-3.8004592E-2,-7.81146E-3,5.770255E-3,1.795685E-2,1.1844785E-2,-3.630498E-3,-1.7716856E-3,-1.3832083E-2,2.1204894E-2,-4.0323385E-3,2.5147185E-4,4.1423536E-5,-1.8249791E-4,-2.625218E-6,1.0279007E-4,9.123927E-4,8.808272E-5,-2.1467808E-4,9.885851E-5,1.6000312E-3,-2.2963174E-4,2.2843583E-4,-2.2483722E-3,2.6249775E-4,-7.6817E-4,8.145777E-5,4.7442113E-6,1.2681173E-3,2.016556E-4,1.1176714E-3,9.77538E-4,-3.9598034E-4,-6.395964E-4,7.568632E-4,-3.9399948E-4,7.971058E-4,3.8590431E-3,-7.3425693E-4,2.1499328E-3,5.6472904E-4,5.7322195E-5,-1.22277E-3],"categories":[],"categories_nodes":[],"categories_segments":[],"categories_sizes":[],"default_left":[0,0,0,0,0,0,0,0,0,0,0,0,0,0,0,0,0,0,0,0,0,0,0,0,0,0,0,0,0,0,0,0,0,0,0,0,0,0,0,0,0,0,0,0,0,0,0,0,0,0,0,0,0,0,0,0,0,0,0,0,0,0,0],"id":21,"left_children":[1,3,5,7,9,11,13,15,17,19,21,23,25,27,29,31,33,35,37,39,41,43,45,47,49,51,53,55,57,59,61,-1,-1,-1,-1,-1,-1,-1,-1,-1,-1,-1,-1,-1,-1,-1,-1,-1,-1,-1,-1,-1,-1,-1,-1,-1,-1,-1,-1,-1,-1,-1,-1],"loss_changes":[1.1233912E-1,9.024234E-2,1.469048E-1,7.240055E-2,2.7471578E-1,1.07391134E-1,2.1081203E-1,4.9290527E-2,1.433773E-1,6.4355865E-2,2.398695E-1,1.0199711E-1,1.0129655E-1,6.504653E-2,1.2641908E-1,4.393659E-2,3.6476333E-2,1.439158E-1,2.2642635E-1,9.686096E-2,6.95343E-2,1.1558604E-1,6.0197975E-2,1.707891E-1,7.612479E-2,9.641086E-2,2.2010429E-1,9.155571E-2,7.504584E-2,1.0685794E-1,3.5036776E-2,0E0,0E0,0E0,0E0,0E0,0E0,0E0,0E0,0E0,0E0,0E0,0E0,0E0,0E0,0E0,0E0,0E0,0E0,0E0,0E0,0E0,0E0,0E0,0E0,0E0,0E0,0E0,0E0,0E0,0E0,0E0,0E0],"parents":[2147483647,0,0,1,1,2,2,3,3,4,4,5,5,6,6,7,7,8,8,9,9,10,10,11,11,12,12,13,13,14,14,15,15,16,16,17,17,18,18,19,19,20,20,21,21,22,22,23,23,24,24,25,25,26,26,27,27,28,28,29,29,30,30],"right_children":[2,4,6,8,10,12,14,16,18,20,22,24,26,28,30,32,34,36,38,40,42,44,46,48,50,52,54,56,58,60,62,-1,-1,-1,-1,-1,-1,-1,-1,-1,-1,-1,-1,-1,-1,-1,-1,-1,-1,-1,-1,-1,-1,-1,-1,-1,-1,-1,-1,-1,-1,-1,-1],"split_conditions":[9.5445715E-2,2.1429727E0,3.7796807E-1,5.266043E-2,3.217341E-2,1.1896133E0,5.3988007E1,1.9098843E1,-5.695943E-2,-3.0019136E-2,-7.199464E-2,1.8992822E0,-7.484241E-2,-1.1735601E-2,-9.817976E-2,-1.1012063E-1,-7.484241E-2,1.520178E0,1.6409324E0,6.901942E-2,1.5687268E0,1.7234939E0,1.5977201E0,4.420421E1,-1.5447918E-1,3.7874915E-2,1.770852E-1,4.691387E1,3.922279E-1,4.6852503E-2,1.2171712E0,2.5147185E-4,4.1423536E-5,-1.8249791E-4,-2.625218E-6,1.0279007E-4,9.123927E-4,8.808272E-5,-2.1467808E-4,9.885851E-5,1.6000312E-3,-2.2963174E-4,2.2843583E-4,-2.2483722E-3,2.6249775E-4,-7.6817E-4,8.145777E-5,4.7442113E-6,1.2681173E-3,2.016556E-4,1.1176714E-3,9.77538E-4,-3.9598034E-4,-6.395964E-4,7.568632E-4,-3.9399948E-4,7.971058E-4,3.8590431E-3,-7.3425693E-4,2.1499328E-3,5.6472904E-4,5.7322195E-5,-1.22277E-3],"split_indices":[11,13,12,11,6,9,0,0,12,12,10,13,6,10,5,7,6,13,13,11,9,9,9,0,7,12,12,0,12,10,3,0,0,0,0,0,0,0,0,0,0,0,0,0,0,0,0,0,0,0,0,0,0,0,0,0,0,0,0,0,0,0,0],"split_type":[0,0,0,0,0,0,0,0,0,0,0,0,0,0,0,0,0,0,0,0,0,0,0,0,0,0,0,0,0,0,0,0,0,0,0,0,0,0,0,0,0,0,0,0,0,0,0,0,0,0,0,0,0,0,0,0,0,0,0,0,0,0,0],"sum_hessian":[1.873323E6,1.866014E6,7.309E3,1.860315E6,5.699E3,4.688E3,2.621E3,1.811035E6,4.928E4,4.474E3,1.225E3,2.779E3,1.909E3,1.795E3,8.26E2,3.3204E4,1.777831E6,2.24E3,4.704E4,5.67E2,3.907E3,3.82E2,8.43E2,1.535E3,1.244E3,6.31E2,1.278E3,8.44E2,9.51E2,4.96E2,3.3E2,2.71E3,3.0494E4,2.822E3,1.775009E6,1.279E3,9.61E2,3.9729E4,7.311E3,4.24E2,1.43E2,2.716E3,1.191E3,3.29E2,5.3E1,4.68E2,3.75E2,1.191E3,3.44E2,2.99E2,9.45E2,4.54E2,1.77E2,8.59E2,4.19E2,6.28E2,2.16E2,8E0,9.43E2,1.54E2,3.42E2,2.64E2,6.6E1],"tree_param":{"num_deleted":"0","num_feature":"14","num_nodes":"63","size_leaf_vector":"1"}},{"base_weights":[2.9609168E-8,-1.4535605E-5,3.7180746E-3,-2.9708854E-6,-3.788925E-3,7.2703133E-3,-1.4693019E-3,9.3782716E-4,-4.0886414E-5,-1.2539316E-3,-2.1100372E-2,1.5937515E-2,3.6464583E-3,-9.979918E-3,5.9042824E-3,1.0967047E-3,-8.049656E-3,5.250024E-5,-2.4095023E-4,8.577922E-3,-2.5946586E-3,-3.581874E-2,-2.9417004E-3,1.823784E-2,-1.6303003E-3,7.877299E-3,-6.5210126E-3,4.226222E-3,-1.773201E-2,2.2750063E-2,2.4491723E-3,3.561845E-5,1.7846077E-4,3.6715366E-5,-1.3953493E-3,3.1847042E-6,-1.8123664E-4,-1.2856821E-5,9.5616815E-5,-9.224089E-5,1.0435658E-3,-6.51083E-4,-3.11481E-5,-2.08788E-3,-4.009508E-4,-2.8153727E-4,8.828688E-4,8.122558E-4,2.2107097E-3,-3.5024493E-4,2.5348268E-3,7.1333227E-4,-3.412901E-5,-1.0966917E-3,5.853268E-4,5.92542E-4,-3.8973798E-4,3.8784422E-4,-9.937905E-4,-5.483935E-4,1.4404169E-3,-3.18567E-4,4.213512E-4],"categories":[],"categories_nodes":[],"categories_segments":[],"categories_sizes":[],"default_left":[0,0,0,0,0,0,0,0,0,0,0,0,0,0,0,0,0,0,0,0,0,0,0,0,0,0,0,0,0,0,0,0,0,0,0,0,0,0,0,0,0,0,0,0,0,0,0,0,0,0,0,0,0,0,0,0,0,0,0,0,0,0,0],"id":22,"left_children":[1,3,5,7,9,11,13,15,17,19,21,23,25,27,29,31,33,35,37,39,41,43,45,47,49,51,53,55,57,59,61,-1,-1,-1,-1,-1,-1,-1,-1,-1,-1,-1,-1,-1,-1,-1,-1,-1,-1,-1,-1,-1,-1,-1,-1,-1,-1,-1,-1,-1,-1,-1,-1],"loss_changes":[1.01448275E-1,8.145108E-2,1.347106E-1,6.63591E-2,2.5011465E-1,1.3622418E-1,1.8656306E-1,1.0291681E-1,3.3410374E-2,6.557552E-2,1.944643E-1,5.171624E-2,1.3172624E-1,1.5205057E-1,9.266329E-2,6.7293964E-2,2.184019E-1,5.018386E-2,1.9835107E-2,7.653262E-2,8.9978114E-2,6.6034794E-2,1.8212559E-2,5.782649E-2,4.225925E-2,1.182539E-1,2.531009E-1,4.48202E-2,4.8950464E-2,5.5673823E-2,6.9812454E-2,0E0,0E0,0E0,0E0,0E0,0E0,0E0,0E0,0E0,0E0,0E0,0E0,0E0,0E0,0E0,0E0,0E0,0E0,0E0,0E0,0E0,0E0,0E0,0E0,0E0,0E0,0E0,0E0,0E0,0E0,0E0,0E0],"parents":[2147483647,0,0,1,1,2,2,3,3,4,4,5,5,6,6,7,7,8,8,9,9,10,10,11,11,12,12,13,13,14,14,15,15,16,16,17,17,18,18,19,19,20,20,21,21,22,22,23,23,24,24,25,25,26,26,27,27,28,28,29,29,30,30],"right_children":[2,4,6,8,10,12,14,16,18,20,22,24,26,28,30,32,34,36,38,40,42,44,46,48,50,52,54,56,58,60,62,-1,-1,-1,-1,-1,-1,-1,-1,-1,-1,-1,-1,-1,-1,-1,-1,-1,-1,-1,-1,-1,-1,-1,-1,-1,-1,-1,-1,-1,-1,-1,-1],"split_conditions":[9.5445715E-2,2.1429727E0,3.5014728E-1,-1.098646E-1,6.087259E-2,-6.674752E0,4.6534637E1,6.087259E-2,6.8519283E-3,-3.0019136E-2,-4.5479494E-1,2.3752816E-2,2.1429727E0,1.704998E-1,4.3952343E-1,6.346575E-2,1.7273587E0,1.2629005E-1,2.6998273E-1,5.4500073E-2,-8.076408E-2,1.5977201E0,9.805017E-2,8.639906E-2,3.362305E-1,-2.2184694E-2,-1.257453E-1,2.3058448E-3,1.0148187E0,-2.2054343E-1,5.3988007E1,3.561845E-5,1.7846077E-4,3.6715366E-5,-1.3953493E-3,3.1847042E-6,-1.8123664E-4,-1.2856821E-5,9.5616815E-5,-9.224089E-5,1.0435658E-3,-6.51083E-4,-3.11481E-5,-2.08788E-3,-4.009508E-4,-2.8153727E-4,8.828688E-4,8.122558E-4,2.2107097E-3,-3.5024493E-4,2.5348268E-3,7.1333227E-4,-3.412901E-5,-1.0966917E-3,5.853268E-4,5.92542E-4,-3.8973798E-4,3.8784422E-4,-9.937905E-4,-5.483935E-4,1.4404169E-3,-3.18567E-4,4.213512E-4],"split_indices":[11,13,12,5,6,2,0,6,6,12,3,8,13,3,12,11,13,10,5,11,7,9,8,7,12,6,7,8,13,3,0,0,0,0,0,0,0,0,0,0,0,0,0,0,0,0,0,0,0,0,0,0,0,0,0,0,0,0,0,0,0,0,0],"split_type":[0,0,0,0,0,0,0,0,0,0,0,0,0,0,0,0,0,0,0,0,0,0,0,0,0,0,0,0,0,0,0,0,0,0,0,0,0,0,0,0,0,0,0,0,0,0,0,0,0,0,0,0,0,0,0,0,0,0,0,0,0,0,0],"sum_hessian":[1.873323E6,1.866014E6,7.309E3,1.860315E6,5.699E3,4.338E3,2.971E3,7.2068E4,1.788247E6,4.972E3,7.27E2,1.278E3,3.06E3,1.379E3,1.592E3,7.0817E4,1.251E3,1.219162E6,5.69085E5,5.96E2,4.376E3,4.01E2,3.26E2,1.13E3,1.48E2,2.161E3,8.99E2,4.87E2,8.92E2,2.7E2,1.322E3,6.1291E4,9.526E3,8.68E2,3.83E2,1.215463E6,3.699E3,5.6484E5,4.245E3,3.23E2,2.73E2,6.95E2,3.681E3,3.3E2,7.1E1,2.89E2,3.7E1,1.051E3,7.9E1,1.35E2,1.3E1,1.237E3,9.24E2,4.87E2,4.12E2,2.98E2,1.89E2,6.9E1,8.23E2,4.1E1,2.29E2,5.34E2,7.88E2],"tree_param":{"num_deleted":"0","num_feature":"14","num_nodes":"63","size_leaf_vector":"1"}},{"base_weights":[2.978189E-8,-1.3810363E-5,3.532987E-3,-2.823014E-6,-3.5997627E-3,6.908037E-3,-1.3956376E-3,1.5605646E-3,-2.4319235E-5,-2.8174924E-4,-1.5707847E-2,1.5144711E-2,3.46419E-3,-9.481214E-3,5.6096925E-3,1.738284E-3,-2.7203359E-2,-1.2276112E-3,-2.9904654E-6,8.695776E-3,-1.5864966E-3,-3.2055478E-3,-2.9135518E-2,1.25872055E-2,2.9827747E-2,7.483748E-3,-6.1955303E-3,4.015327E-3,-1.6846087E-2,1.7619861E-2,1.0971532E-3,9.9853416E-5,-2.568384E-4,-2.3006616E-4,-1.8649794E-3,-4.715654E-5,-6.928479E-4,-1.3386997E-6,5.9217517E-5,8.342886E-5,1.4687693E-3,-2.2227725E-4,2.0995813E-4,-2.7857744E-4,3.5602268E-4,-1.7309806E-3,8.6879666E-4,-3.3963213E-4,7.5509906E-4,1.9112449E-4,2.5522646E-3,6.776945E-4,-3.2424417E-5,-1.0419695E-3,5.561313E-4,5.63014E-4,-3.7035366E-4,3.6872906E-4,-9.4416115E-4,-3.9558383E-4,1.1480454E-3,-4.2863336E-4,3.4701632E-4],"categories":[],"categories_nodes":[],"categories_segments":[],"categories_sizes":[],"default_left":[0,0,0,0,0,0,0,0,0,0,0,0,0,0,0,0,0,0,0,0,0,0,0,0,0,0,0,0,0,0,0,0,0,0,0,0,0,0,0,0,0,0,0,0,0,0,0,0,0,0,0,0,0,0,0,0,0,0,0,0,0,0,0],"id":23,"left_children":[1,3,5,7,9,11,13,15,17,19,21,23,25,27,29,31,33,35,37,39,41,43,45,47,49,51,53,55,57,59,61,-1,-1,-1,-1,-1,-1,-1,-1,-1,-1,-1,-1,-1,-1,-1,-1,-1,-1,-1,-1,-1,-1,-1,-1,-1,-1,-1,-1,-1,-1,-1,-1],"loss_changes":[9.159931E-2,7.352118E-2,1.2160676E-1,6.251954E-2,2.2899184E-1,1.2302694E-1,1.6839361E-1,1.2903093E-1,4.709697E-2,5.243127E-2,2.057235E-1,4.7653466E-2,1.1889828E-1,1.3724007E-1,8.631548E-2,4.4627927E-2,3.519865E-2,1.1481644E-1,5.091876E-2,8.249259E-2,6.466277E-2,1.5577998E-2,1.5134978E-1,5.327356E-2,1.0408899E-1,1.0673338E-1,2.2847596E-1,4.046772E-2,4.42006E-2,5.9500486E-2,6.554582E-2,0E0,0E0,0E0,0E0,0E0,0E0,0E0,0E0,0E0,0E0,0E0,0E0,0E0,0E0,0E0,0E0,0E0,0E0,0E0,0E0,0E0,0E0,0E0,0E0,0E0,0E0,0E0,0E0,0E0,0E0,0E0,0E0],"parents":[2147483647,0,0,1,1,2,2,3,3,4,4,5,5,6,6,7,7,8,8,9,9,10,10,11,11,12,12,13,13,14,14,15,15,16,16,17,17,18,18,19,19,20,20,21,21,22,22,23,23,24,24,25,25,26,26,27,27,28,28,29,29,30,30],"right_children":[2,4,6,8,10,12,14,16,18,20,22,24,26,28,30,32,34,36,38,40,42,44,46,48,50,52,54,56,58,60,62,-1,-1,-1,-1,-1,-1,-1,-1,-1,-1,-1,-1,-1,-1,-1,-1,-1,-1,-1,-1,-1,-1,-1,-1,-1,-1,-1,-1,-1,-1,-1,-1],"split_conditions":[9.5445715E-2,2.1429727E0,3.5014728E-1,-9.961101E-2,3.217341E-2,-6.674752E0,4.6534637E1,7.81803E-2,-3.9059225E-2,-3.0019136E-2,5.6731205E-2,7.81803E-2,2.1429727E0,1.704998E-1,-5.3765127E-3,3.217341E-2,1.6956567E0,9.2659205E-2,5.266043E-2,6.901942E-2,1.5205002E0,3.0651093E-1,1.8901669E0,1.6339443E1,2.3524648E-1,-2.2184694E-2,-1.257453E-1,2.3058448E-3,1.0148187E0,-2.0797513E-1,5.3988007E1,9.9853416E-5,-2.568384E-4,-2.3006616E-4,-1.8649794E-3,-4.715654E-5,-6.928479E-4,-1.3386997E-6,5.9217517E-5,8.342886E-5,1.4687693E-3,-2.2227725E-4,2.0995813E-4,-2.7857744E-4,3.5602268E-4,-1.7309806E-3,8.6879666E-4,-3.3963213E-4,7.5509906E-4,1.9112449E-4,2.5522646E-3,6.776945E-4,-3.2424417E-5,-1.0419695E-3,5.561313E-4,5.63014E-4,-3.7035366E-4,3.6872906E-4,-9.4416115E-4,-3.9558383E-4,1.1480454E-3,-4.2863336E-4,3.4701632E-4],"split_indices":[11,13,12,7,6,2,0,6,6,12,11,6,13,3,10,6,13,10,11,11,9,4,9,0,12,6,7,8,13,3,0,0,0,0,0,0,0,0,0,0,0,0,0,0,0,0,0,0,0,0,0,0,0,0,0,0,0,0,0,0,0,0,0],"split_type":[0,0,0,0,0,0,0,0,0,0,0,0,0,0,0,0,0,0,0,0,0,0,0,0,0,0,0,0,0,0,0,0,0,0,0,0,0,0,0,0,0,0,0,0,0,0,0,0,0,0,0,0,0,0,0,0,0,0,0,0,0,0,0],"sum_hessian":[1.873323E6,1.866014E6,7.309E3,1.860315E6,5.699E3,4.338E3,2.971E3,2.5231E4,1.835084E6,4.474E3,1.225E3,1.278E3,3.06E3,1.379E3,1.592E3,2.5077E4,1.54E2,3.196E4,1.803124E6,5.67E2,3.907E3,6.35E2,5.9E2,1.09E3,1.88E2,2.161E3,8.99E2,4.87E2,8.92E2,4.34E2,1.158E3,2.4168E4,9.09E2,4.8E1,1.06E2,3.1257E4,7.03E2,1.767716E6,3.5408E4,4.24E2,1.43E2,2.615E3,1.292E3,5.17E2,1.18E2,5.28E2,6.2E1,1.25E2,9.65E2,8.5E1,1.03E2,1.237E3,9.24E2,4.87E2,4.12E2,2.98E2,1.89E2,6.9E1,8.23E2,7.5E1,3.59E2,4.36E2,7.22E2],"tree_param":{"num_deleted":"0","num_feature":"14","num_nodes":"63","size_leaf_vector":"1"}},{"base_weights":[2.9069133E-8,1.943867E-3,-2.2968308E-5,8.192628E-3,1.0178166E-3,-4.414057E-6,-1.4532426E-3,-4.716023E-5,1.6151676E-2,3.1874506E-3,-2.582756E-3,-7.6353586E-5,4.4493785E-4,-4.17102E-4,-8.702591E-3,1.6604032E-2,-5.329454E-3,2.025945E-2,-6.320092E-3,2.153019E-3,8.948138E-3,1.5162214E-3,-8.610357E-3,-6.641293E-3,-7.273465E-5,2.0120442E-3,2.6908543E-4,-5.585723E-4,1.0953194E-2,-1.609266E-2,-3.6264214E-4,2.3944039E-4,1.290853E-3,-6.611903E-4,-3.433898E-5,1.324596E-3,4.1488605E-4,9.472511E-5,-3.431715E-3,1.8174388E-4,-2.506699E-4,2.6354087E-3,3.6188742E-4,4.4375597E-4,-4.4726447E-5,-7.255221E-4,1.1922466E-4,-1.2805575E-3,-9.412248E-5,-1.2540745E-6,-2.7139793E-5,3.58105E-4,7.206009E-5,1.846555E-5,-1.05307685E-4,3.0871313E-5,-1.033112E-4,-1.2391036E-3,7.91402E-4,-1.1272755E-3,-3.55923E-4,3.2204532E-6,-1.9813587E-3],"categories":[],"categories_nodes":[],"categories_segments":[],"categories_sizes":[],"default_left":[0,0,0,0,0,0,0,0,0,0,0,0,0,0,0,0,0,0,0,0,0,0,0,0,0,0,0,0,0,0,0,0,0,0,0,0,0,0,0,0,0,0,0,0,0,0,0,0,0,0,0,0,0,0,0,0,0,0,0,0,0,0,0],"id":24,"left_children":[1,3,5,7,9,11,13,15,17,19,21,23,25,27,29,31,33,35,37,39,41,43,45,47,49,51,53,55,57,59,61,-1,-1,-1,-1,-1,-1,-1,-1,-1,-1,-1,-1,-1,-1,-1,-1,-1,-1,-1,-1,-1,-1,-1,-1,-1,-1,-1,-1,-1,-1,-1,-1],"loss_changes":[8.374357E-2,1.2674284E-1,4.913239E-2,1.8539788E-1,1.4904413E-1,5.9082955E-2,1.7809033E-1,1.22348E-1,1.3286829E-1,7.092309E-2,1.7726105E-1,3.743005E-2,6.95086E-2,3.337728E-2,1.827354E-1,3.6342457E-2,3.869427E-2,9.043428E-2,1.142806E-1,1.0721264E-1,1.3524075E-1,7.577746E-2,1.8841869E-1,7.831012E-2,3.5271253E-2,7.4803516E-2,5.3988412E-2,3.6333516E-2,4.4814236E-2,9.0872705E-2,2.3377098E-2,0E0,0E0,0E0,0E0,0E0,0E0,0E0,0E0,0E0,0E0,0E0,0E0,0E0,0E0,0E0,0E0,0E0,0E0,0E0,0E0,0E0,0E0,0E0,0E0,0E0,0E0,0E0,0E0,0E0,0E0,0E0,0E0],"parents":[2147483647,0,0,1,1,2,2,3,3,4,4,5,5,6,6,7,7,8,8,9,9,10,10,11,11,12,12,13,13,14,14,15,15,16,16,17,17,18,18,19,19,20,20,21,21,22,22,23,23,24,24,25,25,26,26,27,27,28,28,29,29,30,30],"right_children":[2,4,6,8,10,12,14,16,18,20,22,24,26,28,30,32,34,36,38,40,42,44,46,48,50,52,54,56,58,60,62,-1,-1,-1,-1,-1,-1,-1,-1,-1,-1,-1,-1,-1,-1,-1,-1,-1,-1,-1,-1,-1,-1,-1,-1,-1,-1,-1,-1,-1,-1,-1,-1],"split_conditions":[-1.8029782E-1,-7.484241E-2,1.8992822E0,1.8473847E0,1.1853333E0,3.383435E-2,4.2941567E-2,1.6339443E1,1.7902962E0,4.691387E1,1.7624128E0,-7.484241E-2,6.285248E-1,9.5445715E-2,-4.9217832E-1,1.3967912E0,1.0584992E0,2.1429727E0,2.6897073E-3,2.9809022E-1,-8.9362144E-2,-1.5447918E-1,-9.961101E-2,1.1939853E0,9.0986006E-2,-6.168209E-2,1.2629005E-1,3.5279397E-2,1.8706954E-1,-4.7836145E-3,9.5445715E-2,2.3944039E-4,1.290853E-3,-6.611903E-4,-3.433898E-5,1.324596E-3,4.1488605E-4,9.472511E-5,-3.431715E-3,1.8174388E-4,-2.506699E-4,2.6354087E-3,3.6188742E-4,4.4375597E-4,-4.4726447E-5,-7.255221E-4,1.1922466E-4,-1.2805575E-3,-9.412248E-5,-1.2540745E-6,-2.7139793E-5,3.58105E-4,7.206009E-5,1.846555E-5,-1.05307685E-4,3.0871313E-5,-1.033112E-4,-1.2391036E-3,7.91402E-4,-1.1272755E-3,-3.55923E-4,3.2204532E-6,-1.9813587E-3],"split_indices":[5,6,13,13,9,11,6,0,9,0,13,6,13,11,1,9,9,13,12,3,10,7,7,9,5,7,10,11,12,7,11,0,0,0,0,0,0,0,0,0,0,0,0,0,0,0,0,0,0,0,0,0,0,0,0,0,0,0,0,0,0,0,0],"split_type":[0,0,0,0,0,0,0,0,0,0,0,0,0,0,0,0,0,0,0,0,0,0,0,0,0,0,0,0,0,0,0,0,0,0,0,0,0,0,0,0,0,0,0,0,0,0,0,0,0,0,0,0,0,0,0,0,0,0,0,0,0,0,0],"sum_hessian":[1.873323E6,2.1903E4,1.85142E6,2.826E3,1.9077E4,1.827711E6,2.3709E4,1.389E3,1.437E3,1.1904E4,7.173E3,1.575483E6,2.52228E5,2.0745E4,2.964E3,3.34E2,1.055E3,1.215E3,2.22E2,1.0093E4,1.811E3,4.27E3,2.903E3,8.67E2,1.574616E6,2.5447E4,2.26781E5,2.0491E4,2.54E2,1.571E3,1.393E3,1.47E2,1.87E2,3.9E2,6.65E2,7.98E2,4.17E2,1.97E2,2.5E1,8.364E3,1.729E3,6.7E1,1.744E3,1.053E3,3.217E3,1.889E3,1.014E3,1.73E2,6.94E2,1.429681E6,1.44935E5,2.538E3,2.2909E4,2.176E5,9.181E3,1.1512E4,8.979E3,3E1,2.24E2,9.13E2,6.58E2,1.379E3,1.4E1],"tree_param":{"num_deleted":"0","num_feature":"14","num_nodes":"63","size_leaf_vector":"1"}},{"base_weights":[2.597493E-8,-1.2793248E-5,3.272374E-3,-2.770525E-6,-3.2839195E-3,5.9503126E-3,-2.371694E-3,-2.8937278E-5,1.1275953E-3,9.787322E-5,-1.3476998E-2,1.2568131E-2,3.111573E-3,-8.567244E-3,9.264902E-3,1.1025814E-3,-5.0184677E-5,8.437372E-3,7.7208545E-4,8.936845E-3,-1.2102261E-3,-3.2132097E-2,-5.503209E-3,1.6352918E-2,-5.122807E-3,6.3483734E-3,-5.3248173E-3,-1.4924736E-3,-1.30145885E-2,1.8628435E-2,-4.5679356E-3,3.0400028E-4,4.0794595E-5,-4.5146542E-5,-1.464114E-6,5.896886E-5,8.8164175E-4,8.534404E-5,-2.0531018E-4,-7.4572046E-5,1.0633538E-3,-2.0495425E-4,2.255387E-4,-2.0571619E-3,-2.1388606E-4,-5.4953044E-4,7.994554E-5,9.3382236E-4,-2.5102225E-4,-1.0019443E-3,1.2132062E-3,5.755975E-4,-5.878983E-6,-9.808455E-4,4.699864E-4,